
//<![CDATA[

// a few things don't have var in front of them - they update already existing variables the game needs
lanesSide = 3;
patchesAhead = 20;
patchesBehind = 5;
trainIterations = 100000;

var num_inputs = (lanesSide * 2 + 1) * (patchesAhead + patchesBehind);
var num_actions = 5;
var temporal_window = 0;
var network_size = num_inputs * temporal_window + num_actions * temporal_window + num_inputs;

var layer_defs = [];
layer_defs.push({
    type: 'input',
    out_sx: 1,
    out_sy: 1,
    out_depth: network_size
});
layer_defs.push({
    type: 'fc',
    num_neurons: 20,
    activation: 'tanh'
});
layer_defs.push({
    type: 'fc',
    num_neurons: 20,
    activation: 'tanh'
});
layer_defs.push({
    type: 'regression',
    num_neurons: num_actions
});

var tdtrainer_options = {
    learning_rate: 0.005,
    momentum: 0.0,
    batch_size: 64,
    l2_decay: 0.01
};

var opt = {};
opt.temporal_window = temporal_window;
opt.experience_size = 9000;
opt.start_learn_threshold = 3000;
opt.gamma = 0.9;
opt.learning_steps_total = 10000;
opt.learning_steps_burnin = 1000;
opt.epsilon_min = 0.0;
opt.epsilon_test_time = 0.0;
opt.layer_defs = layer_defs;
opt.tdtrainer_options = tdtrainer_options;

brain = new deepqlearn.Brain(num_inputs, num_actions, opt);

learn = function (state, lastReward) {
    brain.backward(lastReward);
    var action = brain.forward(state);

    draw_net();
    draw_stats();

    return action;
}

//]]>
    
/*###########*/
if (brain) {
brain.value_net.fromJSON({"layers":[{"out_depth":175,"out_sx":1,"out_sy":1,"layer_type":"input"},{"out_depth":20,"out_sx":1,"out_sy":1,"layer_type":"fc","num_inputs":175,"l1_decay_mul":0,"l2_decay_mul":1,"filters":[{"sx":1,"sy":1,"depth":175,"w":{"0":-0.03474673816368468,"1":-0.07179970536312848,"2":-0.21444540848497332,"3":0.33593826929556864,"4":-0.04381295820182404,"5":0.1514397402755415,"6":-0.1748137850804372,"7":-0.200469034986392,"8":-0.10786521848682414,"9":-0.16907438704671246,"10":0.33571869399610604,"11":-0.011043705898780828,"12":-0.0017899228908764514,"13":0.11194522690640474,"14":-0.026350319553871526,"15":0.008595464993913554,"16":0.03427997366296999,"17":0.47787986910628727,"18":-0.08312019470524333,"19":-0.05536608644195279,"20":-0.21404000475253643,"21":-0.15388698819604332,"22":0.10003350596345498,"23":-0.15684998003133996,"24":0.6635833497701072,"25":0.08840792109736044,"26":0.060004038742250146,"27":0.04184863010372975,"28":-0.11566246906088778,"29":0.10874810233944748,"30":0.18233232381735315,"31":0.664965730201363,"32":0.010433451083611772,"33":0.03869524603764969,"34":-0.05125489797904239,"35":0.09236862796732756,"36":0.08662251202154471,"37":-0.005080113894216089,"38":1.024242568535609,"39":-0.19240332600642446,"40":-0.10990292335127196,"41":0.006693964878574054,"42":-0.025403956498959403,"43":0.1376495842338642,"44":-0.005699935577914048,"45":0.8435494891847002,"46":-0.21098666387396928,"47":0.062282219743412304,"48":-0.00241842871342598,"49":0.008184004604241828,"50":-0.1202132738469859,"51":-0.017712999881241278,"52":0.9433218206745743,"53":-0.05645413225346088,"54":0.05240731893280046,"55":0.13027496883799397,"56":-0.032559898574295754,"57":-0.074626880021557,"58":0.20065070459541431,"59":0.9693816791767861,"60":0.08346106569002035,"61":0.011768226739537181,"62":0.14967076382701625,"63":0.06456422497555857,"64":-0.042047788952340626,"65":0.0680752974933682,"66":0.836909825221908,"67":0.17712094915789792,"68":-0.07480372113574979,"69":0.05630607978782917,"70":0.028163485834302428,"71":-0.12227869817960645,"72":0.1908935355464624,"73":0.8317636333842741,"74":0.22619663158060757,"75":-0.0381935981984286,"76":0.15545287956177564,"77":0.0401734894245892,"78":0.03402324810598537,"79":0.1864136569341835,"80":0.8093796058187473,"81":0.17975543861123608,"82":-0.08581879560510378,"83":0.09725016156457969,"84":-0.04222911438356447,"85":0.03137602982838049,"86":-0.1350802406623986,"87":1.5913630880012262,"88":0.3777827984978766,"89":0.18949100728938073,"90":0.016215851187526227,"91":-0.012677650466635094,"92":0.06610386798739941,"93":0.4438191275665686,"94":1.3013190474418188,"95":0.18615463222252893,"96":0.022764631181721746,"97":-0.03843650756224564,"98":0.04374325316708369,"99":0.08907968645698054,"100":0.34211947570681733,"101":0.9799727809969921,"102":0.10077393921883529,"103":0.01783822734832612,"104":-0.09314893451402598,"105":0.14646973788033146,"106":-0.2380065753326801,"107":0.08812689755515944,"108":0.8237198794862561,"109":-0.010279190190181798,"110":0.107322522738389,"111":-0.14213701072479498,"112":-0.012995987823560842,"113":-0.10401078271557698,"114":0.35730074823154484,"115":0.07775358382628778,"116":-0.08484026725912124,"117":0.011564317807604207,"118":-0.07960524418102322,"119":-0.013594475415152749,"120":0.019637717475620892,"121":0.04042613890209202,"122":-1.087787993835404,"123":0.045382485431463254,"124":0.011688707749504038,"125":0.12623619811193032,"126":-0.045234544794795904,"127":-0.0614782144108245,"128":0.2206804430263404,"129":-1.2177308282231816,"130":-0.11733166745450585,"131":0.05755382254740473,"132":-0.06365703221718381,"133":0.006092064567532161,"134":-0.036263878151433226,"135":0.10197022651152839,"136":-1.083505949678733,"137":-0.1780696579735251,"138":-0.24446311573092358,"139":-0.05262963633463333,"140":-0.0492579849872072,"141":0.044978989372281376,"142":0.15044897693067077,"143":-0.2158418032768924,"144":-0.1593196935977857,"145":-0.10043732382258971,"146":0.029478500381811067,"147":0.07127937399266739,"148":0.038668051174579984,"149":-0.0749660277848561,"150":-0.20169598382045428,"151":-0.09532195244406683,"152":0.1099914107683866,"153":0.0969690975602447,"154":0.052708378989083544,"155":-0.18488752473882655,"156":-0.22742568817362066,"157":-0.29541675492933983,"158":-0.04749550445909534,"159":0.07516583319612502,"160":-0.00989032229957813,"161":-0.04727213971515123,"162":0.016597519595333364,"163":-0.049015230261057224,"164":-0.4326206464119119,"165":-0.07199494505296573,"166":0.025577464115149856,"167":0.06328299079362867,"168":0.31194457190878067,"169":0.04974686209824805,"170":-0.25865357415144175,"171":-1.192152492292935,"172":-0.30207192527403265,"173":0.01158021059218226,"174":0.018261746182055637}},{"sx":1,"sy":1,"depth":175,"w":{"0":0.13419806929627634,"1":-0.24462697394589034,"2":0.13701670232672106,"3":0.15664350252332782,"4":0.07406069834206942,"5":-0.14695177925995243,"6":-0.07284802005372219,"7":-0.021383316561065933,"8":-0.04984307383185285,"9":-0.019374513383014397,"10":0.016295932253081936,"11":-0.03199633791988827,"12":-0.003380321768763441,"13":-0.02936527670633507,"14":-0.003380808063002162,"15":-0.11446844785166302,"16":-0.05870325030243414,"17":-0.032491083770269026,"18":0.03655140966076107,"19":-0.17784229586538342,"20":0.10177629260483828,"21":0.06634079407172123,"22":-0.11006214664854552,"23":0.02916074611703894,"24":-0.056905900258837086,"25":0.03812185674206042,"26":-0.10463309280922103,"27":-0.009042960695822588,"28":0.0859069886142226,"29":-0.11703569540795954,"30":0.043170425718709306,"31":0.07395344521685984,"32":-0.031434464488047875,"33":-0.1831631729084724,"34":-0.12292034279768815,"35":-0.08507961282723012,"36":0.08504008574641729,"37":-0.039473568463623966,"38":0.0764800997694854,"39":-0.08484025790260458,"40":-0.06373784510699709,"41":0.01052085733649283,"42":0.034718824620184906,"43":-0.14688716722314576,"44":0.04471549451853911,"45":-0.05083612998267751,"46":0.10786309483556883,"47":-0.017838877057197795,"48":-0.07016827348234522,"49":0.0011560519198618585,"50":-0.07624073568986742,"51":-0.022480145261567153,"52":0.03321748400327536,"53":0.0262510647461464,"54":-0.05418357025306072,"55":-0.0077727096072312775,"56":0.14202674356997289,"57":-0.1705976716797469,"58":-0.040518588922382276,"59":0.0018893646936456398,"60":-0.059751845013687105,"61":0.05420910825591926,"62":0.08423910667599323,"63":-0.022856348802432397,"64":-0.047703473238498904,"65":0.028252646288470767,"66":-0.11481214490421378,"67":-0.04549810597729409,"68":-0.05896984006752914,"69":0.03206637551855474,"70":-0.031020457262675504,"71":0.06106637249076491,"72":0.03418982799318308,"73":0.010002861708222796,"74":-0.0014491188647130122,"75":-0.00978690848020463,"76":0.041650376234400315,"77":-0.0861377021981694,"78":0.10495063082059278,"79":0.020448226362742142,"80":0.028361275827987892,"81":0.1394425983313326,"82":-0.008558602827038284,"83":-0.06612022931566557,"84":-0.003575203158634077,"85":-0.04087236280468667,"86":0.008217930599797956,"87":0.007223439716023222,"88":0.08708827879296155,"89":-0.07415140589940948,"90":-0.09311143508546088,"91":0.039634083846197946,"92":0.020494891112418014,"93":0.12900101716116716,"94":-0.0770561064297982,"95":0.09111654043850939,"96":0.010334047753240799,"97":-0.02473967630495149,"98":-0.0030513087272534467,"99":-0.14558045842197342,"100":0.14122672052318608,"101":-0.06348753987208636,"102":0.061124277834791706,"103":-0.020703020369869866,"104":-0.02443176861172789,"105":0.09536726731897982,"106":-0.06306565748237822,"107":-0.0301342735085575,"108":-0.01171559349679583,"109":0.10776673640588617,"110":0.00856225662834056,"111":-0.02338921690621024,"112":0.0477629994304312,"113":-0.010924450480387527,"114":0.040558686395915824,"115":-0.14130120262098605,"116":-0.08449731419018428,"117":-0.07392184576965917,"118":-0.1270940471355455,"119":0.06245832136252179,"120":-0.09824284229206029,"121":0.05519489532046835,"122":-0.014625912304748474,"123":0.17051528187551218,"124":0.02447967571226754,"125":0.06840127793800022,"126":-0.07269368661468228,"127":-0.1418089879825334,"128":0.08784110141489322,"129":-0.017927441886099214,"130":0.08379451086590774,"131":-0.00898725883620772,"132":-0.071646630186746,"133":0.007348971397979195,"134":-0.11396963695685634,"135":0.0345569728094918,"136":0.15071303012699444,"137":0.03471622383559972,"138":-0.062244492405323475,"139":0.007321096762668401,"140":0.020139921444664016,"141":-0.042206595900795084,"142":-0.07841805200710877,"143":-0.0132440553742606,"144":0.007190600754191023,"145":0.02814194976260777,"146":0.0361028070549495,"147":-0.07351025244849375,"148":0.10035177523252076,"149":-0.044737015662503,"150":0.0680212415500644,"151":-0.16061491017377985,"152":-0.045201238473885595,"153":0.02509564072574574,"154":-0.14399703949431977,"155":0.12443774306969439,"156":-0.16350134579327674,"157":-0.08764095203899384,"158":-0.06445905093454299,"159":0.012940167219670387,"160":0.0002214346583940718,"161":-0.0951028801117426,"162":0.05351063509544966,"163":-0.025929743601809732,"164":-0.07184336240155934,"165":0.03305197111970871,"166":-0.027967155137672096,"167":-0.12168712261977402,"168":-0.04012920714544089,"169":-0.05575337715809323,"170":-0.02449896254322106,"171":0.09056837725167087,"172":0.06754295051423939,"173":-0.028032291926860547,"174":-0.004978387958583749}},{"sx":1,"sy":1,"depth":175,"w":{"0":-0.0476235424298891,"1":-0.1278383014884909,"2":-0.1232063591947866,"3":-0.05867168798939405,"4":-0.056143605824703215,"5":-0.19362736531256494,"6":0.2042906562370557,"7":0.0024305907591803365,"8":-0.099224636149295,"9":-0.09991703553151306,"10":-0.027310235422071373,"11":-0.07538001419635014,"12":0.0012490447681759817,"13":-0.08608291714732008,"14":-0.06763398587606026,"15":-0.04657068899132174,"16":-0.0618162813151789,"17":0.02093224178689592,"18":-0.0233384845893327,"19":-0.006646987243687329,"20":0.07074241853340649,"21":-0.13522010475425714,"22":-0.18958727830846467,"23":-0.03872297649353671,"24":0.12971636041696954,"25":-0.13704290639404715,"26":0.10646998483647421,"27":-0.0020987861497087385,"28":0.0009130893711620902,"29":-0.13206486769506268,"30":-0.10861963691463744,"31":0.04925856608537624,"32":-0.09446889026242285,"33":-0.1284292144689732,"34":0.04040356478706169,"35":-0.07651647904393578,"36":-0.09887509541521203,"37":-0.009163497120187108,"38":-0.0436701749902214,"39":-0.10070988472255388,"40":-0.13501555298678636,"41":0.045509656454245845,"42":-0.06803291160592587,"43":-0.09819481967610139,"44":-0.10468561595782923,"45":-0.012714084352178578,"46":-0.107883795678715,"47":0.012938936257466654,"48":-0.07718946557402924,"49":-0.2209713996647541,"50":-0.18075966368666946,"51":0.004267500672502819,"52":0.052389052195049066,"53":-0.15978087742369693,"54":-0.0025211978777026733,"55":-0.050132412926090705,"56":-0.12954829830967232,"57":-0.06648009249490018,"58":-0.1648887373541613,"59":0.0038091218892883616,"60":-0.2100137269251797,"61":-0.012376450737105724,"62":0.06990751982407244,"63":-0.15904846967293695,"64":0.026936128195578547,"65":-0.058150930656505374,"66":0.13551943354826174,"67":-0.1328441250810229,"68":0.13135391174929595,"69":-0.03893939747946286,"70":-0.09865840745866038,"71":-0.17154098279716723,"72":-0.12458786651900722,"73":0.1764341556948708,"74":-0.2795371208566836,"75":0.03140280908613312,"76":-0.047906495263737726,"77":-0.08458503992720783,"78":-0.10432225833576446,"79":-0.1638180297410754,"80":0.2406603779717815,"81":-0.2894086758900842,"82":0.01526553342806618,"83":-0.05360124155333356,"84":-0.0538817868069101,"85":0.04571567399378203,"86":-0.07695377889123596,"87":0.20457854923547975,"88":-0.31564860767214625,"89":-0.07881265365238045,"90":-0.058616950080149485,"91":-0.06555259380382387,"92":-0.11369157488978414,"93":-0.04036460885909455,"94":0.05233525421535684,"95":-0.15367298662749268,"96":0.07209110679674205,"97":0.04630886385516569,"98":-0.0908490281791509,"99":-0.029062736780175104,"100":-0.164512987126011,"101":-0.08636650999018955,"102":-0.04107627040586307,"103":0.04076135556054917,"104":-0.19303510095865006,"105":-0.12821565300776247,"106":-0.019911825710545894,"107":-0.039532074100501816,"108":-0.08314186233189368,"109":-0.014208245923523825,"110":-0.15382105477144695,"111":-0.15311844292176535,"112":0.0020276130923253142,"113":-0.04015653008837485,"114":-0.008260608435031722,"115":-0.1276322929657778,"116":0.07182467503352816,"117":-0.04300628419097719,"118":-0.2014252877352718,"119":0.07467492311260923,"120":-0.11059898991680309,"121":0.008993896559488183,"122":0.1332222526765691,"123":0.01709170891437789,"124":-0.14225582969954337,"125":0.04094101706528015,"126":0.1169071740841256,"127":-0.061603216458099505,"128":0.031674679716545834,"129":0.009648648171886029,"130":0.049435687186480934,"131":-0.1531685715958477,"132":-0.11259294750516131,"133":0.05910158662796605,"134":-0.0758178132559016,"135":-0.020404195957920965,"136":0.1544613080951107,"137":0.02470599081971394,"138":-0.018441624500519154,"139":-0.06552868833618589,"140":0.00076023704051601,"141":0.030303418420082745,"142":-0.07159605475811717,"143":0.1246645422167718,"144":-0.13427433338834607,"145":0.02598977798192312,"146":-0.0016653124709069755,"147":-0.021566671991879994,"148":0.041489984582542924,"149":-0.11125909870471766,"150":0.137026444306044,"151":-0.18764983986625267,"152":0.07244663596987078,"153":-0.18682003345898252,"154":0.048902310580673625,"155":-0.1254529634175175,"156":-0.13659692362894865,"157":0.08642013065996622,"158":0.007271038875308316,"159":-0.10336609137991785,"160":-0.09197674953049052,"161":0.08789945583035048,"162":-0.06885966107193182,"163":-0.05083177918441823,"164":0.1409273738038953,"165":-0.03145134665753528,"166":-0.037586850555881575,"167":-0.11259052744076235,"168":0.1265181491206757,"169":-0.07000751828105042,"170":0.03780293199652548,"171":0.01426338812470241,"172":0.1006282923426739,"173":0.13095951189682728,"174":-0.048153273262596163}},{"sx":1,"sy":1,"depth":175,"w":{"0":0.010832088629168114,"1":-0.07218101484496,"2":0.0956080927795033,"3":0.05324927417397846,"4":0.012172457950159485,"5":0.05816650163951411,"6":-0.03929407033098851,"7":0.06205721792240013,"8":0.06638627589958547,"9":-0.07278664143714571,"10":-0.052269927534849124,"11":-0.091063305137343,"12":0.03364467378657544,"13":0.08775255010260803,"14":0.0339660480178813,"15":0.0747908944633126,"16":0.011489917334121918,"17":0.022232181834797356,"18":0.06047799136645537,"19":0.034406624285293105,"20":-0.08799832716359275,"21":-0.04136034224199584,"22":0.05076106211517022,"23":-0.0908680801793989,"24":0.0055747678818798,"25":-0.019662467493821764,"26":0.02888296520814756,"27":0.06636806827696172,"28":-0.024130871576253644,"29":-0.08960333233977925,"30":-0.08542989859917509,"31":0.039428990927217335,"32":-0.029338595522254898,"33":0.11755616895781103,"34":0.14227589803115076,"35":0.09035378744861705,"36":0.09309462092006152,"37":0.09170693638243113,"38":0.10060303675990906,"39":-0.03364966818311808,"40":0.008480159982024666,"41":-0.0680876710457656,"42":0.04551410495320575,"43":-0.038976296046613075,"44":0.062704836349553,"45":0.03269961393236565,"46":0.08270616990039732,"47":0.014753345917508725,"48":0.04148187348857704,"49":0.07251134778280269,"50":0.031189514796625847,"51":-0.05194284539933476,"52":0.04376622371742133,"53":-0.0639582377428211,"54":-0.03400926890189141,"55":0.021261594434100334,"56":-0.057665603466095824,"57":0.004714648745557394,"58":0.08120420930872888,"59":0.03545371026475305,"60":0.024037830646709942,"61":0.01977055776076554,"62":0.054120216598850884,"63":-0.017749787879326243,"64":-0.01108897430815581,"65":0.13321638728299126,"66":0.04859986015340192,"67":0.00823231850794616,"68":0.024130610024222683,"69":0.06292390120425868,"70":-0.059247222928372666,"71":0.0073076774804223645,"72":-0.05231081656699811,"73":-0.008654704475371838,"74":0.004758052657647043,"75":0.0750872114871189,"76":-0.019884292113991626,"77":0.09412501378506909,"78":0.02001912549797809,"79":0.047044430929037914,"80":0.14892055269002683,"81":-0.05637631346227852,"82":0.056232806893417066,"83":0.18528938402453424,"84":0.046739570220590276,"85":-0.015394048524784773,"86":-0.08665813303293768,"87":0.0597614963365629,"88":-0.10419650555560184,"89":-0.04803445207110671,"90":0.12985875664731694,"91":-0.033026462503358354,"92":-0.04157981343223389,"93":-0.01617457868266966,"94":0.06473423768148295,"95":0.07066012079054858,"96":0.07219706023043275,"97":0.07755352055209067,"98":0.0676517569798463,"99":0.0791402966200919,"100":0.10451283323533585,"101":-0.019578586784564565,"102":0.00837169475338324,"103":-0.025871658693464205,"104":0.02417101436125991,"105":0.034167696949238796,"106":0.04408565906502112,"107":0.00011355934936516851,"108":0.07452199876656689,"109":-0.030734784154420932,"110":-0.03196905072960136,"111":0.08813481329545202,"112":-0.08896819472327569,"113":0.05953958746820094,"114":-0.012540447045215232,"115":-0.08147075858628958,"116":0.0734250274238238,"117":-0.02893038233697908,"118":0.059588054761026986,"119":-0.007766491783256609,"120":-0.08486912977753054,"121":0.03679401132305126,"122":0.06519611096680357,"123":0.2528588675052402,"124":-0.07331821926253701,"125":0.062595677732343,"126":0.03725573337931119,"127":-0.027525882867162454,"128":-0.03867006288728563,"129":0.09707612727259071,"130":0.06402244579108148,"131":0.02361556830511093,"132":0.008876418353323806,"133":-0.01814320984080708,"134":-0.03371521113763859,"135":0.010422275988892395,"136":-0.04983894312013559,"137":0.03709441816957348,"138":0.03187094039914055,"139":0.019317079583777486,"140":0.08081265540255159,"141":0.0793751028087266,"142":0.0896523847978166,"143":0.20338776021678043,"144":0.032101163477334584,"145":0.044535775108169,"146":0.06153685230734683,"147":0.08127828182950712,"148":0.06322329228859534,"149":0.008506122683538229,"150":0.09092433263638021,"151":0.1371962724563884,"152":-0.008415110272237784,"153":0.019369261831216896,"154":0.11315331215975091,"155":0.10463094394947194,"156":0.03033444445611865,"157":0.13754763212242332,"158":-0.06626535084485595,"159":-0.040504603348931204,"160":-0.031967520721331785,"161":0.0004414322981993614,"162":0.018979573221777242,"163":0.08865581683886707,"164":0.13041500357198768,"165":-0.08825652307845117,"166":0.06485613091188903,"167":-0.08156974566235563,"168":0.08386724201593862,"169":0.14240073190402067,"170":0.053134436719517474,"171":0.09468586694273061,"172":0.020422368485305955,"173":0.053043558273098305,"174":0.031170308891888574}},{"sx":1,"sy":1,"depth":175,"w":{"0":0.2069553166262893,"1":0.020865082803032422,"2":-0.10642231058355467,"3":-0.0599584647796569,"4":0.10166756963658555,"5":0.020837617897326906,"6":-0.06560972079624414,"7":0.038601414224466196,"8":0.000548869649221708,"9":0.05105290601016109,"10":-0.2224185878745709,"11":0.08728181721142995,"12":-0.03971517994632692,"13":-0.023126818983446294,"14":0.11504260596728579,"15":-0.11309053279304701,"16":0.1732806706235833,"17":0.2239435019238064,"18":0.08517232329247018,"19":-0.06826168297972372,"20":0.08898149106811251,"21":-0.03021837485046433,"22":0.00029575611270011177,"23":-0.0873973058875175,"24":-0.09423034848323984,"25":0.12616164170208083,"26":-0.03841503566893338,"27":0.07818165498848106,"28":-0.015606290237758218,"29":-0.14610672943529604,"30":-0.06980424632390803,"31":-0.14391991990096636,"32":-0.022893537843532156,"33":-0.04055004570097303,"34":0.1472226051010762,"35":0.10182879339373027,"36":-0.061642184038596386,"37":0.19611610216992334,"38":-0.42476063057927893,"39":0.08477357646086071,"40":0.1273128345416657,"41":0.10524105985168453,"42":0.014426400665211255,"43":-0.13538461709639849,"44":0.04324907946100574,"45":-0.1316638547060578,"46":-0.12000275443977244,"47":-0.07264571217274429,"48":0.0025553903393740716,"49":0.022105165443973812,"50":-0.0528394308334463,"51":-0.04621126878776445,"52":-0.25139146709033683,"53":-0.28133433779266065,"54":0.13595766020105182,"55":-0.06912184847220941,"56":0.02441135508784817,"57":-0.07274170094999281,"58":-0.3536923524693908,"59":-0.3422707949790059,"60":-0.31590067698955554,"61":-0.1396729522952005,"62":-0.17839010580560277,"63":0.2014858130952364,"64":0.03915087065902806,"65":-0.008012110938414543,"66":0.15002883827791824,"67":-0.033186960132675566,"68":0.011203689488619838,"69":0.028465847001341117,"70":-0.016208634281463925,"71":-0.17363994330969693,"72":-0.11322685254283486,"73":0.1017510803069776,"74":-0.08571849781142167,"75":-0.11692241503362501,"76":-0.21391998099545725,"77":0.09716188221334435,"78":0.0918372354795084,"79":-0.2083654060120588,"80":-0.2568180279647795,"81":-0.19105681996666934,"82":-0.006118806871162449,"83":-0.2027501192654963,"84":-0.013316318607193685,"85":0.1090982972321936,"86":-0.2857245012275568,"87":-1.0377004889077772,"88":-0.16919394304147017,"89":-0.010021227334070397,"90":-0.04015689624788247,"91":-0.08528437408849435,"92":0.05840687972576842,"93":0.2175916239284027,"94":-0.42677821675215416,"95":0.22655592012525824,"96":-0.01818470407695321,"97":0.050619940110546637,"98":-0.06356078176436748,"99":0.0006053323762261022,"100":0.16696846735065973,"101":-0.9840778536584952,"102":-0.025325885838162497,"103":0.030395753128283822,"104":0.0037007717950845293,"105":-0.12394963377880934,"106":-0.12167878503751864,"107":0.061606949228472936,"108":-0.42038891808019524,"109":-0.16059567195876367,"110":-0.06741633237476495,"111":-0.07135297138277902,"112":0.09749562740115668,"113":0.07111567000455465,"114":-0.1475578890811221,"115":0.8790657209636868,"116":0.024737347840666887,"117":-0.022233846310738294,"118":0.07307804464107917,"119":0.0028312209427469484,"120":-0.22839019375826186,"121":-0.13225703153413793,"122":1.4763482552244709,"123":-0.21721390860091783,"124":0.16111574530699846,"125":0.027802589665256047,"126":-0.06047601916499704,"127":0.24744353363561752,"128":-0.005219411499294021,"129":2.4251920960663003,"130":0.018441417980175845,"131":0.062303596709285224,"132":-0.050175830182915056,"133":0.04590155442959158,"134":0.043645421078419205,"135":-0.058845942952770604,"136":2.364974578285866,"137":0.1823445746387539,"138":-0.10648610034243594,"139":0.040820512349219414,"140":-0.05040512002529246,"141":-0.08840813939673008,"142":-0.04242684546132806,"143":-0.43673341711203645,"144":0.17659331335609738,"145":-0.18349471834930173,"146":0.004923327807295787,"147":0.03645538799087069,"148":0.10732040511542237,"149":-0.11434181180188367,"150":-0.46515933490136485,"151":-0.1837056503064396,"152":-0.046171430448225574,"153":0.020563746252051804,"154":-0.008498106013289281,"155":0.24169927853923132,"156":0.13819060060354516,"157":-0.2785231645799517,"158":0.13522630447922315,"159":-0.044884378363685716,"160":0.012697047439888611,"161":-0.055475736328432515,"162":-0.058699687987252,"163":0.13601010581824768,"164":-0.5566453006782071,"165":0.229551659067139,"166":0.16708785594229772,"167":0.26757403322957796,"168":0.17658888315635193,"169":-0.03642942649747358,"170":0.19307130472110656,"171":2.2788491255929584,"172":0.2294202836130964,"173":0.067689832824961,"174":0.06203565998109404}},{"sx":1,"sy":1,"depth":175,"w":{"0":-0.11339597695839762,"1":-0.16200154909047765,"2":0.4972705496157513,"3":0.2501823135436971,"4":0.23119870357704353,"5":0.08424735924395534,"6":-0.005187317385040973,"7":-0.11782925435008129,"8":0.026505115688218166,"9":0.4733337561849631,"10":0.1519996153407817,"11":0.24703583978865643,"12":0.10212122157511229,"13":-0.16109404816557876,"14":-0.2379310214848277,"15":0.2626879166149156,"16":0.5051803497212219,"17":-0.0627090405217401,"18":0.20436802526847161,"19":0.09620164056626379,"20":-0.14272132603328946,"21":-0.16970834394987447,"22":0.1550343777294039,"23":0.2868470569676826,"24":0.08927104901527318,"25":0.17602658793729903,"26":0.08255644239477969,"27":-0.02503565796453235,"28":0.17790251135613586,"29":-0.19919074172184198,"30":0.02017488005136227,"31":0.24983601295881389,"32":0.168164589604871,"33":0.10174425126199056,"34":0.01600657202218717,"35":-0.073014422002924,"36":0.0020240953570210994,"37":0.23303186812912535,"38":0.41063871970063653,"39":0.10599848696287743,"40":0.07529675881215349,"41":0.007288137353797556,"42":0.0627860988811837,"43":0.016664412955894364,"44":0.2185076790304144,"45":0.07979899113875444,"46":0.11350620970092243,"47":0.08598588144795277,"48":-0.0033148209099517945,"49":-0.08785310304585917,"50":-0.23218580841020145,"51":0.17072287357388363,"52":0.4301296047201462,"53":0.08873546952143764,"54":0.19270667534814187,"55":-0.10783040794195095,"56":-0.05891659401791374,"57":0.006065068404739357,"58":0.031905561327571,"59":0.5261440311277137,"60":-0.05033904737875684,"61":0.14400144977272458,"62":-0.006147808167748495,"63":0.11993385290356806,"64":-0.08576185120434784,"65":0.19826754162456733,"66":0.4179259686050474,"67":0.24196734022950253,"68":0.24115836778981126,"69":-0.013077392859317126,"70":0.04214680727164048,"71":0.08457238782346524,"72":0.47686879847220126,"73":0.6046004328016706,"74":0.22475984128187887,"75":0.08064084730347652,"76":-0.10944022332139937,"77":-0.005345807316642887,"78":0.18629743733863482,"79":0.16768912372369854,"80":0.38980411399930065,"81":0.22351566793717395,"82":0.029028882806432548,"83":0.02945012936754742,"84":-0.02722041354056836,"85":-0.015161405798721116,"86":-0.1539738469748187,"87":0.30437212513047,"88":-0.21674428819370478,"89":-0.16654466278919025,"90":-0.06171931406591536,"91":-0.15338517876003532,"92":0.054789988691348254,"93":0.2731574371101356,"94":0.31457276434252845,"95":0.18216289629538857,"96":-0.03486112933787792,"97":-0.14610769700148116,"98":-0.20493923847966963,"99":0.09857127398219086,"100":0.03472847405631806,"101":-0.18905051846166976,"102":-0.12599647984642542,"103":0.14706991274286266,"104":-0.16702284129625528,"105":-0.2693355403622741,"106":0.03984663183211173,"107":-0.10124613673384646,"108":-0.20349882506134082,"109":0.05647439605665368,"110":-0.17400969657671136,"111":-0.05460459139571238,"112":-0.19424678322386607,"113":-0.14197418333144493,"114":-0.09548680143729366,"115":0.017001275121308647,"116":-0.21182863556183065,"117":0.06496754002719748,"118":-0.037602964386393524,"119":-0.07023008149653233,"120":-0.12568386514896798,"121":-0.22506931074089637,"122":0.19474067129808395,"123":0.05954295603273814,"124":0.07847749756103903,"125":-0.29107386990976664,"126":0.07811963051152637,"127":0.11289955108076659,"128":-0.380036635353086,"129":0.7829933506174489,"130":-0.30169329681624757,"131":0.20095476655480915,"132":-0.07744767183954196,"133":-0.04688548185099482,"134":-0.1471676341190808,"135":-0.42709161293619097,"136":0.9320229178479528,"137":-0.3030479024709864,"138":0.17591713731786082,"139":-0.08675646977255976,"140":-0.07810148838565013,"141":-0.07548257285041382,"142":-0.4345873283588371,"143":-0.5714151205962626,"144":-0.4397122957961297,"145":0.10674336228300835,"146":-0.07618832950580234,"147":-0.13211557602979743,"148":-0.13284948576272843,"149":-0.33933248201183697,"150":-0.5348851616580509,"151":-0.17284136502383068,"152":0.41380992348802553,"153":-0.19421278554438898,"154":0.06572869934174007,"155":-0.16210683398872736,"156":-0.3486489125648654,"157":-0.5467718344423095,"158":-0.26422007752338406,"159":-0.11877152937256737,"160":-0.16042568014122027,"161":0.0029526326472304695,"162":-0.19162498357628,"163":-0.3905260592402844,"164":-0.3714527919875709,"165":-0.48449426942384194,"166":0.004720315617473145,"167":0.2221966641716321,"168":-0.03938788100654721,"169":-0.38761893462817143,"170":-0.8066907787191256,"171":0.751871656679453,"172":-0.9546816399843305,"173":0.2229444798389794,"174":0.20974556357448332}},{"sx":1,"sy":1,"depth":175,"w":{"0":0.06572901131689134,"1":0.019735640874001897,"2":-0.09913324609022439,"3":-0.1062504393937413,"4":0.204835764172351,"5":0.08497110696305175,"6":0.09521597994631761,"7":0.11621199985203405,"8":-0.2720543995933838,"9":-0.09117803415431676,"10":-0.08128354543577773,"11":0.13803965668297669,"12":0.024892044906022325,"13":0.09411985931160535,"14":-0.13089936322605428,"15":0.010170989962869158,"16":0.07297235736449506,"17":-0.1326892941977202,"18":0.03489078326672506,"19":0.03523875887038542,"20":-0.05216848052326021,"21":0.15020881651690246,"22":-0.049292486872260746,"23":0.09897675578938618,"24":-0.08328859341353369,"25":0.20131983116476349,"26":0.05774464407912928,"27":0.25208356060136333,"28":0.08265326355334301,"29":0.09486665571675848,"30":0.07435469626348494,"31":-0.18101835171096467,"32":0.26477485330674777,"33":0.10742338218140997,"34":-0.2009085515733223,"35":-0.2633656849337889,"36":-0.08799010280464713,"37":0.051116800514549844,"38":-0.2664667919115236,"39":0.14838996757082373,"40":0.2017585937646012,"41":0.1029329363602441,"42":0.026138413134147602,"43":0.035037025495675514,"44":-0.1081279221199778,"45":-0.032817745078773164,"46":0.09107012767625644,"47":0.13828732275986264,"48":-0.22322109139698257,"49":0.12740647102373312,"50":0.07988370472793026,"51":-0.21700085397515184,"52":-0.3188398097460023,"53":0.16490552249597878,"54":0.11861211307333083,"55":-0.042002010604588566,"56":-0.047863248940084785,"57":0.09053150515560318,"58":-0.10431486749914065,"59":-0.36982233902228834,"60":0.3825844500147808,"61":0.021041701077678922,"62":0.006678404438704287,"63":0.045181931876608024,"64":-0.0946216766917221,"65":-0.028910353165695023,"66":-0.09018328304916563,"67":0.5858850495910175,"68":0.1954113133982726,"69":-0.026080158560383395,"70":0.059898053311734825,"71":-0.19500343788781496,"72":0.16020878459488985,"73":-0.561739892043622,"74":0.06336040545294486,"75":0.0830610263634489,"76":-0.16340904286711458,"77":-0.04720526154194312,"78":-0.10730629238248758,"79":-0.16419492780119557,"80":-0.604052976607982,"81":0.4332918219872788,"82":0.09453780408372335,"83":0.056983737655884055,"84":0.07242810089048414,"85":-0.1223954460725558,"86":0.09360424601344178,"87":-0.8221114959002619,"88":0.5396699135847924,"89":0.09027270944769808,"90":0.29167495283968464,"91":0.0010740861660642883,"92":0.18653715780773525,"93":0.11117722211805557,"94":-0.5337972692436588,"95":0.5043920523052843,"96":-0.24701662968309643,"97":-0.049425890543634596,"98":-0.12725458933723596,"99":-0.24110780102487578,"100":-0.02656768389850831,"101":-0.329772171612207,"102":0.909295885799689,"103":0.03778559295918426,"104":0.060886808178153305,"105":0.09270535263569711,"106":-0.13657571685280287,"107":0.07199619732464438,"108":-0.54329682717629,"109":0.7831410815821301,"110":-0.013954453005138312,"111":-0.17748389783761262,"112":0.00825321318261108,"113":0.07655540713113142,"114":0.1438754692613075,"115":-0.32149481218987086,"116":0.942179593399616,"117":-0.07777858879887374,"118":-0.20272527529872064,"119":0.07337539437310027,"120":-0.11782769191579796,"121":0.06717388626669553,"122":-1.7464194846403758,"123":0.7644787601633963,"124":-0.16512293716740928,"125":0.017651867063852578,"126":0.05592240173706594,"127":-0.05804690086611697,"128":-0.2610166952542168,"129":-2.2734703423245715,"130":1.0988840537616322,"131":0.017378048229366734,"132":0.14281238366337085,"133":-0.1790868681197252,"134":0.21664811119063743,"135":-0.008739594200911242,"136":-2.110560528927374,"137":1.080961746664346,"138":0.1343010507606765,"139":0.01584356030167808,"140":0.03457380936691875,"141":0.10049639721996625,"142":-0.08661081934120382,"143":-0.10059874123698354,"144":1.6476559078760202,"145":-0.24216529275160525,"146":-0.15427035818409182,"147":0.031428041505912246,"148":0.14435919836767916,"149":0.02032523644448183,"150":-0.1002257895997651,"151":1.0069376034884465,"152":0.008158513292031452,"153":0.25129049343828336,"154":-0.037476190902053966,"155":0.006437232234830471,"156":-0.1820351243819485,"157":-0.07325851124145003,"158":1.0553578836826283,"159":0.20272608437039716,"160":0.06859231639957614,"161":0.0540935498785487,"162":0.08291668460020372,"163":-0.004692435143952666,"164":-0.0019467588641027703,"165":0.9768989809026415,"166":0.0901268957309821,"167":0.12721822329902932,"168":-0.22623155164821115,"169":0.1523110733947574,"170":0.006030714261225892,"171":-1.8935129957148458,"172":2.1379762746761717,"173":-0.1977406917031743,"174":-0.19440881690200235}},{"sx":1,"sy":1,"depth":175,"w":{"0":0.08256523549936119,"1":-0.23104624558035067,"2":-0.34835429243719707,"3":-1.0058071647878117,"4":-0.40285821507327907,"5":-0.10896555003009027,"6":-0.002344975921700439,"7":0.030745259636008326,"8":-0.10609246673095953,"9":-0.2187112838831302,"10":-0.22395774777392427,"11":-0.21059502436037483,"12":-0.0711998615781368,"13":0.0887569413891032,"14":-0.10781628798182157,"15":0.11805642454904397,"16":-0.06594910222981544,"17":-0.12138798182836229,"18":0.023307374008963454,"19":-0.004103627541666873,"20":0.03810169357863443,"21":0.17890501465631894,"22":0.018944224753106878,"23":0.05303981597759772,"24":-0.3841394902906318,"25":-0.1614694865343005,"26":0.11977377376416808,"27":0.02349312825272193,"28":0.06781778976973167,"29":-0.029837461950789738,"30":-0.34413328731011683,"31":-0.7104120053708631,"32":-0.30932014063036534,"33":-0.1557561670935108,"34":0.0859649605288349,"35":0.06185449733507202,"36":-0.040354253814526723,"37":-0.0902874939743977,"38":-0.3649436131655748,"39":-0.1727850430795249,"40":0.022732057710315477,"41":-0.039804609653749046,"42":0.035601967859370795,"43":-0.15906847113929032,"44":-0.17063977233925348,"45":-0.1042984701786246,"46":-0.07394902256968985,"47":-0.13694220604132182,"48":0.013973842084371333,"49":-0.08250068600243884,"50":0.007238353197381405,"51":-0.21058906106615938,"52":-0.10472906056124477,"53":-0.10156440999959189,"54":0.055203500537231026,"55":-0.04327558228199873,"56":0.02142437569571568,"57":0.0500822508827059,"58":-0.18651939741480658,"59":-0.3194803838647846,"60":-0.11903718577348418,"61":0.04345740526254002,"62":0.022777653867087466,"63":-0.055718054683617235,"64":0.0687704094861731,"65":-0.05586717329768848,"66":-0.9379356835349728,"67":-0.009219659195990623,"68":-0.12372403151805889,"69":0.008777775385520176,"70":0.041101565652624884,"71":-0.08935404307878773,"72":-0.05502963126616056,"73":-0.9315346820984212,"74":-0.053088005716125417,"75":-0.20318799381053984,"76":0.1128890748818959,"77":-0.11084808687363132,"78":0.3497715200518673,"79":0.01562954665425399,"80":-0.5784223891292294,"81":0.09100163050380329,"82":-0.09252972048448854,"83":-0.002562398579756664,"84":0.08350547017188084,"85":-0.07429893233920495,"86":-0.35601153273654457,"87":-0.20517585144946887,"88":-0.05800297547387028,"89":0.08335036954082975,"90":0.015008016264550488,"91":0.09509123640474645,"92":0.003012250512978515,"93":0.19878058340040253,"94":-0.8655799655255254,"95":-0.14637446203996976,"96":-0.009879664012337466,"97":-0.004345886785023976,"98":-0.13763543013532126,"99":0.11341027218083244,"100":0.08551729485369734,"101":-1.569241911430944,"102":0.028064157904417828,"103":-0.16471662824331948,"104":-0.010708622997413257,"105":0.008846700743106,"106":0.045347645104347946,"107":0.030213694825046617,"108":-1.4087266707005242,"109":0.255158661824435,"110":0.28527260819687134,"111":-0.056705493883428874,"112":0.018297427536266158,"113":0.012589890260877515,"114":0.2178139310770507,"115":-1.7560381844345716,"116":0.09579891474771679,"117":0.0032786388093421362,"118":0.07780646779394491,"119":-0.12255656963473616,"120":-0.1568795329015106,"121":-0.014960023712240898,"122":0.8145478096905154,"123":0.22391433313144626,"124":-0.01915350993787045,"125":-0.14843700061994733,"126":0.12154917965162788,"127":0.1401300475918964,"128":0.21875786298101269,"129":1.7771273957282776,"130":0.08847719299461711,"131":0.14624639055538788,"132":0.13781167506376693,"133":-0.08386118735083227,"134":-0.08654243413557695,"135":0.1504165697114424,"136":1.7558389738861926,"137":0.17350160055218758,"138":0.011850311796575167,"139":0.03012402675580642,"140":-0.11418791806078214,"141":-0.01030527934838504,"142":0.3032953452890428,"143":0.19283359534449906,"144":0.18211566124539239,"145":0.0742689605233148,"146":-0.004651552336302688,"147":0.1119304651764841,"148":0.1360489030712414,"149":0.18872265058536164,"150":0.15129459671720122,"151":0.1216444785505964,"152":-0.002563576528415849,"153":0.0009748466831427842,"154":0.10902516745782592,"155":-0.0867608102086102,"156":0.25512817850407216,"157":0.2544335638172069,"158":0.0643796799487172,"159":-0.10339570986980473,"160":-0.12107564400276079,"161":0.042113428645292786,"162":-0.16094642407748952,"163":0.09735277603170668,"164":0.040196538034122015,"165":0.06429237494780275,"166":0.17853122253688333,"167":0.023240705944293064,"168":0.04979847283295327,"169":0.01692035448564638,"170":0.14753543187367463,"171":1.605457851511576,"172":0.23099708652656878,"173":-0.1145154910403771,"174":-0.08623484210351429}},{"sx":1,"sy":1,"depth":175,"w":{"0":0.020956254281390453,"1":0.058734141090585966,"2":0.1361028766005687,"3":0.03626122123068649,"4":-0.10329390629649324,"5":-0.001910766836424513,"6":-0.1708935251538168,"7":0.11799752944289603,"8":-0.10725662276828642,"9":-0.09992607750720305,"10":0.06378750089119474,"11":0.016329974948214553,"12":0.02565291364357883,"13":0.06452989366883473,"14":-0.017507231962913688,"15":0.08145669634482115,"16":-0.016265239406746707,"17":0.03743715625969987,"18":-0.07962090378643118,"19":-0.07991125519015621,"20":-0.04321659339041412,"21":0.0043519651152798405,"22":0.1404757665479671,"23":0.04979060496196254,"24":0.023252024927080697,"25":0.0771931737584421,"26":0.06275152780860836,"27":0.1153774272319927,"28":-0.09758485043070396,"29":0.0059348572986494185,"30":-0.07331195593500177,"31":0.025080921850625056,"32":-0.10543402823216065,"33":-0.030747156441703546,"34":-0.06890098631109383,"35":0.1484636333288402,"36":0.07064933395733768,"37":0.07017601463077515,"38":-0.08678920497431634,"39":0.0270992249757478,"40":0.10950090869096143,"41":0.026520841326212016,"42":0.05456562410885688,"43":-0.015480019122877242,"44":0.039513434975248674,"45":-0.04942949409321924,"46":0.017732864810673963,"47":-0.06780311168102451,"48":-0.0864596338861489,"49":-0.0002134829142722296,"50":0.07262696197057815,"51":0.17728355830458042,"52":0.0029546061068006888,"53":0.11755637994742169,"54":0.027174969581299734,"55":0.025795855424636634,"56":0.09764481599000112,"57":-0.011835101295994542,"58":0.04731954663103003,"59":-0.03792366669709397,"60":0.0343663845867772,"61":0.09357166864913764,"62":0.043683820509258335,"63":0.10590538679099891,"64":-0.02381218858957208,"65":0.040434845056836484,"66":0.015447958265830689,"67":0.05496777962042248,"68":-0.015280891946018359,"69":0.08958521044081771,"70":0.11400836664266488,"71":0.05463670691715868,"72":-0.035974358037001615,"73":-0.0029970796805499343,"74":0.027663576308957206,"75":0.010372118218208751,"76":-0.043998944856711825,"77":-0.04274407789401585,"78":-0.049197377222666816,"79":-0.020428642441710002,"80":-0.03457690285515879,"81":0.09847546653622648,"82":0.07822902165602233,"83":0.024585084034534122,"84":0.03350065677852768,"85":0.22414485410421342,"86":-0.028765770637852767,"87":0.13915982433835564,"88":-0.029976447707611133,"89":0.09104477752402085,"90":0.007079170093855976,"91":0.045237707322494713,"92":0.011837946944206446,"93":0.002820650238419692,"94":0.1153910045832323,"95":0.013232062935780858,"96":-0.049796322576036674,"97":0.06513739104432151,"98":-0.072681286151398,"99":-0.10578176090743237,"100":0.0121981728507292,"101":0.003957561314649476,"102":-0.010816658434756984,"103":0.16169409717845948,"104":0.017826966356783623,"105":0.1096549350077316,"106":0.04144309302422137,"107":-0.07259487552667641,"108":0.055654379996693794,"109":-0.0032528675877714986,"110":0.08056150918532753,"111":-0.000982097306437222,"112":0.05013124608537284,"113":0.04111026774395492,"114":0.1194608084474801,"115":-0.01732413425419278,"116":-0.026510720887685312,"117":-0.03864644792480206,"118":0.021907107089479225,"119":-0.013284071286062425,"120":0.034863983666245026,"121":-0.02296790969222023,"122":0.09909518083100277,"123":0.005479057308945535,"124":-0.13909748476118078,"125":0.021374804318492063,"126":-0.022718353583251798,"127":-0.041352995030614854,"128":0.015527360020114522,"129":0.08799383401107866,"130":0.06857289066039424,"131":0.04514582965396984,"132":-0.059160010511071365,"133":-0.04880677752745372,"134":0.003012047719831547,"135":0.06484718735352862,"136":0.11524904026293442,"137":0.16295631486026593,"138":0.06443037878444288,"139":0.0392740365979863,"140":0.0872554357786742,"141":0.013694137084955859,"142":0.0344766575284373,"143":0.03399153661291923,"144":-0.09491233451713706,"145":-0.022253673208585897,"146":0.07567839627748969,"147":-0.008336529168762733,"148":0.08345301933844657,"149":0.006602371198800968,"150":0.06065881020492905,"151":0.06859762273003521,"152":-0.01359880026519725,"153":0.19646925144560368,"154":-0.04750228641780883,"155":-0.10313635849350315,"156":0.04738889142163797,"157":0.0865215651190506,"158":-0.029165571824957468,"159":0.06600829268313128,"160":-0.017266755096977393,"161":0.0035790915855849616,"162":0.03240167958318448,"163":0.06236093212235227,"164":0.11544886208442277,"165":0.10432107494633648,"166":-0.10964341310952466,"167":-0.017983196731865086,"168":-0.03038803096844468,"169":0.016149592074222365,"170":-0.055822646072188634,"171":-0.0013927089132515732,"172":-0.06939121551238685,"173":0.020330608211243436,"174":0.0909968067292467}},{"sx":1,"sy":1,"depth":175,"w":{"0":0.09971732950310123,"1":0.03483641522417461,"2":-0.056558793775514864,"3":0.043782897565798506,"4":-0.0023655535358865745,"5":-0.08841009655866408,"6":-0.01512376170245509,"7":-0.10773423184329606,"8":0.06888901201572997,"9":0.029141272002767327,"10":-0.05107400834184678,"11":-0.0012856043408762904,"12":0.07340592990553486,"13":0.10980259838970095,"14":0.05481091684961983,"15":-0.045923405427884194,"16":0.0556642670857679,"17":0.16393867441421286,"18":-0.0032201291597883305,"19":0.04651351759996856,"20":-0.05923434778631765,"21":0.036550817507701346,"22":0.10315943324329319,"23":0.00595513576792292,"24":0.05710805840092778,"25":0.021275331169986596,"26":0.10903050376307301,"27":-0.0542719146408515,"28":0.06818076762567439,"29":0.06469589230536862,"30":0.04611840381329238,"31":0.1426203154827578,"32":0.10910565427031739,"33":0.16534746844554005,"34":0.05011340181920137,"35":-0.01668954645225272,"36":0.053449823068707415,"37":-0.0025989369515960576,"38":-0.16059143384409794,"39":0.044459708749003936,"40":-0.005171315919812305,"41":-0.03948770553580745,"42":-0.00694219754492897,"43":0.016649596068448444,"44":-0.03230079233724041,"45":0.1364609717126295,"46":0.015348551480160552,"47":0.02514076067421432,"48":0.14139026718847544,"49":0.058131802152397875,"50":0.028375866073644687,"51":-0.05935950871628487,"52":-0.022037803257916617,"53":-0.05128831957586819,"54":0.053850662701483386,"55":0.017985206273315218,"56":0.09175434066439477,"57":0.03977262927294747,"58":0.08563255070064821,"59":-0.04422885391576773,"60":-0.0410330973218621,"61":0.028898583433212832,"62":0.13238505560399452,"63":-0.026962377938075984,"64":-0.0010438735897275204,"65":0.04975694101051565,"66":0.06830763075619949,"67":0.08053972388207535,"68":-0.021142284856524377,"69":0.0759148731216135,"70":0.03386279067646229,"71":0.10633151875732798,"72":-0.02142540509608316,"73":0.007000212807001505,"74":0.05562894566755742,"75":0.02497240009983255,"76":0.0774435457792536,"77":-0.01521982690256847,"78":0.045333627047433996,"79":0.0957002136141792,"80":0.08099062257916412,"81":0.10614015403631868,"82":0.07237407730918685,"83":-0.029509120385376713,"84":0.07123400704752868,"85":0.05921754362979683,"86":-0.07660627108073696,"87":-0.0023904080053171847,"88":0.037589268266798814,"89":0.04970469579517521,"90":-0.14925530332613504,"91":0.07752906863359632,"92":0.02195358310443647,"93":0.05462202587044478,"94":-0.08568441478749471,"95":0.027416831500472444,"96":0.11989306602891965,"97":0.060245056316627674,"98":0.08012825376941975,"99":0.032663112374358934,"100":0.057306835710676865,"101":0.04459363362005091,"102":0.08050643006787862,"103":0.029953145434811798,"104":-0.053779813034288415,"105":0.0529224227221388,"106":0.1432993381848693,"107":-0.031451372793029266,"108":0.02263025753224657,"109":-0.04091971979793236,"110":-0.01580694620889979,"111":0.04768145515873888,"112":0.12490089693432879,"113":-0.005226958292645579,"114":0.0031277847561809757,"115":-0.08359213981003644,"116":0.01165870890283513,"117":0.019093041080099248,"118":0.015082039791166181,"119":0.10445970616890791,"120":-0.049054390124611665,"121":0.020266321722012242,"122":-0.0651551927121362,"123":0.006913071805697772,"124":0.08009136030734003,"125":-0.050384884407455005,"126":0.11184928106257615,"127":0.024453055764211418,"128":-0.0008498000795483343,"129":-0.07317425108244255,"130":-0.0994498511194624,"131":0.11969399901568407,"132":0.0705448490550399,"133":-0.011004056309344196,"134":0.16349543723754958,"135":0.10475155693668568,"136":0.056598950018072296,"137":-0.08442014628567746,"138":-0.00018472845333643702,"139":0.1662011545747555,"140":0.03269319931209573,"141":-0.008749441323274843,"142":0.007765439376469446,"143":0.2796002027476577,"144":0.08476933803086907,"145":0.09321219872600946,"146":0.15869357550310256,"147":-0.030764302769821637,"148":0.106960482108257,"149":0.03434411066642801,"150":0.15494514136355614,"151":-0.026784493779859888,"152":-0.05043171557165141,"153":0.05241019052683641,"154":0.011208264155639018,"155":-0.02553071566774227,"156":-0.06034525729323299,"157":0.20093580916718298,"158":0.10859168096395297,"159":0.02488940722946024,"160":0.02107375250809994,"161":-0.05706928836306147,"162":0.0038451922572334584,"163":0.03584319391933995,"164":0.09936775406405163,"165":0.039893054053178445,"166":0.12496534800592594,"167":0.06771700634399362,"168":0.012659321470733356,"169":0.0943644980716531,"170":0.08673352453544518,"171":0.033967602676364,"172":0.10711456469812008,"173":0.0944766570081876,"174":0.07862762342665139}},{"sx":1,"sy":1,"depth":175,"w":{"0":-0.10695293320076385,"1":-0.1586552806425756,"2":0.20452266624981008,"3":0.5327009782055243,"4":0.28462107500009576,"5":-0.02232980881787636,"6":-0.12902665141258543,"7":0.037965777179299956,"8":-0.056833684195391795,"9":0.17430581132978032,"10":0.40162073117576885,"11":0.22025384998459252,"12":0.013395795028647878,"13":0.04315638175870329,"14":0.3449271564785568,"15":-0.048231160500711,"16":-0.0017884408652319853,"17":0.12131008010064219,"18":-0.010330871299831523,"19":0.029733005816237067,"20":-0.03384469872561565,"21":-0.034194733734144785,"22":-0.04887736244954735,"23":0.05284012351328429,"24":0.3218352512659211,"25":0.09557638613268704,"26":0.09284334615816553,"27":0.05876828729060292,"28":-0.12847408619601716,"29":-0.05537098860526074,"30":0.17579523786408544,"31":0.7088963817091335,"32":0.1062949327751549,"33":-0.04385578878032332,"34":-0.007596874915690058,"35":0.02516776954063873,"36":-0.08307990297128223,"37":0.08895896530267852,"38":0.6715452531611031,"39":0.2553080470757155,"40":-0.08427036328795014,"41":0.21125007137773036,"42":-0.20366676432557348,"43":0.010943854695879393,"44":0.17060060924988107,"45":0.6129206910975686,"46":0.32651310574382814,"47":-0.08733050791077443,"48":0.11401318316873228,"49":-0.2135436318659828,"50":0.09768293429978632,"51":0.0248965774371868,"52":0.45256896790314616,"53":0.21451783361243987,"54":-0.05450472900296321,"55":0.07877557941265619,"56":-0.3093597546524103,"57":0.3609064999534282,"58":0.06967720664166183,"59":0.692678091901389,"60":-0.09703048962536599,"61":-0.12986878148788436,"62":-0.04071191778295661,"63":-0.18334698199309038,"64":0.14559384977002865,"65":0.09067674159761842,"66":0.7460425475373145,"67":-0.09267680178165284,"68":-0.00014319110168107136,"69":-0.019527865321812294,"70":-0.17623805014983915,"71":0.1737085755924094,"72":0.17551299278428736,"73":0.8942918101303459,"74":0.08088606252414876,"75":-0.04005749022746567,"76":0.04435011007345274,"77":-0.06456444528002211,"78":0.13830825847408315,"79":0.20758886846294766,"80":0.8856601357144639,"81":0.03940414531674932,"82":0.05544866626597538,"83":-0.09791698723837283,"84":-0.042195654360981216,"85":-0.10142047087010184,"86":0.29908801255628265,"87":0.4668426341691251,"88":-0.030871483787326324,"89":0.001683135020902627,"90":-0.05990750923625934,"91":-0.07168529862098529,"92":0.20457219490786363,"93":0.33742677287286854,"94":0.2539920615237843,"95":0.31482293419159163,"96":-0.02893365954751213,"97":-0.04047171147086014,"98":-0.20703921377356965,"99":0.10446929365480105,"100":0.3186846208461903,"101":-0.11500112024437642,"102":0.2587809131035869,"103":0.010919823571785078,"104":-0.02755378671872488,"105":-0.286143830182747,"106":0.024101848104501472,"107":0.06214757132326031,"108":-0.08206391944657038,"109":0.21727619322508393,"110":-0.041824864457053315,"111":0.062333449991408545,"112":-0.06319688069142591,"113":0.08843174447447778,"114":0.000279454455350186,"115":0.06796664470481904,"116":0.41953827705767616,"117":0.02295096526739219,"118":0.1965704901326693,"119":0.027540924194921296,"120":0.15542959377618737,"121":0.07374095145152486,"122":-0.324780068642148,"123":0.13571374871775288,"124":-0.09679423841947488,"125":-0.1140300576702772,"126":-0.08496378975163721,"127":-0.026656281610402528,"128":0.030786787858829916,"129":-0.3153234151291446,"130":0.0018907158048521117,"131":-0.021156717671655098,"132":0.04270853081816155,"133":0.0890014726789535,"134":0.13935452474279236,"135":-0.12814078544926008,"136":-0.23844615643934547,"137":0.021088258953649366,"138":0.17307538400465697,"139":0.17930482135527548,"140":0.044065244160766306,"141":-0.024794373544538735,"142":0.00800470868151718,"143":-0.27623634999648555,"144":0.0944592725220746,"145":-0.10276860070476855,"146":0.03429680106568216,"147":0.028927109302004924,"148":0.13551396134831595,"149":-0.37617314440489696,"150":-0.2984931830863258,"151":0.05241726352662298,"152":-0.07080472934668977,"153":0.00431157341512338,"154":0.029802972715504788,"155":-0.15417496720722684,"156":-0.1969672855967807,"157":-0.33537179311271537,"158":-0.23500401670927576,"159":0.041591208540781036,"160":0.09128781631428551,"161":0.09428128631117093,"162":-0.04151333219006568,"163":0.035954592532485154,"164":-0.2085720122997904,"165":-0.16709010179926786,"166":-0.2670486478022173,"167":0.15888584614057386,"168":0.11850198706735283,"169":-0.18630045354280098,"170":-0.09468603268951743,"171":-0.3414632748278437,"172":-0.3070702095820126,"173":-0.07235814952571347,"174":0.16293583556148677}},{"sx":1,"sy":1,"depth":175,"w":{"0":-0.0005689697733024353,"1":-0.11974624060611831,"2":0.06983710692395906,"3":0.14433287287405214,"4":-0.1018944425662778,"5":0.20989238858105652,"6":-0.019636985282967766,"7":-0.17381415773492215,"8":0.0724076503978965,"9":0.12962204111609213,"10":-0.018245836510876957,"11":0.08623784909588274,"12":0.04287310479651098,"13":-0.13118727393777332,"14":-0.16209406943403554,"15":0.08251288129090202,"16":0.11635822770903724,"17":-0.0017401775008564569,"18":-0.1557741536303359,"19":0.025429414089238198,"20":-0.060686595779314755,"21":-0.1801772161142472,"22":-0.07138383336637354,"23":0.2856214237172535,"24":-0.033855612256733246,"25":-0.2780840500450575,"26":0.03955717593119475,"27":-0.10079115302838153,"28":-0.15421825133743097,"29":0.011265261274221797,"30":0.30481294222284644,"31":-0.061273218299026995,"32":-0.155546975374624,"33":0.04766030294799465,"34":-0.11111575032037642,"35":-0.06055420176494407,"36":0.20334876017490652,"37":0.14956927455557367,"38":-0.11888707972537647,"39":-0.23061209100614463,"40":-0.025468885528714177,"41":-0.14210519114833386,"42":-0.020140778244046826,"43":-0.02135227631640532,"44":0.24545799932789225,"45":-0.15072720363374104,"46":0.03910811183108659,"47":-0.0832841012452757,"48":-0.09554466913714543,"49":-0.02351151817655132,"50":0.05734754152616225,"51":0.2516684359623479,"52":-0.28551482288619934,"53":-0.06738613760831287,"54":-0.18654047126176204,"55":-0.03136325170617835,"56":-0.017069600419418685,"57":0.10117569927897539,"58":0.0897705313525896,"59":-0.11188869376668727,"60":-0.007117751315861951,"61":-0.10309015623097342,"62":0.012674219555998718,"63":0.057264854002688645,"64":0.05014709780374131,"65":0.30282659008038193,"66":-0.049984473173715356,"67":0.09029163924762557,"68":-0.03682153424639629,"69":0.19859926236324285,"70":0.048502287187784834,"71":-0.008910723642149322,"72":0.31236875971832073,"73":0.15754107310073306,"74":-0.28948008198092556,"75":-0.14953681591034548,"76":0.2122234609742297,"77":0.24583106057715712,"78":0.14470285596609814,"79":0.17073218275085142,"80":0.08232745240281214,"81":-0.3297328443330273,"82":0.028105051361139548,"83":0.22524331900581057,"84":0.09053140062128977,"85":0.12347089144152333,"86":-0.03382621166542525,"87":0.05116500119006424,"88":-0.15796236183175874,"89":-0.061802797665510854,"90":0.22536744856061683,"91":0.17605910935911012,"92":0.024998455112785072,"93":0.24361065837288423,"94":0.6715885101953378,"95":-0.20434941665803302,"96":-0.25208595467247447,"97":-0.15589542998413258,"98":0.2333115675302046,"99":0.24317477742456342,"100":0.05730769304332875,"101":0.46233554131578897,"102":-0.08647092094041858,"103":0.014766730147932875,"104":-0.045026358456671446,"105":0.23804995687742345,"106":0.08185610834666551,"107":0.21645500128340422,"108":0.3769030937006353,"109":-0.016817747824823197,"110":-0.1048809354828088,"111":0.07169159949353604,"112":0.3737670716875412,"113":-0.006796992224104185,"114":0.17947613453514874,"115":0.45994306103931476,"116":0.026295406361565785,"117":-0.13902534852708912,"118":0.06165274077878979,"119":0.043197718341691345,"120":-0.05626399492337139,"121":0.1361755746412546,"122":-0.091897728992009,"123":0.28528046296005805,"124":-0.017537595209015485,"125":0.2042988039241215,"126":-0.06941493584951362,"127":0.03359521149073411,"128":0.1436406007280483,"129":0.3100464619604995,"130":0.021811723007842898,"131":-0.09486985311910354,"132":0.0734804401854145,"133":-0.08685676659628712,"134":-0.0905127223955554,"135":0.1114309038007738,"136":0.46156033886357456,"137":0.08530817765054279,"138":-0.27134861515838615,"139":0.06998085772006532,"140":0.052107262007199485,"141":-0.2252530204905262,"142":-0.24080470564340506,"143":-0.28930222555906326,"144":0.17610765807723525,"145":-0.10879508940632383,"146":0.11092149734648096,"147":-0.0027034736443732814,"148":-0.07983177817860874,"149":-0.03261692261002926,"150":-0.36421690698205894,"151":0.12184708602178691,"152":0.2471316265514531,"153":0.21046786113336644,"154":0.1014587237987488,"155":0.03427425141350162,"156":-0.16805327797527622,"157":-0.34251704978156877,"158":0.1346103775201933,"159":-0.06650890891418182,"160":0.12336023388501322,"161":0.050099452033064006,"162":0.23952977258307337,"163":-0.6892564899533461,"164":-0.4131420123847194,"165":0.4059073153196771,"166":0.11938790951042728,"167":0.07758192163212756,"168":-0.0005152740841629447,"169":0.12866773202897647,"170":-1.1367925006920654,"171":0.32023262434359057,"172":0.007581365347725353,"173":0.07201663872258107,"174":-0.0801612420899875}},{"sx":1,"sy":1,"depth":175,"w":{"0":0.18062679725681377,"1":-0.05540481270792506,"2":0.21649613301000495,"3":-0.1689420063042973,"4":-0.09615448447551343,"5":-0.057003796675810944,"6":0.11182046646364553,"7":0.17467201753695671,"8":-0.1152347966374676,"9":-0.1476417247849833,"10":-0.24509217279581244,"11":0.055580936349079776,"12":-0.11803867506328722,"13":0.06560386401743878,"14":-0.05199244070968998,"15":-0.11908980107301448,"16":0.020837252467756643,"17":-0.15377459737192758,"18":0.14878948249979207,"19":-0.010203414106675959,"20":0.027991949016106178,"21":0.06275964763414299,"22":0.11451475973500488,"23":-0.22816250073668945,"24":-0.13295575441664895,"25":0.20297885096682483,"26":0.009167670310547946,"27":-0.1351771827634837,"28":-0.04562813858956525,"29":-0.06701621858344187,"30":-0.3709124538768793,"31":-0.016301114896524346,"32":0.11067256981166551,"33":-0.13678386248660962,"34":0.04952576292603445,"35":-0.13872111934301565,"36":0.028500585198908183,"37":-0.12034143265110499,"38":-0.20292082237677916,"39":0.07901085567335978,"40":-0.09702496257493969,"41":-0.09700226223786339,"42":-0.18765911432802268,"43":0.04673195815568432,"44":0.0445718361586072,"45":-0.3440555822617973,"46":0.24124138928892325,"47":-0.014819235100581432,"48":-0.07545650920736842,"49":0.05388085943754887,"50":0.020670000049547093,"51":0.2255590092972161,"52":-0.3597414580190576,"53":0.17197007829031125,"54":-0.0858154270145902,"55":-0.0596148426477124,"56":-0.07874651442873849,"57":0.04196406341359558,"58":0.0248720273120792,"59":-0.5033149267212979,"60":0.07071871764448585,"61":0.015706340102166857,"62":-0.029847251145221156,"63":0.0585718154589456,"64":0.11104452440471635,"65":0.15257109625218346,"66":-0.3256011571326722,"67":0.15119008736979198,"68":0.13073726976845612,"69":0.1819134337041137,"70":-0.012122618981754462,"71":-0.02142494732492862,"72":-0.1657642464123903,"73":-0.0439073078752057,"74":0.48084210541442773,"75":0.06042544955262954,"76":0.2850032698320465,"77":0.06075737824228178,"78":-0.154026160144258,"79":-0.10830734301286493,"80":0.030614394229158206,"81":0.20005173374662397,"82":0.32454611240406195,"83":0.11481613210383575,"84":0.007336035890066449,"85":0.07577483003940592,"86":-0.16093187090775815,"87":0.0054538636729995135,"88":0.12095936192880091,"89":0.07413010803603047,"90":0.24228156640427087,"91":-0.15585778645767137,"92":0.07628458580480514,"93":0.025038460063447184,"94":0.33909713971570754,"95":0.29496779960852815,"96":0.11382707528233911,"97":0.059683319312566215,"98":-0.09389150698660573,"99":0.07414103612474368,"100":0.21981167642127786,"101":0.31195832353016395,"102":-0.1003384619971899,"103":-0.08239518087434825,"104":0.05006747079816696,"105":-0.05098449554208095,"106":0.06789069355895579,"107":0.20484311354422494,"108":0.10144915856861801,"109":0.07484557931619619,"110":-0.194127459351306,"111":0.11077420157562175,"112":0.13904917607126588,"113":-0.011867038623874124,"114":0.10794960105290152,"115":-0.03281055502308872,"116":0.24673429074003866,"117":-0.11169299336055269,"118":0.28386732037344914,"119":0.15405191191219764,"120":0.03212342051818863,"121":0.045010937933483715,"122":-0.21389910726022732,"123":0.2302705828973716,"124":-0.22185086084005579,"125":0.33242714949637503,"126":0.10726948333706625,"127":-0.09273701707789696,"128":0.02918650588976571,"129":-0.1426696674059695,"130":0.1157363155050983,"131":-0.2438149508075462,"132":0.15314641896245926,"133":0.09882637887419286,"134":0.0279419757241006,"135":0.142893649678055,"136":0.365636020081445,"137":0.11301366815706386,"138":0.19386237545597426,"139":0.130451690686874,"140":-0.029754724409765218,"141":-0.20560305349947214,"142":0.15077602671945045,"143":-0.25785041836440475,"144":-0.22558500802166043,"145":-0.10498471156598457,"146":0.20218292755204542,"147":-0.05703270487130871,"148":-0.2007676824157795,"149":0.2580462093650395,"150":-0.25359781406239085,"151":-0.007804799097851286,"152":0.05314056977617603,"153":-0.0963907563550744,"154":-0.06608130769095606,"155":0.004610183242701178,"156":0.15068558061856702,"157":-0.24080307466194806,"158":0.061386113684889054,"159":0.006349466903029288,"160":0.05495751577840387,"161":-0.01043943540479365,"162":-0.012067664463870354,"163":-0.1665667627607305,"164":-0.3697981799408086,"165":-0.04603215934542147,"166":-0.10470678073691292,"167":0.15165558790552097,"168":-0.055224650540861696,"169":-0.30035620475757496,"170":-0.48568050301776616,"171":0.007708652710292113,"172":-0.6463203088503741,"173":0.03658980089997976,"174":0.0633948626116573}},{"sx":1,"sy":1,"depth":175,"w":{"0":0.06679522002633853,"1":-0.168816471517223,"2":0.18838362182656224,"3":-0.13670097552765378,"4":-0.44179010617562464,"5":-0.17597000404656593,"6":0.06678717880229089,"7":0.060355646665089684,"8":-0.15280840739493962,"9":0.0969316053075311,"10":0.08221380601310932,"11":-0.40686441452592886,"12":-0.13169844273732997,"13":-0.266550238517129,"14":0.01651419427511246,"15":-0.15906648616881922,"16":0.05925403165818841,"17":0.31221980059948223,"18":-0.4005439842179917,"19":-0.07987389754538378,"20":0.08627567683779565,"21":-0.02311477542330744,"22":-0.00038643661780996376,"23":0.008842563326280545,"24":0.20272598841979989,"25":-0.26400866365733544,"26":0.014148647070353388,"27":0.014685937479357864,"28":-0.05167843625439512,"29":-0.0634351441941123,"30":0.06190940816506828,"31":0.04709570663924455,"32":-0.3180305220790915,"33":-0.23755747670562516,"34":0.023519049643261427,"35":0.06439817385667407,"36":0.02425046085105913,"37":-0.0401249628163337,"38":0.05193360364751298,"39":-0.2104502757055238,"40":-0.049125167123066964,"41":-0.1643824228985291,"42":0.049192182434317104,"43":0.24184320778892487,"44":0.08779372446514136,"45":0.08391527715747306,"46":-0.3544529004949909,"47":-0.1162720217739018,"48":-0.14535052873809623,"49":-0.020406773548045865,"50":0.1136869764881597,"51":0.12189821308251425,"52":0.005968659267611516,"53":-0.4090166987256947,"54":-0.07763311353386082,"55":-0.10060782906739363,"56":0.0744589980109373,"57":0.05228040618824533,"58":-0.13653201995778577,"59":-0.08882637724689539,"60":-0.28456422130665526,"61":0.042417225724618535,"62":-0.08832676224326767,"63":0.05863919543075541,"64":0.011476931530408043,"65":0.13456803800805503,"66":-0.33317292530935616,"67":-0.4177794955524706,"68":-0.1480011778607183,"69":0.14401254561894503,"70":0.1110844507394751,"71":-0.013819824443546113,"72":0.09366879246488802,"73":-0.06139641864936683,"74":-0.5086572447794716,"75":0.03704787298516531,"76":0.0075316976444951556,"77":0.10275267461482421,"78":0.024360472145761727,"79":0.08765551534773679,"80":-0.013449416634146328,"81":-0.2110780801306482,"82":-0.03291410957278986,"83":-0.1641464930700674,"84":0.1159426391825073,"85":0.04630368550882816,"86":0.1136370765233297,"87":-0.36936527166564975,"88":-0.28644221401502695,"89":0.014533324895325205,"90":0.07796027305805918,"91":0.10470374665979226,"92":0.09912070945722343,"93":0.10674305367623445,"94":-0.344491265588311,"95":-0.19746216291344304,"96":-0.06463440925202742,"97":-0.08479002967397337,"98":-0.03969755842136137,"99":-0.08054925414323005,"100":0.0866739203761566,"101":-0.3999323198382179,"102":-0.005458305429481894,"103":-0.08259681291789242,"104":0.192489581660525,"105":-0.1060725749244591,"106":0.022111054705877604,"107":0.21549900378129178,"108":-0.5003950082731089,"109":-0.31258545138765614,"110":-0.10936258008864162,"111":0.014181372003870282,"112":0.03390924020982364,"113":0.07832642800395667,"114":0.007298403550557291,"115":-0.27632722845232677,"116":-0.37012171832446733,"117":-0.08289862577628285,"118":-0.03125560052406729,"119":0.08817630912686886,"120":0.0196106021493359,"121":0.001554922093753664,"122":0.26704694960316905,"123":-0.42521727376187873,"124":-0.017197584165887382,"125":0.05287969595772588,"126":0.09731092851947415,"127":-0.1128226085544429,"128":-0.15452009252157548,"129":0.2262089224595133,"130":-0.21184478715997226,"131":-0.06441190693965985,"132":0.2075876808458997,"133":0.14579868979990596,"134":-0.022094696166476507,"135":0.10597265763585928,"136":0.3521089759646054,"137":-0.11937515987139348,"138":0.022128362147618253,"139":0.07641762254568171,"140":0.00710125098564522,"141":-0.004195530806633447,"142":-0.1320139666449646,"143":0.28933986247552046,"144":-0.25326851738822714,"145":0.00006315992037598638,"146":0.11903837576142247,"147":0.139558636699463,"148":-0.10800314213311778,"149":-0.2836262953523504,"150":0.1606256509685522,"151":-0.1691996764508763,"152":-0.041986436801352646,"153":-0.11295503848066582,"154":0.008750995043476402,"155":0.10351167313697784,"156":-0.17630365662586767,"157":0.2817815738249537,"158":-0.3470378842375616,"159":0.13086522178964,"160":-0.05674333195016382,"161":-0.028380125100665732,"162":0.23295638176732197,"163":-0.06828228598501065,"164":0.33015573835636347,"165":-0.20367129841239479,"166":0.18870389400108814,"167":-0.05938660161045282,"168":0.16509170041945748,"169":-0.0937056805144503,"170":0.01761278520726543,"171":0.2915150758841865,"172":0.013371369921908849,"173":0.21128474092944827,"174":0.16738101771122538}},{"sx":1,"sy":1,"depth":175,"w":{"0":0.13670725549112914,"1":-0.27407163454029004,"2":0.5670675047220581,"3":-0.37154995727030227,"4":0.06296520218738023,"5":-0.21201602377894913,"6":0.10910786242763577,"7":0.025544827617952338,"8":0.03107773887660643,"9":0.19472473679487654,"10":0.027915721424809217,"11":-0.12771311362014431,"12":0.10007527517467486,"13":-0.04218980152366518,"14":0.18337293389651235,"15":0.08040304598316991,"16":0.0685029052186933,"17":0.06849530269720716,"18":0.11119629768054418,"19":-0.08250009302792201,"20":0.014346799746403838,"21":-0.007116016982287695,"22":0.06863189646543806,"23":0.28064488029448004,"24":-0.2703020012010203,"25":-0.20262664871671937,"26":-0.041513675430949845,"27":-0.007101564538787761,"28":-0.0695865468042234,"29":0.126283430687461,"30":0.4941600656488083,"31":-0.42338346234601565,"32":0.12809979326993612,"33":-0.14405127309213342,"34":-0.10127189178703516,"35":-0.0833908005530932,"36":-0.07725171116520889,"37":0.2372312035996555,"38":-0.14717902903162663,"39":0.19095280583046495,"40":0.14795759724163438,"41":0.021999256054749974,"42":-0.03834428578794508,"43":-0.15630506928339644,"44":0.0624963466149187,"45":0.10021439457154337,"46":-0.11596039154142215,"47":-0.18139417701587987,"48":-0.08849099002819115,"49":0.0559955631220492,"50":0.10674222446713744,"51":0.3826767200395618,"52":-0.41857095755131496,"53":0.16515479152495252,"54":-0.19877815771166696,"55":0.09870974872278149,"56":-0.026069275710670553,"57":0.020121921594766178,"58":0.5520792944194478,"59":-0.6015089126421373,"60":-0.2881851510076174,"61":0.17013770561519895,"62":-0.08933876387329093,"63":-0.039115007965358065,"64":0.026016686637184237,"65":0.49668392779625203,"66":0.21262051145835525,"67":0.08161075256383951,"68":-0.11203165438480817,"69":-0.21739384951078897,"70":0.14977086325716474,"71":0.0696397491107295,"72":0.13887193497831168,"73":-0.4845589929045724,"74":-0.25053517931881525,"75":0.08778990733100571,"76":0.06117381858755663,"77":-0.17698123723877526,"78":0.22610680770745611,"79":0.5413520430390457,"80":-0.2955091693970634,"81":-0.2006482910801058,"82":0.017035362438121086,"83":0.09846227455059745,"84":-0.12374676041528593,"85":0.043993968492438904,"86":0.8107442524637254,"87":-0.6221991749170751,"88":-0.02320127167438112,"89":-0.04818376106100162,"90":-0.03676281306618721,"91":-0.053180883730235134,"92":0.09066679682882166,"93":0.3638212217762492,"94":-0.2996121574192619,"95":-0.19794520340458724,"96":-0.0644542219366855,"97":0.16545604458074692,"98":0.008047153857802683,"99":-0.055421435441906725,"100":0.730230969363987,"101":-0.3577353248401569,"102":-0.003067523791983866,"103":-0.07685121996495034,"104":0.03678972574184864,"105":0.05827456974810102,"106":0.07309166686512208,"107":0.9210550108020523,"108":0.07701111096011844,"109":-0.058379659430694876,"110":0.08522437473630483,"111":-0.09879864780605738,"112":0.10334800502546451,"113":0.06797272554755722,"114":1.016173007091839,"115":0.5900650742206724,"116":0.04006292318755036,"117":-0.032770682394951026,"118":0.22201364589233932,"119":-0.07363865101031727,"120":0.11414882337273903,"121":0.7621811041836506,"122":-1.4762113171834195,"123":-0.32825143561032155,"124":0.04884468726405469,"125":0.08228875478309962,"126":-0.1766282313729244,"127":0.14299016902922834,"128":1.1601830210698294,"129":-2.2117007590133504,"130":0.2063715395975727,"131":-0.00989570101767458,"132":-0.017848640938684643,"133":0.1551180090542845,"134":-0.0899564783231972,"135":1.2971512490871275,"136":-2.1344224371092917,"137":-0.16291256591536504,"138":0.17227069946316792,"139":0.03270244304025378,"140":0.06526976635970064,"141":0.000020643299941857916,"142":1.9164043278665956,"143":-0.20767597404060975,"144":0.10709288267368719,"145":-0.06131085270029721,"146":-0.02212472482137706,"147":0.01202597689160221,"148":0.0402764178658963,"149":0.7245840047837082,"150":-0.11744704364015741,"151":0.030437204405573574,"152":0.16761087879641953,"153":0.013045988931318187,"154":-0.12792897859664262,"155":-0.02185749017729089,"156":1.0021146010085686,"157":-0.15954283032399078,"158":0.01248906064252994,"159":-0.03226474017705498,"160":-0.010864725409726755,"161":0.010976824219127355,"162":-0.06950034398260403,"163":0.6156365207043895,"164":-0.13790711057314883,"165":0.07863953310479962,"166":0.08514718186057205,"167":0.06514548269441989,"168":-0.023746849996933803,"169":-0.06771463715781678,"170":1.2938118804153167,"171":-2.1669191706533764,"172":0.11427291807854005,"173":0.22492157952531705,"174":-0.09163464300818631}},{"sx":1,"sy":1,"depth":175,"w":{"0":-0.43421902160985276,"1":-0.2650380623519204,"2":0.16783957000787178,"3":0.38159131988598655,"4":0.1247544397723749,"5":-0.011597267574841518,"6":0.12808994247011196,"7":-0.33007679818409275,"8":-0.11826543225906895,"9":-0.1388463370987898,"10":0.32918970387488955,"11":-0.03809722562231741,"12":-0.13364071014032167,"13":-0.02176074683791575,"14":-0.05551745691806395,"15":-0.11409835488278969,"16":-0.03249667696096224,"17":-0.23107399756492136,"18":-0.22075011425589153,"19":-0.10289505258429421,"20":0.10678672108973704,"21":-0.1818471004102687,"22":-0.05217487141611285,"23":-0.1826394702304267,"24":-0.12740512816400373,"25":-0.03013047519620995,"26":0.15169092166664327,"27":0.06261725758397954,"28":-0.19854414173488166,"29":0.04955688156749754,"30":-0.017823000879805054,"31":-0.10433662738933874,"32":0.11405849488805017,"33":0.08739803433387422,"34":0.2248965028532005,"35":-0.04993277913931031,"36":-0.12075271199902138,"37":0.00014434794477134844,"38":0.2018782826103868,"39":0.06690009535344811,"40":0.028316694800619477,"41":0.168678668088769,"42":-0.256481617853713,"43":-0.13795838114058342,"44":-0.10188124841167366,"45":0.2756304658727761,"46":-0.09525297184472162,"47":-0.055260490353005974,"48":-0.03238027534416662,"49":-0.23586908438997933,"50":-0.07799645643835092,"51":-0.16624094276920426,"52":0.20989776651483755,"53":0.14724707629764922,"54":0.08937474769991081,"55":0.0756132913010315,"56":-0.3844177458202827,"57":-0.12037831584975418,"58":0.10100367202027101,"59":0.351351143367995,"60":0.0035570151549947633,"61":-0.16497403603857028,"62":-0.11164588776881594,"63":-0.3118066327952194,"64":-0.15939423901608663,"65":-0.054379551356549476,"66":-0.10629277386208984,"67":-0.05036864415979903,"68":0.003745364319376692,"69":-0.035765923624577575,"70":-0.334293619729115,"71":-0.06047396784853809,"72":-0.13949192943833183,"73":0.10865077294507912,"74":0.05301016060798001,"75":0.013803375907237132,"76":-0.021299471332446928,"77":-0.26140534650862224,"78":0.09315329631301388,"79":0.1940047987716062,"80":0.22676539689114114,"81":0.06635105652503771,"82":-0.07120467688865954,"83":-0.04047304270646314,"84":-0.296436709792346,"85":0.2051872278550484,"86":0.13808819204951997,"87":0.36603743206889855,"88":-0.14994119076574577,"89":-0.04648649478591936,"90":0.195147320118321,"91":-0.4519002275822969,"92":0.24783458771340286,"93":0.29126758422960347,"94":0.4873459766876999,"95":-0.20132509279253324,"96":-0.0660593018898624,"97":0.11548067727063392,"98":-0.2590524691436728,"99":0.12677263741994596,"100":0.519979336265499,"101":0.4503666560557524,"102":-0.1804266505583951,"103":-0.0389979995025353,"104":-0.05608782696190979,"105":-0.15003476238759783,"106":0.31572447021299777,"107":0.4702949270451518,"108":0.4444295065970933,"109":-0.10078919324456466,"110":0.13443616347658482,"111":0.1367220046912149,"112":-0.24321009308993444,"113":0.21279472115850065,"114":0.47091337870576666,"115":0.19695204843565356,"116":0.09932037007227804,"117":-0.07239190739291673,"118":0.004687480894046654,"119":-0.24420927104983356,"120":0.23319561938370947,"121":0.2886343235432728,"122":-0.3553009392303966,"123":-0.05022569971421156,"124":0.08383842230029072,"125":-0.12449282216096678,"126":-0.15558253121023485,"127":0.11059511608429794,"128":0.5834990068925916,"129":-0.40883580708155737,"130":0.15230472640312856,"131":-0.10711763107701547,"132":-0.07285547924010942,"133":-0.07978861309352954,"134":0.2900867015864404,"135":0.5993201633131732,"136":-0.7856698545617709,"137":0.26607214417915426,"138":-0.31912396946473026,"139":0.12400748119021386,"140":0.1856822363133173,"141":0.2865104361635142,"142":0.646277713588763,"143":0.1273791121889026,"144":0.03349763022563961,"145":-0.053190193672359005,"146":0.25601009845177364,"147":-0.12177284371090259,"148":0.04872078693955791,"149":0.21569296772957056,"150":0.030689059044965314,"151":-0.08096013261970808,"152":-0.21651325164793261,"153":0.3216870082167032,"154":-0.18722375483913317,"155":0.08639600946370483,"156":0.26210980611168655,"157":0.04815629510210951,"158":0.12365062928611399,"159":0.006662543762098531,"160":0.21738222853987274,"161":-0.13155678947930688,"162":0.08578084202889913,"163":0.3331884166086512,"164":0.09247359617123228,"165":-0.036443911168359246,"166":0.18843473377537473,"167":0.21360056304597239,"168":-0.1296226575669015,"169":0.007892432488125925,"170":0.4881782605926531,"171":-0.6730210874250993,"172":0.08845241877318838,"173":0.27731700035664864,"174":0.20762420875205123}},{"sx":1,"sy":1,"depth":175,"w":{"0":-0.07066653446781891,"1":-0.0485663517268043,"2":-0.045962558524357745,"3":-0.1831347826961356,"4":0.027424972670299936,"5":-0.023349265762140605,"6":-0.009757939654021983,"7":-0.03837127521535035,"8":-0.057780410497632995,"9":-0.03271177808679309,"10":-0.08129281214525112,"11":0.10826467046463224,"12":-0.11279379402997938,"13":-0.09400540777285583,"14":0.07365761795363564,"15":-0.061332713023568027,"16":0.11469193182234011,"17":-0.1718668822474322,"18":0.010785764679036167,"19":-0.04334372496690516,"20":0.06190924090198108,"21":-0.00812916067018048,"22":0.07443496135917656,"23":0.021416519090151496,"24":-0.09306545878419749,"25":-0.10835634630028652,"26":-0.006508296711457151,"27":-0.05509835037623955,"28":0.1125897284764801,"29":0.010820512189385038,"30":-0.009378506369714558,"31":-0.16623437495850185,"32":0.006345086577418995,"33":-0.11893822694544193,"34":-0.027260840153760405,"35":0.0044496536324051235,"36":-0.13993417113501633,"37":0.10652919195346541,"38":-0.11481661580824803,"39":-0.10223182550983101,"40":-0.13149535014434144,"41":-0.1566902252560142,"42":0.058042695364174834,"43":-0.015181401102369945,"44":-0.03593587797246941,"45":0.018360288030247172,"46":-0.002089827258347117,"47":-0.001927258071377118,"48":0.015221292556643444,"49":-0.07990990828685354,"50":-0.07974795996959513,"51":0.08966977937247175,"52":-0.047305903553950625,"53":0.07102806323001531,"54":-0.0287525509200622,"55":0.04458929796654453,"56":0.14066673493228504,"57":0.015054706625408101,"58":0.023594838886987865,"59":-0.09130980853195687,"60":0.13140870834525517,"61":-0.06807226252018356,"62":-0.12876345043392512,"63":-0.06711806832943627,"64":-0.013117663717743906,"65":0.1144699060724881,"66":0.030374332061216824,"67":-0.02486075937702452,"68":-0.011068490870304846,"69":-0.11586208856829794,"70":0.05688929246546987,"71":0.05931460865257119,"72":-0.06617230140347166,"73":-0.13997526881609432,"74":0.13429575873613084,"75":-0.06369795536697337,"76":0.03654180163817703,"77":0.15316964885054074,"78":-0.016376445909757877,"79":-0.020611307435623002,"80":-0.08783840601039884,"81":-0.11265923923602446,"82":-0.05670804291337394,"83":0.04528942867058681,"84":-0.011399811368296065,"85":-0.032829455385202544,"86":-0.07307629734540527,"87":-0.09005821042397441,"88":0.04185359453400254,"89":-0.009937863886706717,"90":-0.048509256808228866,"91":0.03677048905382387,"92":-0.019924305486148985,"93":0.004498592298290418,"94":0.09163512281256196,"95":0.00032111935722251803,"96":-0.13857905072544424,"97":-0.15803910608387536,"98":-0.10721572026090952,"99":-0.04506119481597362,"100":-0.10055783935300039,"101":-0.04304922914217445,"102":0.07046129945820237,"103":-0.032319084168561114,"104":0.0036626533909676407,"105":0.043913805800864306,"106":0.03165104510658029,"107":-0.008582922383557954,"108":-0.00562301422618819,"109":0.08752875779248297,"110":-0.00541015843667755,"111":0.00698579015442075,"112":-0.029161353087123778,"113":-0.005146437399241423,"114":-0.04774451515092931,"115":-0.09103708188849823,"116":-0.010823456944592025,"117":-0.02702525249015027,"118":-0.2029007246301422,"119":0.052982297060081146,"120":-0.050686378324456424,"121":-0.1062317135777569,"122":-0.036716803661105656,"123":-0.0442692361628506,"124":0.1312485589162201,"125":-0.023600195773552185,"126":0.01669288640190262,"127":-0.06693891100595012,"128":-0.018369680295707062,"129":-0.148530579091905,"130":0.09647591214748862,"131":0.05199578287689976,"132":0.026375292985598583,"133":0.08552200031548285,"134":0.11665021680563616,"135":0.0762963103883111,"136":-0.17683226894741214,"137":-0.04259695811036928,"138":0.041836594394827106,"139":-0.0074207402248155155,"140":0.0035653457559500414,"141":0.07468316999132704,"142":0.01368875724495295,"143":0.4892728982191212,"144":-0.007305858872791455,"145":-0.036929275773349424,"146":-0.07041400962906416,"147":-0.1414900751169721,"148":-0.16685557180080726,"149":-0.048742491428199024,"150":0.3621001718612898,"151":0.07456967249645867,"152":-0.01502203625185108,"153":-0.1291864672451948,"154":-0.07099229833133981,"155":-0.03669434762765258,"156":-0.048463526562850655,"157":0.4021836067740272,"158":-0.0276154157951864,"159":0.07716943333138293,"160":-0.10480444362190013,"161":0.029217470012554106,"162":-0.014266145051667935,"163":0.008508878882982768,"164":0.2878427327703454,"165":-0.03575105296246864,"166":0.03262936815271593,"167":-0.0957269395325242,"168":0.0779454498338933,"169":-0.03552649388784167,"170":-0.17108438985457317,"171":0.1399723864077494,"172":-0.09163192637698092,"173":-0.01382453512854775,"174":-0.06561615855271037}},{"sx":1,"sy":1,"depth":175,"w":{"0":-0.227952717074495,"1":-0.17438997951089963,"2":0.06258770707581596,"3":-0.29296023514704056,"4":0.030139291037415722,"5":0.04837766244200257,"6":0.2248053074594807,"7":-0.20517311237442343,"8":-0.12038714284302708,"9":0.19533673631232717,"10":-0.16348361577829604,"11":0.12347778712306325,"12":0.03203087964350409,"13":0.21623308838550678,"14":-0.019985334763718693,"15":0.022003169924632866,"16":0.24476215185002825,"17":0.03984783596715174,"18":0.11982249132786359,"19":0.016941192378843974,"20":0.35155581560294114,"21":-0.1343052414812579,"22":-0.003625321492208644,"23":0.04188860433121013,"24":-0.0033792784616840867,"25":-0.0014460538965631118,"26":0.13145420379562253,"27":0.31791712461982125,"28":-0.3011168845633582,"29":0.0949170078046181,"30":0.03534496010079802,"31":0.035397763079051826,"32":-0.11038731691256438,"33":0.026852560346868563,"34":0.3623538907653354,"35":-0.11749527860604683,"36":-0.03832783012810854,"37":0.10640039490046893,"38":0.0547941402838961,"39":-0.022817732745507545,"40":-0.010222252133519134,"41":0.3044545005073749,"42":-0.10406939430926744,"43":0.010906310102986611,"44":0.09245496563565227,"45":0.21523750934978514,"46":0.046739281265597135,"47":0.04669872911960537,"48":0.2577807404835858,"49":-0.079895172559894,"50":-0.004770723430505112,"51":0.2730813399080764,"52":-0.02698030556302878,"53":0.012116515170433526,"54":0.047442298586661866,"55":0.29427659968324343,"56":0.019086111388578682,"57":-0.006758757663191142,"58":0.13726948800727204,"59":0.17529042682020124,"60":-0.14323221832307761,"61":0.07201950389533122,"62":0.3708420965012008,"63":0.011592843319601693,"64":-0.029176938056210848,"65":0.1265169734652697,"66":-0.06050636922768596,"67":-0.20268754978724635,"68":-0.10163527323805992,"69":0.2917402233855102,"70":-0.03720479589189523,"71":0.005174771882586233,"72":-0.014537117092939363,"73":-0.3936803412781941,"74":-0.19140087684101662,"75":-0.180196596535207,"76":0.13155963411434396,"77":-0.0223252155713913,"78":0.05128920871517529,"79":0.23486443241662663,"80":-0.1896842715377102,"81":-0.3822940988328884,"82":-0.07863229737062247,"83":0.04806060661263596,"84":-0.2350862471367232,"85":0.058177270039565764,"86":-0.11435222594216705,"87":-0.30951416006312926,"88":-0.34724466961496187,"89":-0.12197349161498487,"90":0.33182701509494505,"91":0.05463678434991285,"92":-0.037038421527898005,"93":-0.06576233017298665,"94":-0.3201038763232674,"95":-0.5118477102641721,"96":-0.19213581302462587,"97":0.17096073928508124,"98":-0.0004869648076899249,"99":-0.0011021962107261227,"100":-0.0747024620054795,"101":-0.514971898918818,"102":-0.6979218762449461,"103":-0.14671003803860175,"104":0.22768285993893023,"105":0.018525016001861534,"106":-0.13555763094225362,"107":-0.19704749597547816,"108":-0.4088942839735379,"109":-0.4351774546605256,"110":-0.2208128318559021,"111":0.11154369887471094,"112":0.18352142795797302,"113":0.12649815495359787,"114":-0.3145104729459613,"115":-0.31187029114754133,"116":-0.5555273165369714,"117":-0.2288142343043385,"118":0.1808468961856413,"119":-0.08534635130028541,"120":0.045215991433783895,"121":-0.136476285454367,"122":0.21930037009778514,"123":-0.6607452839766041,"124":-0.13403779751914174,"125":0.0438164544982494,"126":-0.09037846191292793,"127":0.15342159971580724,"128":0.010627485057730736,"129":0.5472251155440773,"130":-0.828849459832898,"131":-0.048975560370475874,"132":0.023236699766023102,"133":-0.24288245829939678,"134":0.07292588737781086,"135":-0.04698592306010462,"136":0.5520046654579382,"137":-0.5896339394407635,"138":-0.05306394519089337,"139":0.2614733566738141,"140":-0.14224959972182968,"141":-0.0717228875871609,"142":0.003981749760334338,"143":-0.019027117148932078,"144":-0.42132392239068434,"145":-0.0031733621891515632,"146":0.22451703561282568,"147":-0.16314926240055466,"148":0.03966505105460632,"149":0.12817386464900135,"150":0.08026734916846988,"151":0.0988852429744378,"152":-0.10010828919605365,"153":0.08786838716566102,"154":0.051785899363462805,"155":0.07201965392624078,"156":0.0013393852133477843,"157":0.003309570603616134,"158":-0.042194398779394265,"159":-0.04592959527198964,"160":0.18206256414606883,"161":-0.11078010791015515,"162":0.08134436774823,"163":-0.042458745150193,"164":-0.006882560373358633,"165":-0.026791099623082217,"166":0.09319075807531763,"167":0.4317389677650461,"168":-0.213716181141407,"169":0.002647006143461984,"170":-0.0993724103307012,"171":0.6649437222179598,"172":0.07736161671602479,"173":0.22340127732259782,"174":0.46334538988239343}},{"sx":1,"sy":1,"depth":175,"w":{"0":-0.08389152751950725,"1":-0.16390794352262922,"2":0.07442958136812255,"3":-0.3725953275354907,"4":-0.03736493786444047,"5":-0.2281788942727485,"6":0.18028388613580584,"7":-0.0911498162216267,"8":0.014120683374697464,"9":-0.04674379010192647,"10":0.06068834601913894,"11":-0.17229039878804991,"12":0.21097293074919535,"13":0.07284429919415868,"14":-0.17228721597471486,"15":-0.018347318112616876,"16":-0.1058572238739532,"17":0.18065562476731267,"18":0.15531626453391464,"19":-0.07465736637853768,"20":0.13859802696410622,"21":-0.16337315707934152,"22":-0.10514312910019606,"23":0.11107322574565774,"24":-0.20146038037878322,"25":0.0324002280482719,"26":-0.10606608700562638,"27":-0.08611193179272937,"28":-0.10083793632411762,"29":-0.07031140531927753,"30":0.08706269962267399,"31":-0.2928945231031517,"32":-0.08000604491590595,"33":0.09651920125007761,"34":-0.0947216372315635,"35":-0.018388304413467386,"36":0.0022325264801079606,"37":0.0389189173736417,"38":-0.5295504532449082,"39":0.1612399591177761,"40":-0.16567070299377745,"41":-0.2718245339665545,"42":-0.08072225783626193,"43":-0.02335305006056916,"44":0.09683052760723102,"45":-0.46994479401200223,"46":-0.09636942718354338,"47":-0.06008792019382247,"48":0.13221564841604908,"49":0.0012711731419088213,"50":-0.007699894894882706,"51":-0.17906507148255707,"52":-0.3655844568165709,"53":0.0751169441472981,"54":0.01804294402939587,"55":0.1244349920303397,"56":-0.01813234732456085,"57":-0.006364114808047549,"58":-0.29106018889826285,"59":-0.6163274147091502,"60":0.1205854550434231,"61":-0.03743787639600886,"62":-0.08837083089622286,"63":-0.1324520494633555,"64":-0.005347135702078451,"65":0.07583757735710761,"66":-0.48729210729671285,"67":-0.193586333070818,"68":0.242050519236104,"69":0.13883046091426748,"70":0.0312627696389501,"71":-0.02500846208785509,"72":-0.1643432521163201,"73":-0.5583546613517583,"74":-0.28450634592916124,"75":0.20237225156160163,"76":0.052882484976817586,"77":-0.021248776053099324,"78":-0.21776503634787672,"79":0.34265939572669,"80":-0.6743545468927631,"81":-0.0782259390330583,"82":0.05226670119321152,"83":0.04844339416454596,"84":-0.10194031087816986,"85":-0.14855979381318526,"86":0.13958524919511633,"87":-0.5470880475837637,"88":-0.2045813490381406,"89":0.14142402561804973,"90":0.05994383253251482,"91":-0.11889798798340676,"92":-0.1061209445672784,"93":0.1323429032150209,"94":-0.5413868487336394,"95":-0.12594668318523905,"96":-0.04511434722217497,"97":-0.062302294036265395,"98":0.016301045561259803,"99":-0.15379679138625224,"100":-0.006908483870260306,"101":-0.5486319896740687,"102":-0.009857289400202699,"103":-0.36383235884040155,"104":0.25451649724506953,"105":0.0010019727159676036,"106":0.043138327552007465,"107":-0.005955487042491856,"108":-0.422778854655402,"109":-0.2663604601639952,"110":-0.04539416417211355,"111":0.1751144739629076,"112":-0.026955790988127126,"113":-0.03434702920009086,"114":0.10943744682324642,"115":-0.1627926978012944,"116":-0.35370087665163,"117":-0.20396304197476606,"118":0.15762792292103028,"119":-0.014611757104283146,"120":0.12970080267371797,"121":0.16684572332854175,"122":0.2592321138021287,"123":-0.3093601445061021,"124":-0.2595690255625167,"125":0.0844865117729702,"126":-0.17627232544334914,"127":0.11709624770000537,"128":0.30322288210464526,"129":0.23300677330534175,"130":-0.43544927084682067,"131":-0.07434809947092565,"132":0.08089528044735206,"133":-0.14796833700906592,"134":0.07109647731710385,"135":0.1760399705063613,"136":0.3838826040681711,"137":-0.26198641131381983,"138":0.06170626638404926,"139":-0.03756171951251178,"140":-0.004817641569598671,"141":-0.1258583307197997,"142":-0.030517305602336786,"143":0.20722331985384895,"144":-0.23233164689817165,"145":0.14618544638835695,"146":-0.10921315492502492,"147":-0.06747397889033972,"148":-0.07534924305621608,"149":-0.17405399408688663,"150":0.17912229366292723,"151":0.03139095652476266,"152":-0.08437814912897243,"153":-0.013355861905279499,"154":-0.1130629082198184,"155":-0.025204349890938935,"156":0.03847646906909087,"157":0.07837384179861553,"158":0.09246937861450452,"159":-0.014697342983662839,"160":0.01824624271531341,"161":-0.06893105373565156,"162":-0.05126320517356794,"163":0.03392720305795444,"164":0.1657291487853918,"165":-0.03359731827796107,"166":0.17406038558433082,"167":0.08231556473357933,"168":0.03702071176031537,"169":0.02825908750924649,"170":0.2348659574726837,"171":0.383312634449742,"172":0.041179843006536584,"173":0.1371853525216514,"174":0.0027592246514174692}},{"sx":1,"sy":1,"depth":175,"w":{"0":0.10877876949723157,"1":0.045543352552480536,"2":-0.0051465548858511895,"3":-0.045898400380968735,"4":-0.10959359731869878,"5":0.010346197041291881,"6":-0.010086930238061904,"7":0.028735692388980025,"8":-0.08341900680705595,"9":-0.05308566172662851,"10":-0.15110155622040655,"11":0.016897665952880597,"12":-0.03720938139179581,"13":-0.05627609450035852,"14":-0.07583890179275751,"15":-0.0451012008029644,"16":-0.09397274208936988,"17":-0.11918482858926999,"18":-0.06134322263054756,"19":-0.026717156379966668,"20":-0.1296883256210524,"21":-0.050796216326989996,"22":-0.009020155923701928,"23":0.0002313697208622182,"24":-0.0017882960158106536,"25":0.030678221388182905,"26":0.13987231260253527,"27":-0.09334283751544085,"28":0.013852578715475796,"29":-0.00706810700775614,"30":-0.13491705442224622,"31":-0.17004115668692393,"32":-0.07095137126395305,"33":-0.06464277419363265,"34":-0.023524862492097415,"35":0.13103306088767316,"36":0.019748481460749555,"37":-0.004751924860357232,"38":-0.09331460543732273,"39":-0.10049777456200498,"40":-0.01633541062744833,"41":-0.08109443056355153,"42":-0.009508825412680196,"43":0.027067993210275403,"44":-0.038912809645767425,"45":-0.08296151781769524,"46":-0.08000245127078112,"47":0.006300099391979157,"48":-0.06878171392616265,"49":0.007987508870915223,"50":-0.06908539574299703,"51":0.07646963975025567,"52":-0.08937136232038789,"53":0.02628136524836998,"54":-0.11271453339949294,"55":-0.029617178660277074,"56":-0.0780785772622605,"57":0.036964733910705004,"58":-0.11425882479550031,"59":-0.041379950157196144,"60":0.01618032864315867,"61":0.10909311347693983,"62":0.1266337153718227,"63":-0.06686775380185872,"64":-0.032429971261087966,"65":0.010494817654945608,"66":0.003826973222828444,"67":-0.016901029872765188,"68":-0.023366317839870362,"69":-0.060142235783041426,"70":0.0012660856030345562,"71":-0.025556857137721645,"72":-0.016301962678883463,"73":-0.11155449376145413,"74":-0.026606995791739484,"75":-0.18341168714900807,"76":-0.052989606766588364,"77":0.017188102911512113,"78":0.008118745297669929,"79":0.1000941824154489,"80":-0.13659272257435517,"81":-0.03275181838516699,"82":-0.06918341192569515,"83":0.07465042070866289,"84":0.0410010140631667,"85":0.021066913880535217,"86":-0.04626829764071223,"87":-0.1570838318751457,"88":-0.07253668386171545,"89":0.07842036766540783,"90":-0.0815546439870411,"91":0.07917097528071398,"92":-0.10673297904429913,"93":0.061770881142947,"94":-0.07602998958648802,"95":0.14925628204488758,"96":-0.022163320707244107,"97":0.04167947724075619,"98":-0.028675093243129373,"99":0.02312724219827508,"100":0.010741787367304573,"101":0.010080797926822498,"102":0.033075966493844235,"103":-0.0680668822274441,"104":0.10410941058879059,"105":-0.02196346689855625,"106":-0.0708341888210689,"107":0.03454519195178934,"108":-0.0913180669538364,"109":-0.08281186389363575,"110":0.026855226521368857,"111":-0.04187035521334715,"112":-0.03168713804913082,"113":0.0700525217300188,"114":-0.05319533932687494,"115":-0.08519959985441897,"116":0.09692914711735415,"117":0.05250224439638947,"118":-0.17296605247302677,"119":-0.12655670599790356,"120":0.02217682203676473,"121":-0.026064927267258804,"122":-0.03163697295579741,"123":0.027151390126618057,"124":-0.09208258509332688,"125":-0.048864634399308056,"126":0.012653049666952371,"127":-0.021535331666706552,"128":-0.07355054790454767,"129":0.058786242401370065,"130":0.01952692499535381,"131":-0.13687659866585375,"132":-0.015950467408026674,"133":-0.03163331804459869,"134":-0.018438143053337713,"135":-0.1327050171945755,"136":0.1103978363830933,"137":0.03371310490706435,"138":-0.036499389813856906,"139":-0.0008516983314448425,"140":-0.03653146579616916,"141":-0.028546337190728452,"142":-0.11142008229502169,"143":-0.0691535479942792,"144":0.02842521607113383,"145":0.04867140886204592,"146":-0.11845676640700331,"147":-0.07027798816200026,"148":0.007825270164207756,"149":0.03951458769258296,"150":-0.24165470977027073,"151":0.0034599560927216135,"152":-0.19867703711983417,"153":-0.0007448597351028379,"154":-0.04344453376018587,"155":0.06835078070401568,"156":-0.08141342775312264,"157":-0.15394647515705265,"158":0.1596764186197099,"159":0.18766616921241347,"160":0.10395360198822494,"161":0.0035007666332109826,"162":0.026161641281282722,"163":-0.12362420228550518,"164":-0.24731038874904684,"165":-0.04998708167713813,"166":-0.04830837996981537,"167":-0.0041944956291762245,"168":0.02064650334863348,"169":0.003730581899729687,"170":0.006807367727869792,"171":-0.1057653971834317,"172":0.015685353284703146,"173":0.04661678906047327,"174":-0.09034509857903872}}],"biases":{"sx":1,"sy":1,"depth":20,"w":{"0":-1.266231207025665,"1":0.02518386854139512,"2":0.06129931004340705,"3":0.05542943438425898,"4":2.5915527093400823,"5":0.8643888722628147,"6":-2.189045176038113,"7":1.8594062750382283,"8":0.0498241723801808,"9":0.07118866991826864,"10":-0.29363029441785304,"11":0.36252530986674836,"12":0.20734060032008264,"13":0.39302127079498633,"14":-2.3046656681779516,"15":-0.6927368502752219,"16":-0.058878369154623855,"17":0.6706836527753168,"18":0.36767676206371996,"19":-0.07137127071697168}}},{"out_depth":20,"out_sx":1,"out_sy":1,"layer_type":"tanh"},{"out_depth":20,"out_sx":1,"out_sy":1,"layer_type":"fc","num_inputs":20,"l1_decay_mul":0,"l2_decay_mul":1,"filters":[{"sx":1,"sy":1,"depth":20,"w":{"0":-0.4596459483875283,"1":0.23829796082968033,"2":0.2912561822642396,"3":-0.5264336106464529,"4":0.05149697948278284,"5":0.10015491238992133,"6":0.11158068282111974,"7":0.030919784862741537,"8":-0.3804675654393809,"9":-0.36443819878116446,"10":0.04191175447406916,"11":0.14596970146537616,"12":0.3659338613700593,"13":0.27299079855869585,"14":0.07103103992961445,"15":0.062006665438327356,"16":-0.4358606708278007,"17":-0.09236841416341669,"18":0.07957402185323041,"19":0.10318095785210046}},{"sx":1,"sy":1,"depth":20,"w":{"0":-0.16005009102797665,"1":-0.16726935574747354,"2":-0.3495445214594822,"3":0.5657721237175173,"4":-0.10740150116979953,"5":0.2168207397104913,"6":0.28231318293711877,"7":-0.11233047981619888,"8":-0.014974204446027596,"9":0.5342848087907994,"10":0.1509249512899923,"11":-0.3604500308156797,"12":-1.0546163407787008,"13":0.03937684417327282,"14":0.13357576304032803,"15":0.16559959443524455,"16":0.7876402585374946,"17":-0.1483376002823432,"18":0.1370759546206193,"19":-0.2930094382616479}},{"sx":1,"sy":1,"depth":20,"w":{"0":0.21547767755232575,"1":0.4215264417549792,"2":0.21492534209231443,"3":-0.33879566176724435,"4":0.2820521964823826,"5":0.140802421627001,"6":-0.6955226538467146,"7":0.6661576178628665,"8":-0.8815024856640794,"9":-0.790654103259909,"10":-0.20916496337342672,"11":-0.6015126571195281,"12":-0.0371840039602446,"13":0.27513534442785204,"14":-0.9411425529071922,"15":0.30087959118430985,"16":0.219234885261371,"17":0.022516226143158864,"18":0.1762706455132954,"19":0.4667016765247097}},{"sx":1,"sy":1,"depth":20,"w":{"0":0.26917357521981466,"1":0.5162837205341927,"2":0.3189947695919033,"3":-0.3543753263542538,"4":-0.11514665865324802,"5":0.39463008833900215,"6":-0.0018958338581818968,"7":0.3516004339193581,"8":-0.28110277701805225,"9":-0.15140418544660228,"10":-0.3546687747841584,"11":-0.09941130116785256,"12":0.4084561400196396,"13":0.22103493169256755,"14":-0.2900577738373215,"15":0.22058353553911816,"16":-0.1350288047182152,"17":0.03559071149914014,"18":-0.07454969693952988,"19":0.12413022407923771}},{"sx":1,"sy":1,"depth":20,"w":{"0":-0.0940595828531246,"1":-0.11247531386377087,"2":0.002851616577410189,"3":-0.3233751445181696,"4":0.2566706719949439,"5":-0.48114483954309095,"6":-0.05124621104027158,"7":0.10173549144324014,"8":-0.1307374888913201,"9":-0.6412746174436318,"10":0.004884676254034989,"11":0.3180190223476956,"12":0.1901002618273429,"13":0.09710099430509037,"14":0.10986596454021998,"15":-0.41127908029084775,"16":-0.4798595394351203,"17":0.02431220381043289,"18":0.37087383757437986,"19":0.3539934121122571}},{"sx":1,"sy":1,"depth":20,"w":{"0":0.3807185531683848,"1":0.3012900660220521,"2":-0.10571140723399695,"3":0.05485406333185771,"4":0.2812223219656596,"5":0.16659805800196392,"6":-0.22759097884022783,"7":-0.21115963531917492,"8":0.41955314597593496,"9":0.4494887165424862,"10":0.06808122117498012,"11":-0.08661346346150922,"12":-0.538921825596723,"13":-0.4029695648825461,"14":0.019269178182056874,"15":0.45025801249306213,"16":-0.028998575892952762,"17":-0.01773261703890022,"18":-0.37690886918600297,"19":-0.33550154619827255}},{"sx":1,"sy":1,"depth":20,"w":{"0":-0.053421453539021155,"1":0.10663125463185265,"2":0.19613984770281204,"3":-0.18080188516541446,"4":0.8738726343808084,"5":-0.19706045120734403,"6":-0.5877374509062737,"7":1.0334544607938048,"8":0.18282664405611557,"9":-0.3870030724340534,"10":-0.4779559631356297,"11":-0.04853941258421089,"12":-0.1268113934803414,"13":0.14386017540394347,"14":0.50759875158663,"15":-0.056265656772329836,"16":0.5112807920171032,"17":0.2139987187653511,"18":0.34466016652724457,"19":-0.17141570507593185}},{"sx":1,"sy":1,"depth":20,"w":{"0":0.8805851037230609,"1":0.016187508873060134,"2":-0.049079701999963934,"3":-0.040456876049722146,"4":0.5521790225788337,"5":0.007415928335019795,"6":0.08949585453735649,"7":0.11345689552323414,"8":0.17772738615386874,"9":0.2449957211689023,"10":0.1548313615607004,"11":-0.04732364660607516,"12":-0.13525723733122835,"13":-0.6584446198207193,"14":0.5337840127032414,"15":0.29452315497364917,"16":0.4253754708773922,"17":-0.1947839586775151,"18":-0.27158387635233,"19":-0.4872564741296441}},{"sx":1,"sy":1,"depth":20,"w":{"0":0.1276241430081043,"1":0.46714180161726887,"2":0.6056830381819805,"3":-0.19109081030869315,"4":0.37744856657588827,"5":0.2939542980915244,"6":-0.8742265912623555,"7":0.6756768693817907,"8":-0.10727960544183007,"9":-0.6495802342062995,"10":0.21705817803579386,"11":0.16432623494252402,"12":-0.16967573758409343,"13":0.08009932442572897,"14":-0.33565462914345023,"15":-0.42534555165229415,"16":0.633483077469713,"17":0.08404334364592429,"18":0.05949281203399645,"19":0.7496781093545144}},{"sx":1,"sy":1,"depth":20,"w":{"0":-0.33141620716682657,"1":0.48636390412866254,"2":0.5359468356668656,"3":-0.11901805389447115,"4":0.06450632091736731,"5":0.5605487770013488,"6":-0.8231137570601164,"7":0.3264575687532741,"8":-0.021332177398197722,"9":-0.3670025018164759,"10":-0.5341966936451393,"11":-0.8697447512838846,"12":0.467153068619564,"13":0.30286239560458056,"14":-1.1851783241738691,"15":0.11536002639078866,"16":0.3598279239114723,"17":0.3140665890946379,"18":0.17509429451314254,"19":0.12854502598749917}},{"sx":1,"sy":1,"depth":20,"w":{"0":0.7238211870522295,"1":-0.21703888594401222,"2":0.4543728156506336,"3":-0.1292032734708773,"4":-0.6307647377380065,"5":-0.5834706291391889,"6":0.9745443801051521,"7":-0.710489126817038,"8":0.09755656211264528,"9":-0.20815272174320232,"10":0.41748859266273136,"11":-0.8899430851980875,"12":-0.9515594240035861,"13":-0.1788556572823407,"14":0.7599664214004354,"15":0.7340661778281884,"16":-0.413681843566903,"17":-0.6913082670523887,"18":-0.2578220464209522,"19":-0.2489413134020643}},{"sx":1,"sy":1,"depth":20,"w":{"0":-0.5546530196757387,"1":-0.22399974230331865,"2":-0.5529454298286661,"3":-0.13295088659586177,"4":0.7162540699034654,"5":0.7748859982957873,"6":0.36312584243948476,"7":0.34793419829544964,"8":0.3407464281958125,"9":-0.19778228406800696,"10":-0.3661517097635016,"11":0.23668912596752123,"12":0.015930342771734017,"13":-0.40951001443203505,"14":-1.010046013375115,"15":-0.5436738745648203,"16":0.6808225845729443,"17":-0.038761749284460155,"18":0.24737427300446874,"19":-0.15361889703883747}},{"sx":1,"sy":1,"depth":20,"w":{"0":-0.2855967294311799,