
//<![CDATA[

// a few things don't have var in front of them - they update already existing variables the game needs
lanesSide = 3;
patchesAhead = 60;
patchesBehind = 10;
trainIterations = 100000;

var num_inputs = (lanesSide * 2 + 1) * (patchesAhead + patchesBehind);
var num_actions = 5;
var temporal_window = 0;
var network_size = num_inputs * temporal_window + num_actions * temporal_window + num_inputs;

var layer_defs = [];
layer_defs.push({
    type: 'input',
    out_sx: 1,
    out_sy: 1,
    out_depth: network_size
});
layer_defs.push({
    type: 'fc',
    num_neurons: 30,
    activation: 'tanh'
});
layer_defs.push({
    type: 'fc',
    num_neurons: 30,
    activation: 'relu'
});
layer_defs.push({
    type: 'fc',
    num_neurons: 25,
    activation: 'relu'
});
layer_defs.push({
    type: 'fc',
    num_neurons: 25,
    activation: 'tanh'
});
layer_defs.push({
    type: 'regression',
    num_neurons: num_actions
});

var tdtrainer_options = {
    learning_rate: 0.005,
    momentum: 0.0,
    batch_size: 128,
    l2_decay: 0.01
};

var opt = {};
opt.temporal_window = temporal_window;
opt.experience_size = 10000;
opt.start_learn_threshold = 5000;
opt.gamma = 0.99;
opt.learning_steps_total = 10000;
opt.learning_steps_burnin = 1000;
opt.epsilon_min = 0.0;
opt.epsilon_test_time = 0.0;
opt.layer_defs = layer_defs;
opt.tdtrainer_options = tdtrainer_options;

brain = new deepqlearn.Brain(num_inputs, num_actions, opt);

learn = function (state, lastReward) {
    brain.backward(lastReward);
    var action = brain.forward(state);

    draw_net();
    draw_stats();

    return action;
}

//]]>
    
/*###########*/
if (brain) {
brain.value_net.fromJSON({"layers":[{"out_depth":490,"out_sx":1,"out_sy":1,"layer_type":"input"},{"out_depth":30,"out_sx":1,"out_sy":1,"layer_type":"fc","num_inputs":490,"l1_decay_mul":0,"l2_decay_mul":1,"filters":[{"sx":1,"sy":1,"depth":490,"w":{"0":0.050593531475006275,"1":0.01931459665602275,"2":0.0331950086912926,"3":-0.016789492995499866,"4":-0.028869962757115893,"5":-0.002922705429380983,"6":-0.023260052079963785,"7":0.009033520643854532,"8":0.010127336188602901,"9":-0.013562939486361057,"10":0.04794544946467194,"11":-0.0013137978646734492,"12":-0.027162825633651865,"13":-0.021204410560570302,"14":0.05898956587103584,"15":-0.025566058141187772,"16":0.03498067066657324,"17":0.01770088483303093,"18":0.023704640034202504,"19":0.04881623501717183,"20":0.062218499347099915,"21":0.025981191949914606,"22":0.029818764967202576,"23":-0.01966528334397281,"24":-0.02792698773504092,"25":-0.037928883045442806,"26":-0.007741808891816805,"27":0.057947898170151,"28":-0.04782200107215623,"29":0.06053024481492655,"30":0.025998978059076926,"31":0.015753027498850995,"32":-0.007148709553914657,"33":-0.1012959766315934,"34":-0.025891946656260025,"35":0.0034759418026259793,"36":0.014281514794546162,"37":-0.03050985992899557,"38":0.01510597817742032,"39":-0.03358610389487687,"40":0.04611866349962113,"41":0.025690763800385083,"42":0.07522111830775476,"43":-0.02640848262557565,"44":-0.039762486515853096,"45":0.011450711440993574,"46":-0.06878729782499116,"47":-0.037018391599946576,"48":0.028624249295059197,"49":0.01774944211591219,"50":-0.029762331812611946,"51":0.001283947340610697,"52":0.057785924902892145,"53":0.0344348102990755,"54":-0.0884333197908674,"55":0.053280142683249675,"56":-0.009737080350672066,"57":0.08673746317617745,"58":0.12800075634129987,"59":0.17080095916802718,"60":0.1956985975744932,"61":0.15396326306544145,"62":0.16091595684077148,"63":-0.04578921951033153,"64":-0.03169170637517659,"65":0.09403220453425838,"66":0.0930685559076621,"67":0.1479521512402753,"68":0.056493982263278585,"69":0.08362401380582483,"70":-0.1182936426779764,"71":0.022102482573696795,"72":0.1049233523920505,"73":0.041151988856230386,"74":0.1028186766034846,"75":-0.06320422335582898,"76":-0.07227224460474324,"77":0.0318477938808956,"78":-0.019433312381630114,"79":0.05422297792846054,"80":0.00535338029111046,"81":0.09665846505609244,"82":0.038169860574491725,"83":0.07783663581021441,"84":-0.04803133647530329,"85":-0.03442722885824047,"86":-0.0294062057419811,"87":0.09907231363332492,"88":0.09965236275527255,"89":-0.012133226162965728,"90":-0.0026229135199702497,"91":0.018312915172963823,"92":0.06619501249470645,"93":0.016311407658427646,"94":0.11172604273155497,"95":0.16322421924961247,"96":0.002025127049691894,"97":0.00841257650199093,"98":-0.05327781465756403,"99":0.02987263438495225,"100":0.029712435002637934,"101":0.08761871083723803,"102":0.029227400946524495,"103":0.06486593904543116,"104":0.07584612675568717,"105":-0.030035167407833862,"106":-0.040488939497181436,"107":0.06471296826950686,"108":0.053658079429724295,"109":0.0937924774786968,"110":-0.02811660673660313,"111":0.03961323462501258,"112":0.02326198115241872,"113":0.022294741991730878,"114":0.008797421485602648,"115":0.10999053476816709,"116":0.019866910077006684,"117":0.049595628632847166,"118":-0.027269247346293407,"119":0.024392082993974475,"120":0.06090728428414202,"121":0.0711686629757104,"122":0.03613203740811202,"123":0.05801925089789292,"124":-0.029718911467236438,"125":0.021483868668751037,"126":0.019683421875343783,"127":0.026684483237940076,"128":0.09302114003064993,"129":0.08327708707535844,"130":0.014267015704307325,"131":0.046696233717013425,"132":0.000668820664454373,"133":-0.006380884042578463,"134":0.10153307520861839,"135":-0.025994654234011046,"136":-0.017384278802458956,"137":-0.003711340836872414,"138":-0.0545597263804142,"139":-0.002118935243514456,"140":-0.01553840921267767,"141":0.05694314761810233,"142":0.05389932255453253,"143":0.035626989296355334,"144":0.062118952297077215,"145":0.0391516681337852,"146":-0.043658475758617275,"147":0.003768315949930429,"148":-0.03403558664760507,"149":0.07101848740807308,"150":-0.005427392887090494,"151":0.05228806605116831,"152":0.07300726246547054,"153":0.06441392840216886,"154":0.06902115689200021,"155":-0.00882260537801026,"156":0.048644046600858803,"157":-0.035918665566711985,"158":0.01146734100408565,"159":-0.017843229568648054,"160":-0.05519766042944975,"161":0.014008327525182067,"162":0.03951680358851413,"163":0.08524499498335018,"164":0.039076044395953025,"165":0.02435466704442112,"166":0.0117085793833028,"167":0.04041628424523157,"168":-0.00915769546542998,"169":0.03472272467097006,"170":0.030183746495682076,"171":-0.013809986809402241,"172":0.023837825454699663,"173":0.04347713549549202,"174":-0.0010382774068773606,"175":0.0242832537070118,"176":-0.016630740286451513,"177":0.061368533109030225,"178":-0.057074555968391665,"179":-0.017190773232576402,"180":0.030402827519232043,"181":0.07314178072738763,"182":-0.03288021793522473,"183":0.014638319668702202,"184":0.10941997124620821,"185":0.003824794900836713,"186":0.049134056378565015,"187":0.13901658809222325,"188":-0.0003859426194984472,"189":0.036706025448698755,"190":-0.0377502051326635,"191":0.09198910812896385,"192":-0.012135773866479186,"193":0.012734453148526092,"194":0.12595383724903148,"195":-0.016056981034691515,"196":-0.0441775305013215,"197":-0.03223323304000911,"198":-0.006810117507958567,"199":-0.03186554920389761,"200":0.01571129261911171,"201":-0.023285014392751484,"202":0.006909073942184759,"203":-0.042442747806608776,"204":0.056741204511043836,"205":0.04036191097847977,"206":-0.054042284423883084,"207":0.04553421050340805,"208":0.0475673131098229,"209":0.05464881944488447,"210":-0.08869521075709161,"211":-0.07319712003231225,"212":-0.0006456707829505517,"213":-0.007125527164744854,"214":-0.0028986868054387146,"215":0.020453876806087096,"216":-0.039347061811979875,"217":0.01671496289997939,"218":-0.07584518682270908,"219":0.03205349645820049,"220":-0.08504754168018827,"221":0.0014435274496017213,"222":0.08204933049569257,"223":0.07580473219987928,"224":-0.007184637726078954,"225":-0.0957716791543191,"226":0.042724733498767695,"227":-0.17680742515749706,"228":-0.08165690523232237,"229":0.030104911570085918,"230":0.02573255269563848,"231":-0.0025114458166297796,"232":-0.040945028639030656,"233":0.00642068793962387,"234":-0.16422376670251013,"235":0.0021852897892496053,"236":0.03403425974755672,"237":0.04413173885071873,"238":-0.03402902987117427,"239":-0.01256425909383128,"240":0.03054650041196292,"241":-0.1179852458066528,"242":-0.09932064849675797,"243":-0.043640841456893835,"244":0.04431574232341455,"245":0.0677156708772972,"246":0.02116796903174038,"247":-0.028901467529207425,"248":-0.17980057715491843,"249":-0.07712616927131481,"250":0.1219079169353432,"251":0.0918642322821173,"252":-0.05924347189621061,"253":-0.006817800491010132,"254":-0.05999888777003411,"255":-0.089549383199356,"256":-0.06079880392781468,"257":-0.02520834016231895,"258":0.057889683537605735,"259":-0.03998242555417978,"260":-0.042342486592288814,"261":0.04904955908263803,"262":-0.30574755576290263,"263":-0.07780717183218121,"264":0.07153324877429508,"265":0.06313889160838189,"266":0.0384080521145383,"267":0.0064007636739920595,"268":-0.027616275246703886,"269":-0.1933388710563392,"270":-0.04763699639266928,"271":0.015510367620507975,"272":0.06421639342272929,"273":-0.01732814153271212,"274":-0.03296174493428846,"275":-0.01266894096118402,"276":-0.279627733508917,"277":-0.06673683616121207,"278":0.04983364343775292,"279":0.14673246704178455,"280":0.021152604070922263,"281":-0.02367710181181375,"282":-0.027109423241550426,"283":-0.249965227588105,"284":-0.1286431809942382,"285":0.037915138739089124,"286":0.04282933512254698,"287":0.036050430815369336,"288":0.010978869147546855,"289":-0.02940357654876304,"290":-0.3798136583808111,"291":-0.12090708560863161,"292":0.06628526147798393,"293":0.05001943110109645,"294":0.014556086227427635,"295":0.0584405032314452,"296":-0.03068690992880723,"297":-0.4318275865109024,"298":-0.15454270054201155,"299":0.006754569546548853,"300":0.06871453990568004,"301":0.03610479136910656,"302":-0.022698165971565255,"303":-0.1272183073494218,"304":-0.43777325910033543,"305":-0.11049654326078931,"306":-0.0057326049662032846,"307":0.11388320476741874,"308":0.06664199724634255,"309":-0.023832099220429854,"310":-0.10806565440513446,"311":-0.4507134532713313,"312":-0.17371223379091844,"313":0.02393908933517787,"314":0.052241498757923,"315":-0.013076723953153385,"316":0.03105898276607118,"317":-0.1415032784026789,"318":-0.4824540861808289,"319":-0.11293194258055818,"320":0.043477145291446535,"321":0.04052172082733301,"322":-0.02286362200104035,"323":-0.01237626771679341,"324":-0.1404108292796178,"325":-0.5105941713724803,"326":-0.10792578649160847,"327":-0.05755728472542926,"328":0.05079278532769862,"329":-0.07728044511283245,"330":0.02693003164436202,"331":-0.16052322055640192,"332":-0.5078604220721195,"333":-0.14166337965947842,"334":0.025201129889978264,"335":0.07105595089116938,"336":0.03457315275052034,"337":0.025535426080947162,"338":-0.113226464400101,"339":-0.7925228294432688,"340":-0.11894122556894314,"341":0.017468020887079168,"342":0.0731799003740177,"343":-0.013868524729040916,"344":0.029995135575427836,"345":-0.1867298954753249,"346":-0.49708688507889276,"347":-0.1743227039470209,"348":0.025604800541698048,"349":0.07046065934231187,"350":-0.05503232550680793,"351":0.04273061199827235,"352":-0.2465742438368533,"353":-0.6554300316173763,"354":-0.0995117113514134,"355":0.07179967959114787,"356":0.08203706712244035,"357":-0.025680069946914904,"358":0.010538858795077986,"359":-0.2413474230305127,"360":-0.6723178077656653,"361":-0.1800121410354836,"362":0.08938063613343375,"363":0.03167360504301271,"364":-0.05693746321982776,"365":0.03447738166196021,"366":-0.16586565367844366,"367":-1.094900100320907,"368":-0.1296236860452577,"369":0.015041524385232269,"370":0.020782482389744283,"371":0.06412881107833343,"372":-0.054088072508549655,"373":-0.10266904945447256,"374":-0.9885539222113163,"375":-0.13735549303959546,"376":0.10489624549048604,"377":0.12428229657924812,"378":0.03030047230346738,"379":-0.018950965799786217,"380":0.02124749205725032,"381":-0.7659757786304712,"382":-0.11675927871812011,"383":-0.006739112612026053,"384":-0.009090590970735186,"385":-0.08547500212309243,"386":0.028564659052303962,"387":-0.1200427600236454,"388":-0.44815786906011085,"389":0.05614600137194308,"390":-0.024357255067586812,"391":-0.0084416184693544,"392":-0.015247258352523873,"393":-0.010474529602844746,"394":-0.03552059128706117,"395":0.20878288393717864,"396":-0.0752679067001788,"397":0.0817921559094392,"398":-0.02016941237119375,"399":0.00421175600473798,"400":-0.0878098981200232,"401":-0.05938868521781499,"402":0.2658460460837302,"403":-0.09076917990836643,"404":0.06772023742088873,"405":0.10849095658825823,"406":0.06861908868254794,"407":-0.02213525771269489,"408":0.0041604248781964125,"409":0.17807128480479703,"410":-0.04433295306253583,"411":0.030259446782126564,"412":0.08676799407533077,"413":0.04568615702195437,"414":-0.02849570585341864,"415":0.032617008105915626,"416":0.21959281522879806,"417":0.013301034052932637,"418":0.01084395801759129,"419":0.010669274295348526,"420":0.01608063978269954,"421":-0.06715352440291765,"422":-0.01972958735950635,"423":-0.23323544471289837,"424":0.08059634237006576,"425":0.04833010515580438,"426":0.05327404343410869,"427":-0.015247165714801678,"428":-0.06002749523390047,"429":0.006929155121945115,"430":-0.15323938038395854,"431":-0.030682083724761493,"432":0.055727472207315526,"433":0.15810364495881496,"434":-0.01595062556131447,"435":-0.006513162860194152,"436":0.02837197110761118,"437":-0.25637804909886674,"438":0.07834255630927182,"439":0.04055087380140393,"440":-0.04191682187546229,"441":-0.03146653185690778,"442":0.021101587349711192,"443":0.07283934265397492,"444":-0.25975978610510864,"445":0.0731949856961422,"446":0.023062783209556844,"447":0.03594424080024046,"448":0.04193416770380858,"449":0.10050573016337483,"450":0.10357046102861936,"451":0.1406102934163586,"452":0.04832697636329859,"453":0.04882549496438097,"454":0.0849831591133665,"455":-0.025130875803442455,"456":-0.00045110445406574184,"457":0.06031236781323604,"458":0.21060198412263667,"459":0.07841527109462498,"460":0.025648289302132685,"461":0.005442340001619638,"462":0.025881061741037895,"463":0.05701060196217959,"464":0.12958501151063465,"465":0.1600937865410575,"466":0.09109763157737022,"467":0.039644856641712696,"468":0.07434827808959717,"469":-0.060802845761520584,"470":0.10181238286563596,"471":0.09794363440805426,"472":-0.006009158672234677,"473":0.028898768334896116,"474":0.009322896879989304,"475":-0.04654074822980875,"476":0.08162006337985124,"477":0.1121727311490832,"478":0.17254760578969966,"479":-0.06681687366291479,"480":0.1055959850560833,"481":0.022856708352108807,"482":-0.059340306497634936,"483":-0.06151303991876817,"484":0.03491683777775121,"485":0.11849686696361458,"486":0.012771825843771005,"487":0.11486676629235672,"488":0.012221253505458671,"489":0.09188301900291385}},{"sx":1,"sy":1,"depth":490,"w":{"0":-0.026031161214746513,"1":0.042245325691710425,"2":0.04744767822422558,"3":-0.044996160769322315,"4":0.005013938107608662,"5":-0.053684024555146315,"6":0.05328125503921623,"7":-0.020012596633797272,"8":-0.08490038231406873,"9":0.06339478920156139,"10":-0.0389258177668998,"11":-0.07882762116049376,"12":-0.043525703890621964,"13":-0.009760440651680028,"14":-0.04640165806340144,"15":-0.0009913536583718162,"16":0.00040931230206387126,"17":-0.05317758868660449,"18":-0.014184343089966323,"19":-0.01926599627604378,"20":0.01144908649562314,"21":-0.032621717883478445,"22":-0.006520523780295099,"23":0.010320393894801551,"24":-0.11233298277132524,"25":0.06588193010265929,"26":0.014011019252966418,"27":0.010093521283461979,"28":0.01563578143959109,"29":-0.03756602276281935,"30":0.025601709914721025,"31":-0.018818534561424925,"32":-0.003871704318528357,"33":0.005790153700729269,"34":-0.03223579806016521,"35":-0.017190225747622932,"36":-0.024871509708272743,"37":-0.06156668951706485,"38":-0.024654519860042964,"39":-0.05708454871046175,"40":0.004189258556590735,"41":-0.003452277359855079,"42":0.026666854276405902,"43":0.010950392641753796,"44":-0.02594678501325669,"45":0.013225085044147164,"46":0.0358879198189112,"47":0.06158418456843575,"48":0.07330685623491867,"49":-0.0095879556179838,"50":0.008672660964543647,"51":0.004443472040040675,"52":0.024524969015962985,"53":-0.03906958321552384,"54":0.054171045621323584,"55":-0.05411809060053877,"56":-0.024043880927342276,"57":0.27023755048558684,"58":0.14596261605788152,"59":-0.021014125606584208,"60":-0.034964796022192705,"61":-0.045525826120650766,"62":0.12550515266765294,"63":0.16498538844932661,"64":0.19953499869754804,"65":0.03681253451464261,"66":-0.21724979800255292,"67":0.06650116951020449,"68":0.05298250559571609,"69":0.12143606865389038,"70":0.01595591463980448,"71":0.006129794351603879,"72":-0.02760074084556922,"73":-0.04790925797714569,"74":-0.024940495063936016,"75":0.052637705412729045,"76":0.036311677798037345,"77":0.07576677731591544,"78":0.12640929590515929,"79":0.017469326765137197,"80":-0.15516131091659102,"81":-0.03808331414605361,"82":0.10781134666839348,"83":-0.07901916629205032,"84":0.09586638808919477,"85":0.05308511384754776,"86":-0.08584643124072695,"87":-0.060923699161706625,"88":-0.08602432013048689,"89":0.20245975956816756,"90":-0.1903772627817071,"91":-0.02403227554263173,"92":0.11774571886213328,"93":-0.003151225830152354,"94":-0.16650816744548405,"95":-0.2053608570642312,"96":0.18100935430038365,"97":-0.2161417110891631,"98":0.0754886408174501,"99":-0.016218439668199573,"100":-0.23719774934485333,"101":-0.13668614169710327,"102":0.00539092063786409,"103":0.18941580942308478,"104":-0.007486025151271953,"105":0.009684037459409758,"106":0.15408833325422266,"107":-0.19519391284463364,"108":-0.02599698066114796,"109":-0.18203681611429243,"110":0.2341538152204522,"111":-0.06131774855119388,"112":0.03827774443340179,"113":0.007819215477531232,"114":-0.2256007575897256,"115":-0.16649094128879216,"116":0.1299135728691521,"117":0.12961175939789327,"118":0.008155717238688963,"119":0.10868796456594963,"120":-0.043641364425775486,"121":-0.10116156766372825,"122":-0.061002347562706435,"123":0.02782636865130758,"124":0.12520747372480442,"125":0.1351366567463397,"126":0.016696775351664625,"127":0.039391520168805774,"128":-0.03222483756943009,"129":0.0052366674426522035,"130":-0.2099583763087524,"131":0.017742495335608014,"132":0.10030903543650126,"133":-0.06765215807794399,"134":-0.07279349453761305,"135":-0.1962264967100661,"136":-0.11301088992719299,"137":-0.18620152915491467,"138":0.12209786727789737,"139":0.03562051521323585,"140":-0.07904759233633162,"141":-0.13805337499696305,"142":0.0619808179184203,"143":-0.055486011972388775,"144":0.16976447855213359,"145":-0.014514138290431314,"146":0.0924304313102984,"147":-0.014123264539693906,"148":-0.049745776515961154,"149":0.010325749337261311,"150":0.07476759905600577,"151":-0.11304396609958689,"152":0.013349713881060668,"153":-0.04579620312397341,"154":-0.02559207929981229,"155":-0.10009058250294076,"156":-0.17907956086920943,"157":-0.22034155138446762,"158":-0.03438999275360575,"159":-0.07410802098943005,"160":-0.10160015390185995,"161":0.11360138046837197,"162":-0.18148627514070043,"163":0.016486356945596754,"164":0.0005985374436667389,"165":0.04284735447146325,"166":-0.10640041478122168,"167":-0.007263333188941413,"168":0.1378465579202002,"169":0.05953561220649181,"170":-0.018101358101449045,"171":-0.06658408281463365,"172":-0.16301457591816196,"173":-0.23353817119166656,"174":0.01858151494924355,"175":0.07962441235676092,"176":0.037057657555444816,"177":-0.060910604473340166,"178":-0.20454131099579498,"179":0.03851902541980147,"180":-0.055744625508130516,"181":-0.139839875843025,"182":0.11394871256669926,"183":-0.04616373604387369,"184":0.07194151646409985,"185":-0.09305746393032238,"186":-0.1695020163995823,"187":-0.08501434786884152,"188":-0.09238154260776019,"189":0.13707226844721093,"190":0.1425356017157542,"191":-0.037053241147012014,"192":-0.18500800292090488,"193":-0.13056205257841236,"194":-0.03544264183306764,"195":-0.2229513507790429,"196":0.12148990812458794,"197":0.07611226009611997,"198":0.12527002751188485,"199":-0.042502846415395236,"200":0.08781023505547608,"201":0.07363731803937758,"202":-0.1677673376553141,"203":0.15957126993639545,"204":0.005708197961338075,"205":0.09830732453939932,"206":-0.09446813598640107,"207":0.21273220599147644,"208":0.02819751572775437,"209":-0.1487140019232701,"210":0.09804333695230029,"211":0.12074198516942154,"212":0.14382520321083447,"213":0.0018767674923362192,"214":0.19323214533337044,"215":-0.045325994991802135,"216":-0.09559252764161978,"217":0.05445675911582517,"218":-0.12375247724814266,"219":0.1628703425949983,"220":0.13595416160670984,"221":0.36514900654835636,"222":-0.012247582692134017,"223":0.16072531227684297,"224":0.03377046839266992,"225":-0.18280796091818674,"226":0.005835095442317015,"227":0.12161959140214025,"228":0.2234624852688159,"229":0.05766214739766445,"230":-0.026097044048551045,"231":0.03639708685902952,"232":-0.059532913090993615,"233":0.09669884156677672,"234":0.06303621114059593,"235":0.07159742247821396,"236":0.023800312587495667,"237":0.18094849284416611,"238":0.09504128392013488,"239":-0.03249184089544782,"240":0.06901810838593397,"241":0.09855507639542534,"242":0.060377747265691346,"243":0.0848335094020856,"244":-0.07542387898527847,"245":0.05926821921828762,"246":0.05909804470049137,"247":0.04937973941215208,"248":0.06982526025836744,"249":-0.13101806146198078,"250":-0.019236269576724127,"251":-0.055870019022489864,"252":-0.112136408563817,"253":-0.12294382271538708,"254":0.11972059375907285,"255":0.07248481129154354,"256":-0.020725309202339986,"257":0.034091405434950504,"258":0.16093315481507522,"259":-0.15820357114548209,"260":-0.05919489801045537,"261":0.17968081052041626,"262":-0.16045626584037825,"263":-0.003502125767482617,"264":0.21584401958958252,"265":-0.07820119294485754,"266":-0.18283913987173644,"267":0.03480649087104225,"268":0.07070655080045292,"269":0.015259457205847527,"270":0.0962873467042261,"271":-0.03392845403603109,"272":0.16495805031966757,"273":-0.21396660153646288,"274":-0.002636616686043437,"275":0.15562369207342908,"276":0.10826517711805175,"277":0.07760411950770398,"278":0.06492883311190015,"279":0.03176094082589776,"280":-0.1270661842253513,"281":0.07867918963945866,"282":0.13830969623410072,"283":0.03026682707253295,"284":0.05595989351381467,"285":-0.15996841466950124,"286":0.10591954280275438,"287":-0.03350393974957988,"288":0.08772272570926597,"289":0.2752593621812157,"290":0.08077846831551398,"291":0.14793483964174217,"292":-0.2367515419242696,"293":0.20735617875533988,"294":0.01575127133656602,"295":0.15393335761047014,"296":0.16759365665241863,"297":0.014398134121629129,"298":0.09833954419292054,"299":-0.02971169314939096,"300":0.12803040492847959,"301":0.08098008299358436,"302":0.08191269460947515,"303":0.18667215372853013,"304":0.057427085313818106,"305":0.13105355910899227,"306":0.06322352842137142,"307":0.21571766445722576,"308":-0.140391551513686,"309":0.010634938452050241,"310":-0.04378039184573335,"311":-0.02414112837554341,"312":0.022782495972397867,"313":-0.07750756168203465,"314":0.12260004454120892,"315":-0.08389445494531056,"316":-0.1440975036119088,"317":0.003487316510161373,"318":-0.5097907442161216,"319":0.14025659600054785,"320":0.07548666428404521,"321":0.11775042672691993,"322":0.1431362997308785,"323":0.007545015349360889,"324":-0.0428820070804738,"325":-0.36836363271313405,"326":0.07239938259194043,"327":-0.09576519520275216,"328":0.08246112094462399,"329":0.010108312626462357,"330":-0.13922914643411796,"331":0.07864939470288539,"332":-0.47653962337933137,"333":0.0198143878004683,"334":-0.008356986548357594,"335":0.11946484566010529,"336":0.2206382217813521,"337":-0.07102722715434115,"338":0.23284936709848386,"339":-0.48143782019703346,"340":-0.06550027928674679,"341":0.0529404454765067,"342":0.10111177587830879,"343":0.19717222479422575,"344":0.05473681519447048,"345":0.22699061276041332,"346":0.23126524041432595,"347":0.12775533525737412,"348":0.006712360920249818,"349":0.01768709149228938,"350":0.13347368045387004,"351":-0.10342610358229987,"352":-0.005078698277945003,"353":0.0859215202771998,"354":0.05388203225430547,"355":-0.16179270169016635,"356":0.06735384189227483,"357":0.019586723298444346,"358":0.05648217781329913,"359":0.08843026294850859,"360":0.04971790256128659,"361":0.3034462037485418,"362":-0.13304310246866116,"363":0.04159896812903317,"364":0.14787758078932958,"365":-0.030283093662239354,"366":-0.14812483059018317,"367":-0.2646311772719147,"368":0.05094249454951706,"369":-0.24494306213747938,"370":-0.06418642226263545,"371":0.17173598340433943,"372":-0.015238417597312665,"373":0.19409666974655682,"374":-0.4271263741358382,"375":0.0001714660205635772,"376":-0.1546519823022399,"377":-0.14761554980837804,"378":-0.016695231388092084,"379":-0.06732502857778219,"380":0.32343234228287016,"381":-0.8916544218315251,"382":-0.3821795004967053,"383":-0.14983000852338427,"384":-0.10030568448282111,"385":0.07217671746644458,"386":0.03894096494786082,"387":0.30909918434278894,"388":-0.9060585295004949,"389":-0.11544993913510244,"390":-0.07195352144754309,"391":-0.07040082075720143,"392":0.04195208966968279,"393":0.07624265579328732,"394":0.37541103305792384,"395":-0.4767902976746789,"396":-0.1710682625646667,"397":0.27741369503288693,"398":-0.019725769492522388,"399":-0.0022146995185914425,"400":0.06759522265261803,"401":0.408819854517368,"402":-0.3657714416356947,"403":-0.5464959488598917,"404":0.02537025343581998,"405":0.14156344662275674,"406":0.12402338233347372,"407":0.04023896630701476,"408":0.7896474381388001,"409":0.03571661905269667,"410":-0.16666488135483556,"411":-0.06202469541996553,"412":0.1939350568382239,"413":0.03755426660474814,"414":0.08263097341817613,"415":0.9539711871394858,"416":0.09011329310144703,"417":-0.48945223964897716,"418":0.002918832415409641,"419":0.03790024355311194,"420":-0.14224654507076073,"421":0.021180726908281745,"422":0.9889458438432319,"423":-0.8162802111764171,"424":-0.22243632496876276,"425":-0.15798577171616057,"426":-0.18175460658477924,"427":0.10352671954429976,"428":-0.24991455097274923,"429":0.9300742790541722,"430":-0.8610006739280915,"431":-0.15694234034092047,"432":-0.2719188476060692,"433":-0.040598943071922765,"434":-0.07651718538807842,"435":-0.10110909597273347,"436":0.748718859182487,"437":-0.8832656872500125,"438":-0.04254897403661974,"439":-0.12392836965531084,"440":-0.17864288737670797,"441":0.09771703007253912,"442":-0.06870768115896995,"443":1.091328166027861,"444":-0.8916208264762714,"445":-0.10669950344253955,"446":-0.04563141723997596,"447":-0.0029944767472282066,"448":0.18878033473852368,"449":0.06945179477899276,"450":1.2859224338168898,"451":0.02253023992126746,"452":-0.11190366739068698,"453":-0.1407672105548564,"454":-0.0026754089337445923,"455":0.08489286219293227,"456":0.29258283107712063,"457":0.9551145356350872,"458":0.11385349335942202,"459":0.10315810155052145,"460":-0.07813757910326642,"461":0.11217847802054802,"462":0.015674344494134313,"463":0.07558549153286609,"464":0.9127113731638223,"465":0.04958625149514229,"466":0.10801898994851934,"467":0.15248891817979682,"468":-0.022836632559384593,"469":-0.013569402959966104,"470":0.09252779236279483,"471":0.9052605157553927,"472":0.28682116368675703,"473":0.17737314925287673,"474":0.004398909808983657,"475":-0.04864621662498831,"476":0.164699171442993,"477":0.07879093213553351,"478":0.6021140954503048,"479":0.10169318716577075,"480":0.26804106964781843,"481":-0.1346212229073078,"482":-0.017124400771860716,"483":0.0707287782337289,"484":0.2152630453871246,"485":0.6650369628968118,"486":0.32812135056020647,"487":-0.07728554872022664,"488":-0.1200208752902469,"489":-0.1165645968042535}},{"sx":1,"sy":1,"depth":490,"w":{"0":0.0195939163337166,"1":0.03692072384871826,"2":-0.0214660655567838,"3":0.0031312944464157487,"4":-0.030999892749367198,"5":-0.02346018982476813,"6":-0.0017371536679917697,"7":-0.07599779207965388,"8":-0.044824793776057206,"9":-0.025276067787774328,"10":0.00841526070960615,"11":0.04343605704263197,"12":-0.00507921032783586,"13":0.054452110068556075,"14":0.0213685775088579,"15":-0.11474528955240215,"16":0.03824902793841596,"17":-0.023756078651382302,"18":-0.08987565528196133,"19":0.07101062643742934,"20":-0.0224060590651627,"21":-0.06335166671566457,"22":-0.004986692754056642,"23":0.04684904743920072,"24":0.0024731227761809155,"25":-0.030765526095243873,"26":0.03137058417029309,"27":-0.006596395328060189,"28":0.0404970407011156,"29":0.026404515050839412,"30":0.07038652037957803,"31":0.07167708046176263,"32":-0.025235201881985185,"33":0.07532429054331878,"34":0.003935724739426117,"35":0.051826823770512065,"36":-0.026482841689085553,"37":0.006145269384108986,"38":0.054271519637880655,"39":-0.009539532578355945,"40":-0.0245200249590079,"41":-0.08424692204875486,"42":0.0002283768693038325,"43":0.012745763756161405,"44":-0.012311754574017373,"45":0.04052269191716766,"46":0.04452813932756837,"47":-0.04024831642859738,"48":0.013453185392505743,"49":0.019160438021233815,"50":-0.07356563212284738,"51":-0.05086273219448394,"52":-0.0017334640962243836,"53":0.022097689530387266,"54":-0.0840735807424142,"55":0.006258003189040066,"56":-0.47139948468072423,"57":-0.4710569084979216,"58":-0.3561430148211896,"59":-0.3163044377821366,"60":-0.48959666847453925,"61":-0.03920760078826072,"62":0.16924517757313218,"63":-0.03714669787512572,"64":-0.1414544851522451,"65":-0.0379092211153796,"66":-0.07418374408701305,"67":-0.2655593653561445,"68":-0.010593651192031203,"69":0.02703771071970598,"70":-0.1123334431559611,"71":-0.14583583760131938,"72":-0.04564341884830474,"73":-0.046476253269172,"74":-0.36507577986950895,"75":0.08361359536222182,"76":0.11931005515094402,"77":-0.34446880889282694,"78":-0.10505233090786889,"79":-0.05654438671356302,"80":-0.12332656833831078,"81":-0.25334489147659073,"82":-0.03268811384847743,"83":0.07445349181993995,"84":-0.1938703041581274,"85":-0.2864358314283405,"86":-0.22464865246334265,"87":-0.19309880741921875,"88":-0.1618290270099072,"89":-0.058143637867498925,"90":0.0980982042645192,"91":-0.18368806411177863,"92":-0.17522735656121152,"93":-0.1335946167607131,"94":-0.15233755482665598,"95":-0.12599262874117068,"96":-0.16962745088016462,"97":0.12571664247019387,"98":-0.044654859765702964,"99":-0.10106138376628301,"100":-0.08105720597466089,"101":-0.05810813878771213,"102":0.013723069172862158,"103":-0.29605144596168975,"104":0.03611299720728872,"105":-0.04242190368606048,"106":0.04611219315393197,"107":-0.1615938191302585,"108":0.004922550247304689,"109":0.01813939828901587,"110":-0.1841983376181894,"111":0.14300433604990961,"112":-0.29056928096288837,"113":-0.2490588147316044,"114":-0.18898293156384383,"115":-0.13719773012156142,"116":0.18067309080878113,"117":-0.1669791794213856,"118":0.10643192806699618,"119":-0.15114424322880385,"120":-0.3863795062671675,"121":0.059009808432398995,"122":0.07059416307172632,"123":0.032722521641814224,"124":-0.15180381522393127,"125":0.0772255295482643,"126":0.0050368791638516,"127":-0.15158097901121065,"128":-0.25343018613853713,"129":-0.2520136175395315,"130":-0.09099352798421156,"131":-0.05659491811892813,"132":0.1489138097961416,"133":-0.16470134882825435,"134":-0.15156593659338247,"135":-0.08800474609101162,"136":-0.227216320102844,"137":0.0632779011951659,"138":-0.04098163405142169,"139":0.12936816874491944,"140":-0.09090744054030002,"141":-0.2717774720776491,"142":-0.02612131839317723,"143":0.10670194249723872,"144":-0.11831646531582132,"145":-0.10005755162482846,"146":0.0004988320236137994,"147":-0.03568064312488528,"148":-0.3338015484721828,"149":0.0034111559692582218,"150":-0.00800844416278886,"151":-0.08467817232976987,"152":0.06001523914461678,"153":0.17619972997678668,"154":-0.058039981337988024,"155":-0.09623447730767501,"156":0.03578444942555609,"157":0.07736840164672457,"158":-0.1433159114856091,"159":0.127074403212045,"160":0.05566997828204635,"161":-0.22380569801347094,"162":-0.04499714920097522,"163":-0.1046624545775403,"164":0.1354833088026333,"165":-0.060140019235406336,"166":0.010865741053239867,"167":0.12842864145927468,"168":-0.12533172358057812,"169":-0.20964026661632953,"170":-0.11891543620932082,"171":-0.09931297361658986,"172":-0.02043333696957576,"173":0.03633781907682666,"174":0.0889303058453428,"175":-0.03604322834014412,"176":0.09063215746737087,"177":0.2709840668430801,"178":0.21447087198090922,"179":0.12597850059879764,"180":-0.14414684154177526,"181":0.0832900708371454,"182":-0.18673152782241645,"183":0.12459315295762607,"184":0.06082625681267045,"185":0.2705052741360164,"186":0.1565773613602692,"187":0.09525966651854723,"188":0.02346492195860575,"189":-0.21010866688322027,"190":-0.12290306903690287,"191":0.06190351411885459,"192":0.06812394266578391,"193":-0.014652183321378144,"194":0.1381162096179099,"195":0.09866927939582396,"196":-0.10807515591007201,"197":-0.14116530041018807,"198":0.10021901530779609,"199":0.4219828048787093,"200":-0.023763014082960245,"201":0.0639996722308633,"202":0.08408406185631911,"203":-0.17047318531695613,"204":0.18938642469947634,"205":0.09112206107872046,"206":0.1712372867630503,"207":0.08622954231616282,"208":0.09517291123563801,"209":0.08654663208311085,"210":0.0247347920902426,"211":0.15937043226308295,"212":0.13048019770885497,"213":0.19406470043467436,"214":0.03870640937698011,"215":0.1426513102694193,"216":0.09944021976020868,"217":-0.09669211786654665,"218":0.021603144055604772,"219":0.268220841226996,"220":0.3053859602498938,"221":0.1226451198595515,"222":0.04500876802230706,"223":0.13828215514350234,"224":-0.13592041010118203,"225":0.015359954784947042,"226":0.3965232588757896,"227":0.19066530029379153,"228":0.16760402433499783,"229":0.10897799561656105,"230":0.15016296515885577,"231":-0.07239277842862843,"232":-0.01827586395988379,"233":-0.021626441099891938,"234":0.19997509627492582,"235":0.04514348589364033,"236":0.010564642191420368,"237":0.004090127781572353,"238":-0.14607315496163512,"239":-0.0160711483435343,"240":0.31367668003822985,"241":0.29012545993178845,"242":-0.01963751350020617,"243":0.03227949450301935,"244":0.10821684739830749,"245":-0.09104086242477585,"246":-0.18408906665485214,"247":0.42703753991677246,"248":-0.07357940213180579,"249":0.14276070785600925,"250":-0.032968699948216204,"251":0.10922194732058317,"252":-0.1278349098228987,"253":0.2475871875851617,"254":0.13638553241953588,"255":0.1241090178402066,"256":0.24958045205498422,"257":0.007414272820803169,"258":0.19507933882257944,"259":-0.262246577867453,"260":-0.048247504006898326,"261":0.41283284008723153,"262":0.22759944862378895,"263":0.13627719979351657,"264":0.17709161711020072,"265":0.08483676321603391,"266":-0.26957123652319775,"267":-0.0369904774328123,"268":0.277246781103063,"269":0.062269262063735537,"270":-0.08786717008213815,"271":0.18477423496960532,"272":0.010524000514356723,"273":-0.08730121042777135,"274":-0.07311162541333004,"275":0.3731107114017596,"276":0.13831970560800846,"277":0.10872980377594763,"278":0.13363230470185986,"279":0.10216802791486193,"280":-0.04067141950957981,"281":-0.01840179910410714,"282":0.4816625718128155,"283":0.2079399115994083,"284":-0.26429727042703827,"285":0.25394547638782183,"286":0.060833883184777934,"287":0.03394067802670201,"288":0.022212624737267435,"289":0.3679368490778448,"290":0.45230310742841867,"291":-0.03033527769349085,"292":0.12588480632658786,"293":0.15976660961312628,"294":-0.11446536182419827,"295":-0.002895270631106067,"296":0.32797709216299303,"297":0.09999648368199648,"298":0.19240329296303402,"299":0.14768080140887074,"300":0.04017206771096409,"301":0.2387189331267264,"302":0.35668364785976847,"303":0.32645366132938974,"304":0.21242667382690825,"305":0.10946813117063577,"306":0.10631994541330003,"307":0.1551608067637578,"308":-0.06797362110313766,"309":0.18201295290815123,"310":0.5048696426507583,"311":0.38010449310052,"312":0.15166850270432652,"313":0.03609344682165626,"314":0.09692829345061753,"315":0.06952391653551403,"316":0.1967095643084109,"317":0.27083361177971865,"318":0.5267048197103271,"319":0.14811223887490454,"320":0.10527170866747504,"321":0.07825163851811477,"322":-0.03774561910834237,"323":0.36381981240352657,"324":0.2580267307906596,"325":-0.11050725401393928,"326":0.17286030314126438,"327":-0.01624030440875288,"328":0.04942288581701449,"329":-0.0882970383540378,"330":0.05833701275414834,"331":0.46736838471597547,"332":0.18033225192710967,"333":0.21981384994631464,"334":0.006843205416179458,"335":0.11433092034206321,"336":0.013316759015863077,"337":0.11361563751077974,"338":0.7403553528058874,"339":0.47128757273407096,"340":0.29167527229183215,"341":-0.0018474377457473256,"342":0.05396695191768849,"343":0.016283180856699726,"344":0.02859228943992608,"345":0.9646994766816892,"346":0.34409629510974193,"347":0.15736665868297703,"348":0.0035305913904868647,"349":0.05429207530003834,"350":-0.025690211005029186,"351":0.13919073105373012,"352":0.4601038831180656,"353":0.656327842331916,"354":0.4137385804128212,"355":-0.009380939791225729,"356":0.10009136034199981,"357":-0.28101643122228737,"358":-0.08543988745812489,"359":0.8002880804890424,"360":0.42410897489878313,"361":0.2458101196415293,"362":0.06165948397941411,"363":0.06386233663572172,"364":-0.08304039801008403,"365":-0.0757687585181813,"366":0.9294631860516853,"367":0.1110763058198803,"368":0.09508050291564649,"369":-0.04235698774862276,"370":0.17165163439862097,"371":-0.12158052697287648,"372":0.0333706392961344,"373":0.7996592201303628,"374":0.3735433784393038,"375":0.060027083252633395,"376":0.008534774103466708,"377":0.08754659112315236,"378":-0.029098460011624815,"379":0.08134015080751456,"380":1.4201124426620697,"381":0.8166457896745256,"382":0.07091621492708294,"383":0.06871252791331314,"384":0.051496934673466686,"385":-0.07367823836629724,"386":0.06810622785165425,"387":1.1229959756276042,"388":0.7708693206548527,"389":-0.2855414458010632,"390":0.22221166912337487,"391":0.04050414971849271,"392":0.07098053718307595,"393":0.03287681195946221,"394":1.1377635341775485,"395":0.1306560368512235,"396":0.06451233968999281,"397":-0.08080113774826662,"398":0.07156748829779336,"399":-0.21756996624067207,"400":0.08466010508402178,"401":1.1849554675838478,"402":-0.8204432742224446,"403":0.07972525980692799,"404":0.03620935058036353,"405":0.12382103824687762,"406":-0.038188012500273975,"407":-0.25646907039132527,"408":1.1040294360807086,"409":-0.82311386643747,"410":-0.35854033923001055,"411":0.0567029736613625,"412":0.0222930339654423,"413":0.019800522529039372,"414":0.016780820299680935,"415":1.0507320981909372,"416":-0.6665778373895515,"417":0.026566243350306225,"418":-0.10569793637494465,"419":0.08679841361465926,"420":-0.05802856670666019,"421":-0.04957456133313845,"422":0.6063538004094395,"423":0.06563629225043886,"424":-0.1384941493708511,"425":0.059180985088055985,"426":0.09134232370626268,"427":0.0566119720580114,"428":-0.0536162752001158,"429":0.5279600417620992,"430":0.11566280033840812,"431":-0.006673829472277669,"432":0.08283742359429722,"433":0.12988578693280806,"434":0.002601952599853587,"435":-0.014159107268436541,"436":0.5742824781303932,"437":0.0829701549048715,"438":0.08294951317435324,"439":0.07337622492267729,"440":0.06678883720182081,"441":-0.022935896845270237,"442":-0.11771379502302544,"443":0.3529566664930979,"444":0.18092090766485758,"445":0.003471698719068064,"446":-0.08176087611828904,"447":0.1227343076535652,"448":-0.08515532045119714,"449":-0.10978783568378771,"450":0.35182264502625926,"451":-0.6245868818805528,"452":-0.060141154643909796,"453":-0.048521797051844444,"454":0.10125786773872823,"455":-0.09646390227338297,"456":-0.0800425807155326,"457":-0.10258198947531644,"458":-0.6753254234294165,"459":-0.03919647206052573,"460":-0.01998744778775085,"461":0.0754514429497438,"462":-0.01996614230817039,"463":0.07051829529994284,"464":0.0727498948729811,"465":-0.6868897239149678,"466":-0.22528811306791088,"467":-0.018218289057743812,"468":0.08178083633807716,"469":-0.05807436174569929,"470":-0.18998932081262918,"471":-0.09677246138252919,"472":-0.5627659989982674,"473":-0.08827928724281997,"474":0.11915299408513925,"475":0.09432203986985765,"476":0.13519004699457515,"477":-0.009482097819123571,"478":-0.3829820621392539,"479":-0.4025041906720467,"480":0.017093951590404152,"481":-0.013523915298099634,"482":0.10048251857827004,"483":-0.21109329526075163,"484":-0.04717247946353848,"485":-0.18053165507552163,"486":-0.12223126458089098,"487":-0.2758653649025262,"488":-0.05158284063598633,"489":0.13678322455421627}},{"sx":1,"sy":1,"depth":490,"w":{"0":0.045150691300736075,"1":-0.010243107335564008,"2":-0.030709433715848902,"3":-0.009576730458721752,"4":-0.06200678701784169,"5":0.01331991994044609,"6":-0.07869044972579017,"7":-0.009242568482701583,"8":0.017962812699991944,"9":-0.05091001093434731,"10":-0.02890479395631086,"11":-0.03919151875485263,"12":0.035584940575058795,"13":0.05764686133142665,"14":-0.023105967288435517,"15":0.03810993188951437,"16":0.08505733367037671,"17":-0.1193695283918694,"18":-0.03710133287407983,"19":-0.0015184193035755603,"20":0.011731714262326554,"21":-0.06864462822173681,"22":0.053639214706491925,"23":0.03326475055429421,"24":0.06392808868837625,"25":0.005355290877990543,"26":0.050111450054301544,"27":0.0031987960758470373,"28":-0.027709278497017292,"29":0.022824720513953404,"30":-0.033514550793079856,"31":-0.08758999720641152,"32":0.06189933767158492,"33":-0.054342358761284834,"34":0.02170407156359104,"35":0.022062892344002265,"36":-0.026526027864758002,"37":0.029670907920969783,"38":-0.015888918117463912,"39":0.023045576521931746,"40":0.07838773348340025,"41":0.04407949745883677,"42":0.011043141023967858,"43":0.026802534774432854,"44":-0.019757647375175554,"45":0.007044183595410789,"46":0.013292278873010441,"47":0.00991933985479362,"48":0.007896810924765537,"49":-0.046671066370285466,"50":0.03191051503029056,"51":0.0211634803045218,"52":-0.0025776039756176808,"53":-0.07138208841272776,"54":-0.009852609207619238,"55":-0.03472755058427459,"56":-0.03725974667649084,"57":-0.17379029825022255,"58":-0.4609489182602285,"59":-0.3803397110768796,"60":-0.5412179691474216,"61":-0.382471543415675,"62":-0.3346613906936094,"63":-0.11988112815208044,"64":-0.13196756838286008,"65":-0.17787643605523115,"66":-0.19953820292761978,"67":-0.31609745148810175,"68":-0.32384601128359414,"69":0.11366611395765262,"70":-0.015131093694877421,"71":0.09191505515956284,"72":-0.1771464147274126,"73":-0.3583288791330579,"74":-0.17950903237354982,"75":0.04860765849721422,"76":-0.22261249026616148,"77":0.06208600314245204,"78":0.1415237772846948,"79":-0.16921707189580398,"80":-0.02024946439008014,"81":-0.2866534383929242,"82":0.17358423870473164,"83":-0.139686364410272,"84":-0.11319688259134279,"85":0.019132001927979654,"86":-0.23829674429189693,"87":-0.24389314381944632,"88":-0.08743303007219626,"89":-0.24661141462769923,"90":-0.26897498309507506,"91":-0.13703071565963218,"92":0.03789507817159072,"93":-0.17730885169510097,"94":0.04335993290275359,"95":0.011623598817636563,"96":0.12351769592044383,"97":-0.10351771094802896,"98":0.18213110812013192,"99":-0.07497006058142079,"100":-0.13967125732387206,"101":-0.07742709949443981,"102":-0.0005355768349682316,"103":0.011288588358755285,"104":-0.13856984833805885,"105":-0.007661133244905049,"106":-0.011124227729603023,"107":-0.3331058287369664,"108":-0.15989807818837895,"109":-0.3439155525459753,"110":-0.019771830570792525,"111":-0.09357756966725544,"112":-0.1462591970424206,"113":-0.07773534784096796,"114":-0.3455708935128747,"115":-0.28716193440241616,"116":-0.07215784348678998,"117":-0.12166861669530434,"118":-0.1492248272544761,"119":0.06759015776709312,"120":-0.03921979018691152,"121":-0.2299386815401125,"122":-0.18484204735358933,"123":-0.02079376580753652,"124":-0.0855361487547163,"125":-0.07370502980344872,"126":0.04755858536140038,"127":-0.054780980430430386,"128":-0.12309526917238638,"129":-0.17236341615639886,"130":-0.14037470357688153,"131":-0.14209520122883312,"132":-0.16994401095507938,"133":-0.006072958948777784,"134":0.036409816540563446,"135":0.004486922471704996,"136":-0.13050090245082158,"137":0.011890924185672364,"138":0.05075298268210228,"139":-0.03275450327255613,"140":0.2931826751168304,"141":-0.03301652735826269,"142":-0.1254111011613757,"143":-0.11036873177774849,"144":-0.06988269429059354,"145":-0.02627906420950558,"146":0.1068029377870322,"147":-0.01874443223906097,"148":-0.011904712129834653,"149":-0.05706688230873902,"150":-0.3846944223087454,"151":-0.18343232908633084,"152":-0.19391495080874463,"153":-0.07407546296329204,"154":0.06284709551465249,"155":-0.024905728617794096,"156":-0.31821373064048847,"157":-0.20311157708437658,"158":-0.22664989190922835,"159":-0.027875847148544478,"160":-0.023727176243733328,"161":0.06692747037318435,"162":-0.17355193962346668,"163":-0.13135401648526812,"164":-0.34713401258662757,"165":-0.09246906465525871,"166":-0.11766990210922193,"167":0.06442984255721693,"168":-0.11407860666580545,"169":0.0964348046968483,"170":0.056796457591087125,"171":-0.09437182172395166,"172":-0.07791874112851856,"173":-0.19229010041222336,"174":-0.041850290670634685,"175":0.013064112682219745,"176":-0.12591397142288666,"177":-0.2891641219641359,"178":0.07241771257295128,"179":-0.3060838304184177,"180":-0.184771726592089,"181":-0.004026511833935371,"182":0.17617597321859713,"183":-0.058071270660236644,"184":-0.18245544438530117,"185":-0.1641377575077188,"186":-0.15809524350335782,"187":-0.027835203229068784,"188":0.13017917357637826,"189":-0.04755295946095735,"190":-0.08135960603764356,"191":0.11193765747727012,"192":-0.02533130300770497,"193":-0.04802434452099756,"194":-0.10985849800298902,"195":-0.03763477814672916,"196":0.15052301053307077,"197":-0.1101784207297319,"198":-0.2222737087189952,"199":-0.09967738230985193,"200":-0.3485042671621394,"201":-0.19729832236944717,"202":0.1358870646205703,"203":-0.05950163641502751,"204":0.007467838815827803,"205":0.14159338923333573,"206":-0.21627513718141395,"207":-0.23222361940901012,"208":-0.05063806325980664,"209":-0.010981906445921868,"210":0.017812350324292132,"211":-0.15666731698311864,"212":0.21398798881810369,"213":-0.13733025975642796,"214":0.034111953280960214,"215":-0.15821343614155806,"216":-0.12620099326467998,"217":0.003433414179648115,"218":-0.003962271819291007,"219":0.04453111425419698,"220":-0.024808355931237095,"221":-0.03937164581412418,"222":-0.2436924559402441,"223":-0.014080347551590261,"224":-0.21884327725202993,"225":0.04901389172932284,"226":-0.07266842587487488,"227":-0.03881088981576384,"228":-0.0819789210004279,"229":-0.13569306067281436,"230":-0.029476038401750206,"231":0.0325652995925461,"232":0.00905938044038628,"233":-0.0655661693294813,"234":0.13416968174965832,"235":0.11785303292796127,"236":-0.03918745298388141,"237":0.004206437664973706,"238":-0.2266344460758412,"239":0.02525217178947966,"240":0.2566579120027923,"241":-0.07579972157204935,"242":0.1628484712374822,"243":0.11135803167399504,"244":0.18199855121233996,"245":-0.0939895403736632,"246":0.028507541468661718,"247":-0.05288128858591882,"248":-0.03944204679311374,"249":0.014030369769131362,"250":-0.09803347434350801,"251":-0.017059467887534284,"252":-0.09478867281534693,"253":0.07892755132350822,"254":0.10408568987728041,"255":0.05158941561039016,"256":0.04300494896354415,"257":-0.06108946088979387,"258":0.03632323183650342,"259":-0.08689851817334864,"260":0.1201348348192015,"261":0.008887754888662315,"262":0.172729694627776,"263":0.04384939687489322,"264":-0.13636648678013938,"265":0.027300695909658137,"266":-0.08510000823652343,"267":0.16835505529431966,"268":-0.09828346520945583,"269":0.03256905203439998,"270":-0.028401474784282104,"271":0.04060877341458578,"272":0.11971656428278048,"273":-0.020581462278426967,"274":0.15067549692805637,"275":0.1048381358716234,"276":0.09765215048617602,"277":0.12456245401311394,"278":0.02869319414896883,"279":0.32295475159176595,"280":0.07727871578281084,"281":0.003989906316783119,"282":0.11458283865294834,"283":0.17217491758370512,"284":0.15025947386145877,"285":0.13191788447050284,"286":0.023301684125909324,"287":0.11412724206224494,"288":0.014995523809549572,"289":0.12756985980630386,"290":0.40575623798641564,"291":-0.006187926555647031,"292":0.11434884188594009,"293":0.09929599221263057,"294":-0.005486435236229563,"295":0.09097528645049133,"296":0.04601951578826799,"297":0.2713565771389497,"298":0.015621244037724793,"299":0.043480250582699075,"300":0.16626915479759755,"301":-0.03226591766725626,"302":-0.04747866748293526,"303":0.1309120259869132,"304":0.26638462300127663,"305":0.157654789188489,"306":0.10693897493588421,"307":0.04064888848308982,"308":0.09106226510086901,"309":0.1673593037274155,"310":0.21037395282188176,"311":0.11882860460232654,"312":0.2294955918114532,"313":0.04761255037419969,"314":-0.11509931085498701,"315":-0.06845635232256264,"316":0.05726632210861871,"317":0.22436067580767446,"318":0.4377324160100756,"319":0.1175323045934611,"320":0.006493878333826286,"321":-0.0056979549492346205,"322":0.14450841583986332,"323":0.07969271587971302,"324":0.14319491126227382,"325":0.34642742771604296,"326":0.030826997032809576,"327":0.17607777192735222,"328":0.15756855778375894,"329":0.06217969799616373,"330":-0.06611367300979112,"331":0.1153942978149864,"332":0.322289574631102,"333":0.24104842518868144,"334":0.012860084132950209,"335":-0.002469315826164387,"336":-0.09522808683952338,"337":0.09486463162382533,"338":0.13665810890476554,"339":0.6576825441952929,"340":0.11529227981063309,"341":0.03099360889489874,"342":0.08413894681482696,"343":0.19096643492622317,"344":0.15109048107590914,"345":0.15545349007798692,"346":0.47744349231354205,"347":0.2628946124590889,"348":0.13527803501635557,"349":0.0910992053996579,"350":0.15327240031757244,"351":0.17332893380089984,"352":0.04988786679900868,"353":0.42680386794235375,"354":0.3839915903283552,"355":-0.19391814110897054,"356":0.06565967844256013,"357":0.0037501216619150878,"358":0.16232567097258635,"359":0.036307401588335286,"360":0.1979386283158398,"361":0.2849461312670761,"362":0.06536824373910866,"363":0.10892213045438791,"364":0.05119329546003203,"365":-0.07425983522001915,"366":0.3613327168138001,"367":1.446055886301885,"368":0.3297216883003223,"369":-0.0022255124736968,"370":-0.11767478759824133,"371":-0.07989876530472728,"372":0.156999245059002,"373":-0.05288161258246876,"374":0.5730389318868359,"375":0.2031018342681951,"376":0.05133709056180868,"377":0.14427462393697285,"378":-0.079949253324343,"379":-0.026888779190492016,"380":0.4050206084880741,"381":0.5524668470083786,"382":0.4012006032860011,"383":-0.08205573321963092,"384":0.0426802798110623,"385":0.062410238186660874,"386":0.05554525778273682,"387":0.4054164630606199,"388":0.2105054538004589,"389":0.15974526401459768,"390":-0.06798086792916953,"391":0.048112448643219806,"392":-0.04945058264906144,"393":0.0515851790500751,"394":0.1748439954865419,"395":-1.780410188054239,"396":0.138999509859795,"397":-0.018344409125480184,"398":0.18509782865344138,"399":0.09222066873511084,"400":-0.16436072714588684,"401":0.4729403269257918,"402":-1.380176898260264,"403":0.19797344858934693,"404":0.024738289034942833,"405":0.004468612957938059,"406":-0.10237347732475599,"407":0.03205049139035091,"408":0.4737628084314852,"409":-1.0391206056571614,"410":0.19170773523873538,"411":0.03811209026123277,"412":0.016740925239220942,"413":-0.009436071632146338,"414":-0.01887138653282725,"415":0.3771861023047081,"416":-0.8427284283568489,"417":0.17828844766395205,"418":0.012059278017180663,"419":0.019483368158027408,"420":-0.07407532914842523,"421":0.14128346648430154,"422":0.23395441066346925,"423":0.3302907758043666,"424":0.2574946224653289,"425":-0.16230803319945006,"426":-0.05568192679958815,"427":-0.0708885143475987,"428":-0.03806176338005995,"429":0.18691605711899112,"430":0.3676545730987452,"431":-0.003811461153683161,"432":-0.22214788472559444,"433":0.08128655335745111,"434":0.03897238345646717,"435":0.07493147435330712,"436":0.03248284552379831,"437":0.2662834234562349,"438":-0.02510870512879908,"439":-0.10602751703799068,"440":0.030560744465804843,"441":0.044329044943420985,"442":-0.20641478652344478,"443":0.21791699361005362,"444":0.28595055895978394,"445":-0.15457907940071322,"446":-0.10843180781432583,"447":0.061859334924999454,"448":-0.12387681187761777,"449":-0.1065630522419349,"450":0.159275290499179,"451":-0.6615763699072231,"452":0.21237179069835369,"453":-0.006944815080254635,"454":0.02821983929848833,"455":-0.09104360911456243,"456":0.16874053407843373,"457":0.02891568042243829,"458":-0.5242337029853135,"459":-0.22818801359813956,"460":-0.0590393097418887,"461":0.015416470867098235,"462":0.010975866297801418,"463":-0.11118411583565566,"464":-0.15581196452812104,"465":-0.33371999554719656,"466":-0.2945612607111321,"467":-0.07204723508321564,"468":-0.0794930243192171,"469":-0.056345136295138085,"470":-0.0899519062969664,"471":-0.16329868695730831,"472":0.1250615032382635,"473":-0.1360088530939095,"474":0.043586527246449555,"475":0.0698738429658546,"476":0.09471177377458756,"477":0.03354645317045982,"478":-0.17168314834746082,"479":0.0881926538916916,"480":-0.48513233506008413,"481":0.044696087487025186,"482":0.20073494559283722,"483":0.04918165707435797,"484":0.0023282596691628307,"485":-0.05473644406293893,"486":-0.6155689457277651,"487":-0.07936928189316068,"488":-0.02337282983995268,"489":0.15867915464621338}},{"sx":1,"sy":1,"depth":490,"w":{"0":0.021732164122018793,"1":0.13080654190849084,"2":-0.09305248122177773,"3":-0.012582498244915738,"4":0.029474161684792704,"5":0.07660199108500104,"6":-0.07019387742036812,"7":-0.017996811294625596,"8":0.011193953243349753,"9":0.03857979222994784,"10":-0.0015598606353161317,"11":-0.018162014935142568,"12":-0.014575300506794253,"13":0.019547977360208725,"14":-0.0455207272047759,"15":-0.01367801159789568,"16":0.002386117406972381,"17":-0.03955690923749997,"18":0.026952115653069802,"19":-0.07700761876905955,"20":0.013086880683206953,"21":0.01395261071403167,"22":0.06126227220839971,"23":0.0030667498260017008,"24":-0.002421058925249604,"25":0.021198217433139918,"26":-0.06009487985635975,"27":0.040148354018966916,"28":-0.002240783449099091,"29":0.04652823117907874,"30":0.06831443851257274,"31":0.0016698636954730081,"32":0.02663377020528045,"33":-0.025650909400118733,"34":0.016542499053757483,"35":-0.033180311521519804,"36":0.0643029336898265,"37":-0.05478555851013929,"38":0.07941201938418851,"39":-0.022365683568772825,"40":-0.09310215953633287,"41":0.0013329262981975618,"42":-0.04606448212552525,"43":0.00040869143004960837,"44":-0.050004633622744925,"45":-0.020000010803204044,"46":0.004247706090103032,"47":0.017959771490679705,"48":0.08137054167722924,"49":0.018678226416614423,"50":-0.010022868276221513,"51":-0.05777641649001467,"52":0.008605930183357358,"53":-0.0030733109682357027,"54":0.021531562554507076,"55":-0.01031328331744173,"56":-0.0008716381355140462,"57":0.06203425264002046,"58":-0.03003811118866063,"59":0.09463632314387044,"60":-0.039909153633251995,"61":0.02135347682755804,"62":0.0986458843968249,"63":-0.0035147714600636875,"64":0.025720868447085026,"65":0.1552532476361415,"66":0.08824153007611228,"67":0.068062913765445,"68":0.03597800284634448,"69":-0.05126361574270268,"70":-0.023319862167338282,"71":0.036515008564541214,"72":0.03837408860676276,"73":0.07229589010902275,"74":0.0303507950395323,"75":-0.04601480535647686,"76":0.044474562214125886,"77":-0.06248832969936475,"78":0.08395727350616523,"79":-0.05424766473209987,"80":0.01874781023435836,"81":-0.013781569284443898,"82":-0.04676321093340372,"83":0.09668961457107972,"84":-0.040433200312119076,"85":0.0676955591626352,"86":-0.06244153125116398,"87":0.15590677258126298,"88":0.01940066464610088,"89":-0.021948338232872313,"90":0.02308022341495406,"91":-0.007912633363422815,"92":0.014609354320079376,"93":0.014572077136603124,"94":0.10580551588200066,"95":-0.03084285197262688,"96":0.04244026333002542,"97":-0.015702494449539573,"98":-0.08591572974873146,"99":-0.05827542967808006,"100":0.0014863390229767387,"101":0.12131534513741765,"102":0.026077731416147266,"103":0.02595120919645641,"104":-0.00932781475653206,"105":-0.1056408689638888,"106":-0.016421350117277866,"107":-0.005744379646236938,"108":0.13832382922809022,"109":-0.029000853306353814,"110":-0.06129769385698138,"111":-0.009363743579195607,"112":-0.055419045861880165,"113":-0.010358468926045536,"114":0.10131540543961394,"115":0.08876168066464757,"116":0.061156024682281526,"117":0.009124125839913764,"118":-0.031878016215450694,"119":-0.03416474789826617,"120":0.04168928068514676,"121":0.10929699957291913,"122":0.047101469395797124,"123":-0.01363269313848071,"124":-0.01933178959823901,"125":-0.03424166464207575,"126":0.05005498238292797,"127":0.055458868978969136,"128":0.01007669594710869,"129":-0.0029604671734400315,"130":-0.04412565778010675,"131":0.04453925790568897,"132":0.05010646127899449,"133":-0.026789506326580483,"134":0.033410893460528994,"135":0.04909326692890662,"136":0.05933302357348603,"137":-0.012306546581357705,"138":0.09710342920982883,"139":-0.07072821306429596,"140":-0.10497130481213476,"141":-0.07651077888355852,"142":0.0013226003981285637,"143":0.027145961243747234,"144":-0.004467305493884141,"145":0.018261537175056103,"146":-0.03186061348680008,"147":0.04614454952869088,"148":0.006592539482047108,"149":-0.002058616495476668,"150":0.060497853488856834,"151":0.04090207626070665,"152":0.06493287793573713,"153":0.024893899879067656,"154":0.0035696731899671243,"155":0.046267997353174085,"156":-0.097735403530045,"157":0.00715403728157026,"158":0.05946358754846343,"159":0.03146201250028011,"160":0.012210849032722605,"161":-0.09486436975054979,"162":0.013694566712069794,"163":-0.016586235813830733,"164":0.012793496304853054,"165":0.03624769014257897,"166":-0.013915735185196417,"167":-0.030924569282075553,"168":-0.10016572412458445,"169":-0.05282522990599071,"170":-0.021606341643154493,"171":0.017044968126993403,"172":-0.04983814531241417,"173":0.045512720077717506,"174":0.03023062760772479,"175":-0.029401297123439946,"176":0.03633088316899178,"177":-0.014051751627959711,"178":-0.004662489499772397,"179":0.02721265648971311,"180":0.0455231614904442,"181":-0.054974428323519,"182":-0.06657947153740688,"183":-0.059406522928172945,"184":-0.01602553436738167,"185":0.06483699032180565,"186":0.04985795750740866,"187":-0.05738682661249171,"188":0.011237099854775967,"189":0.015648740485523064,"190":-0.028925257703254513,"191":-0.025709995252121774,"192":0.11064526724466442,"193":-0.010643152306076261,"194":0.032174650335547526,"195":-0.021149704163498883,"196":0.018501400078086313,"197":-0.04486755031593171,"198":-0.03626985297323031,"199":0.02581383911690812,"200":-0.015677536908561444,"201":0.03653283856411786,"202":0.0019490127786140417,"203":0.019269282273181074,"204":-0.009386698710343647,"205":-0.0020586849682314085,"206":0.028975617816647547,"207":-0.0025558449605623153,"208":-0.07534159756519594,"209":0.02160920599650834,"210":-0.023709663047805578,"211":0.01140342323008733,"212":0.025478263188804463,"213":-0.038600893483707814,"214":-0.012580485931345583,"215":-0.025913666457372704,"216":-0.0428008271409952,"217":-0.0616877872120616,"218":0.041073514927410675,"219":0.03675300766252429,"220":-0.018888368882451028,"221":0.01890308994657144,"222":0.058669197339932824,"223":0.02008331662780432,"224":-0.02765215330848684,"225":-0.09785499869912014,"226":-0.037892826460749186,"227":0.07157731028225801,"228":-0.05904824543968787,"229":0.060876469105325806,"230":-0.03899886734565673,"231":-0.028349269930874173,"232":-0.0474108280357229,"233":-0.04935571457785333,"234":0.05273556645201004,"235":-0.027676334264338874,"236":-0.08443381284042949,"237":-0.02212743248827856,"238":-0.004388372097943185,"239":-0.09334448670299487,"240":-0.048973569547865206,"241":0.008182413797024536,"242":-0.07537639359268437,"243":0.060663265523535584,"244":0.0461398561090875,"245":-0.02391663198142532,"246":-0.013534523525480626,"247":-0.05679055201781459,"248":0.03639820459306906,"249":0.018555583165600138,"250":0.03657537973089332,"251":-0.020783255396381872,"252":-0.04944254905802173,"253":-0.10016266085611251,"254":0.01760308796910275,"255":0.031700606839301176,"256":-0.010943702721041185,"257":0.021635675623253015,"258":0.022983765785405685,"259":-0.07489165526673017,"260":0.005413282665218728,"261":-0.053908170246183655,"262":0.02935538076834126,"263":-0.0971841087427317,"264":-0.018353389258541273,"265":0.026772468152683682,"266":-0.03307326042549269,"267":-0.02861622000130509,"268":-0.10642304763773486,"269":-0.041109738234589854,"270":-0.08628771298893946,"271":-0.05845809250062878,"272":-0.029570809874053305,"273":0.03150873798297979,"274":-0.035094491893688566,"275":-0.06770233830417786,"276":-0.03224144622014214,"277":-0.031818763815287886,"278":0.01270234435442824,"279":0.023381566102749236,"280":-0.035834662459345336,"281":-0.07517935717520191,"282":0.0030211271135876265,"283":0.03325250902233252,"284":-0.042418206007538026,"285":-0.04739449963160499,"286":0.050652797239196766,"287":0.006517630673667285,"288":0.026671231097338766,"289":0.014187738495713717,"290":-0.042132438418296746,"291":-0.06733572174131025,"292":-0.020512715606800472,"293":-0.018846916631298758,"294":0.006724363176514954,"295":-0.11111515396294266,"296":0.018519702047186115,"297":-0.006735555682874939,"298":-0.1494857700798679,"299":-0.02709329349091627,"300":-0.03005250190445562,"301":0.00497442215382393,"302":-0.01899736667298208,"303":-0.159038637325523,"304":-0.07456185782159452,"305":-0.13711274980528476,"306":0.039672939821079965,"307":-0.04934738142389207,"308":-0.014697963053589603,"309":-0.06446485869139577,"310":-0.010421842128487499,"311":-0.10735988115456059,"312":-0.1767593740639859,"313":-0.043046015324608604,"314":0.024423139150652553,"315":-0.015712474804841593,"316":-0.11998630868952684,"317":-0.10409194095371173,"318":-0.15779240632943403,"319":-0.15594439632913837,"320":0.007190536738256458,"321":-0.05343814170160141,"322":0.014011045821053031,"323":-0.06325910670332141,"324":-0.04146190756979378,"325":-0.1347013685285007,"326":-0.04516118620550074,"327":-0.04939886245815955,"328":-0.03343084126550942,"329":-0.024398550998210516,"330":-0.09385174201303992,"331":-0.10751618928144563,"332":-0.08184518215349576,"333":-0.09405277616944936,"334":-0.043819875728479486,"335":0.04625347428601571,"336":-0.02550741275329379,"337":0.047092702359681125,"338":-0.06846633487485695,"339":-0.1540034776783253,"340":-0.14416318875998585,"341":-0.019238624427838007,"342":-0.02693070770532756,"343":0.0012154898529875258,"344":-0.0707558855175817,"345":-0.10618164751503781,"346":-0.016101543477794026,"347":-0.06688188155069676,"348":0.020886010165774047,"349":-0.058674935847052585,"350":0.00734503734791813,"351":-0.018325012372127254,"352":-0.11816812210811643,"353":-0.2785703547364632,"354":-0.0585636205650749,"355":-0.09200534995834911,"356":-0.03866248459234012,"357":-0.06848182464072916,"358":-0.05023800096259688,"359":-0.029221535617888,"360":-0.36849517634646994,"361":-0.11905225498200722,"362":-0.02443616478753843,"363":-0.05991991959254882,"364":0.05406959683910233,"365":-0.10740749075002431,"366":-0.152577913709721,"367":-0.6843715721083093,"368":-0.13886863545684866,"369":-0.018760134207336583,"370":0.09207393954912452,"371":-0.06547291311302085,"372":0.00528960727978318,"373":-0.07658971439958044,"374":-0.27617143695335344,"375":-0.15251346449433045,"376":0.013908427302353484,"377":0.03651970506955096,"378":-0.026503852850809074,"379":-0.00752198984608638,"380":-0.08897381870458357,"381":-0.08700180676798755,"382":-0.33853337773485687,"383":-0.021590959587696995,"384":0.00764907933319542,"385":0.03264656236698128,"386":0.013977612101312849,"387":-0.054270059763845475,"388":0.02949870838339576,"389":-0.3119351906394462,"390":-0.04359633303201066,"391":0.06431722142153765,"392":0.013423464203370095,"393":0.01210152262481838,"394":-0.015275686888209319,"395":0.49632265754447297,"396":-0.2020359780352842,"397":-0.05869936577273042,"398":0.008843587931752663,"399":-0.03775244612734814,"400":-0.06317673276919851,"401":-0.012116121479443827,"402":0.1282656360499823,"403":-0.2643949962618927,"404":-0.0607802691989649,"405":0.007846678408359672,"406":0.015710748711893104,"407":-0.04085913218352267,"408":-0.12062607901401519,"409":0.14564498867167933,"410":-0.37700047243754253,"411":-0.05864321169594822,"412":-0.004894411727507374,"413":-0.08698612331110077,"414":-0.023754414755289797,"415":-0.0037107086825002456,"416":0.1677572693528531,"417":-0.31813336789898605,"418":-0.06046157360062565,"419":-0.01801644148728565,"420":-0.02963360961162866,"421":-0.0465453365551087,"422":0.03389754707274945,"423":-0.13539521475022445,"424":-0.2994761743892345,"425":-0.09336035333269589,"426":-0.017077548136531808,"427":-0.023003553918106805,"428":-0.14132080185731152,"429":0.0510584653880263,"430":-0.2430350131441243,"431":-0.23540389427971298,"432":-0.05652628768507403,"433":-0.010828045011586893,"434":-0.048824359339081136,"435":-0.09155951471121691,"436":0.02121849859158621,"437":-0.1943789111101672,"438":-0.19836848250655087,"439":0.03307117563623108,"440":0.005897513215085442,"441":-0.010779706164154109,"442":-0.08688995371493607,"443":0.02124822224567756,"444":-0.17544799488405396,"445":-0.13621414640291174,"446":0.0204757321387421,"447":-0.022957723455665113,"448":0.0763813116870295,"449":0.00009794284248568196,"450":0.07610782960306817,"451":0.00025075594191923127,"452":-0.09265298180092663,"453":-0.1042896722810852,"454":0.04356878578317979,"455":-0.06273158130019932,"456":-0.026450260401703403,"457":0.023635429866549464,"458":0.09379478442402506,"459":-0.1461227566329559,"460":-0.03721532467025424,"461":-0.059172208718623116,"462":-0.015090507408204909,"463":0.027360585844214715,"464":0.03140660899326907,"465":0.09371156744050309,"466":0.029917028093654388,"467":0.05412304525876129,"468":-0.0391013008970261,"469":-0.025145137998968836,"470":0.023310591813540553,"471":-0.05574555007880464,"472":-0.09117312669556248,"473":-0.051822182212137115,"474":-0.01744508787257045,"475":-0.042120706801555684,"476":0.038343855763254615,"477":0.0024746502519853797,"478":-0.040707626311006155,"479":-0.2555576861637522,"480":0.06726538605974412,"481":-0.03617963160420027,"482":0.08302057280251483,"483":0.03202377059043183,"484":-0.04511240660592228,"485":0.06909831993238652,"486":-0.23578857906354675,"487":0.03505383564832985,"488":-0.030461015477477343,"489":0.04487063915144789}},{"sx":1,"sy":1,"depth":490,"w":{"0":-0.025166819813547636,"1":-0.009541336108822266,"2":-0.0667640874077643,"3":-0.10471036434840324,"4":-0.06825562467756087,"5":-0.0376127657256762,"6":0.01983678195925343,"7":-0.010114147912715636,"8":0.04461937644685071,"9":0.04854959678357492,"10":0.0074605268288539086,"11":-0.015418481051858217,"12":-0.07731525084139684,"13":-0.007936726994718493,"14":0.009614919529586933,"15":0.01825241840560452,"16":0.0332652555677512,"17":-0.023893670322177252,"18":-0.009621061501910146,"19":0.006141117494325699,"20":0.03149234415473755,"21":-0.03229154810883351,"22":-0.01711570607469572,"23":0.028453664432617883,"24":-0.018248024891173883,"25":-0.030492069618968817,"26":0.0562159875899727,"27":-0.043560097566299485,"28":-0.0011221479944504694,"29":-0.013979989664138937,"30":0.1641820955412654,"31":-0.0021249524688983167,"32":-0.008788601065210918,"33":-0.040159612228538095,"34":-0.08260609387239881,"35":-0.04676964965542138,"36":0.017592149582470844,"37":-0.03416464777367137,"38":0.060523257048892144,"39":0.007793002700989172,"40":0.032967516757012955,"41":-0.03676035588009442,"42":0.04176917802893717,"43":0.005992641978156596,"44":-0.006548897947860769,"45":0.0921651486810776,"46":-0.010030520961647,"47":0.023945672752012297,"48":0.05243367584937971,"49":0.05589006283573231,"50":-0.07371479048026133,"51":-0.0075693594023503955,"52":-0.04670066932820315,"53":-0.0714163274380492,"54":-0.026140530640414914,"55":-0.0033372853160678236,"56":0.0322382217782845,"57":0.502605762436334,"58":0.2530795952269627,"59":0.2516843510799173,"60":0.34285869940113345,"61":0.26913457337600116,"62":0.18969640359348053,"63":0.04848042326428176,"64":0.31439040230980864,"65":0.19357781814548033,"66":-0.000027918426584168396,"67":0.17305752345312408,"68":0.13969237298953913,"69":0.0974473281709527,"70":-0.10182540550833441,"71":0.21794907317568266,"72":0.06926936052761372,"73":0.19007344416962507,"74":0.23991014932317675,"75":-0.0065569534574841425,"76":0.09167059405343134,"77":0.041958971974220244,"78":0.2270499754227754,"79":0.0836889598031798,"80":-0.010612651909098549,"81":0.2085576500149086,"82":-0.019736045494894213,"83":0.01416532489730161,"84":0.14165693257658263,"85":0.14776451496381837,"86":0.12886863130423368,"87":0.2712569920389258,"88":0.18600033387585535,"89":-0.042042024817109315,"90":-0.07053432409048933,"91":-0.04927552842786013,"92":0.18248543328078992,"93":0.02329529730477513,"94":0.15248482545283032,"95":0.2188946873258503,"96":0.014821097949550634,"97":-0.022691065131997742,"98":0.00031771350674011126,"99":0.19507980793539426,"100":-0.0026213699058164766,"101":0.05054083301432743,"102":0.23550825740148804,"103":0.10330704395106408,"104":0.02602725512153064,"105":0.10869310682060936,"106":0.3004201441300029,"107":0.09721525193731252,"108":0.27533248549532224,"109":0.287998113371982,"110":0.08376036316616267,"111":-0.0783921224087294,"112":0.055257654382891416,"113":0.12730047114678134,"114":-0.044449962389691594,"115":0.041719770701257104,"116":0.22206648011747188,"117":-0.026081862413090687,"118":0.07815689618713921,"119":0.02022162054105544,"120":0.08670267072026437,"121":0.10938589769258868,"122":0.10024308630757205,"123":0.2107982718638725,"124":0.08656436948822281,"125":0.05917369303135972,"126":0.03161191884016922,"127":0.06123378187385682,"128":0.25263728166639926,"129":0.15582479652911502,"130":0.13971926830289075,"131":0.03279548635689409,"132":0.20038010574678222,"133":-0.18269813311503563,"134":0.03519274728883933,"135":0.16825310314903602,"136":0.008898356696506229,"137":0.1400511274456273,"138":-0.07550358377706992,"139":0.06823884682835328,"140":-0.19308858198318107,"141":0.11771630720756009,"142":0.22242944514466462,"143":0.04603089270544797,"144":0.16517009403817265,"145":0.1474523599968623,"146":-0.060998485697033415,"147":-0.10392067442685508,"148":0.283188065306253,"149":0.15967895423407485,"150":0.1678619128167345,"151":0.034208212923833,"152":0.06698245214726925,"153":-0.07697615290639168,"154":-0.045823813603960414,"155":0.14419062971813884,"156":0.21578542414486268,"157":0.20474844219348048,"158":0.24146243757177835,"159":0.03865195359732146,"160":-0.15713652672402667,"161":0.18347181651943714,"162":0.2360349839885936,"163":0.24417977092885662,"164":0.19304062372015973,"165":0.12267108897794962,"166":-0.008927674131522347,"167":-0.07810569072518492,"168":0.1697147491744155,"169":0.16243704120062263,"170":0.05980556718346739,"171":0.28840007920358995,"172":0.03254567791534514,"173":0.08673048129876687,"174":0.0013145572194386494,"175":0.07800726080012024,"176":0.10635420936697271,"177":0.034986393472825866,"178":0.29139839745384594,"179":0.03912287549375028,"180":0.030328278937961705,"181":-0.025512108065400583,"182":0.13538626280475993,"183":0.16536371544903336,"184":0.13680378858077694,"185":0.07249213430930562,"186":0.048571581800327765,"187":-0.009422987782956938,"188":0.014440746409683715,"189":0.02995393504839626,"190":0.05119902790641723,"191":-0.020169448647428662,"192":0.10978175448113683,"193":0.1764880616663128,"194":0.06144343035623966,"195":-0.003242724441201459,"196":0.05383788080158506,"197":0.0735945970390333,"198":0.071099663123451,"199":0.12414926166978073,"200":0.07149717321844251,"201":0.06784690858679936,"202":-0.09799032916754372,"203":0.19810016318994292,"204":0.14851828639544498,"205":0.11775081132088419,"206":0.27550116523993357,"207":0.16865462648879567,"208":0.0025781559441474433,"209":0.05753965169494894,"210":0.10269950483631836,"211":0.04636454770487206,"212":0.11498020139192612,"213":0.14388897959981772,"214":-0.011171619904197747,"215":0.05317364562921538,"216":0.008547350750833575,"217":0.11919290583506215,"218":0.18222313685504804,"219":0.09558719791463548,"220":0.13273499430511995,"221":-0.09883577433298818,"222":-0.019838633444144757,"223":0.030133237225267197,"224":0.027752517004089428,"225":0.21910838156286971,"226":0.11854857373329286,"227":0.11199078962382629,"228":0.021615016754828135,"229":-0.04681007637296373,"230":-0.005561084460306592,"231":0.012125254767585929,"232":-0.020662834914287168,"233":0.08561635022476735,"234":0.06812540338579959,"235":0.010105721957527519,"236":0.023164648974219187,"237":-0.0404724695790727,"238":0.04411283619481293,"239":0.1213443583384452,"240":0.09596835252494591,"241":0.16630455127320254,"242":0.02902881153841705,"243":0.14247405793556106,"244":0.05122445778359698,"245":0.0920312835161647,"246":0.05764190222368668,"247":0.10113316679404737,"248":0.017903140608832066,"249":0.03264944934635192,"250":0.04046155141128772,"251":0.019513333605808716,"252":-0.0002419532743742796,"253":0.05414339914300251,"254":0.17510242369231688,"255":0.044738147824960585,"256":0.01853995088445469,"257":-0.04686339073894911,"258":0.036084839032766027,"259":-0.010037559049563922,"260":0.009353100960029132,"261":0.1662721317133088,"262":0.05841113303852085,"263":-0.008587413454376688,"264":0.013347184022311779,"265":-0.08282848830905493,"266":0.10404419502932238,"267":0.09919827819340386,"268":0.02505943740894873,"269":0.060740017034791746,"270":-0.08234338706001876,"271":-0.1517495658187005,"272":-0.004632559118816081,"273":-0.010190120153337985,"274":0.1375761876778798,"275":0.09785894940702286,"276":0.14799260905273873,"277":-0.1481735533498688,"278":-0.011826815367388416,"279":0.07091894639699398,"280":0.25634528895410835,"281":0.1712718500143488,"282":0.05391377787258005,"283":0.06295322357987493,"284":-0.07672559080158738,"285":-0.11774269397689799,"286":0.10126637678768728,"287":0.10029427114817363,"288":0.151688911143807,"289":0.06665280901937054,"290":-0.12510352296423868,"291":-0.08752238391239069,"292":0.023417579639368802,"293":0.22980655865291566,"294":0.09892289696211,"295":0.09035285298355622,"296":0.02109164335144324,"297":-0.03843352765068837,"298":-0.07145078627382546,"299":-0.07959020895801064,"300":0.09658486941762195,"301":0.07363477807484145,"302":0.05080468363650314,"303":0.007588201855571985,"304":-0.04948922982277439,"305":-0.02486489158327811,"306":-0.05675618999604017,"307":0.12889183896081127,"308":0.05153886316391162,"309":0.26606980914346506,"310":0.002406742106066912,"311":-0.14992803118921869,"312":-0.06382547001064315,"313":-0.0852550039798893,"314":-0.0036114865751809984,"315":0.023287609544459534,"316":0.19640729050377145,"317":-0.08039799173872722,"318":-0.2433116850898075,"319":-0.13443291533389223,"320":0.053713038675028024,"321":0.013981168324027063,"322":-0.04539483271179934,"323":0.10673732416468794,"324":-0.2072234353977199,"325":-0.10418272464246485,"326":-0.06999564677377902,"327":0.12330191504517655,"328":0.01839231008952667,"329":0.04349819526931596,"330":0.15099103697338773,"331":-0.03235544040805155,"332":-0.3354947864069358,"333":-0.0736229517864409,"334":-0.01710411993898397,"335":0.03504271962425892,"336":0.03790756820400493,"337":0.018538546592857585,"338":0.023967597943843795,"339":-0.35734414731641845,"340":-0.09412879327835938,"341":0.07557061454245485,"342":0.08209273018423316,"343":0.0009158975307393902,"344":0.15406411731873473,"345":-0.025128600149412084,"346":-0.1146534159447205,"347":-0.11206271524103881,"348":0.09759797004251798,"349":0.07148477286185241,"350":-0.052999835040895796,"351":-0.029788943989360633,"352":-0.06815682410742903,"353":-0.22887511993037854,"354":-0.2631168599675416,"355":-0.055452508675337076,"356":-0.014917644820655808,"357":-0.06562909151113328,"358":0.1150265074237141,"359":-0.09319952033124838,"360":-0.2511560542984865,"361":-0.20457307398466065,"362":0.057593180663462626,"363":0.07539853040856949,"364":-0.09137569646117223,"365":-0.015959550905012537,"366":-0.1690674292069275,"367":-1.178211690752352,"368":-0.17315934261777716,"369":0.1155046998846655,"370":0.014055013655237326,"371":-0.07446907628802936,"372":0.03831372484860928,"373":-0.23809189355045848,"374":-0.3706153724745006,"375":-0.2663327164373316,"376":-0.007691723816150038,"377":-0.012696788026599364,"378":-0.046216350572628885,"379":0.098404653756632,"380":-0.03525777851840258,"381":-0.23434913559893966,"382":0.15788787875780833,"383":0.0903876886414046,"384":0.06239576386162597,"385":0.01566638711645268,"386":0.12393562844058048,"387":-0.21396909521441995,"388":-0.11227456282301805,"389":0.08831566132586745,"390":-0.012302064977170764,"391":0.057769525377006095,"392":-0.07285744717130507,"393":0.20543403142852096,"394":-0.13700037034393897,"395":0.985042322049206,"396":0.1311356954532361,"397":0.0657250142374622,"398":0.08849221695782614,"399":0.04827113398685167,"400":0.11439635198791645,"401":-0.2271882435583411,"402":0.2671673524990471,"403":-0.0805120936361376,"404":-0.008843537230581369,"405":0.07005642999047339,"406":0.019215319057824056,"407":0.06230725314848341,"408":-0.14935986139797539,"409":0.25088765621443493,"410":0.029137803916507863,"411":-0.0241017322507713,"412":-0.04994253544467398,"413":-0.0880197787436938,"414":0.016734707679358765,"415":0.06245457073140048,"416":0.24120360123432472,"417":0.07423238030812343,"418":-0.008939131612026238,"419":-0.003985486538665519,"420":-0.03174176045053104,"421":0.15827007690424366,"422":-0.010746973880395536,"423":-0.14960549059293973,"424":0.11631857746345944,"425":0.047972075025771874,"426":-0.067152635595363,"427":0.08491673731262489,"428":0.10075376579697856,"429":-0.13862194074035714,"430":-0.226090359691188,"431":0.18317224089431458,"432":-0.029571188200488537,"433":0.05375094433410651,"434":0.002528070585705391,"435":0.14363527286719288,"436":0.01793714432597315,"437":-0.1528436470159939,"438":0.07934266227477431,"439":0.001555855642905978,"440":0.09310803296056391,"441":0.0033789377031723483,"442":0.17706521095317754,"443":0.11010656597294999,"444":-0.19438526014260968,"445":0.03893363107472393,"446":0.026739577502760053,"447":0.16906825790552021,"448":0.022176713695927913,"449":0.11774466887829571,"450":0.10904918318211537,"451":0.2711020081354879,"452":0.06046246419559078,"453":-0.0018085623720630818,"454":-0.027297081909924928,"455":-0.016085096628818137,"456":0.2011272873955401,"457":0.4331641066069269,"458":0.2579877906741225,"459":0.15353324889195014,"460":-0.0017127399862987159,"461":-0.0542755017044288,"462":0.10277622457422744,"463":0.18125646693537395,"464":0.4078452872423152,"465":0.26206349684282054,"466":0.24582302249930194,"467":0.05659692040719785,"468":-0.0009893867246341245,"469":0.08682442392037547,"470":0.14990536616005212,"471":0.20132300072161138,"472":0.0902096666224598,"473":0.15774513106769525,"474":0.00042492927844908426,"475":-0.08080578310503918,"476":0.16612331354353513,"477":0.04771217837013965,"478":0.18438053666704024,"479":-0.003365705655654261,"480":0.21853700057979347,"481":0.07408548921938549,"482":-0.00915124244511235,"483":0.09864490316502392,"484":-0.02084068387330076,"485":-0.0966524768913167,"486":0.032139208998722954,"487":0.05989755604486029,"488":0.01999261545011504,"489":-0.058387570656379964}},{"sx":1,"sy":1,"depth":490,"w":{"0":0.05253640407796057,"1":0.03366827946463022,"2":0.0029404238212707564,"3":-0.034385830030548466,"4":0.08190656614202532,"5":-0.016989236095157005,"6":-0.009867105694334286,"7":-0.02467797839190868,"8":0.03719487184425779,"9":0.020935252320335825,"10":-0.05351178859720642,"11":0.02128822658950548,"12":-0.037247184409608856,"13":0.030327838670521357,"14":-0.05575044794690549,"15":-0.08832048615428767,"16":0.0422890618792349,"17":-0.02278789598659263,"18":0.029941881019149425,"19":-0.0005304200519030562,"20":0.011448171888030118,"21":0.014317883548518566,"22":-0.06266427916051105,"23":0.03963247188276528,"24":-0.03808989139468913,"25":0.0007598802428975026,"26":-0.046739416678815086,"27":-0.02146251572832648,"28":-0.07732245499697114,"29":-0.03464599516619152,"30":0.02267638521979451,"31":-0.029097804181391042,"32":-0.03392576254008821,"33":-0.023393134987422647,"34":-0.0006553785414936991,"35":-0.07609500920267707,"36":0.05290975189167708,"37":-0.010050190809353501,"38":0.04163954078220957,"39":-0.03772689082924534,"40":-0.03492348806799951,"41":0.031162513275488378,"42":-0.07177428718253219,"43":-0.008223920202637307,"44":-0.009416091193719217,"45":0.035999742582790616,"46":-0.040191618118471,"47":-0.013395362503594941,"48":0.04716026523032365,"49":-0.12063625845617641,"50":-0.0023302577979700864,"51":0.04896417436088572,"52":-0.0321351080526853,"53":-0.002797705798624425,"54":-0.0018412847586937939,"55":0.02441208255667661,"56":-0.11109490816980024,"57":-0.031017559757476085,"58":-0.12705370304145525,"59":0.015010006026823728,"60":0.008192951473646744,"61":0.09327873935213722,"62":0.027768779120220903,"63":-0.03347180489081725,"64":0.06380280487869437,"65":-0.06829382267504855,"66":0.12950399269729532,"67":-0.0434342379514745,"68":0.0575395020022352,"69":-0.06542142071722482,"70":0.06313061464363275,"71":0.013342869733988428,"72":0.012659442135703617,"73":0.14899806172413843,"74":-0.09184019465392536,"75":-0.004095092963682738,"76":-0.01328910915327798,"77":0.028832404400483267,"78":0.0672596392163826,"79":-0.11950865419927173,"80":0.1428217688353166,"81":-0.018113808224893158,"82":-0.03103392472033689,"83":-0.002591836929705985,"84":0.0004669389508407428,"85":0.12959531868223303,"86":-0.09302310676736587,"87":0.09514901493746891,"88":0.013699195366389614,"89":-0.061512672668411206,"90":-0.027690978735536647,"91":-0.08193373427628282,"92":0.15005246901054234,"93":0.07183760875928187,"94":-0.01629624546876145,"95":-0.08326916222857324,"96":-0.001640835910637025,"97":0.06323650507633723,"98":-0.04395210910843791,"99":0.17478728172863658,"100":-0.06820092773075137,"101":-0.0476437218283271,"102":-0.04565723910492171,"103":-0.028780701829911316,"104":-0.03231114977594797,"105":0.08089004933003034,"106":0.15466268428606791,"107":-0.06278644840515395,"108":0.0752663733255249,"109":0.06027364773908667,"110":-0.008711688214729642,"111":-0.03309244509542487,"112":0.08344773644361544,"113":0.08084414295481207,"114":0.07670846150650529,"115":-0.0061850362887356375,"116":0.06766528890438363,"117":-0.042754682727383135,"118":0.06394365506458768,"119":0.15066993664156536,"120":0.10571806789956392,"121":0.025991195396681887,"122":0.11103369028629105,"123":-0.04349706408233307,"124":-0.037625747830979474,"125":0.018643850927501128,"126":0.13362349881386762,"127":-0.0687295094713193,"128":0.07044720287976289,"129":0.28929150845139556,"130":-0.057063403951067196,"131":-0.06392899074376726,"132":0.05874933069034313,"133":0.05673072291366403,"134":0.0005724566873908939,"135":0.06385416650034964,"136":0.06681311521829601,"137":-0.034146517046994194,"138":-0.06855349186686252,"139":-0.035288875937586686,"140":-0.005376179353960692,"141":0.06565590917118728,"142":0.10025926007008647,"143":0.20288227186449276,"144":-0.027922199022560254,"145":0.06091453598429899,"146":-0.02171100812877388,"147":0.005569216065683778,"148":0.030311448505089163,"149":0.040122491294722396,"150":0.19104169614701036,"151":-0.031133978815245288,"152":0.020063142576484297,"153":-0.03248549497897171,"154":-0.0652468451926432,"155":0.039992482730672976,"156":-0.00504362321270036,"157":0.21290823698370467,"158":0.013848094519459609,"159":-0.046373275383588076,"160":-0.0050787599943048,"161":-0.025708222874509756,"162":-0.049521124147282915,"163":0.02349320740841793,"164":0.19012059412940593,"165":-0.060745288447984956,"166":-0.029814324174794335,"167":-0.012491887683511263,"168":-0.05800328085939054,"169":-0.08357969546291788,"170":0.15858249865514537,"171":0.2021800746308405,"172":-0.012233187730894643,"173":-0.02864586943930601,"174":-0.06994733464401995,"175":-0.07721495317579816,"176":-0.0261486661584355,"177":0.15398995257880702,"178":0.09543410654405399,"179":-0.009636805032986964,"180":0.008129997985347312,"181":0.025362971460044577,"182":0.030416407842025036,"183":-0.11717434891131642,"184":0.01347786594977652,"185":0.09402491431248268,"186":0.00806354118407489,"187":0.02715250560171185,"188":-0.023803561483525325,"189":-0.015479275418173061,"190":-0.03915703499174257,"191":-0.0009368243460979356,"192":0.15498730152309886,"193":-0.0670670655902773,"194":-0.023973341920949437,"195":-0.022987549943414242,"196":0.10932622991048764,"197":-0.08582530501592875,"198":-0.05699737380900207,"199":0.21561065871262575,"200":-0.026456600625068435,"201":0.011309514232152993,"202":-0.08185333906437577,"203":0.12675469211515467,"204":-0.06875188824898476,"205":0.03574688454860554,"206":0.13451689475916837,"207":0.012824388613767689,"208":-0.05973986275762449,"209":-0.057046970604154666,"210":0.19573085971423954,"211":0.025639673354448517,"212":-0.04723664445873816,"213":0.10549483652426106,"214":-0.045384803239807786,"215":-0.07982578751134359,"216":-0.02567575218747327,"217":0.1338541981561988,"218":-0.05316793740610855,"219":0.10193620824827113,"220":0.09680701235153635,"221":-0.04864814447077666,"222":0.025142453088209362,"223":-0.01385519397806999,"224":0.1328906192164895,"225":0.026186876024125564,"226":0.034019894082140144,"227":0.21767741696232024,"228":-0.0047023395288159344,"229":-0.00875785438240485,"230":-0.05914178346146937,"231":0.04588679921240707,"232":-0.014975356610780454,"233":0.10951854280987074,"234":0.12454729926749966,"235":-0.10187317962339225,"236":0.05848786993266242,"237":0.0022210106610211894,"238":0.07351903190354576,"239":0.029130837557783198,"240":0.10845804359745963,"241":0.03624676621071596,"242":-0.09514702871632144,"243":-0.002273006641691124,"244":0.00924704512628666,"245":0.14020750085852784,"246":-0.04450311871603763,"247":0.09373711123882292,"248":-0.012687489716976006,"249":-0.033032553632968746,"250":-0.007413795289594347,"251":-0.04452227184628657,"252":0.0989916704882296,"253":-0.06770273147992606,"254":0.036843605070178656,"255":-0.2198372126730676,"256":-0.03898005442400217,"257":-0.1030030654225279,"258":0.001893912385595301,"259":0.08281945020809241,"260":-0.07816090155984179,"261":0.11743715869901879,"262":-0.14251632656760868,"263":-0.09803756727152638,"264":-0.049087780558369085,"265":-0.054531558401841755,"266":0.1461453600158112,"267":0.019475815744688898,"268":0.06094302369195569,"269":-0.2601426492071633,"270":-0.06631961016658876,"271":0.04664907109553682,"272":0.0000044151633094579326,"273":-0.04140419217322761,"274":-0.030458317338539723,"275":0.15112755664541472,"276":-0.11610282951754193,"277":-0.03279315719298071,"278":-0.06370545946847583,"279":-0.029959642711559,"280":0.028909848610451146,"281":-0.11483653527843334,"282":0.08769127247336989,"283":-0.1011244017313951,"284":-0.10321103451838815,"285":-0.06396635443372235,"286":0.04073501164398597,"287":0.07011658323037608,"288":0.0196468290644312,"289":-0.061737059699678895,"290":-0.16375975052907804,"291":-0.20430842425504422,"292":-0.03769580938105738,"293":0.04008550120062965,"294":0.0038433927672271375,"295":-0.0225791553126731,"296":-0.16670724832900166,"297":-0.18910028390112965,"298":-0.0860796792311495,"299":0.01386643568852811,"300":0.020052880987677577,"301":0.03371107012245396,"302":-0.22354933544915748,"303":0.1034076588844129,"304":-0.21280429592814068,"305":-0.18374724486112534,"306":-0.0007301132876189989,"307":0.020432920592334442,"308":0.032050011199336655,"309":-0.15036067736931655,"310":-0.033170197341333925,"311":-0.26159172510510437,"312":-0.09909213247047417,"313":0.02246493339605586,"314":-0.0029343580334043147,"315":-0.08234265294552842,"316":-0.18580765842575844,"317":-0.0017662949164605024,"318":-0.34682951174106963,"319":-0.12864749415815926,"320":-0.03658572278044189,"321":-0.005594433105199167,"322":0.0345985117760824,"323":-0.22420051261432322,"324":0.048328369219409764,"325":-0.311918432938127,"326":-0.11560527325393845,"327":-0.018935693551461533,"328":0.01945276513161922,"329":-0.02927126342245496,"330":-0.20965648132055076,"331":-0.15500436180298502,"332":-0.4172111930648998,"333":-0.13686533420719835,"334":-0.06102032042722715,"335":-0.08057936902111394,"336":-0.18341417425590326,"337":-0.2619684800467558,"338":-0.25623664990724004,"339":-0.5178802360112408,"340":-0.19174242028760805,"341":-0.06927232118869182,"342":-0.06659788181543848,"343":0.005807339783558335,"344":-0.1236223654291803,"345":-0.3404538613274392,"346":-0.3396554468175042,"347":-0.18836103087697953,"348":-0.01460886684667896,"349":-0.10583027277852604,"350":0.08520729859242175,"351":-0.24700799806245163,"352":-0.311566621060362,"353":-0.15899658263980093,"354":-0.10383843243696499,"355":-0.027092690559792645,"356":0.002977574120250179,"357":0.07388458609043828,"358":-0.22550272801511226,"359":-0.3731591846199487,"360":-0.24693204449301928,"361":-0.13356178938703078,"362":-0.07147225770608887,"363":0.029310722463284186,"364":0.10555823873907946,"365":-0.17818060635093702,"366":-0.5573891713143302,"367":-0.21666179137901834,"368":-0.18606953666182321,"369":-0.04805199877073866,"370":-0.019758951942463954,"371":0.10663998053761135,"372":-0.17361491775097201,"373":-0.2932601021938431,"374":-0.42366068194905904,"375":-0.09671360242594579,"376":-0.06263368842104286,"377":0.10171554790045254,"378":-0.05937662436904739,"379":-0.1754160752550222,"380":-0.5901239950382465,"381":-0.48459480533606125,"382":-0.17734475065255234,"383":-0.03536905991409886,"384":0.0311575334355596,"385":0.042213014664425424,"386":-0.1069896494374744,"387":-0.4814139951221873,"388":-0.41998082444743695,"389":-0.17897975832735916,"390":-0.07977471584344988,"391":-0.046971307465677826,"392":0.16480837131289944,"393":-0.005619426679088222,"394":-0.3666458368426007,"395":-0.24910031225948145,"396":-0.14229922659492794,"397":-0.022286865405657948,"398":-0.029851032731695135,"399":0.07087652226131382,"400":-0.1227613869371239,"401":-0.6921855123970443,"402":0.043608978492947224,"403":-0.18729479962619663,"404":-0.011036094882959034,"405":-0.0022146133098820426,"406":0.12669083913220805,"407":0.07072484724390449,"408":-0.6903540910350815,"409":0.03238576521169451,"410":-0.15530690033095143,"411":0.028293083940347467,"412":-0.04824455316111616,"413":0.06783569946439763,"414":0.01891491388589075,"415":-0.6888627258807908,"416":0.09281855799880982,"417":-0.19483949063844472,"418":0.058821095401674295,"419":0.05225359013341109,"420":0.03214277470753645,"421":-0.009995364077982082,"422":-0.47038314334233744,"423":-0.16138320047368354,"424":-0.16450490403671242,"425":-0.04515493666689403,"426":0.037792391869949385,"427":0.04330675405403495,"428":0.012224335008132893,"429":-0.5495658773050226,"430":-0.05785323952643271,"431":-0.13491643268707584,"432":-0.08562057645190926,"433":-0.09026803955337011,"434":0.1390289378804961,"435":0.06383118196503526,"436":-0.29179526166311137,"437":0.011578853792187566,"438":-0.16932428766677823,"439":-0.019365299879007702,"440":0.0017336831704694792,"441":0.013402325275260047,"442":-0.05826204374550704,"443":-0.25680390432357036,"444":-0.028711898335940966,"445":-0.15598213396031488,"446":-0.04964494005074945,"447":0.03355770375053362,"448":0.023688115286778638,"449":-0.06962154061990639,"450":-0.3798355789181731,"451":0.06418906315922661,"452":-0.09442596255594342,"453":-0.051993258241393545,"454":-0.003720763410560128,"455":0.10292689079745922,"456":-0.12228339573213758,"457":-0.15317166361439505,"458":0.039421362908404305,"459":-0.020466999375526124,"460":-0.05352166745942539,"461":-0.11420043957638701,"462":0.13129526941462394,"463":-0.20706379690490392,"464":-0.1405421752413628,"465":0.017857901600562578,"466":-0.020384897079224338,"467":-0.04265592235865104,"468":-0.04395336258741401,"469":0.24168469895399874,"470":-0.09327297763491928,"471":-0.07596440641915872,"472":-0.11277495506923073,"473":-0.051056704361184535,"474":0.023031486670799118,"475":-0.02699155316970161,"476":0.2523385990082611,"477":-0.06265926627327831,"478":-0.06884061314754829,"479":-0.30951797647435836,"480":-0.0690500834231505,"481":-0.028352135304112625,"482":-0.01243895653830039,"483":0.12016512655402584,"484":-0.012932183836284757,"485":-0.1197829530459336,"486":-0.533791364490266,"487":-0.049331440295226396,"488":-0.06659495132907119,"489":-0.022989924216359123}},{"sx":1,"sy":1,"depth":490,"w":{"0":0.02843777797118256,"1":-0.025436178630974363,"2":-0.0014752829294001337,"3":-0.056119759305150486,"4":0.07263950526369334,"5":0.042189829894772685,"6":0.05613163766222135,"7":0.03122165086190158,"8":0.018143422621318024,"9":-0.00936135633487937,"10":-0.051602806878288617,"11":0.0025243266502459954,"12":0.0877727102659963,"13":-0.006264728129722904,"14":-0.04703183655314703,"15":0.02075711432983888,"16":-0.06870282480794133,"17":-0.048394347720848614,"18":0.026440675726460024,"19":0.04397515925127901,"20":-0.030432448196060988,"21":0.049872048525922134,"22":0.09273189889888281,"23":-0.03294379807555441,"24":0.0010146392080614094,"25":-0.06260468681386207,"26":0.04237960992535212,"27":0.0022458204591842396,"28":0.0014161990529945462,"29":-0.018139326371249605,"30":-0.002339036339384222,"31":-0.047328226028675806,"32":-0.01920255227712077,"33":0.03132005994334011,"34":0.04415079386688294,"35":-0.008831002350967145,"36":-0.0497849886063517,"37":-0.001275492280213171,"38":-0.010055249555027103,"39":-0.012739046852560238,"40":0.046622168038096136,"41":-0.010033299737297172,"42":-0.12599218876254117,"43":0.05447020344894341,"44":0.010679763497427735,"45":0.09348163072178267,"46":0.027171180760079836,"47":0.010766529752837747,"48":0.001973484283173517,"49":-0.012759527084151926,"50":0.018493672715746565,"51":-0.027462614891539967,"52":-0.02765007690100741,"53":0.03347336985980351,"54":-0.11213257849263487,"55":0.007639908849769827,"56":0.09289576646344849,"57":-0.03917879634100105,"58":-0.05824843618426122,"59":-0.028839785633984837,"60":0.03220780345007429,"61":0.019128341098365614,"62":0.0541863719961842,"63":0.02761719389846231,"64":-0.09588334956487979,"65":0.04031312843760862,"66":-0.010790045359856313,"67":0.15558995900876968,"68":0.022993798791851903,"69":0.01759370664731428,"70":-0.005251489987813707,"71":0.08602333987590495,"72":0.033756729304601434,"73":-0.0438102546499698,"74":0.10827072765468902,"75":0.008930053085996238,"76":0.04528764092785913,"77":0.06366496255572658,"78":0.035212382743046486,"79":0.02691102525525595,"80":-0.001930056591249245,"81":-0.028171560602439288,"82":0.09288706759220454,"83":0.036700872039729895,"84":-0.033312878474509894,"85":0.0018468664802173134,"86":0.06044793031920288,"87":-0.027613056409458384,"88":-0.033472155612800744,"89":-0.0406340466048525,"90":0.013080489652376954,"91":0.0036569841443996067,"92":-0.012902311042942791,"93":-0.0003775869411853159,"94":-0.08669177278822839,"95":0.039631411762170325,"96":0.04051654064710243,"97":-0.0020911201018706626,"98":0.015830168472233657,"99":-0.012863651590415708,"100":-0.06385078082592166,"101":-0.013120776752781078,"102":0.04680072400943971,"103":-0.03937169984352983,"104":0.009197491700813928,"105":-0.0037115374598728846,"106":-0.028208036319353397,"107":-0.04361639266366137,"108":-0.04435503354335059,"109":0.06370804275343774,"110":-0.008625907062605694,"111":-0.08045504215164488,"112":0.04714215576148377,"113":-0.02459378521146595,"114":-0.019326402653103984,"115":-0.05762704679817566,"116":-0.059073879693595496,"117":-0.014654287128962261,"118":0.0033586836347708543,"119":0.030123368494037794,"120":0.0011163202164054297,"121":-0.05682270553785577,"122":-0.022057825416712647,"123":0.017334965704054683,"124":-0.015843219356544293,"125":-0.04154657337059665,"126":0.02471037882778184,"127":-0.0038131965739431335,"128":0.0009467351932818392,"129":0.040816851222198594,"130":-0.033345271023620386,"131":0.024163264797316394,"132":-0.03755499812132846,"133":0.00030396393211145673,"134":-0.03875063394837335,"135":-0.03064561599931218,"136":-0.04168373447336679,"137":0.01873603552755519,"138":0.0015778753069242586,"139":-0.006613343091081494,"140":0.0007165708795685341,"141":-0.029014599455889696,"142":-0.03246555200973947,"143":-0.04024099755294574,"144":-0.013849200886506194,"145":0.03215146965610257,"146":0.02210008976908663,"147":-0.008205994674927206,"148":-0.0038192407774068344,"149":0.004436831060256265,"150":0.025032832935250743,"151":0.042506328474478494,"152":0.11859233550814287,"153":0.02716289386783911,"154":-0.014863480732783511,"155":0.052670968531927924,"156":0.06405296226285259,"157":-0.1119294173183794,"158":0.012813297142251451,"159":0.14552685465528703,"160":0.0770755910788309,"161":0.02488170695969486,"162":0.020501374953947823,"163":-0.00951386237551375,"164":0.013223543514365879,"165":-0.00878240599743808,"166":0.1511273975258178,"167":0.037198840854439814,"168":0.03083209748417405,"169":0.0071707463354634725,"170":0.0787191091772105,"171":-0.08662355946683926,"172":0.10314562008276693,"173":0.053037005488314665,"174":0.06865058815375391,"175":0.000635407232948107,"176":0.07220202945684383,"177":0.02810686074228256,"178":0.016271771034183206,"179":-0.033685263634732364,"180":0.02911811786815387,"181":0.12017175969451466,"182":-0.05612811811115971,"183":-0.054309390952859325,"184":-0.04643344843029594,"185":-0.12451335335645508,"186":-0.009555721344345337,"187":0.04772764044357493,"188":0.1129223348154738,"189":-0.04267402254107867,"190":-0.01617220609094454,"191":0.020488801573123917,"192":-0.07643369885520512,"193":0.05350135608181539,"194":0.071241384231141,"195":0.02654186619328052,"196":0.010463262861638218,"197":0.09141740010510842,"198":0.07067930220444779,"199":-0.10261751133320961,"200":0.06143878835537809,"201":0.11966974735750757,"202":0.03901167205656032,"203":0.011332776676293121,"204":0.021749627064453488,"205":0.022752750691596303,"206":-0.09772849260841228,"207":0.04963325206071295,"208":0.021135824526575798,"209":0.14752234518407312,"210":0.029237210168079824,"211":-0.008040290059913658,"212":0.026483916714696333,"213":-0.041161047290126145,"214":0.08482141921928694,"215":0.06439098313742306,"216":0.07664612649365553,"217":0.014313878825114961,"218":0.03733016765252551,"219":0.011473030863035649,"220":-0.08185639913318495,"221":0.020792902706567955,"222":0.07847446855296354,"223":0.03320755980295832,"224":0.003636921405514269,"225":-0.028907616400551957,"226":-0.025054604441018192,"227":-0.058246355859750826,"228":0.03436824242980707,"229":0.08190716797562007,"230":0.0629922166739193,"231":0.021035576273624974,"232":-0.011040749771324802,"233":-0.016463430315168424,"234":-0.1023090004357461,"235":0.09103333570172176,"236":-0.035645997229338124,"237":-0.019124097571976213,"238":0.053553038377835725,"239":0.015762248418657226,"240":-0.09540127167315342,"241":-0.11408331308867835,"242":0.15069158190791762,"243":0.02151518363657533,"244":0.13833160958068827,"245":-0.01609197718080167,"246":-0.011022391773281431,"247":0.042960101233177825,"248":-0.05179251946927319,"249":0.05641087619169905,"250":0.06306106486824906,"251":-0.012836478675077097,"252":0.0060393039300001726,"253":0.01784573519519786,"254":0.04288416183008224,"255":-0.03498338841086917,"256":0.0953549929310156,"257":0.042039015382670505,"258":0.0467017489491498,"259":0.048883992512218366,"260":0.10142116367303956,"261":0.041506922904080694,"262":-0.07408482971571233,"263":0.0843984106794309,"264":0.09223844118690672,"265":0.10440373348175677,"266":0.07814985804731289,"267":0.03473559591750467,"268":0.012371628350212346,"269":-0.030578013384213155,"270":0.030672171927085313,"271":0.0530869907911036,"272":0.0901280852391154,"273":0.018077448596044137,"274":0.07690266082707946,"275":0.03489593960856409,"276":-0.20370978020723682,