
//<![CDATA[

// a few things don't have var in front of them - they update already existing variables the game needs
lanesSide = 1;
patchesAhead = 20;
patchesBehind = 5;
trainIterations = 25000;

var num_inputs = (lanesSide * 2 + 1) * (patchesAhead + patchesBehind);
var num_actions = 5;
var temporal_window = 0;
var network_size = num_inputs * temporal_window + num_actions * temporal_window + num_inputs;

var layer_defs = [];
layer_defs.push({
    type: 'input',
    out_sx: 1,
    out_sy: 1,
    out_depth: network_size
});
layer_defs.push({
    type: 'fc',
    num_neurons: 15,
    activation: 'tanh'
});
layer_defs.push({
    type: 'fc',
    num_neurons: 10,
    activation: 'tanh'
});
layer_defs.push({
    type: 'regression',
    num_neurons: num_actions
});

var tdtrainer_options = {
    learning_rate: 0.005,
    momentum: 0.0,
    batch_size: 64,
    l2_decay: 0.01
};

var opt = {};
opt.temporal_window = temporal_window;
opt.experience_size = 5000;
opt.start_learn_threshold = 1000;
opt.gamma = 0.85;
opt.learning_steps_total = 10000;
opt.learning_steps_burnin = 1000;
opt.epsilon_min = 0.0;
opt.epsilon_test_time = 0.0;
opt.layer_defs = layer_defs;
opt.tdtrainer_options = tdtrainer_options;

brain = new deepqlearn.Brain(num_inputs, num_actions, opt);

learn = function (state, lastReward) {
    brain.backward(lastReward);
    var action = brain.forward(state);

    draw_net();
    draw_stats();

    return action;
}

//]]>
    
/*###########*/
if (brain) {
brain.value_net.fromJSON({"layers":[{"out_depth":75,"out_sx":1,"out_sy":1,"layer_type":"input"},{"out_depth":15,"out_sx":1,"out_sy":1,"layer_type":"fc","num_inputs":75,"l1_decay_mul":0,"l2_decay_mul":1,"filters":[{"sx":1,"sy":1,"depth":75,"w":{"0":-0.09728290884988042,"1":0.061065279935155314,"2":0.13943629985964523,"3":-0.05319141721202799,"4":0.09888350187002695,"5":-0.049788572742901896,"6":0.04754441301997618,"7":-0.08603215750458537,"8":0.21894901079554346,"9":0.18824626542785178,"10":-0.022153165601004696,"11":-0.1594701093537132,"12":-0.07445726783045563,"13":0.029664762915073074,"14":0.06178164861230719,"15":0.06965130281711349,"16":0.09739726172367949,"17":-0.08780986817520374,"18":0.023790825939679218,"19":-0.06393657393770302,"20":0.1699639297473427,"21":-0.049063436693293695,"22":0.027607554853092946,"23":-0.03965940634823043,"24":0.011025948340917266,"25":-0.03366572250444817,"26":0.012229568704651514,"27":-0.03038128685401874,"28":0.06703471853642047,"29":0.013723010980690039,"30":0.00231779877141142,"31":-0.04714606246608142,"32":0.04027691492342989,"33":0.17851751571086338,"34":0.17223686861536297,"35":0.008925902195879179,"36":-0.0965416836634263,"37":0.04210691138184795,"38":-0.13562067733244879,"39":0.09537005561046998,"40":-0.04134658719129501,"41":0.10805674361445465,"42":-0.025000707544731302,"43":0.06474613831151622,"44":-0.14056695033412403,"45":0.050809571568594517,"46":0.03778719679612486,"47":0.1463013323107412,"48":-0.0010563998573859346,"49":-0.07560528703403713,"50":-0.07096192235219073,"51":0.10725083680718579,"52":0.09459738079997862,"53":-0.029605597188187217,"54":0.083768289685804,"55":0.11886530997323232,"56":0.0720134678200557,"57":-0.1411022645152013,"58":0.23252158837580023,"59":0.19121373293981997,"60":0.04897083234412125,"61":0.06332283848601418,"62":-0.046797443028931705,"63":0.07943704357466372,"64":0.24857575411871294,"65":0.035003022095328566,"66":0.020141124292648097,"67":0.18170719309017663,"68":-0.18199489079004522,"69":-0.042064196349116706,"70":0.0930093835696788,"71":-0.138669609233435,"72":-0.13728179228340817,"73":0.15033299058078908,"74":0.1606239357030155}},{"sx":1,"sy":1,"depth":75,"w":{"0":-0.08477698812350569,"1":-0.14480553144701044,"2":-0.10508009240010671,"3":0.07027399808113867,"4":-0.10110989519257729,"5":-0.06077761926955387,"6":0.0816751062113728,"7":0.17139799793372304,"8":0.004467789645864741,"9":0.0736740780167203,"10":0.07704264398658582,"11":0.04300576810477927,"12":-0.03431265639369504,"13":0.00036817883789356804,"14":-0.012407441250712189,"15":-0.15626510330620738,"16":-0.12668862348944285,"17":0.06974735206020238,"18":-0.15585307017501773,"19":0.016326793433741764,"20":-0.22432378805378153,"21":0.018950212191391085,"22":-0.28508933899401134,"23":-0.03375232005352742,"24":-0.061120298578712845,"25":-0.0007650704894599526,"26":0.01899087491116387,"27":-0.02859000759367966,"28":-0.03445235625428899,"29":0.022183308223192356,"30":0.026532237703351755,"31":-0.23160453307515433,"32":-0.002328035744525318,"33":-0.058059738710565814,"34":0.08724394908508325,"35":-0.09834113085552981,"36":0.016833668788096036,"37":-0.07626470436013433,"38":-0.01224600683629396,"39":0.006796994996897068,"40":0.05079394499997487,"41":0.05202239647579397,"42":-0.13633791194274542,"43":-0.1614556066621267,"44":-0.23434080438367494,"45":0.1342266738934448,"46":-0.03787179544799055,"47":0.1808147602067655,"48":-0.0875416488224726,"49":0.0068507886112367826,"50":0.162904129676606,"51":-0.06482246753191091,"52":0.07755542387071683,"53":-0.1641485359308231,"54":-0.04387425462662892,"55":-0.05626594608753518,"56":-0.17319383781309602,"57":-0.3291990632631542,"58":-0.052208186783934754,"59":-0.10536912764595219,"60":-0.046385094518155943,"61":-0.13727726143567906,"62":-0.04068205791514431,"63":0.10140286345772002,"64":-0.05629987909858621,"65":-0.07228475484690074,"66":-0.07469264960073964,"67":-0.1500822705684146,"68":-0.009613030721595077,"69":-0.024522415584300666,"70":0.012762632966435294,"71":-0.16375222290393585,"72":-0.025469779941227705,"73":-0.033132003367055914,"74":-0.005995106956681566}},{"sx":1,"sy":1,"depth":75,"w":{"0":-0.2410720210633137,"1":0.052222824334451454,"2":-0.17157610494689898,"3":-0.05350237216157949,"4":-0.0674961819523884,"5":-0.05588182273236644,"6":0.09080769585780257,"7":-0.010751215453790814,"8":0.016128823908959606,"9":-0.08765955592013241,"10":-0.06315596986469071,"11":-0.04099051029392125,"12":0.1509147643989654,"13":-0.12393955561272149,"14":-0.017655213603687374,"15":-0.0677035443794849,"16":0.3515511332268774,"17":-0.07918217993886857,"18":-0.07829057557077207,"19":0.294666156361868,"20":0.015259793734521082,"21":-0.1512159880501388,"22":0.030982882472878035,"23":0.06005755788437046,"24":0.18857370348649868,"25":0.007843563814157115,"26":0.2114615981650844,"27":0.13488463805540166,"28":-0.28312984811954645,"29":0.07570685043226988,"30":0.10715406959496579,"31":-0.3536804105661414,"32":-0.051974650368645056,"33":0.1555174426698461,"34":-0.2567296231467947,"35":0.04933850831349409,"36":0.26823379202863884,"37":-0.12974363247859066,"38":0.33205674158348086,"39":0.014092767905747318,"40":-0.0482084111645887,"41":0.03552288363955533,"42":0.01912768805741544,"43":0.3563154228868384,"44":0.030612669518889284,"45":-0.23175458956152747,"46":0.030010042531752455,"47":-0.05498664765471899,"48":-0.03191642840034322,"49":-0.2785417446182961,"50":-0.0681829356461743,"51":0.022863733241646526,"52":-0.8495635228608288,"53":0.21375897097098645,"54":-0.04235788967691754,"55":-1.0766186347390552,"56":-0.014208842690625396,"57":-0.14743089058357728,"58":-0.8992335668414014,"59":0.09998583560244967,"60":-0.030869930686176116,"61":0.34482421464542573,"62":-0.0014337082598980843,"63":0.01606216408799395,"64":0.20970068373625322,"65":0.02597386498541298,"66":0.15454603498897426,"67":0.2676364437751704,"68":0.029489944845155828,"69":0.003225704428892736,"70":0.35643342251316323,"71":0.09965781088214792,"72":0.13300364424516464,"73":-1.167104341332761,"74":-0.0058319549260387035}},{"sx":1,"sy":1,"depth":75,"w":{"0":-0.039455239690759855,"1":0.11852927189622167,"2":-0.06063980651580218,"3":0.014770547918999328,"4":0.17228525199908468,"5":0.12942622517062716,"6":0.03841175572223563,"7":0.048670613134899184,"8":-0.0798350932375865,"9":0.015164860472742939,"10":0.15553396051153578,"11":0.019246497095529103,"12":0.0009990687241564495,"13":0.14166907790896371,"14":-0.14084115315156592,"15":0.049503533117741555,"16":0.03467190439399202,"17":0.2020015515028347,"18":0.20267118910756213,"19":-0.03597230101517997,"20":0.01236561981036486,"21":-0.10281203944568439,"22":0.08143628177943976,"23":0.057689096985856454,"24":-0.018012044487966006,"25":-0.01826524756877697,"26":0.06547891557350807,"27":0.1529624846923187,"28":0.1994613137100717,"29":0.19052258914545786,"30":-0.11918090654694219,"31":-0.06597706410561605,"32":-0.01877206494943635,"33":0.06377742776522756,"34":-0.160577460993464,"35":-0.004635622449782005,"36":0.024179214806174992,"37":0.05236937091638712,"38":-0.141184037672325,"39":-0.0948342406704887,"40":-0.2296929817342327,"41":0.15622093137046048,"42":0.04717519815780382,"43":-0.32791038281603985,"44":-0.08148985343324182,"45":0.04488081619329326,"46":-0.34408673954493907,"47":-0.10489079896038007,"48":0.03834074894120258,"49":-0.3059697760079088,"50":0.03187736219791963,"51":0.016395945547575716,"52":-0.04620101875622375,"53":0.023784916928189254,"54":-0.0903366735984195,"55":-0.19985917634184883,"56":-0.19195402078828155,"57":-0.07184588927764476,"58":-0.17207903007119393,"59":0.022163903703535433,"60":0.1284394606903987,"61":0.21142558513362034,"62":0.1142268152313215,"63":0.07373678257432881,"64":0.2066439909452233,"65":-0.00379502376251576,"66":-0.062268817877930364,"67":0.0535104233288814,"68":-0.10950344657120652,"69":0.20289739775900956,"70":0.2310413209164578,"71":-0.0764907215408387,"72":-0.21972437494962224,"73":-0.04909622186281798,"74":-0.08154752579267811}},{"sx":1,"sy":1,"depth":75,"w":{"0":-0.15922902314506795,"1":-0.23962835920451891,"2":0.04486707110888907,"3":0.03172964278558808,"4":-0.013041113948483292,"5":-0.07278865667890423,"6":-0.04768823885249292,"7":0.17248315637155853,"8":-0.14532037832625588,"9":-0.13267921945190495,"10":-0.023259981335518588,"11":0.08281457754419853,"12":-0.15477423388865505,"13":-0.12234671816326054,"14":-0.22722045222551548,"15":0.010794079066029373,"16":0.060131363649956734,"17":-0.021385553095596966,"18":-0.10767787266593366,"19":-0.015540673108056352,"20":0.05230566351449138,"21":0.03317583250292338,"22":0.14437435032580878,"23":-0.22019741602662463,"24":0.07265967762626083,"25":0.0092208131053217,"26":-0.016615147096991766,"27":-0.21270125904963583,"28":-0.0654461082319431,"29":-0.0250882556615375,"30":-0.2337196406594593,"31":0.1411594475821224,"32":0.05435892360385705,"33":0.07411243308280309,"34":-0.04300334370195313,"35":-0.25807745839681945,"36":0.15028316930244143,"37":0.01880982537844688,"38":0.1320156636299005,"39":-0.09181773130193252,"40":-0.004457748620827432,"41":0.012816738244971744,"42":0.01861728489915124,"43":0.09233792503457668,"44":-0.21058401368199217,"45":0.21689084542278206,"46":-0.026523342742273862,"47":0.027936741833950687,"48":0.07835202649591044,"49":-0.10428210732643747,"50":0.030543968878224203,"51":-0.10743580300521906,"52":0.010107094348473735,"53":-0.046305485859863355,"54":-0.1092434043018655,"55":-0.17254050782912322,"56":-0.08951725392063863,"57":0.08049497804029082,"58":-0.07733807434028493,"59":-0.01102097826594788,"60":-0.04633521142890447,"61":-0.007199931070150231,"62":0.03079365584207529,"63":0.035124825298351606,"64":-0.006813229264141546,"65":-0.06315270160781303,"66":-0.1803200868968584,"67":-0.036180251166153206,"68":0.06134758849259029,"69":-0.2230096975285014,"70":-0.07924702268239547,"71":-0.04755862064657295,"72":0.0860046191018255,"73":-0.09410878049288157,"74":0.05707675245777568}},{"sx":1,"sy":1,"depth":75,"w":{"0":0.029367731281532247,"1":-0.09692372493432135,"2":-0.02408020015816849,"3":0.04422102728170762,"4":-0.05525132868558583,"5":0.044735795191568783,"6":-0.028456355312574285,"7":-0.04798794743633551,"8":0.13175314739672375,"9":-0.05092135219243044,"10":-0.14193967004208108,"11":-0.12720611149269767,"12":0.03462715208113211,"13":-0.16333034931226775,"14":0.06422384435557171,"15":-0.01694963805817895,"16":-0.056944788887445245,"17":-0.03902876355187437,"18":-0.035754899530739154,"19":-0.271546580571586,"20":0.22939219590762075,"21":0.0451374533199301,"22":0.09875335243386944,"23":-0.06259713489196309,"24":0.008321540912952454,"25":-0.14720251198214396,"26":-0.12924507232588872,"27":-0.12634114173614053,"28":-0.12368540041971056,"29":-0.06217854289566571,"30":0.02730466490370743,"31":-0.2118817121453492,"32":-0.2416009710215659,"33":0.03651368036834549,"34":-0.28840721345399134,"35":-0.14753663060893252,"36":0.23502255562255736,"37":-0.21361176079452773,"38":-0.042436189610246144,"39":-0.15100425008541044,"40":0.0633008499343131,"41":0.07923403020002336,"42":-0.1462834609425933,"43":0.12495908485391245,"44":0.1055613077673598,"45":0.019018278527956182,"46":-0.021336522330987526,"47":-0.04079556399076227,"48":-0.23958993280338947,"49":0.17387452501283313,"50":-0.14605307082846247,"51":0.077200255014883,"52":0.020395849122226577,"53":-0.15679582238246956,"54":0.045855894045881286,"55":-0.04372164043739838,"56":0.044792437106236496,"57":0.19267344060001762,"58":-0.07734481132292488,"59":0.10241311852743598,"60":-0.15883032383277565,"61":0.07363027609160568,"62":0.054147294395721496,"63":0.1041852678252735,"64":0.35100082257051995,"65":0.028800368943239195,"66":-0.08598050192678763,"67":-0.08533559624994304,"68":0.07650862489031406,"69":0.09246355292996059,"70":0.2404630616947316,"71":0.07551094150793573,"72":0.18296234942481293,"73":-0.04567315068872543,"74":-0.003938968751676683}},{"sx":1,"sy":1,"depth":75,"w":{"0":-0.12129771912034648,"1":-0.11009429681324491,"2":-0.027099199316628606,"3":-0.012717195733899444,"4":-0.018823892167228105,"5":0.21493092815976206,"6":0.1628981969725321,"7":-0.23411712364147838,"8":0.03721702945489895,"9":-0.04013458565156901,"10":0.013399866219539577,"11":-0.23908075220823563,"12":-0.10976416274814865,"13":0.14737965663122668,"14":-0.11164754451075361,"15":0.16156397493545863,"16":-0.05234718402113516,"17":0.39417873940199666,"18":0.0806043402321613,"19":-0.014213448543831357,"20":-0.01833952664353286,"21":0.0315209417648938,"22":-0.009531595273821546,"23":-0.14456697473299562,"24":0.03378544131844027,"25":0.03571484011465408,"26":0.02079273912134135,"27":0.009139589156114077,"28":-0.1729893346163891,"29":-0.14317851545756646,"30":-0.0965823681723191,"31":-0.02306165603229533,"32":-0.04555218492778804,"33":0.14357808723676252,"34":-0.12320674964148948,"35":-0.1283666467489508,"36":0.026362382681101883,"37":0.014220890566444409,"38":-0.10605438965798887,"39":0.10975263086255317,"40":-0.10195649782811982,"41":0.02689938083511023,"42":0.07038005805347534,"43":0.06946883529227728,"44":0.02136328496072273,"45":0.034807905206278585,"46":0.05524137219316816,"47":0.027306109026720513,"48":-0.050452768635267084,"49":0.028839712591463944,"50":-0.07239512976634246,"51":0.06723695411655461,"52":-0.000627843565997489,"53":0.009877907434391438,"54":-0.016438721863436905,"55":-0.08559157234843405,"56":0.004218222492836675,"57":-0.13523901636692442,"58":-0.07125821718832265,"59":0.09737501920975293,"60":0.3078241165068106,"61":-0.12224843380968152,"62":0.07612963049896786,"63":-0.0694689687956306,"64":-0.3595018244267846,"65":0.07391870519173131,"66":-0.09890793986999329,"67":-0.3351049376162049,"68":0.007945856115944054,"69":0.0049374300169482185,"70":-0.33392956847341765,"71":-0.07692381297814908,"72":-0.14355293838495015,"73":-0.008224919628871818,"74":-0.10594035680002717}},{"sx":1,"sy":1,"depth":75,"w":{"0":-0.08482668413172771,"1":-0.2270840186228446,"2":-0.1626307246275216,"3":0.006856354398635119,"4":-0.2795223058816214,"5":-0.05495862011330305,"6":-0.2084072079769673,"7":-0.3355318986621327,"8":-0.32222654434672066,"9":-0.14195772164898898,"10":0.10981441512483109,"11":-0.10625368061001918,"12":-0.056326832008564455,"13":0.06464074359692726,"14":-0.13623675124102066,"15":-0.06239802986625914,"16":-0.4252126525745107,"17":-0.10747956650218564,"18":-0.08106310944064654,"19":-0.3673559233400035,"20":-0.09461355070609169,"21":0.08068242353394177,"22":-0.5296673866400761,"23":-0.012534088293066565,"24":0.12919573255177896,"25":-0.45091052254152425,"26":0.23368330364912168,"27":-0.041306160570123436,"28":-0.23171991682551912,"29":-0.16063433279343972,"30":-0.1071880918829654,"31":0.0023515621044678373,"32":-0.10154104258272745,"33":-0.04147354094864089,"34":0.11696162697268973,"35":0.014256108242858317,"36":-0.016108165258974502,"37":-0.1435704480601305,"38":-0.1928448269573264,"39":-0.13767259832143436,"40":-0.5203837803658151,"41":-0.014187336356373348,"42":-0.004337250721471963,"43":-0.7212773382685087,"44":-0.09016232624436266,"45":-0.023460866461599436,"46":-0.6223131987054629,"47":0.15467478671787221,"48":-0.16840687392470535,"49":-0.8086082689198508,"50":0.06286304322660721,"51":0.2378558389174428,"52":-0.13709050297447417,"53":0.18791432544583347,"54":0.3227079500296271,"55":-0.05511748460376475,"56":0.20428387846489832,"57":0.3256010252777809,"58":0.10518591144894658,"59":0.1418507201487836,"60":0.2898189506586738,"61":0.29483773391331486,"62":0.19970233021360204,"63":0.13346012843412572,"64":0.34620405317800973,"65":0.33370246821220556,"66":0.20522626455733164,"67":0.19204674087012713,"68":0.16174868976266327,"69":0.46701240901566626,"70":0.10289259369890441,"71":0.3509772309574993,"72":0.2328686867551314,"73":-0.0005286075327724849,"74":0.11876096177367865}},{"sx":1,"sy":1,"depth":75,"w":{"0":0.15202418303967444,"1":-0.09695071693115591,"2":-0.007104988442335376,"3":0.09879740382518053,"4":0.07103716490989326,"5":0.10710880941226382,"6":0.25890065506112886,"7":-0.03362440425145842,"8":-0.017056793830940907,"9":0.18508728721473502,"10":-0.16161254962288502,"11":-0.09606849297303414,"12":0.36950789731503664,"13":-0.10197210161638584,"14":0.007567996875491827,"15":0.06328736765223503,"16":-0.11083355044924172,"17":0.022820776597745025,"18":0.16086455833033345,"19":0.012387584206367775,"20":0.15948759838143883,"21":0.1934227975759813,"22":-0.05637116194713036,"23":0.06189683794527738,"24":0.12565980924625328,"25":-0.04014587131276022,"26":-0.16403025957008138,"27":0.2357388813266965,"28":-0.01696311094924985,"29":-0.010662644798739464,"30":0.17800312226917192,"31":-0.05006123079769482,"32":0.08805069281036988,"33":0.24224121407164914,"34":-0.015428955875680094,"35":-0.1561536828751003,"36":0.2690870773899301,"37":-0.27897043040863595,"38":-0.0029501986113619,"39":0.4684602220654839,"40":0.2735736391965005,"41":0.07725665459665101,"42":0.4996467974919726,"43":0.26333990854585476,"44":-0.07687973855988046,"45":0.27259065960533063,"46":0.5778449592052344,"47":-0.2813586900858607,"48":0.3975352309293888,"49":0.3985125238863725,"50":-0.1216750272072549,"51":0.30416541123505814,"52":-0.15025141541232076,"53":-0.10290460275725277,"54":0.2330858754385837,"55":-0.49750174708175665,"56":0.002437324641501137,"57":0.22317638926679378,"58":-0.2755428307636859,"59":-0.30411736692873026,"60":0.25854502440150384,"61":-0.33625990388808774,"62":-0.1999915825919462,"63":0.4324835424269822,"64":-0.20777682669779263,"65":-0.01276242237398879,"66":0.27613882942776635,"67":-0.07353517862253643,"68":0.03486031918319771,"69":0.2750917365441692,"70":-0.23731494535834022,"71":-0.1657400255886431,"72":0.42301864508648446,"73":-0.5436788207517143,"74":-0.094430207755379}},{"sx":1,"sy":1,"depth":75,"w":{"0":0.11987681414915412,"1":-0.27509005813314186,"2":0.1813065067025116,"3":-0.025239806126085694,"4":-0.23239964210651962,"5":0.10456391223239503,"6":0.05432289700390096,"7":-0.21639412143665845,"8":-0.05944480602718211,"9":-0.05462531802620025,"10":-0.3079465599992412,"11":-0.146996312397395,"12":-0.1608428370189563,"13":-0.31238833230521457,"14":0.01955758706553423,"15":0.0006598732816134772,"16":-0.6507980226346477,"17":-0.07123653251923505,"18":-0.17165865439984035,"19":-0.5719174274555711,"20":0.06625104747765478,"21":-0.12808331764776165,"22":-0.5030084288434511,"23":-0.00040448819915805116,"24":-0.24016613283468302,"25":-0.4799884775874677,"26":-0.22983870073976512,"27":-0.19364186854901266,"28":-0.6493797195637275,"29":-0.0855026038089748,"30":-0.27189868626699054,"31":-0.6186274614558235,"32":-0.17235612135851372,"33":-0.1625141954432571,"34":-0.489541202054655,"35":-0.1178737543307775,"36":-0.237786335269048,"37":-0.38159836270780906,"38":-0.16061110339730075,"39":-0.13831486778303462,"40":-0.5120654800726885,"41":-0.1790547225537634,"42":-0.13588904105326288,"43":-0.3877844938681239,"44":-0.14014391678789684,"45":-0.07267802201498723,"46":-0.22291794555313543,"47":-0.3110032081375283,"48":-0.23218435684892333,"49":-0.21736324236359544,"50":-0.05181300507326394,"51":0.08603315184138054,"52":0.17860823061010214,"53":-0.12146093014430537,"54":-0.04770622257701602,"55":0.21582076246235848,"56":-0.10739481932332458,"57":0.05238531549477708,"58":0.13045069898393188,"59":0.08139494017695534,"60":0.08601223317952966,"61":0.24963320932047098,"62":-0.3392512029136772,"63":-0.0645590699959294,"64":0.4558013594710592,"65":0.11493384803509625,"66":0.15127420451751158,"67":0.26709741696684663,"68":-0.01954378773566355,"69":-0.06773244230050948,"70":0.23432065000832372,"71":0.21880777048758898,"72":0.07242639564648808,"73":0.08803509443650433,"74":0.10170382341165009}},{"sx":1,"sy":1,"depth":75,"w":{"0":0.1467370067529735,"1":0.0628514319283114,"2":0.17502701235606397,"3":0.23264437822538794,"4":-0.06873261030262334,"5":0.1781189961285241,"6":0.07665062798172056,"7":0.1336584168117857,"8":0.13261938449329863,"9":0.08269245218039946,"10":-0.08152942211318885,"11":0.1903282163346878,"12":0.10450262985725532,"13":-0.19187601953676298,"14":0.020520747463528447,"15":0.3490643370574639,"16":-0.005677589680017844,"17":0.3266536058475124,"18":-0.060772829935957555,"19":-0.17073983230989237,"20":0.1521646856736314,"21":-0.09664351984570989,"22":-0.13063612015573556,"23":0.19713521143048893,"24":0.005483678938633887,"25":-0.14870426265859713,"26":0.048578093400233106,"27":0.141593441278707,"28":-0.12460752660904606,"29":-0.1146325099777419,"30":0.06330929474916518,"31":-0.07907403114361973,"32":-0.20058889962528997,"33":0.13357933419111595,"34":-0.1474682646958143,"35":0.1698046334639238,"36":0.09400778301639466,"37":-0.02628204933491202,"38":0.029287372702448404,"39":0.07738643241465051,"40":-0.058759480121388874,"41":-0.036413740944072966,"42":0.23659584384189647,"43":-0.03125029071409303,"44":0.3055442133245073,"45":0.034164152983384946,"46":0.09957664436945331,"47":0.10827727497072977,"48":0.20445037229047924,"49":-0.17803582345680333,"50":0.2466386289897566,"51":0.1522949659130279,"52":-0.13739964786840145,"53":0.20080210066390822,"54":0.11698694711281993,"55":-0.14615790278013377,"56":0.15299742726242377,"57":0.08963661362610298,"58":0.12577633002733535,"59":0.20214652912242642,"60":0.17973165134678934,"61":0.09050910147583582,"62":0.11897353745116243,"63":-0.012774447897764342,"64":0.05676093114784025,"65":-0.026974100617962345,"66":0.14293987106603234,"67":-0.034999718001258145,"68":0.07125884144550557,"69":0.11565627371212873,"70":-0.31502482847379965,"71":-0.0256097370492758,"72":0.33550339100862564,"73":-0.0735129771423119,"74":-0.026728333308236967}},{"sx":1,"sy":1,"depth":75,"w":{"0":0.06668590094715923,"1":0.26844541214007606,"2":-0.013560477165545884,"3":-0.041704471224616256,"4":-0.16402320847071786,"5":-0.02701039413800122,"6":-0.09797633400995616,"7":-0.09908651594507759,"8":-0.021030151409954692,"9":-0.0599457870974534,"10":-0.20061378616850922,"11":0.07902370548952506,"12":-0.10285877544218172,"13":-0.07794943804605639,"14":0.1726131813277899,"15":0.0558563650406009,"16":0.1757275421073686,"17":-0.03343195235686474,"18":-0.31906188125383333,"19":-0.19609314097383276,"20":0.06460297956979032,"21":0.12314741773599935,"22":0.14875409858255004,"23":-0.2752954837436301,"24":-0.030111701706964287,"25":0.0492581553828355,"26":-0.1883340433200628,"27":-0.01516002629712488,"28":-0.22397071946093533,"29":-0.041861592234589864,"30":0.06690557730037666,"31":-0.09885700409702405,"32":-0.016314191553432566,"33":-0.06734308582436209,"34":0.1151557531237988,"35":-0.24773292413677425,"36":0.05923565592212596,"37":-0.1507457070211951,"38":-0.15384126076322585,"39":0.18490199589915718,"40":-0.09631096273983498,"41":-0.03771266658896036,"42":-0.21860871248100047,"43":-0.051222763746530925,"44":0.1396095227225452,"45":-0.02451283181916131,"46":-0.08865405404811487,"47":-0.055461006863718056,"48":-0.1581448726135421,"49":-0.17686623747502775,"50":0.026628930928093406,"51":0.057447494414394,"52":0.062466353799744384,"53":0.014125255280643078,"54":-0.014550586310995208,"55":0.04392468196995043,"56":-0.17999016352567146,"57":-0.17490245447759864,"58":0.06100143514807777,"59":0.12547649558997673,"60":-0.036298876926425874,"61":-0.04145324751104431,"62":-0.11763842157603686,"63":-0.06767825929919502,"64":-0.12167290484116117,"65":-0.13013302375880634,"66":0.09807325401574547,"67":-0.14549453216808503,"68":-0.10222469326115799,"69":-0.2404475375068792,"70":-0.22133102181583886,"71":-0.005905631733551983,"72":-0.10116606827238024,"73":-0.17869483481195228,"74":0.0972102590715685}},{"sx":1,"sy":1,"depth":75,"w":{"0":0.502644368274002,"1":0.1658608244590813,"2":0.36565684884655186,"3":0.10209033547847633,"4":0.054714998928690264,"5":0.2650951271242053,"6":0.17167762908395953,"7":0.12678269425044117,"8":0.19381910876989547,"9":0.2847046217591165,"10":0.13372365034428302,"11":-0.003686312913600801,"12":0.21010676297135528,"13":0.12862219327658805,"14":0.20427364047300667,"15":0.18225381980984096,"16":-0.03401995185476034,"17":0.17414612183912367,"18":0.21396774328667403,"19":0.166254646102801,"20":0.39144818215954147,"21":0.055822113798485604,"22":0.3203364127155215,"23":0.03904040597613569,"24":0.018077486458215237,"25":-0.33662309621504793,"26":0.1379969688944919,"27":0.12076949868956857,"28":-0.5409667600846528,"29":0.13503775598221687,"30":0.12365108184851656,"31":-0.884243644031355,"32":0.219351742949363,"33":0.0733635796516261,"34":-0.823903629697905,"35":0.1078852144281511,"36":0.03909874837338039,"37":-0.4827906770043216,"38":0.1497054654384345,"39":0.01065031509318151,"40":-0.8926640638224974,"41":0.022782161703933972,"42":-0.16605690569938225,"43":-0.9948189381459072,"44":-0.3904836738762873,"45":-0.11912165466629004,"46":-0.8357570238070676,"47":-0.38013123247536984,"48":-0.21194532779588726,"49":-0.8059852755782098,"50":-0.1904224486774668,"51":-0.459072853130563,"52":0.6813013804398739,"53":-0.36744753543613384,"54":-0.5013596630971026,"55":0.9490634115348124,"56":-0.4283473630017341,"57":-0.4007073575140543,"58":0.7925693105904854,"59":-0.38847567639079456,"60":-0.38312694007731773,"61":0.11151194567911145,"62":-0.2249553635272914,"63":-0.33830391039078006,"64":-0.11057014635108768,"65":-0.2996826120090001,"66":-0.1727741927822881,"67":0.08243728997915038,"68":-0.3593701558604749,"69":-0.17741649757558803,"70":-0.03602587875835109,"71":-0.1550361612042876,"72":-0.21144526301460306,"73":0.776444826884372,"74":-0.3015117679177632}},{"sx":1,"sy":1,"depth":75,"w":{"0":0.11170563816755709,"1":0.19040872765446148,"2":0.11358252575282327,"3":0.327197667162378,"4":0.041363561862519646,"5":-0.04847263063321863,"6":-0.02142369476758541,"7":0.1715431137234437,"8":0.15892733316642416,"9":0.08375913760258649,"10":0.11546152187417723,"11":-0.11077206396952098,"12":0.006142194583689248,"13":0.19764707400232537,"14":0.11307602034629365,"15":-0.004827891388268221,"16":0.1447912168269494,"17":0.11504653545172669,"18":0.18891847155758246,"19":-0.05774536370443177,"20":0.2022014618844489,"21":0.09017315647365791,"22":0.05648052728120762,"23":0.09029922467589194,"24":-0.0021967540179291725,"25":0.019918209197354726,"26":0.14121706338118764,"27":-0.04626548927471923,"28":0.20686837794627153,"29":-0.016884056852688165,"30":-0.08869288823612323,"31":0.12391849622226814,"32":0.2042528122162747,"33":-0.08452282701044672,"34":0.2126171076110221,"35":0.30242776351903417,"36":-0.10069408052727156,"37":0.06710731184299601,"38":0.053796666905139026,"39":-0.04665587988175664,"40":0.29506648798049095,"41":0.10572501651299147,"42":-0.2065787655471749,"43":0.4677921583562009,"44":0.24882445093319874,"45":-0.1471728770829197,"46":0.5562033754496494,"47":0.2000551371929056,"48":-0.29109474912311956,"49":0.3014675883198269,"50":0.23800125656854737,"51":-0.137437234411243,"52":-0.08562680011702173,"53":0.1444322499073745,"54":-0.19600082297066093,"55":-0.27550468141455403,"56":0.09047255137019508,"57":-0.2281085426730226,"58":-0.4443945312330537,"59":0.10320629029614864,"60":-0.03436056704745066,"61":-0.2816683691539352,"62":0.1719952585206288,"63":-0.35429920159637046,"64":-0.1539673685248105,"65":0.19167929052657798,"66":-0.10847659727237915,"67":-0.09579136542438373,"68":0.14969378291776933,"69":-0.11225289978445868,"70":-0.02481667456042517,"71":0.10375122373298111,"72":-0.37200136210598117,"73":-0.4257063550620644,"74":0.1791037534176223}},{"sx":1,"sy":1,"depth":75,"w":{"0":-0.1306901882149187,"1":-0.04552800684635032,"2":-0.05888767527375262,"3":0.012344161287006748,"4":0.03034329682447197,"5":-0.07621049243089222,"6":0.23986693870764317,"7":-0.0093011993422111,"8":-0.12097430591103897,"9":-0.010885762465187349,"10":0.013255951110864509,"11":0.040757676413640746,"12":-0.07110120236647498,"13":0.07142978225058028,"14":0.02566152521061241,"15":0.10816577192250437,"16":0.2145034686596481,"17":0.11014274207214221,"18":-0.12991934284814377,"19":-0.018409746648124704,"20":0.04313652231694993,"21":0.008939884945726546,"22":-0.036436749951041604,"23":0.025746890414481947,"24":0.042049196149727165,"25":0.040096402302947434,"26":0.1494624668782455,"27":0.13064816217887035,"28":0.061169536452431394,"29":0.15694410382940222,"30":-0.14562002427503365,"31":-0.0704736666590115,"32":0.04030976214944866,"33":0.14056656581990204,"34":-0.11958878923624311,"35":0.02433685989910304,"36":-0.029920599181923403,"37":0.024368793671063173,"38":-0.05308192388214533,"39":-0.013258550373857361,"40":-0.030886477792458882,"41":0.217717869878264,"42":0.016330794391399436,"43":0.009995852988286128,"44":0.03394852646969566,"45":0.028245208234994438,"46":0.1124217088979623,"47":0.05239226183499872,"48":0.1427659180970614,"49":0.058112542063433,"50":0.09362784505317563,"51":0.017680981268482457,"52":0.09583792505708144,"53":0.07359431988904654,"54":0.215895936738466,"55":0.0014245024061820674,"56":-0.04815464156045226,"57":0.027803338541418705,"58":0.13816337736462084,"59":0.1742323487670734,"60":0.14516743109042585,"61":0.0256560374810223,"62":0.10915581536018239,"63":-0.05693990018612654,"64":0.11458142947225955,"65":0.018915511353223478,"66":-0.06579046879724251,"67":0.2338727306680909,"68":-0.0024990111613841575,"69":-0.07425851798962957,"70":0.267538034876657,"71":-0.0678247213512738,"72":-0.02381255242154136,"73":0.16572684083699968,"74":0.2378695911671962}}],"biases":{"sx":1,"sy":1,"depth":15,"w":{"0":0.021507194009538474,"1":-0.04726122813910406,"2":-1.1055331213407018,"3":-0.004623431250064387,"4":-0.030455737744063103,"5":-0.06889718181582982,"6":-0.04760945229403224,"7":-0.06631860486329108,"8":-0.321090004033287,"9":0.20765947441376453,"10":-0.0548829722675027,"11":-0.031801410939666916,"12":0.8288844128163516,"13":-0.39970025201712134,"14":0.020114381673822734}}},{"out_depth":15,"out_sx":1,"out_sy":1,"layer_type":"tanh"},{"out_depth":10,"out_sx":1,"out_sy":1,"layer_type":"fc","num_inputs":15,"l1_decay_mul":0,"l2_decay_mul":1,"filters":[{"sx":1,"sy":1,"depth":15,"w":{"0":-0.699363088311561,"1":0.27944451969402995,"2":0.14595938669106745,"3":-0.01448448366495432,"4":-0.2455171002846152,"5":-0.5401974787189551,"6":-0.08249830755308266,"7":0.045944175186010384,"8":0.18197881020291592,"9":0.2639358554987688,"10":-0.34461598351271533,"11":0.610879356827521,"12":0.42259120704420683,"13":-0.091306518539186,"14":-0.4349327683141049}},{"sx":1,"sy":1,"depth":15,"w":{"0":-0.23379585894746818,"1":-0.09639837198003269,"2":0.5845785153882674,"3":0.26680690502381804,"4":-0.37625911761049513,"5":0.7383929368832668,"6":-0.022130862355196255,"7":0.5341714033321475,"8":0.2317833071634085,"9":0.35264845698940683,"10":0.07684032827237658,"11":0.017366817446068796,"12":0.0464144463938495,"13":0.21764679025187736,"14":0.4453747839402144}},{"sx":1,"sy":1,"depth":15,"w":{"0":-0.1581003912855988,"1":0.02508619800231186,"2":1.0092970683279356,"3":0.5155198158056599,"4":0.3016191356128118,"5":0.10102515939383279,"6":0.042334109052381184,"7":-0.3597646183294468,"8":1.5196474775921949,"9":-0.7965450902197447,"10":-0.21052296383857566,"11":-0.005834210223633329,"12":-1.021935426645499,"13":0.07618764808547118,"14":-0.1066273410213445}},{"sx":1,"sy":1,"depth":15,"w":{"0":-0.3801709498259695,"1":0.2980464816315006,"2":-0.3540801720023732,"3":-0.3153043710159091,"4":0.28739689266317686,"5":0.05622883170689741,"6":0.38961892258795966,"7":-0.16322698072327907,"8":0.19743165468630514,"9":0.06627742578872096,"10":0.07552258038256467,"11":0.7956763128015817,"12":0.21783309432231024,"13":-0.20288914447895623,"14":-0.13209057428425652}},{"sx":1,"sy":1,"depth":15,"w":{"0":0.1482709949928946,"1":-0.6222132016748992,"2":0.4868990457748097,"3":0.15328568055450703,"4":-0.21533035985271204,"5":0.07272687740035715,"6":-0.18819079933484117,"7":-0.40960751057491435,"8":0.0022862736141355156,"9":-0.5173193519383075,"10":0.2987255243617462,"11":0.17229736018786493,"12":-0.10476165163682451,"13":0.07758550801047753,"14":-0.08145878882415582}},{"sx":1,"sy":1,"depth":15,"w":{"0":-0.16972554133956932,"1":-0.3932379670182601,"2":-0.7289812534937793,"3":-0.08221496585033551,"4":0.24648711564631273,"5":0.0794858489391844,"6":-0.22149633850858533,"7":0.6175154618674557,"8":-0.13958977598804148,"9":0.7478123058602996,"10":0.1627590048525348,"11":-0.15593252285875764,"12":1.1725858078876492,"13":-1.0883377846490658,"14":-0.05139369526137102}},{"sx":1,"sy":1,"depth":15,"w":{"0":0.2942129904252907,"1":0.1983729913534851,"2":0.11573830469262883,"3":1.0242376455272335,"4":0.11908296583825399,"5":0.26948581546703754,"6":-0.8175645369141022,"7":0.491546382770022,"8":-0.29903648961907686,"9":-0.09346565164010595,"10":0.07551690421919824,"11":-0.24964664130619435,"12":-0.11473834315596847,"13":0.04416857158093742,"14":-0.13679349484215397}},{"sx":1,"sy":1,"depth":15,"w":{"0":-0.31801311907538293,"1":-0.0058076899213144115,"2":-0.5642316754459844,"3":-0.1667248129299065,"4":-0.0746480450535856,"5":-0.5580419449402121,"6":0.6307079322411068,"7":-0.38056691637169976,"8":-0.7342273831714152,"9":-0.2000158549900358,"10":-0.8129049549764313,"11":0.6713100129156359,"12":-0.12039708614184956,"13":0.01403157896163674,"14":-0.11860390364763045}},{"sx":1,"sy":1,"depth":15,"w":{"0":0.12205428456954202,"1":-0.20153451966769345,"2":-0.6942741869649384,"3":-0.18519109688698493,"4":0.07124175567576459,"5":-0.11198052086707733,"6":0.013380898900812057,"7":-0.7087727004041667,"8":-0.03622187086849175,"9":0.905039158038326,"10":-0.338026896078175,"11":0.18386254546660236,"12":0.6964351705307875,"13":-0.0062320221029224816,"14":0.3276509755618332}},{"sx":1,"sy":1,"depth":15,"w":{"0":0.09030517250824484,"1":0.14555394256034354,"2":-0.7191782329482967,"3":-0.49409996816872825,"4":0.22327592687663142,"5":-0.027460010386691113,"6":-0.15379048093635614,"7":-1.3622870282223754,"8":0.7372194061116955,"9":0.27321444855918026,"10":-0.019488604057689443,"11":-0.07377242002911782,"12":0.18426641945921557,"13":0.2201812015718006,"14":0.024214230615875507}}],"biases":{"sx":1,"sy":1,"depth":10,"w":{"0":-0.2148227452529965,"1":0.05038267912330848,"2":-0.1857877164407256,"3":-0.19560118774203808,"4":0.02773747129170052,"5":0.07101591282956005,"6":0.201687102084998,"7":-0.18758919996192883,"8":0.18817518492848564,"9":0.04935531585857639}}},{"out_depth":10,"out_sx":1,"out_sy":1,"layer_type":"tanh"},{"out_depth":5,"out_sx":1,"out_sy":1,"layer_type":"fc","num_inputs":10,"l1_decay_mul":0,"l2_decay_mul":1,"filters":[{"sx":1,"sy":1,"depth":10,"w":{"0":-1.4530510289366099,"1":2.021793378945671,"2":1.966990937932292,"3":-1.7324485534557434,"4":1.7661186398937856,"5":-1.6028314942520772,"6":1.997795566972461,"7":-1.5650278059244171,"8":-1.6912119214018626,"9":-1.9724475150618275}},{"sx":1,"sy":1,"depth":10,"w":{"0":-1.986838541298253,"1":1.9884056408951758,"2":2.317298356974279,"3":-1.9236181622073694,"4":2.0475724717484756,"5":-2.365401071337442,"6":1.1308850068589824,"7":-1.9956718794484913,"8":-1.5404256177385947,"9":-1.0255998156190507}},{"sx":1,"sy":1,"depth":10,"w":{"0":-1.0579085926823661,"1":1.4221468145460998,"2":1.8085133980578716,"3":-1.7221161984104378,"4":1.5124317133374914,"5":-0.7655825274158614,"6":0.3512255931349413,"7":-1.9628317718098498,"8":-1.8832837823554904,"9":-3.1646840158446254}},{"sx":1,"sy":1,"depth":10,"w":{"0":-1.5868519217504717,"1":2.0022587787629442,"2":2.750246605385818,"3":-1.9481496881623805,"4":1.298237139450735,"5":-0.7846210377360023,"6":1.8316147386518145,"7":-1.6625494965145784,"8":-2.7843508889997777,"9":-1.1426632480332124}},{"sx":1,"sy":1,"depth":10,"w":{"0":-0.8398246753743014,"1":1.5810079178885266,"2":1.5584045044108414,"3":-2.206784341006268,"4":1.687935024236109,"5":-2.217016633423801,"6":1.9364601669810986,"7":-1.8896608539961415,"8":-2.2868974476008286,"9":-2.0025284477510863}}],"biases":{"sx":1,"sy":1,"depth":5,"w":{"0":1.351601554634977,"1":1.8518146615647597,"2":1.3312840110839548,"3":1.479051616248346,"4":1.506494044883339}}},{"out_depth":5,"out_sx":1,"out_sy":1,"layer_type":"regression","num_inputs":5}]});
}