
//<![CDATA[

// a few things don't have var in front of them - they update already existing variables the game needs
lanesSide = 2;
patchesAhead = 20;
patchesBehind = 5;
trainIterations = 100000;

var num_inputs = (lanesSide * 2 + 1) * (patchesAhead + patchesBehind);
var num_actions = 5;
var temporal_window = 0;
var network_size = num_inputs * temporal_window + num_actions * temporal_window + num_inputs;

var layer_defs = [];
layer_defs.push({
    type: 'input',
    out_sx: 1,
    out_sy: 1,
    out_depth: network_size
});
layer_defs.push({
    type: 'fc',
    num_neurons: 20,
    activation: 'sigmoid'
});
layer_defs.push({
    type: 'fc',
    num_neurons: 20,
    activation: 'tanh'
});
layer_defs.push({
    type: 'fc',
    num_neurons: 10,
    activation: 'relu'
});
layer_defs.push({
    type: 'regression',
    num_neurons: num_actions
});

var tdtrainer_options = {
    learning_rate: 0.001,
    momentum: 0.0,
    batch_size: 64,
    l2_decay: 0.01
};

var opt = {};
opt.temporal_window = temporal_window;
opt.experience_size = 15000;
opt.start_learn_threshold = 3000;
opt.gamma = 0.95;
opt.learning_steps_total = 10000;
opt.learning_steps_burnin = 1000;
opt.epsilon_min = 0.0;
opt.epsilon_test_time = 0.0;
opt.layer_defs = layer_defs;
opt.tdtrainer_options = tdtrainer_options;

brain = new deepqlearn.Brain(num_inputs, num_actions, opt);

learn = function (state, lastReward) {
    brain.backward(lastReward);
    var action = brain.forward(state);

    draw_net();
    draw_stats();

    return action;
}

//]]>
    
/*###########*/
if (brain) {
brain.value_net.fromJSON({"layers":[{"out_depth":125,"out_sx":1,"out_sy":1,"layer_type":"input"},{"out_depth":20,"out_sx":1,"out_sy":1,"layer_type":"fc","num_inputs":125,"l1_decay_mul":0,"l2_decay_mul":1,"filters":[{"sx":1,"sy":1,"depth":125,"w":{"0":-0.06885019078841666,"1":-0.21082805935193516,"2":-0.2871011505227507,"3":-0.03668062367215665,"4":-0.16754234096262483,"5":-0.04664804255473166,"6":0.0024229377523092206,"7":-0.046937150456272315,"8":-0.11735594832597727,"9":0.07549096099097165,"10":-0.05316159619479803,"11":-0.0561056521114446,"12":0.08582433035809901,"13":0.0152631875162661,"14":-0.06041937370216564,"15":0.0012466849543146907,"16":-0.14866647815098025,"17":-0.07948145678349007,"18":-0.00857884420128239,"19":-0.1055475776224959,"20":0.09436214729591778,"21":-0.04903837351803344,"22":0.0012670032557918422,"23":-0.19861197223598545,"24":-0.05886497696288656,"25":-0.04581984869783405,"26":-0.051312392754107206,"27":-0.3160962492902648,"28":-0.17937813032195793,"29":-0.10800897395321107,"30":0.08789119599602206,"31":-0.042667287621559816,"32":-0.07231789114569394,"33":-0.07983817717386701,"34":-0.021391931620410642,"35":-0.06849733237524479,"36":-0.0709752811173727,"37":-0.36286145192618463,"38":-0.054913722619930945,"39":-0.032395146847477706,"40":0.041854422363317684,"41":-0.22903542611576305,"42":-0.26467897924295486,"43":-0.03036075536117817,"44":-0.004668202394217308,"45":0.02598588842466755,"46":0.0538733498544723,"47":-0.2909847022256251,"48":-0.22459159425820727,"49":-0.0977614386116505,"50":0.05805861650348136,"51":-0.08563033388228021,"52":-0.3247446181715355,"53":-0.1002686497252344,"54":-0.018734953905869406,"55":0.011499039165493493,"56":-0.33231116406949734,"57":-0.23865082076170263,"58":-0.013851666551008234,"59":-0.029183958700223864,"60":0.05284392627665838,"61":-0.40633768946836907,"62":-0.03177152602394004,"63":-0.015242801997737976,"64":0.03379201968326386,"65":-0.05414610899613317,"66":-0.15173918318742613,"67":-0.12315807097252601,"68":-0.22253802556132932,"69":-0.09824393572403155,"70":-0.06988731925765922,"71":-0.28427667447167854,"72":-0.19271552022449753,"73":-0.003626277390103384,"74":-0.013781283527535899,"75":-0.06171142399173291,"76":-0.23063181515957393,"77":0.06673031907716166,"78":0.06046048676100393,"79":-0.014476504754812183,"80":0.009581919255018927,"81":-0.1506967157871982,"82":-0.21276811350253544,"83":-0.03493534731270608,"84":-0.10241854972603344,"85":-0.06695186319729748,"86":-0.04271747529141728,"87":0.1740844945821659,"88":0.01638038265336394,"89":-0.16729209225729236,"90":0.04390656519908975,"91":-0.08883704188466911,"92":0.14494945976255624,"93":0.062158115609078336,"94":0.016558061089771186,"95":-0.12078126983428122,"96":-0.10682066101486928,"97":0.16361693683588432,"98":-0.00492197616077806,"99":-0.1560650309150829,"100":-0.12074267563912824,"101":-0.39259574312553164,"102":0.16848818450716935,"103":0.08834254096686284,"104":-0.07688055839205495,"105":0.023215907827972355,"106":0.036968980103943574,"107":0.1020483692511906,"108":0.12440401580870439,"109":-0.06365890430983322,"110":-0.1406000226685518,"111":-0.007292929571969779,"112":0.17739130568505404,"113":0.1464367735582548,"114":-0.01245870036167842,"115":0.03884305591962715,"116":0.04945303255552237,"117":0.12205341695519166,"118":0.17224543613214022,"119":-0.15172485114289544,"120":-0.0486276706933547,"121":0.05048788495595018,"122":0.24200550041441093,"123":0.06621782115490264,"124":-0.1316097695681069}},{"sx":1,"sy":1,"depth":125,"w":{"0":0.13952269849212517,"1":0.03757292919940966,"2":-0.040697515914543035,"3":-0.07729131196971512,"4":0.07702671024553248,"5":0.03690713112343471,"6":0.006041927944149027,"7":-0.14264430789096486,"8":0.1528358721017991,"9":-0.07958700063531433,"10":0.14546848930054396,"11":-0.0047263153207003986,"12":-0.019151557960649997,"13":0.03439896813359606,"14":-0.025891256597128313,"15":-0.0716601802558693,"16":0.13453311395512763,"17":0.02416021486742253,"18":0.1004536449549282,"19":0.0021292414992253868,"20":-0.0058784616792336335,"21":-0.12423483697598317,"22":-0.10495884552793439,"23":0.09932949908626439,"24":0.0006720276838831598,"25":0.0053470353087943625,"26":-0.036791517254329976,"27":-0.10142766819843721,"28":0.22290153384987033,"29":0.10394505118536358,"30":0.0010306032161875394,"31":0.004575787215641016,"32":-0.19841015551607497,"33":0.05591095173193047,"34":0.0013480323771066518,"35":0.061201721147153394,"36":0.13028095469014458,"37":-0.06255011826347849,"38":-0.09702314132774935,"39":-0.014030451499989468,"40":-0.06077354626192641,"41":-0.09878658160275006,"42":-0.08452046585953489,"43":-0.1804424608938512,"44":-0.04514017546920605,"45":-0.035187368924079414,"46":-0.11277849191061358,"47":-0.04288310702534656,"48":-0.08830112627151013,"49":-0.12017435091240099,"50":0.10440001658802876,"51":-0.009793988659440792,"52":0.31995077530010574,"53":-0.1586080971343523,"54":-0.013545811126950167,"55":0.07129714609358556,"56":-0.03936006122119415,"57":0.22952230359386203,"58":-0.14721495546004193,"59":-0.11959111778549178,"60":0.05776670014946938,"61":-0.04635917357178134,"62":0.15374478762967336,"63":-0.02600312529043368,"64":-0.13494145895907567,"65":-0.009071636051033097,"66":-0.13751419603596624,"67":-0.12810874766720287,"68":-0.05144308821570056,"69":-0.042708117673277125,"70":-0.10258126492174098,"71":-0.0811992989537428,"72":-0.2876204546816535,"73":0.06084896595389097,"74":-0.09973528023200279,"75":0.1589296824602319,"76":-0.12763237526018228,"77":-0.07492704769859752,"78":0.011182774723626724,"79":-0.1808184490137222,"80":-0.0420876506538396,"81":-0.08212937998542699,"82":-0.39869290507710525,"83":0.03565134650644075,"84":0.06102489433497527,"85":-0.06548759250773403,"86":-0.19968452657406666,"87":0.12460500157861895,"88":0.16553811970601698,"89":0.04483287546010182,"90":0.13871365995885898,"91":-0.2206033042448,"92":0.3076673994342454,"93":0.24325487624103737,"94":-0.11510694107919318,"95":0.1876655942421331,"96":-0.3444833180217416,"97":0.31970874174905806,"98":0.1398504095511065,"99":-0.07743290134398656,"100":0.18976855262193795,"101":-0.2976358686849799,"102":-0.12582524035129872,"103":0.103618634142636,"104":0.010075635283531616,"105":0.06081610753432124,"106":-0.09819358134929176,"107":-0.09352154623305121,"108":-0.026780923309097975,"109":-0.15887589830062512,"110":0.13166796165811448,"111":-0.2737953450168843,"112":-0.24022354968877366,"113":-0.08976751948522864,"114":0.008662450310817468,"115":-0.014446537498971948,"116":-0.21361365759973044,"117":0.13348473683418788,"118":-0.12028278242615964,"119":0.027547599546962766,"120":0.19692680629115272,"121":-0.21150246904024042,"122":0.3180168697113095,"123":-0.022679943496569835,"124":0.01052790180885556}},{"sx":1,"sy":1,"depth":125,"w":{"0":-0.013002556143870305,"1":-0.05323510808926801,"2":0.0016893711509845734,"3":0.38638864719368143,"4":0.13184537848538783,"5":0.015606539887067313,"6":-0.08284111634108726,"7":-0.14449839176909424,"8":0.3633465544171912,"9":0.1801347624079031,"10":0.04439456579012727,"11":-0.17759059579150455,"12":-0.06295059472441263,"13":0.2847689406591997,"14":0.023149586808364073,"15":-0.051293130439070536,"16":-0.1200069276341593,"17":-0.0641913018850378,"18":0.19739201879418813,"19":-0.030377634851510422,"20":0.020549687058278466,"21":0.00508005554051817,"22":-0.0757044223133617,"23":0.3112517039048504,"24":0.009401586870347136,"25":-0.05979864064519487,"26":-0.05767417345643255,"27":-0.27748100769773215,"28":0.339098423615781,"29":0.026915413083249073,"30":0.13328455901270378,"31":-0.16509094691475418,"32":-0.08718095104802176,"33":0.3248553215082503,"34":0.061680628616674386,"35":0.07086722849441904,"36":-0.255824123150621,"37":-0.1375643950501412,"38":0.36416299835391797,"39":0.10335582452433228,"40":-0.02170153839504664,"41":0.04079787565273392,"42":-0.21643698039167233,"43":0.33068848300094733,"44":0.013908671882073058,"45":0.003858626404194577,"46":-0.06996869033496751,"47":-0.03923976049233733,"48":0.2838808880888245,"49":0.09694069361763166,"50":-0.03675420274320793,"51":-0.10462385189535199,"52":-0.2469422674587808,"53":0.3741701113314403,"54":-0.02603983028803668,"55":-0.08450897043555376,"56":-0.14016136524924286,"57":-0.30312187312967503,"58":0.3773665913553072,"59":0.11049909784310676,"60":0.054145317613265895,"61":-0.06966280412613338,"62":-0.36473037028695404,"63":0.43352719598340894,"64":-0.1585390083480872,"65":0.17997565522019934,"66":0.029784582391622478,"67":-0.21569808425515766,"68":0.3666830000542306,"69":0.030130070933282113,"70":-0.10130015137286479,"71":-0.0036038410191112304,"72":0.10953302689253097,"73":0.29680260756349525,"74":-0.09752907288687467,"75":-0.14835437872740148,"76":0.05854270085299055,"77":0.16042129945096192,"78":0.37955323211645037,"79":0.15406641491997775,"80":-0.023834771075053187,"81":-0.029918318572762455,"82":0.19646971952991849,"83":0.19612277102593156,"84":-0.0725937349933749,"85":0.029406629716887605,"86":-0.04449507614071059,"87":-0.2580358695524833,"88":0.23822541149615076,"89":-0.0366608473561181,"90":-0.016240087827615393,"91":0.12517965768092662,"92":-0.36486194551960965,"93":0.10365092985769574,"94":-0.0750328990971904,"95":0.05293636286114878,"96":0.16542788889274185,"97":-0.09797991851758289,"98":0.2584302485300133,"99":0.14845245479883878,"100":-0.05751954882622419,"101":0.16344118466608254,"102":-0.16961514193970498,"103":0.2784029568046691,"104":-0.05065553936401659,"105":-0.15362195951843668,"106":0.12214491289969971,"107":-0.33104979707520427,"108":0.2541873758257037,"109":-0.04659186385011737,"110":-0.008030190466362492,"111":0.06257753808949904,"112":-0.04669100884825421,"113":0.19970418848965818,"114":0.03332477355648115,"115":-0.14397204560446997,"116":0.2761604024221151,"117":-0.3372658315048397,"118":0.07879246152006553,"119":-0.13974317648951645,"120":0.06500245167219006,"121":0.06429724078144328,"122":-0.29904744130525873,"123":0.17613572282871165,"124":-0.025469662189412698}},{"sx":1,"sy":1,"depth":125,"w":{"0":0.03580606369349683,"1":0.14629083016286012,"2":-0.11465879967905755,"3":-0.038273604450846536,"4":-0.02764749438000489,"5":0.13566996656739794,"6":0.08444418893914114,"7":0.028538601753872014,"8":-0.09001865141575574,"9":0.04627132337281887,"10":-0.10493146789112241,"11":-0.008864665221856022,"12":-0.1065413613772606,"13":-0.2491238421614696,"14":0.01829769218215384,"15":0.0007118398249781428,"16":0.12993957935430786,"17":0.034532287218290825,"18":-0.21026169692180863,"19":-0.06986456689327723,"20":-0.05200731996307633,"21":-0.028951159297593856,"22":0.08922121295006354,"23":-0.08428864433865037,"24":-0.018833749171254254,"25":-0.014129292328250656,"26":0.3100946227058557,"27":-0.12660384174164946,"28":-0.06822684904968142,"29":0.0006259968723510553,"30":0.05836807240826683,"31":0.12773074545051072,"32":0.051417861232320776,"33":-0.13422661641250141,"34":-0.0994380863665831,"35":-0.041542182545618325,"36":0.15162171668898206,"37":-0.13122032362483432,"38":-0.03922957710734989,"39":-0.05181804009432975,"40":-0.1990732158894355,"41":0.0784311497647662,"42":0.041064900910393796,"43":-0.22122929119698737,"44":-0.06370383235198795,"45":0.013260236447360333,"46":0.26020277241502227,"47":-0.043490690023212666,"48":-0.03812281241778537,"49":-0.05579821000263616,"50":-0.03770548454550385,"51":0.1779666093670926,"52":-0.036497901347247244,"53":0.09015090064317771,"54":0.015763538389362952,"55":0.10367021671147121,"56":0.1979310734118794,"57":0.2468294992631838,"58":-0.14189899895911465,"59":0.007468429561338966,"60":0.04208927635708413,"61":0.2561525735581756,"62":0.04248117642488303,"63":-0.17663262113917153,"64":-0.05384159917952378,"65":-0.004719382366654684,"66":0.021618157293155377,"67":0.013419495846349064,"68":-0.06882043679430595,"69":-0.0183449881376223,"70":-0.0910255365719431,"71":0.3585207058361399,"72":0.00449839643673797,"73":-0.09815370329416599,"74":-0.043587544602669843,"75":0.035700718033879635,"76":0.3111549117713303,"77":0.17140648266752664,"78":-0.10699272730357955,"79":0.09190752517663381,"80":0.1283130343143003,"81":0.17193917063883274,"82":0.08912853252638557,"83":-0.02951554318155105,"84":-0.060435234289330356,"85":-0.06492164138409284,"86":0.345777070644198,"87":-0.07143031958365506,"88":-0.19303863223496207,"89":0.05563851911760716,"90":0.18108465179246155,"91":0.382602986175324,"92":0.044707645723690674,"93":-0.22156850929993285,"94":-0.11145344021529789,"95":0.017731549659798063,"96":0.3214186919735997,"97":0.0689376861790249,"98":-0.0690611195846116,"99":0.009735828367974379,"100":0.000004942050062147266,"101":0.30399038637463893,"102":-0.17105310011845934,"103":0.018094922047273147,"104":-0.04670653156164137,"105":-0.044318377661508764,"106":0.23877906713178582,"107":-0.08747186458025803,"108":-0.09060439457156935,"109":-0.05486932495445053,"110":0.08881523264375131,"111":0.33497397451930444,"112":-0.04927603748478782,"113":-0.17112801274977135,"114":0.06253904948397712,"115":-0.1668563764746072,"116":0.23765982854347728,"117":-0.0949543201808427,"118":-0.17187213763642953,"119":-0.018062775417937153,"120":-0.0794163906970562,"121":0.20666953006739253,"122":-0.008073757164165874,"123":-0.016345626671580897,"124":-0.006508609943924024}},{"sx":1,"sy":1,"depth":125,"w":{"0":0.10232316641629444,"1":0.03800376741127236,"2":0.2367550267845119,"3":0.05835085863075643,"4":-0.033028883645215425,"5":0.07903939745553343,"6":-0.010730731524751435,"7":0.18535506024860748,"8":0.0877406211265931,"9":0.07938431876298739,"10":0.03391553369380283,"11":0.040171005574427,"12":0.13267577781693107,"13":-0.009328389669102438,"14":0.19243381713986876,"15":0.052864800771395944,"16":0.037764028617335174,"17":0.10091333780207509,"18":0.11309497397071472,"19":0.06306560722851637,"20":0.1915500478610729,"21":-0.11676472071863798,"22":-0.02470213214607968,"23":0.11912394790682351,"24":-0.04992624417584709,"25":0.1514790202546518,"26":0.14598598404713056,"27":0.5057040825290545,"28":0.14078825447756227,"29":0.026993918158669708,"30":0.0958147334346852,"31":-0.0401336883438135,"32":0.56892657970574,"33":0.1109202754204577,"34":0.0869150525362384,"35":0.11230601105635168,"36":-0.16746166269316343,"37":0.826693787756539,"38":0.027179608434882725,"39":0.048211441206029125,"40":-0.0968018764488807,"41":-0.15354137230054146,"42":0.8466623147342606,"43":0.00862486481064552,"44":0.09173176487562663,"45":-0.06564071723648869,"46":-0.031172184119400682,"47":0.6977255956228122,"48":-0.09321069893588002,"49":0.0005245178527458355,"50":0.0037662331965124143,"51":0.2120012343514072,"52":0.3915858434969381,"53":0.36075042012356273,"54":-0.20998225192007783,"55":-0.22794231770177018,"56":0.12025021386936179,"57":0.3222094368206309,"58":0.014317581550684088,"59":-0.004613827221575747,"60":-0.008918765598504259,"61":-0.28835501156736376,"62":0.3126759040009606,"63":-0.12242431305321166,"64":0.03055589122322887,"65":-0.09811126990542844,"66":0.1528687872081209,"67":-0.030598326990644034,"68":0.35332562201491535,"69":-0.0762629322079979,"70":-0.039364313126676015,"71":-0.05074936868654275,"72":-0.28583466785635075,"73":0.10049939942288329,"74":-0.10444068931506018,"75":0.09062666289318824,"76":0.06967829927408674,"77":-0.327096572866432,"78":0.10962436796374107,"79":-0.12678247981112994,"80":-0.004434201664423152,"81":0.19561762198323324,"82":-0.40650654676422143,"83":0.08001876675937092,"84":-0.1255250634342728,"85":0.018635412028973834,"86":0.0007725354349158624,"87":0.13915501374226316,"88":-0.3333964997701637,"89":-0.019010114702872834,"90":-0.14953731846949228,"91":-0.42036342482319694,"92":0.112224940947942,"93":-0.27057240279714856,"94":-0.07922590377322951,"95":-0.11514433481334274,"96":-0.28543961999931716,"97":0.44557326273100595,"98":-0.4092624766027348,"99":0.0352914717313891,"100":-0.1268294231215758,"101":-0.2789345111170698,"102":-0.4861370397898283,"103":-0.5148629199716176,"104":-0.06258585545794501,"105":-0.14364174777865993,"106":-0.39847978081554297,"107":-0.3770047942836283,"108":-0.4737524318324876,"109":0.08073851358845321,"110":0.01350819176452469,"111":-0.4178733888429606,"112":-0.41565132333103716,"113":-0.4258732047861941,"114":-0.05072444178048719,"115":-0.12219239019931769,"116":-0.3232188210395644,"117":-0.28671321886402273,"118":-0.47984677918537916,"119":0.08024232322722324,"120":-0.05513037951825955,"121":-0.3891443985853118,"122":0.31808705457758346,"123":-0.26548360362217194,"124":0.11267853313120052}},{"sx":1,"sy":1,"depth":125,"w":{"0":-0.08230981446581587,"1":0.06467057815429297,"2":-0.14725741518832516,"3":-0.02529193473786243,"4":-0.0011064079362757904,"5":0.045870568261193,"6":0.09041064619019756,"7":-0.1557345656589018,"8":-0.14017070997374445,"9":-0.1251952097436697,"10":-0.01774230712349682,"11":-0.0008550827364697171,"12":0.0843116056071768,"13":-0.0911039199046677,"14":0.03932389342704795,"15":-0.03596280698886871,"16":0.0034544774518133455,"17":-0.04761550690914,"18":0.07921323291061112,"19":-0.08966862203689695,"20":-0.1196968064441715,"21":-0.11898970903837727,"22":-0.10090865512425684,"23":0.0018008460268544013,"24":-0.032855515340150826,"25":0.018781872617963182,"26":-0.17193056860596553,"27":0.09120352114307437,"28":0.0016397822147205486,"29":-0.09648073718913397,"30":0.14668300857114736,"31":-0.1316114590832369,"32":-0.028854173996328763,"33":0.10134037827836097,"34":0.05856509024542625,"35":0.02948117633078807,"36":-0.11772191596653764,"37":0.0494536267754574,"38":0.03770841036052343,"39":-0.01951971676894499,"40":0.011744079263217803,"41":0.16464186307835857,"42":-0.045229321458294586,"43":-0.04600801926584158,"44":-0.0019882147538036374,"45":-0.1021237800695049,"46":-0.11211481984213324,"47":0.08051769498002063,"48":-0.0841236343973055,"49":-0.08022939063994576,"50":-0.04372600636024792,"51":0.0006145588909527147,"52":0.007639895539110666,"53":-0.06902674874955686,"54":-0.04060093210576889,"55":-0.014199692762426544,"56":-0.02835578968011838,"57":-0.02193977772540284,"58":0.02090437682309774,"59":-0.0052262842024939846,"60":0.06630931187967971,"61":-0.024558944584683856,"62":0.013643987892204099,"63":-0.099729796838804,"64":-0.13280384408488133,"65":0.10071607927853225,"66":0.012979983722770426,"67":0.06392988234461253,"68":0.05031430199585394,"69":0.009381576974120676,"70":0.04722714818605181,"71":-0.04411205701632,"72":-0.10434419070339168,"73":-0.05463666636060034,"74":-0.11803635939992817,"75":0.0018416951080811302,"76":-0.055883449820028776,"77":-0.08125393749291386,"78":0.12602805726585029,"79":-0.1751032456418534,"80":-0.15002215445207076,"81":-0.17671606576093749,"82":-0.22786431880506025,"83":-0.01795229105362855,"84":0.13213305222044344,"85":-0.037463367043600024,"86":-0.003105526990275918,"87":-0.06146182839078537,"88":-0.08239119616842074,"89":-0.012654723755816527,"90":-0.24719858562494257,"91":0.04562558754320797,"92":-0.039310206892297576,"93":-0.010591920203470136,"94":-0.00323532592984908,"95":0.06914355126735823,"96":0.056054376716002864,"97":0.14079278977094659,"98":0.020991422274871815,"99":0.14543591679698212,"100":-0.04653949766130715,"101":0.1366379001412786,"102":-0.054033275140625746,"103":-0.10079318537611644,"104":0.05615025556283276,"105":-0.06584824280541507,"106":-0.02720428851483357,"107":-0.1688734072257816,"108":0.14483976871994833,"109":-0.17409010709719647,"110":-0.03987081122749702,"111":0.044261111631028506,"112":0.12053578226842866,"113":-0.061616756416562855,"114":-0.07611650762797309,"115":-0.1767275905559545,"116":0.13209906150464643,"117":-0.0454548965351017,"118":-0.13347614810302785,"119":0.010280681307393274,"120":-0.07103811811380249,"121":0.002873333111152737,"122":0.15583813527686805,"123":0.014159496884842485,"124":0.019762773134304728}},{"sx":1,"sy":1,"depth":125,"w":{"0":-0.05868899238711261,"1":0.2801166886296802,"2":0.28619808712039824,"3":-0.03410333197557275,"4":0.015260329686931973,"5":0.04710345164668048,"6":0.08996648530569887,"7":0.20374765786820326,"8":-0.17293087280688244,"9":-0.02341841614589826,"10":-0.058588447797407614,"11":0.16018085807904253,"12":0.10719249602789496,"13":-0.18362986672638187,"14":-0.0026855486709241125,"15":0.011442875866797488,"16":0.07532174345645481,"17":0.08257595287883657,"18":-0.14287290416336726,"19":-0.17613784155990256,"20":-0.022425360584599697,"21":0.22514720511461386,"22":0.22009448454906771,"23":-0.05922015618529742,"24":-0.032347045153836684,"25":-0.0823386628028019,"26":0.23071654152113655,"27":0.14459142188193644,"28":-0.14974734987262908,"29":-0.03229733273507409,"30":0.06201804818973933,"31":0.16977064559142804,"32":0.16580855406776354,"33":-0.14963355437554388,"34":-0.019370934698714173,"35":-0.1520110010364178,"36":0.2145683098501638,"37":0.02208069071764593,"38":-0.292260152433547,"39":-0.14680255164570893,"40":-0.10633669723138729,"41":0.2797614840409817,"42":0.1677822736444873,"43":-0.2258761436854135,"44":-0.05981264611811971,"45":0.04312741226093825,"46":0.2228987463235595,"47":0.15626174443605204,"48":-0.2914917343545812,"49":0.059641421938691035,"50":0.043876798826904206,"51":0.18061441088920052,"52":0.3127075207107318,"53":-0.13316905735742082,"54":-0.10697093537522238,"55":-0.02498563658196613,"56":0.1010915875712512,"57":0.3361901672939972,"58":-0.2725194862498667,"59":-0.13293674820061316,"60":-0.19957124708854754,"61":0.23927402226942499,"62":0.16025432663557856,"63":-0.30688812993574516,"64":0.06263030714248977,"65":0.0013825237401321588,"66":0.1604523969502499,"67":0.6070356064732946,"68":-0.3531085562056936,"69":-0.02811308100796387,"70":-0.010378027818489783,"71":0.31736406268210793,"72":0.5285246060596124,"73":-0.42818873232419796,"74":-0.0797143332216987,"75":0.05823260169491783,"76":0.22934093635525113,"77":0.7428362614911701,"78":-0.3949089823702099,"79":-0.14123522591698748,"80":-0.09125356911479736,"81":0.28694578968547907,"82":0.697036012949433,"83":-0.3179930952641162,"84":0.10743741651312412,"85":0.006891734751497873,"86":0.18429308778025183,"87":-0.18287377633416724,"88":-0.4632924243878746,"89":0.11369289884180844,"90":-0.03830612788097581,"91":0.2802560607256664,"92":-0.28433830183859504,"93":-0.41003119879716654,"94":0.09533452008506361,"95":0.00443767831889983,"96":0.2327250554972452,"97":-0.5037233442318617,"98":-0.35326226395489174,"99":-0.07810726070885311,"100":-0.028499656261130938,"101":0.16650864200079651,"102":0.0960292813708752,"103":-0.3212384246459843,"104":-0.06665917205280501,"105":0.13843021966196567,"106":0.1295686458549971,"107":-0.1030860828353448,"108":-0.2596486511239323,"109":0.19240934956768715,"110":0.06840958926785683,"111":0.02596361137684417,"112":-0.19233047519616783,"113":-0.19272160841072963,"114":0.10516500407121637,"115":-0.18775007919843423,"116":-0.033825182021973564,"117":-0.18948830220640683,"118":-0.13414085426332065,"119":0.015013001440537806,"120":0.07808782942910292,"121":0.13460825017557435,"122":-0.49931902775068865,"123":-0.3819741709193319,"124":0.047628794053043474}},{"sx":1,"sy":1,"depth":125,"w":{"0":-0.0018500662643422064,"1":0.03471602248376493,"2":0.04535629637962062,"3":0.05565191440664235,"4":0.018530020619503387,"5":0.0292371160609136,"6":0.08166502737147448,"7":-0.13081713861626243,"8":-0.06453531534312115,"9":0.039763196500943725,"10":-0.019051637509741457,"11":-0.07286375293308414,"12":0.04413943376656137,"13":0.017300357569842568,"14":-0.028828831452903738,"15":-0.04993524231552037,"16":-0.18995440044721537,"17":0.06950286877796562,"18":-0.04181133636364446,"19":-0.051834875575899955,"20":-0.14003858758895676,"21":0.08030463622239543,"22":0.058792964608648864,"23":-0.04727639441421234,"24":0.050339901469837176,"25":-0.05294378609890583,"26":-0.027344233665231737,"27":0.028305303630046883,"28":-0.002416777754514442,"29":0.0480946079805505,"30":-0.1345836813985851,"31":-0.013640248067438113,"32":0.14767592547226402,"33":-0.18184168309704313,"34":0.07258491296805607,"35":-0.060483457636503084,"36":0.10380597803583569,"37":0.01817040710144784,"38":-0.11052771117635497,"39":0.08052612135452937,"40":0.11984084511772074,"41":-0.018717924577456323,"42":0.1913489693405884,"43":-0.02723204945861289,"44":-0.06173239555691386,"45":-0.040510386426815446,"46":-0.029406746510220492,"47":0.4000495489279257,"48":0.10615076118562998,"49":0.06172880545438248,"50":-0.07244318951249484,"51":-0.009544872966640049,"52":0.3454867818732852,"53":-0.08717528797564617,"54":0.1534175801298006,"55":0.12819078355573124,"56":0.042835893166188826,"57":0.43949491251740114,"58":0.10599333539564258,"59":0.1311935835631618,"60":0.14334844576989764,"61":-0.09695961968299104,"62":0.1527687081859304,"63":0.12784152085503425,"64":0.05956428865666517,"65":0.11881919884694124,"66":-0.09068563293879733,"67":0.029793130640778882,"68":0.23134950677234242,"69":0.16418033810892532,"70":0.13937177306144619,"71":0.0007638994823352988,"72":-0.05388923495319078,"73":0.20695738689861415,"74":-0.1466318943636507,"75":0.07861335285474924,"76":0.3446836243961611,"77":-0.10336188559936504,"78":0.3281164960527743,"79":-0.02825271395600186,"80":-0.08049269063894962,"81":0.18047918222099144,"82":0.26096811157715943,"83":0.33268182450656675,"84":0.07889619102524557,"85":0.0929692383459876,"86":0.22511448296157238,"87":-0.12398161970361499,"88":0.04005997168651818,"89":-0.013131760926968706,"90":0.04515020963235108,"91":-0.020373999442700533,"92":-0.2252009987029919,"93":0.2988796313582079,"94":-0.02508228816852707,"95":0.07813443047151669,"96":-0.0868454401686755,"97":-0.17358688557840143,"98":0.14031857290812574,"99":-0.03514719552419817,"100":0.08565844264170387,"101":-0.034965136421490364,"102":-0.0016958700498330378,"103":0.16516982301261016,"104":-0.13378649791713285,"105":-0.08715056500951324,"106":0.011687506904765874,"107":0.016687425280161258,"108":0.020000447605549743,"109":0.014391520836964768,"110":0.036331800269817145,"111":-0.1612331845600156,"112":-0.05854968390570598,"113":-0.11796797235675184,"114":0.09628326206915708,"115":-0.1401419311307829,"116":-0.07124960618446191,"117":-0.14762982572547753,"118":0.04469325681231731,"119":0.09722993641732397,"120":-0.02116706407110565,"121":0.15389358562974947,"122":-0.33747563045138246,"123":0.022614615508852645,"124":-0.16507994629127773}},{"sx":1,"sy":1,"depth":125,"w":{"0":0.15008985419057314,"1":0.2673873531008382,"2":0.30016292775618375,"3":-0.11180138543192977,"4":-0.10706268184469124,"5":0.10970304205146424,"6":0.05436705050398701,"7":0.2038620375050804,"8":-0.23951857511296482,"9":0.0626927842217581,"10":0.07809897852693827,"11":-0.02741140155306323,"12":0.017047765964739184,"13":-0.10591998684998241,"14":0.14609435110959818,"15":0.08336835619926292,"16":-0.009754962418616491,"17":0.097656090690106,"18":-0.0641913549458255,"19":-0.06346592231894423,"20":0.054838299830071095,"21":0.22898875372540692,"22":0.2701867169873818,"23":-0.06906103030847921,"24":-0.08876944108601525,"25":0.07438450409407822,"26":0.12056187671282238,"27":0.519991122707523,"28":-0.0997049764227222,"29":0.12497590671921661,"30":0.003270671399056824,"31":0.05177432665183824,"32":0.2254893465518962,"33":-0.05415357462641366,"34":-0.04990479548617182,"35":0.10018893770815138,"36":0.056549659998680536,"37":0.45106895118409696,"38":0.06573541828005179,"39":-0.04967336388744463,"40":0.08688788420574324,"41":0.11896231029203654,"42":0.44108270613405565,"43":0.04601527042824982,"44":0.10787955546140443,"45":-0.19883879260846002,"46":0.14919661276397375,"47":0.5652002211142068,"48":0.18293489194522464,"49":-0.1459719893805802,"50":0.04906101566565946,"51":0.06547896463248096,"52":0.7221671826316299,"53":0.13197910843629518,"54":-0.09411689576457449,"55":-0.03127002599269671,"56":0.0898879953071974,"57":0.8796623049676374,"58":0.12707049284920302,"59":0.1105346435829623,"60":0.08463555030570831,"61":0.061089028362726,"62":0.7693489407401727,"63":0.03768327217037549,"64":0.056405541024157166,"65":-0.1487227511834216,"66":0.07791191643036986,"67":0.757346835691072,"68":0.09089815122843638,"69":-0.16906239027560946,"70":-0.02672916752116028,"71":0.014852848202939698,"72":0.49614420537359416,"73":0.3775488683534552,"74":0.03700307802830807,"75":-0.1637531877512963,"76":-0.027641957475454504,"77":0.3025538493693705,"78":0.2574777441508832,"79":-0.017584100773591606,"80":0.08790780269053655,"81":0.023405840325016337,"82":0.3169546149701398,"83":0.43416960567976276,"84":-0.027734004921709358,"85":-0.02937255020195452,"86":-0.0831313818449463,"87":-0.34154160992969174,"88":0.15125238888736187,"89":-0.12693444897410097,"90":0.004709221429172696,"91":-0.026294740230902978,"92":-0.4233356338298979,"93":0.2570592666684828,"94":-0.04040485963239581,"95":-0.06043228109051138,"96":-0.06901124213275213,"97":-0.45137337295384544,"98":0.3370079886712517,"99":-0.09581468429059521,"100":-0.17513176698516258,"101":-0.05718879169435704,"102":-0.15900909662003648,"103":0.2807426431882522,"104":0.12792890061909373,"105":0.021518506679749458,"106":-0.12982433933237225,"107":-0.23122404449816508,"108":0.08206403931634734,"109":-0.056037964928426276,"110":0.07976059090733474,"111":0.039477263043224485,"112":-0.1658523152887577,"113":0.12706369861256556,"114":-0.05990185878885092,"115":-0.05485116170954861,"116":-0.24148848208505927,"117":-0.3208799176468546,"118":0.12384811129217911,"119":0.07510953847505852,"120":-0.13426004094878466,"121":-0.07458320477159507,"122":-0.454980443430886,"123":0.18352987251928427,"124":-0.02846787368807863}},{"sx":1,"sy":1,"depth":125,"w":{"0":-0.048174571226938266,"1":-0.02828034066614869,"2":-0.023582073822818104,"3":-0.018778621884028308,"4":0.08306262779096413,"5":0.051093836303777194,"6":0.061213085730309376,"7":0.11754328847227896,"8":-0.14216703985464788,"9":-0.10303403581053332,"10":0.02409652412102282,"11":0.09710580608559459,"12":0.07543088716544158,"13":0.07756985975392988,"14":0.19810790384081187,"15":-0.13189001153494112,"16":0.061627777032952274,"17":0.14861254096349902,"18":-0.007202926067812191,"19":0.030327136125740034,"20":0.07307860433941667,"21":0.056241558843128495,"22":0.11938760348650906,"23":0.02179875745595819,"24":-0.10913245988644799,"25":0.12003193557702245,"26":0.09721802054241227,"27":-0.2031708618538743,"28":0.039786952476569395,"29":-0.06892363385066928,"30":0.12366484301043812,"31":0.18451534500120445,"32":-0.3440682543578528,"33":0.14103852590020877,"34":0.15004804806228184,"35":-0.03740479976769029,"36":0.13351199646931622,"37":-0.22847422508687207,"38":-0.06272035775590654,"39":0.1504275034432169,"40":-0.0973924483130282,"41":0.2781306675228984,"42":-0.26808016980879484,"43":0.1880756680771544,"44":0.1304689190950734,"45":0.051011544052331104,"46":-0.05806672003323098,"47":-0.17011040102787314,"48":0.00039555076072963374,"49":-0.07648251499865003,"50":-0.012642429264664043,"51":0.03243728994961374,"52":0.12119915492931777,"53":0.1448075890454373,"54":-0.06318219889242449,"55":-0.1746975162366371,"56":-0.1123701231203056,"57":0.1954152510029111,"58":-0.04586157504005767,"59":0.18999911195749258,"60":0.23319427059288872,"61":-0.0024080242086824237,"62":0.31712812340677443,"63":-0.005551094477670691,"64":0.1508331770786648,"65":0.040811155826690974,"66":-0.1397185156913321,"67":0.8207342813390541,"68":-0.13771988048294476,"69":0.13119144145383735,"70":0.007369266706966289,"71":0.015098619924945414,"72":0.6689996796357714,"73":0.03443544197809291,"74":0.13615694772225734,"75":-0.1570684722957135,"76":-0.06409094971876471,"77":0.7170993912428735,"78":-0.012348887567329003,"79":-0.1151338615321495,"80":-0.13986787211841642,"81":0.33727566037333717,"82":0.6382989204767633,"83":0.136232906292998,"84":0.038653833033657686,"85":0.05664840308531098,"86":0.20789422170643163,"87":-0.20205786893020916,"88":0.0568082255098858,"89":0.04120834236285814,"90":0.023343567343441632,"91":0.1995741400352047,"92":-0.2263223973872384,"93":0.20859858387967284,"94":0.005030141775946519,"95":0.043214159987689675,"96":0.06887547809246883,"97":-0.22617064843050017,"98":0.23056945515965124,"99":0.047658109171420895,"100":0.011542553360416563,"101":0.07947366319895899,"102":0.08596560807504551,"103":0.25493689401696035,"104":-0.04323782495654901,"105":0.03881117476362502,"106":-0.06949563927414354,"107":-0.017234473014751634,"108":-0.1273160292786741,"109":-0.20773979576367502,"110":-0.105067715358519,"111":0.09151438888386985,"112":-0.14154732153016134,"113":0.1446891244715174,"114":-0.12741903498875884,"115":-0.142015775873356,"116":-0.06005156257525462,"117":-0.025952831535375982,"118":-0.05707232091161439,"119":-0.02137113202614319,"120":-0.17296633544075427,"121":0.04474427423720206,"122":-0.31244606675697406,"123":0.03771139886171917,"124":-0.1572234828763572}},{"sx":1,"sy":1,"depth":125,"w":{"0":0.0430965342288581,"1":-0.11480450206124548,"2":-0.10640768903214885,"3":-0.08284589280854852,"4":-0.03615122919194072,"5":-0.08983636662256309,"6":-0.024435657473478683,"7":-0.19188370115121112,"8":0.045068427462013595,"9":-0.18346440764709693,"10":-0.09366810298366177,"11":0.07048441082324597,"12":-0.08102187740933502,"13":-0.09130468954904669,"14":-0.07858692827611036,"15":0.04065117538817042,"16":-0.000009215726528922636,"17":-0.17378195810677105,"18":-0.08633839450206895,"19":-0.15022920867159287,"20":-0.07571172431316114,"21":0.08273125207689772,"22":-0.06196571825707792,"23":-0.17877342802076177,"24":-0.14040606334409192,"25":-0.17389771237868668,"26":-0.033475376640671094,"27":-0.11018492947130443,"28":0.011572005878594754,"29":-0.017997195101237082,"30":-0.14865179323405628,"31":-0.09564745245510155,"32":-0.04997132939494781,"33":-0.036345655118914015,"34":-0.2336980473659803,"35":-0.17837755331298588,"36":-0.12581576452885887,"37":0.018658395301310478,"38":-0.07368845810779652,"39":-0.14382822889544258,"40":0.032680299441199864,"41":-0.14365048525438617,"42":-0.10441270599129138,"43":-0.09799973498538028,"44":-0.07191059141664032,"45":-0.014334738544645374,"46":-0.07055536122812957,"47":-0.117725268721054,"48":-0.1279729480925627,"49":-0.1302273684705882,"50":0.08355728701065204,"51":-0.0946815374275625,"52":-0.0014759483300373407,"53":-0.04867090089534576,"54":0.017268689170017188,"55":-0.06162971537374704,"56":-0.028790461304669158,"57":-0.10753788158876075,"58":-0.00739880907790981,"59":0.25934611651034395,"60":-0.02499674748543551,"61":-0.06287339717904118,"62":0.00453754855070571,"63":-0.0768786583998845,"64":-0.03259588365261844,"65":-0.05257722451349441,"66":0.05733466926892557,"67":-0.1017067707449226,"68":-0.07697174770533691,"69":-0.08588490155285614,"70":-0.06517983024233989,"71":-0.04846860698653214,"72":-0.035948397758786194,"73":-0.1239882725420027,"74":-0.04252760497508286,"75":-0.10229660282589763,"76":-0.12625679825410802,"77":-0.07970087610155599,"78":-0.007493788525872206,"79":-0.06711728680164332,"80":-0.17704548410523446,"81":-0.030190224249417127,"82":-0.10100158571724017,"83":0.10375506984516898,"84":0.06078973227764819,"85":-0.09736101971589171,"86":0.03654283586732161,"87":-0.1759179900116908,"88":-0.0949165973180263,"89":0.06450217564403528,"90":-0.12402768509246416,"91":-0.03721994538620541,"92":-0.02468527758346458,"93":-0.10938674130727899,"94":-0.02219420765301452,"95":-0.07574133794921557,"96":-0.02836989570517558,"97":0.011928651012658805,"98":0.05015488565510154,"99":0.009429368306704324,"100":0.05290382182100293,"101":-0.014411186104660497,"102":-0.16748600921214077,"103":-0.01088578499215349,"104":-0.05642145809765261,"105":-0.019698143760469532,"106":-0.12497732865738664,"107":-0.12728337434355866,"108":0.204535904744811,"109":-0.06660524156858214,"110":-0.10471915753834952,"111":-0.09324258350719453,"112":-0.14169661657391558,"113":0.04747101405412752,"114":-0.07778896502627461,"115":-0.12016427993116102,"116":0.028948950195726648,"117":-0.2140959800321068,"118":0.0812937092494492,"119":-0.07545031512559384,"120":-0.07437335312733069,"121":0.025719184707920034,"122":-0.10323209379912945,"123":0.0216628680414092,"124":-0.12563625873021247}},{"sx":1,"sy":1,"depth":125,"w":{"0":0.08494498657468431,"1":0.09701083933067323,"2":0.12849969074814419,"3":0.09312256970748499,"4":-0.04983246613655895,"5":-0.05387756286027354,"6":-0.003961881659598602,"7":-0.02004182866134304,"8":0.10050666646191525,"9":0.10462495014856354,"10":-0.026284250078668928,"11":0.05726640710160377,"12":0.10897495423624434,"13":0.143037483483596,"14":0.03746719002565417,"15":-0.06077536585838961,"16":0.07779843718299827,"17":0.19784981344862473,"18":-0.06266883942741923,"19":0.06265969551525553,"20":-0.05613172281546443,"21":0.08116637119805328,"22":0.09632970741324108,"23":0.1181694011746258,"24":0.10262078382334933,"25":-0.08210020983315462,"26":0.24673255201831884,"27":0.08766601650818635,"28":0.17314713752428984,"29":0.18718420379824285,"30":-0.04263215917059862,"31":-0.10278779881409185,"32":0.009566902020052998,"33":0.007040615157306029,"34":0.056789326960685386,"35":0.19023367765358007,"36":0.0005966062010637611,"37":0.06110008043120304,"38":0.2378977692252927,"39":0.010481960849420656,"40":0.1587786313955936,"41":0.12504144983182333,"42":-0.06930173695666782,"43":-0.015854283351221896,"44":0.11437923501466848,"45":-0.12049715351387807,"46":-0.17616178907101893,"47":-0.01306772572049215,"48":0.07448644012502044,"49":0.19457644699075344,"50":0.12207796427563852,"51":-0.004517347140649417,"52":-0.03810726001339136,"53":0.02873642795854791,"54":0.057209094168867054,"55":0.016814780246641032,"56":0.10726258742015723,"57":0.06830858321727978,"58":0.049541255684957375,"59":0.06153911502576941,"60":-0.046493933277686125,"61":0.05909156247759197,"62":-0.013927146169046287,"63":0.04539632811650211,"64":-0.0820908128039025,"65":0.06692933817205024,"66":-0.007180278803223727,"67":0.2791428440503899,"68":0.14056318153848288,"69":0.12252046724100511,"70":0.08611717018552147,"71":-0.017608246360717297,"72":0.43780706549782145,"73":0.08177245531356633,"74":0.08965882001496112,"75":0.007136730023550314,"76":-0.22951480512017955,"77":0.5208093941036315,"78":0.05450628275035581,"79":0.21046532093863407,"80":-0.09380451745757545,"81":-0.043607359149186946,"82":0.47373826791855156,"83":0.003568931491060512,"84":-0.06178357401030276,"85":-0.08721509893326511,"86":-0.11823888401834723,"87":0.12250197549870614,"88":0.23186283339356223,"89":-0.040949362613878014,"90":0.1194598758256469,"91":-0.01324370274641076,"92":0.09006080620771371,"93":0.26406906053648443,"94":0.17285907553537452,"95":0.02836117363444428,"96":-0.12142474445501505,"97":0.07764231048040883,"98":0.25704695172557057,"99":-0.05775390839119133,"100":-0.012170853345059091,"101":0.07100758892027087,"102":-0.5149323269550564,"103":0.03512260499283198,"104":0.10976782094522816,"105":-0.20769838504997074,"106":-0.05443363628975653,"107":-0.5634530289744991,"108":0.133819624553773,"109":0.2369197517861228,"110":-0.0815813422277704,"111":-0.11866191709247964,"112":-0.5205472602553367,"113":0.2665485710197483,"114":0.12302363837320557,"115":0.08405825487631068,"116":0.02872717900356686,"117":-0.5655771536721818,"118":0.2851031783887173,"119":-0.030037130983820024,"120":-0.045851684272719545,"121":-0.12056278406921843,"122":-0.040733747917835426,"123":0.35761527344974625,"124":0.009707300916316343}},{"sx":1,"sy":1,"depth":125,"w":{"0":0.037301832458514025,"1":-0.043721426380999434,"2":-0.5202763693842898,"3":-0.12344136747982055,"4":0.007006481371297199,"5":-0.04200215252740164,"6":0.006916610253073077,"7":-0.19797025863436343,"8":-0.04099375274028035,"9":0.08625869197788665,"10":0.05213791086022307,"11":0.0963036892402021,"12":-0.24912321676061272,"13":-0.02687703093500234,"14":-0.007123251249140357,"15":-0.04419961973595675,"16":0.08527333770227728,"17":-0.03567812007959492,"18":0.022302828865985478,"19":0.08350332981202938,"20":0.12949154775491228,"21":0.06776142500424218,"22":-0.4363089608946952,"23":-0.14513471603158384,"24":-0.013211077934719954,"25":-0.10693687777773721,"26":0.22196049429558135,"27":-0.3351964890620934,"28":0.10875945257413264,"29":-0.018644317555847768,"30":0.08107063282727589,"31":0.1517992001290474,"32":-0.15408950748665304,"33":0.05959053652803609,"34":-0.042841449169760015,"35":-0.011043120802081054,"36":0.11348139235130839,"37":-0.1099003926750795,"38":-0.006760108513263214,"39":0.10533186866860489,"40":0.09601731889902108,"41":0.2806648164575292,"42":-0.4742107072980764,"43":-0.023387829899950793,"44":0.06938881762805894,"45":0.032950990492951984,"46":0.3129322654148301,"47":-0.4124145430015411,"48":0.042234664287215916,"49":0.023731627575303442,"50":-0.05672932588368494,"51":0.11018173177252667,"52":-0.5993435013647898,"53":-0.04158945855034754,"54":0.046562190894754885,"55":-0.022444713313864537,"56":0.3343982941585679,"57":-0.47841170465522825,"58":0.015583522206330124,"59":-0.0005908004442517986,"60":0.07737531870409826,"61":0.12540320239474204,"62":-0.7442871507491505,"63":-0.02146396757308482,"64":0.07440344944399903,"65":0.0010989277382897741,"66":0.36065260046888864,"67":-0.4891549070523316,"68":0.011625638416127234,"69":-0.001865978455841021,"70":0.029083318395953663,"71":0.6259779173769537,"72":-0.35382319194643586,"73":0.004571222206046543,"74":0.013831615326610818,"75":-0.02341846334049199,"76":0.6113863111094037,"77":-0.18986185758253377,"78":0.02604508779265444,"79":0.06760096630526019,"80":0.019551807969616572,"81":0.3487791870713845,"82":0.11924617916033055,"83":-0.17000581718997831,"84":0.033747328379608144,"85":0.0792067038841718,"86":0.5347608938861218,"87":0.4257283794848106,"88":-0.04154063245538148,"89":0.039189608293899794,"90":-0.06651846002239822,"91":0.6574390491371753,"92":0.5084921386383942,"93":-0.035416781574789315,"94":0.06271639769257595,"95":-0.02380784956492933,"96":0.5699584464066364,"97":0.5447929625523541,"98":-0.026988705358426388,"99":0.021203018488790297,"100":-0.10704347714888209,"101":0.47077929831715626,"102":-0.28952674464340106,"103":-0.0017546588256397923,"104":-0.06653982881440873,"105":-0.020449406917670318,"106":0.2765922203988318,"107":-0.07233272464922172,"108":-0.044986418662727776,"109":-0.009731828550859986,"110":0.035284238245607585,"111":0.09717983219042861,"112":0.132618429922042,"113":0.0337602932619641,"114":0.014091839411713096,"115":-0.16154742807588884,"116":0.11773349469081507,"117":0.02006163376238761,"118":-0.05692822566672937,"119":0.038120394414021874,"120":-0.17970149688544743,"121":0.39871128950754464,"122":0.5844820922245779,"123":0.005921024082153011,"124":-0.0730286638282906}},{"sx":1,"sy":1,"depth":125,"w":{"0":0.062387485280673345,"1":-0.14900614691362388,"2":-0.14834899288181705,"3":-0.19651660703201004,"4":0.01661791803481389,"5":-0.042822445287221324,"6":-0.06411279450563002,"7":0.035713261801292195,"8":-0.10848069011705631,"9":-0.07998760359915703,"10":-0.13597525797493282,"11":-0.12883091797914353,"12":-0.11237824247943033,"13":-0.028170001906173185,"14":0.010953297071593959,"15":0.01742807235083281,"16":0.09272289007352331,"17":-0.021572600224919483,"18":-0.039741584286933904,"19":-0.05410639218982738,"20":0.0018534828460888236,"21":-0.14753572934483167,"22":-0.18176578360679743,"23":-0.02698915579794132,"24":-0.09440388135757102,"25":-0.17860308331609726,"26":-0.03903406105599855,"27":0.0033820416549350156,"28":-0.015421255958378538,"29":-0.02786755460625865,"30":-0.12023754468430191,"31":0.043723805283337566,"32":0.04794113140864474,"33":-0.07355008334504473,"34":0.05108963539470342,"35":-0.1461952187298352,"36":-0.1561895003437168,"37":-0.0517759650066404,"38":-0.08348331700110416,"39":0.001738791282574833,"40":0.16593115308958117,"41":-0.0377423799595359,"42":-0.031826639951908174,"43":-0.2908553186437506,"44":-0.1669451505285009,"45":-0.20531850524575393,"46":-0.20910535604747857,"47":-0.2898056426997512,"48":-0.17843470345694956,"49":-0.01886151772717241,"50":-0.006431544394277644,"51":-0.12188970957096458,"52":-0.0457927970318089,"53":-0.001932259061084817,"54":0.04932144447635926,"55":-0.16728515122511914,"56":0.0024747516153861967,"57":-0.13947083570229857,"58":-0.05307438657102553,"59":-0.04570679725408069,"60":-0.051858244122266035,"61":-0.154682409489827,"62":-0.07981588234360786,"63":-0.051092018705134655,"64":0.005031180426451551,"65":-0.027797721080914422,"66":0.039302224242817624,"67":-0.3982566136763624,"68":0.10338511828801211,"69":-0.09792698123282623,"70":-0.07934978488480408,"71":0.12868769530889607,"72":-0.5020554430948819,"73":-0.128458762129949,"74":-0.10002603089189915,"75":-0.17554775727780023,"76":0.03887405872880144,"77":-0.5670611348116569,"78":-0.09798472205877211,"79":-0.019282995997805197,"80":-0.029291701385929694,"81":0.07994422100799009,"82":-0.3807181803421911,"83":-0.09231601720252564,"84":0.14993219248462553,"85":0.041822399520998144,"86":-0.0006195953865210128,"87":0.11046281488521231,"88":-0.0800161402912333,"89":0.004653450114143309,"90":-0.12274832288661884,"91":-0.0725535946897331,"92":0.11404090261163231,"93":-0.3608931362761998,"94":0.08576096655596667,"95":-0.07378237479658721,"96":-0.032923812692963426,"97":0.057055298765432444,"98":-0.06884978341649768,"99":0.11248265421715828,"100":-0.005574406361195938,"101":-0.1488693826031703,"102":0.025496907878563974,"103":-0.03744617449515558,"104":0.17290530849067165,"105":-0.05036638709979988,"106":-0.07675339530805661,"107":0.11280272360922414,"108":0.08329780130029739,"109":0.10460134634485582,"110":-0.0960578798122136,"111":-0.16478637135604243,"112":0.11704686201110458,"113":-0.017493183727388038,"114":-0.019841582854720714,"115":0.03690600794018971,"116":0.13863932454840985,"117":0.12588655921440747,"118":-0.010784076425359694,"119":-0.08060844956430566,"120":0.03302124980673441,"121":0.04429025172656686,"122":0.29488745619683077,"123":-0.05177113575804395,"124":0.05474186565390928}},{"sx":1,"sy":1,"depth":125,"w":{"0":-0.04826025263721196,"1":0.021090428086953814,"2":-0.25646322731105875,"3":0.10014190050470367,"4":-0.11017498645085241,"5":0.08480584197586082,"6":-0.040062211255439226,"7":-0.09647604222744183,"8":-0.04078014046104296,"9":0.03677782755290636,"10":0.14836970516321016,"11":0.051388364503066726,"12":-0.018338203761596086,"13":-0.06458811638896907,"14":-0.004935467869681308,"15":0.11779330570878294,"16":0.06638280125653954,"17":-0.13447848021910577,"18":0.19220045058787794,"19":-0.11313966757866768,"20":0.1354230498789398,"21":0.006365276130527582,"22":-0.4069272084266156,"23":0.034312450752985856,"24":0.062271855908422026,"25":0.14927130787303966,"26":0.09076100632108434,"27":-0.43372632707393777,"28":-0.07198645080139175,"29":-0.1783313570338451,"30":0.12358312375157107,"31":0.07720229259067775,"32":0.14082440627309614,"33":0.002234849517196428,"34":0.1486710939321413,"35":0.09753071712352655,"36":0.11780725287642173,"37":-0.1837329383860778,"38":-0.010230766716055651,"39":-0.1316820426373898,"40":0.05976185546395609,"41":0.04375184128724234,"42":-0.32764586719869143,"43":-0.058540377340892825,"44":-0.08073305185652928,"45":0.07887295346193035,"46":0.06434947771902488,"47":-0.22487858038079653,"48":-0.04545235085533539,"49":0.098122375840262,"50":0.07302176449191436,"51":0.08846596833766573,"52":-0.7993466060453419,"53":-0.09742572823076673,"54":-0.14622225227250515,"55":0.08930106087244444,"56":0.10963319654458706,"57":-0.7756185875281504,"58":0.017120617660986985,"59":-0.1071893262202811,"60":-0.06465554243056432,"61":0.18299974266164049,"62":-0.7428519283341956,"63":0.013917559781561933,"64":0.04322029518081994,"65":0.0944772497935247,"66":0.35477273536185555,"67":-0.5308677028992694,"68":-0.17795495296431924,"69":-0.05566747231900804,"70":0.046454572505027034,"71":0.49543746115054593,"72":-0.5963163935450483,"73":-0.11691524924227933,"74":-0.11535457835577523,"75":0.09143778220714896,"76":0.5256774542773182,"77":-0.49001926964850134,"78":-0.139844426016136,"79":0.020223684333999757,"80":0.09126976758698807,"81":0.8230865602861147,"82":-0.12910438295725732,"83":-0.12917632202218213,"84":-0.09119447636965144,"85":0.14393163233353345,"86":0.6414302721841891,"87":-0.48898454377453765,"88":-0.20606216393113677,"89":-0.02409659768493444,"90":0.048911713077763756,"91":0.7597861718715962,"92":-0.7021450302033726,"93":-0.2011745251283431,"94":0.15933937533612938,"95":0.08431505443455517,"96":0.855167075202657,"97":-0.4838379024581823,"98":-0.05587593062277782,"99":-0.015448113205215833,"100":-0.018026535199310478,"101":0.8150668446526425,"102":-0.04525055367646534,"103":-0.1479182971405523,"104":0.006606920072494255,"105":0.049691484423939204,"106":0.5156177650013447,"107":-0.016052743948853906,"108":-0.03702063885424072,"109":0.003361082391857633,"110":0.038259183277013845,"111":0.5344176055725121,"112":-0.12623807920146912,"113":-0.1401459952908104,"114":0.0111843437157258,"115":0.024290796620737562,"116":0.5267935310986867,"117":-0.25571251021453284,"118":-0.02179758652522368,"119":0.09255774347325528,"120":-0.0453315988714573,"121":0.7768024423984261,"122":-0.5790870660981522,"123":0.0919766594609218,"124":0.0772169144303098}},{"sx":1,"sy":1,"depth":125,"w":{"0":0.13216159148400344,"1":0.007912207050695303,"2":0.07590928338660907,"3":0.17614159877676738,"4":0.24849363524707407,"5":0.0003075273203682245,"6":-0.03092497759072066,"7":-0.06556952912600604,"8":0.13960318173546202,"9":0.025618194697155386,"10":0.1450597563430832,"11":-0.08420921447656633,"12":-0.10805832088825484,"13":0.09874547502851497,"14":0.03301162710094063,"15":-0.06722828187328102,"16":0.042698250245455684,"17":0.020040877034944973,"18":0.14415091972516728,"19":0.22788770146138015,"20":-0.10386388502725907,"21":0.17723300815742898,"22":-0.09616718255132825,"23":0.1273310416620366,"24":0.15976449830544512,"25":-0.1794723598828001,"26":-0.048655776839101085,"27":0.06284098469055462,"28":0.04539926931047725,"29":0.04711536266827378,"30":0.0235479752811784,"31":0.09365523965605471,"32":0.14441627002779606,"33":0.1402992858749597,"34":0.16550816756281755,"35":0.07621994781426471,"36":0.05167359593670872,"37":0.09436426420947437,"38":0.18099163285495712,"39":0.03217293358825687,"40":-0.13903380240277,"41":-0.11322373908641621,"42":-0.10938525538963201,"43":0.10816367628512587,"44":0.021363025429031474,"45":-0.0884423576356263,"46":-0.1289282780312195,"47":0.015002226030880418,"48":0.10216281785548803,"49":0.03492982173622854,"50":-0.05539473531544762,"51":-0.07526163733067072,"52":0.0676895429295039,"53":0.039401159997500206,"54":-0.07827016915586499,"55":-0.17099566211285339,"56":0.09901554986087169,"57":-0.02830789401246614,"58":0.030433950691123653,"59":0.017693992865075996,"60":-0.13351306400717036,"61":0.09505618780493155,"62":0.0470279345889023,"63":0.09453689262634674,"64":0.1119472734386267,"65":0.04346698734861754,"66":0.047098739375291514,"67":-0.002613632181390072,"68":0.03870452637264278,"69":-0.045225365995720565,"70":-0.11037846902718886,"71":-0.03389462734948155,"72":0.00221367157159017,"73":0.1385215782935464,"74":0.025853272170810945,"75":-0.04131347315609342,"76":-0.10331806176753626,"77":-0.004217990485093959,"78":0.03569812787491426,"79":0.0910713745845827,"80":0.02920382560000679,"81":-0.05833419492680384,"82":0.003954865638148147,"83":-0.04714958615376723,"84":0.03937905994191031,"85":-0.019781601214693145,"86":-0.01613963310677069,"87":-0.09574298653366689,"88":0.05768068167606263,"89":0.14060493432382273,"90":-0.17960713588780203,"91":-0.1302693056777147,"92":0.14399757750986733,"93":0.11318854711408641,"94":0.1639723201078339,"95":-0.1140830881996405,"96":-0.1041683592929245,"97":0.16593251011547797,"98":0.11858452331329102,"99":0.15646083725348406,"100":-0.11550931764161565,"101":-0.0613798726007978,"102":0.19451305672954972,"103":0.04440712069986708,"104":0.07899716730989129,"105":-0.01864775835943144,"106":0.030661965335402955,"107":0.11950276833273744,"108":0.04983291324697948,"109":0.046514230267597906,"110":0.024722665542810402,"111":-0.11952920955400954,"112":0.36131946136364956,"113":0.14790301473885661,"114":0.1810703752042817,"115":-0.14192034125029768,"116":-0.22576714101847756,"117":0.15027055609410492,"118":0.11449379493370557,"119":-0.0411007313175942,"120":0.015166280395678678,"121":-0.03261054070868553,"122":-0.09429951708887148,"123":0.14961974147428916,"124":0.14556861289540457}},{"sx":1,"sy":1,"depth":125,"w":{"0":-0.08757421691960919,"1":-0.23762003243591773,"2":-0.12998299924052328,"3":-0.2697364089717638,"4":0.041372470696759873,"5":0.008897290019284411,"6":-0.15256885279053087,"7":0.09793882855795023,"8":-0.12124697057396129,"9":0.0895366774565232,"10":-0.05512099546424187,"11":-0.07353954425790955,"12":-0.12525023584531525,"13":-0.2332021666634982,"14":0.1319761184845316,"15":0.0021293444191389623,"16":-0.1407660597194065,"17":-0.025071226538246498,"18":-0.11303931139506002,"19":-0.14028197214624602,"20":0.17988482260151717,"21":-0.16906790136206298,"22":-0.22598256313626178,"23":-0.2546980073949784,"24":-0.14026887580846203,"25":0.008290737142314512,"26":-0.04397369147462652,"27":-0.009589923712527225,"28":-0.1367224219421989,"29":-0.06532001452679043,"30":-0.06364808595753262,"31":-0.06364033826472157,"32":0.0763389894467179,"33":-0.16206162010656636,"34":0.1553963173968604,"35":0.037868045149575605,"36":-0.08902898919142507,"37":0.12824396066015128,"38":-0.28487917676014257,"39":0.021804373984243373,"40":0.025811398454450237,"41":-0.2483914809045905,"42":0.2426668686747678,"43":-0.28777524874427884,"44":-0.04231357519623738,"45":0.006193262923999181,"46":-0.18890987101661258,"47":0.09303415430099748,"48":0.018085638635936666,"49":0.045286289900024354,"50":-0.05690907465783826,"51":-0.06392738560814067,"52":-0.007831111504000367,"53":-0.08888585531921822,"54":-0.0786085175787942,"55":-0.03993786451300873,"56":-0.03358271613563071,"57":0.028463869000423005,"58":-0.12405615169963595,"59":0.054927636695093374,"60":-0.007753149105714773,"61":-0.11107289684167708,"62":-0.012386041542252538,"63":-0.14931190223434088,"64":-0.012918860823379808,"65":0.011871928053782836,"66":-0.061037192181728546,"67":0.4939694618072695,"68":-0.08319858189789411,"69":-0.05541251020962989,"70":-0.04680625425163029,"71":-0.1178740646995288,"72":0.3561004870821736,"73":0.041254193105678655,"74":-0.03229647923570459,"75":0.03416422617734639,"76":-0.024894492592067243,"77":0.5519467039346253,"78":0.13879636386832803,"79":-0.06094810698786787,"80":0.06687129590807614,"81":-0.07120909128649218,"82":0.4866968526719877,"83":-0.05463713276945328,"84":-0.07919484216648796,"85":0.10697530095293185,"86":0.14232154989950757,"87":0.16990143766871485,"88":0.13304100924523046,"89":0.018292455251887024,"90":0.15066460794951622,"91":0.07085367701368747,"92":0.4102849664345138,"93":0.038059398061716376,"94":0.13841460556761406,"95":0.19463332096042452,"96":0.005754636486362366,"97":0.41951494871179834,"98":-0.0004649071306883496,"99":-0.10248410105579446,"100":0.01710879607127331,"101":0.10810260833086181,"102":-0.1536923843346452,"103":0.03505071286334227,"104":-0.0469769831685626,"105":0.015272741172796492,"106":0.15216066546218715,"107":-0.18629558097884957,"108":-0.033876185834454065,"109":0.06550892348438585,"110":0.108550390352642,"111":0.09925508140714312,"112":-0.07859207087298695,"113":0.09902780517049962,"114":0.17319261496445035,"115":-0.08630623941587624,"116":0.2584132529143504,"117":0.0022799921867660716,"118":-0.021736343284040702,"119":-0.04918201316511326,"120":0.014414967304541391,"121":0.1292937161708501,"122":0.4850249784566024,"123":-0.13702885570356965,"124":0.026904837527435516}},{"sx":1,"sy":1,"depth":125,"w":{"0":0.12627168415079174,"1":-0.036530107271750586,"2":0.21703889358556733,"3":0.10910147424902797,"4":-0.1519675394351122,"5":0.042180300083523206,"6":0.10900110526879975,"7":0.219555898879357,"8":0.20775168921913367,"9":-0.06884426552907405,"10":0.11466865498676594,"11":0.14709824744465325,"12":0.14488581412422208,"13":-0.019625543041888106,"14":-0.039963473372613696,"15":-0.04012858051618169,"16":0.03269056435292882,"17":0.10825219152094159,"18":0.0477785138954846,"19":-0.08292319489782587,"20":0.10631767277893539,"21":0.0879409240581094,"22":0.2735145937659959,"23":0.19380487730787838,"24":0.011179074753502938,"25":0.08195566238736607,"26":0.15794652280736024,"27":0.3374544486939453,"28":0.20299545371954716,"29":0.022667199510684768,"30":0.2293858605519042,"31":0.022208875287626367,"32":0.3272391134876996,"33":0.1515163854685865,"34":-0.05893686061433151,"35":0.22444096251220352,"36":-0.1034051532967687,"37":0.23672008142652418,"38":0.0021347233190604133,"39":-0.009835571110355356,"40":0.10698971349715794,"41":0.07592771951831331,"42":0.21173175342185985,"43":0.2461077861459817,"44":-0.14311799812531148,"45":0.09265454293656068,"46":-0.06802339523882271,"47":0.32343732707888073,"48":0.11423159395210279,"49":-0.04140465567492788,"50":0.21633049689826014,"51":0.13662171497072026,"52":-0.006763268502162722,"53":-0.022176592067022573,"54":-0.0560685074348902,"55":-0.02217044698916643,"56":0.12289881535270951,"57":-0.25849901456507274,"58":0.07234629145732636,"59":-0.008221636966531666,"60":-0.15368163139268998,"61":0.10276480164471867,"62":-0.17501063756934146,"63":0.20615694720035488,"64":-0.18669832821273058,"65":0.11818277981725492,"66":0.04694785070028432,"67":-0.26971607965613265,"68":0.22265578713558365,"69":-0.23458541498133384,"70":-0.04053618005810099,"71":-0.015718498972979358,"72":-0.06142282048113883,"73":0.20757530866892684,"74":-0.0979075540138888,"75":0.04654163377777209,"76":-0.2271629247461518,"77":0.1260484166161572,"78":0.15807486435908552,"79":-0.013399347292452063,"80":0.09250247010896481,"81":-0.184977707823323,"82":0.28456672117319554,"83":-0.005866157377739629,"84":-0.16110511878388914,"85":0.23952783870403374,"86":-0.07759404771085998,"87":-0.19410833052306253,"88":0.07978580871637314,"89":-0.140490341786725,"90":-0.05658940138725557,"91":-0.17683396637608098,"92":-0.22525116753383423,"93":0.03699261697743265,"94":-0.08037844447505547,"95":0.09259027897396065,"96":-0.0929625964500194,"97":-0.27865307420348734,"98":0.16235309439362833,"99":-0.030728389176240756,"100":0.021845862170986656,"101":-0.09493280059250975,"102":0.09187874106632728,"103":0.01987425282630145,"104":-0.11000933594430816,"105":-0.042826080819047416,"106":0.018909923576742076,"107":-0.05201743066284787,"108":-0.10501512226900785,"109":-0.1331714544700871,"110":-0.07952817048851825,"111":0.08019387859191798,"112":0.07881180821248172,"113":0.048949658195800445,"114":-0.015746542719261472,"115":0.11271841174343308,"116":0.013655855484889458,"117":-0.05229813360824475,"118":0.06389875391961745,"119":-0.2360982992949097,"120":-0.0057253374508714,"121":0.05474414316374483,"122":-0.46519383820785143,"123":0.17619220491265164,"124":-0.17070382287696206}},{"sx":1,"sy":1,"depth":125,"w":{"0":0.04720107702565369,"1":-0.1854013461444763,"2":-0.32151957952036,"3":-0.1947634485251827,"4":-0.0006612154748217988,"5":-0.05130548054523139,"6":-0.0575393738837115,"7":-0.07033035363831268,"8":-0.2010651575461295,"9":-0.04712268280029287,"10":0.045855596737639504,"11":-0.1585531187034526,"12":-0.13294917043953264,"13":-0.21261633995131066,"14":0.042657681334662224,"15":0.013727830079830602,"16":0.02648660250770181,"17":-0.055162302001807634,"18":-0.16062436485224338,"19":-0.07547168766378387,"20":0.03581089115889605,"21":0.11021799359606507,"22":-0.09611946785512596,"23":-0.24948258846495935,"24":0.12010563938982045,"25":-0.0067795091094720785,"26":-0.24708890608260417,"27":0.22447211739322387,"28":-0.2511166258814143,"29":-0.024856558923690326,"30":-0.08482132703664069,"31":-0.09130635873599525,"32":-0.04855215846981155,"33":-0.37334073667962747,"34":0.017051850731439673,"35":-0.01480932682005936,"36":-0.01609812252287404,"37":0.22380132951215106,"38":-0.13064112296944064,"39":-0.061686277061894695,"40":0.0225195152365121,"41":0.14818672875721256,"42":0.2685978305660041,"43":-0.1360302335886374,"44":-0.1157535717273035,"45":-0.043868488867948224,"46":-0.09591872998223354,"47":-0.3761797890599368,"48":-0.1551824561946968,"49":-0.051438493746620476,"50":-0.07054438627423788,"51":0.05542494749004423,"52":-0.08143666191776595,"53":-0.2659645870547722,"54":0.04591222638772072,"55":-0.05205725806464553,"56":0.23810998106678077,"57":-0.01281067223845101,"58":-0.05209770833998313,"59":-0.06025227159141222,"60":-0.04478202341104873,"61":0.22871295402732128,"62":-0.18022385268847427,"63":0.16322014847314745,"64":0.04738881007362604,"65":-0.04029393125351104,"66":-0.1452114162971816,"67":0.1695791037745124,"68":0.12144778745321344,"69":-0.04513026304413618,"70":0.14173469925565974,"71":-0.13979626717347984,"72":0.6695179827713792,"73":0.27560666564365394,"74":-0.03495117677723125,"75":0.053755259007027614,"76":0.0207265587625083,"77":0.6393185607712377,"78":0.27985199075562933,"79":0.06566776787225719,"80":0.025448051263921537,"81":-0.06932951361311145,"82":0.45869298563734473,"83":0.14052978617622758,"84":-0.037137746894397944,"85":0.11703503779688149,"86":0.14120825984881122,"87":-0.4035626102142687,"88":0.34520472712411576,"89":0.02421528314089979,"90":0.06109963145493005,"91":-0.05425489307007057,"92":-0.753353543397314,"93":0.3264693060747988,"94":-0.12579475791279415,"95":0.005012438758781948,"96":-0.1528996149068118,"97":-0.8767261618493647,"98":0.38934163153884405,"99":0.026991577673217935,"100":0.053672770491287235,"101":-0.2112982605216151,"102":0.39482785164360096,"103":0.3479082200912885,"104":-0.16587819265803558,"105":-0.007620069158127831,"106":0.07304214230703467,"107":0.39437460890531334,"108":0.27209996786257956,"109":-0.06793083427209452,"110":0.14435965458087607,"111":-0.12369769398508888,"112":0.2333124302288029,"113":0.2737971714347217,"114":-0.09886125015329235,"115":-0.00811050721217659,"116":0.024005929718504935,"117":0.09193529274469443,"118":0.20839054910991978,"119":0.06760604020506976,"120":0.014486253424351184,"121":-0.12837731336871047,"122":-0.7497196317322681,"123":0.18365308813495493,"124":-0.007602456341541745}},{"sx":1,"sy":1,"depth":125,"w":{"0":0.10150362432801849,"1":-0.01519811087102888,"2":0.06591521452271312,"3":-0.24540197214410722,"4":0.19657824348501693,"5":0.0009368359245023893,"6":-0.17807171383189743,"7":0.040304447489526565,"8":-0.39086102323363775,"9":0.05214851785367962,"10":-0.16393236346363602,"11":0.03591248850947951,"12":-0.0462926348569149,"13":0.03865166512792047,"14":0.10609254063117857,"15":-0.012386993171670442,"16":0.12205299556048511,"17":-0.23427677725474919,"18":-0.01107984331120833,"19":0.017856905456304247,"20":-0.013226899536722032,"21":0.14383053904113538,"22":0.04086916862615471,"23":0.09279622456208263,"24":-0.13078965874855175,"25":0.0027285447357204306,"26":0.05449619897047101,"27":0.06151410421517436,"28":0.09301411338768777,"29":-0.020348608982130312,"30":-0.12652522949551298,"31":-0.09739664810298224,"32":0.03886926281567331,"33":-0.13359077470394815,"34":-0.2724041753038362,"35":-0.09441789165261315,"36":-0.12836305776853926,"37":0.17598588534124593,"38":0.010823550620792766,"39":0.09345939790905156,"40":-0.0726006336041843,"41":0.20780805179601114,"42":0.1724536602722949,"43":-0.06546008023193103,"44":0.08044864530623205,"45":0.08312874596956825,"46":-0.05877989106262235,"47":-0.10215670362520014,"48":-0.2234232119332075,"49":0.12116180396389532,"50":0.14445085730146046,"51":-0.09801399073889232,"52":-0.15128547748345217,"53":-0.13591142594224004,"54":0.12304526706788657,"55":0.07278953578701383,"56":0.04274001214222974,"57":-0.12107516994567345,"58":0.0770357589863749,"59":-0.035606859871836066,"60":0.17864562807432988,"61":0.08554194070360462,"62":0.24058991236782748,"63":-0.04485885352457387,"64":0.09217419382077591,"65":-0.19515024314858084,"66":0.09396352873806761,"67":0.02764163284100493,"68":-0.03842194914621489,"69":-0.05865060180773363,"70":-0.061334763173436,"71":0.19199612893638615,"72":0.11713172346971852,"73":0.15171438617659402,"74":0.04811269730655143,"75":0.10933655144007047,"76":0.11369964909988789,"77":0.10812500520103999,"78":0.17353620262120625,"79":0.05040147528661474,"80":-0.0021571778216355627,"81":0.15258329705272838,"82":0.046286330429731404,"83":0.2710590324702052,"84":-0.03803211535344257,"85":0.175234343497909,"86":0.050311547956835644,"87":-0.3556574543538578,"88":0.24512825834510377,"89":0.02798097230292233,"90":-0.06547130053684537,"91":-0.11955441871030248,"92":-0.34353699865195825,"93":0.23186103423454268,"94":-0.11455771339599542,"95":0.02317386288451865,"96":-0.1000590194922467,"97":-0.39071187305119986,"98":-0.1034866093308085,"99":0.005739903390550831,"100":0.0120667164558417,"101":0.1683404050728204,"102":0.29844192119923696,"103":0.05998073624624386,"104":0.13519361793110657,"105":-0.07849141033436192,"106":0.11735500606343031,"107":0.16192027051702096,"108":-0.10809735422907872,"109":0.10118319572740023,"110":0.05762838133971856,"111":-0.01391227942817485,"112":0.05961687971933984,"113":0.017770176423682987,"114":-0.042794482177081976,"115":-0.049906338545615214,"116":0.1461308622731791,"117":-0.04110734578673551,"118":0.06851902068365918,"119":-0.015191693639255942,"120":-0.07473771180300204,"121":0.09756850423126759,"122":-0.4719249266019205,"123":0.102406626070681,"124":0.018503435119831418}}],"biases":{"sx":1,"sy":1,"depth":20,"w":{"0":0.2795486649533054,"1":0.4567721102124448,"2":-0.3175782936858677,"3":0.006048033517494571,"4":0.3851659244058981,"5":0.04446627612266261,"6":-0.5973861449688551,"7":-0.2501930019694153,"8":-0.5475056695886852,"9":-0.3845638518031081,"10":-0.10948528273007924,"11":0.048015867939896664,"12":0.7185612481565421,"13":0.31476179557710704,"14":-0.8001501933418834,"15":0.048394082604753245,"16":0.5421224122006961,"17":-0.3479456938051749,"18":-0.8420608746066985,"19":-0.553515745673234}}},{"out_depth":20,"out_sx":1,"out_sy":1,"layer_type":"sigmoid"},{"out_depth":20,"out_sx":1,"out_sy":1,"layer_type":"fc","num_inputs":20,"l1_decay_mul":0,"l2_decay_mul":1,"filters":[{"sx":1,"sy":1,"depth":20,"w":{"0":0.5930651372384188,"1":-0.3300719122907168,"2":-0.5449124476315493,"3":-0.4007840011084329,"4":-0.16834479376953185,"5":0.48564432011120134,"6":-0.11646303842647508,"7":-0.06951125734690158,"8":-0.15203686779247458,"9":-0.11063665416541564,"10":-0.4723339561867248,"11":-0.25776458393429214,"12":-0.041772768775538684,"13":-0.03292099535876985,"14":-0.0867426978758593,"15":0.14005213256746601,"16":-0.2628290783069079,"17":-0.13206781989284494,"18":-0.1957882152879091,"19":0.20623884981561819}},{"sx":1,"sy":1,"depth":20,"w":{"0":0.09322917217436484,"1":0.2599403798644952,"2":-0.22806476259089406,"3":0.09021438043053942,"4":-0.2767517447899182,"5":-0.16849922808388096,"6":0.04573800960355104,"7":-0.4290448102448573,"8":-0.25761428310667017,"9":-0.15244336843367481,"10":0.051209608394322086,"11":-0.3763212581727768,"12":-0.0005047794356571999,"13":-0.25413558143409215,"14":-0.016314177458640715,"15":-0.7261135909874781,"16":-0.22385186393259007,"17":0.052586008156879076,"18":-0.06642553232266177,"19":-0.23552325396493154}},{"sx":1,"sy":1,"depth":20,"w":{"0":0.22916897412026893,"1":0.5027200680717295,"2":-0.6537738397357732,"3":-0.19552865318187496,"4":0.23977810684580075,"5":0.28515481550069643,"6":-0.6932686850193287,"7":-0.18775445735841262,"8":0.34643625164218267,"9":-0.44837102023426856,"10":0.19750034618924148,"11":-0.48729525591144096,"12":0.19768709337519172,"13":0.28150760848061873,"14":-0.44632146264768435,"15":0.08675304301358178,"16":-0.11404608483089457,"17":-0.36201292372717353,"18":-0.19057508690855055,"19":-0.17715345115434403}},{"sx":1,"sy":1,"depth":20,"w":{"0":0.09806432329934797,"1":0.0048382657545517505,"2":-0.017602851582952335,"3":-0.5258368049938154,"4":0.06331724789997663,"5":0.04877285092840356,"6":-0.08966046745553724,"7":-0.2829441559181133,"8":-0.24065937011680852,"9":0.19900929616140628,"10":-0.05617121505776761,"11":-0.25859780566727675,"12":0.03455106238956314,"13":0.11755710839423805,"14":-0.28150916002931,"15":-0.4229159132580655,"16":-0.05821554183690331,"17":-0.1335303208908351,"18":-0.5709648857931213,"19":0.012961174642961143}},{"sx":1,"sy":1,"depth":20,"w":{"0":0.06533963989266608,"1":0.39790683798264537,"2":-0.026245890447332672,"3":-0.312877929995925,"4":-0.12175941351271954,"5":0.057405501527846535,"6":0.23763481321817717,"7":-0.5067840924774581,"8":0.4949905461038504,"9":0.3327963606374213,"10":-0.40405825563245606,"11":-0.04134346308151872,"12":0.029793452555049005,"13":0.025249973900252794,"14":-1.033059955269588,"15":0.020123252823073562,"16":0.4058537598126904,"17":-0.08774547829030652,"18":0.42609249108016917,"19":0.07772959422183091}},{"sx":1,"sy":1,"depth":20,"w":{"0":-0.32992162333411007,"1":-0.3481112058158502,"2":0.04411328290198107,"3":-0.45427932412954086,"4":-0.5350162110917797,"5":-0.23286516459338064,"6":0.6987906003948741,"7":0.23485854015191795,"8":0.76291566657499,"9":0.5764084584914733,"10":0.27396211230414075,"11":0.34483941941411456,"12":-0.900082006563717,"13":-0.7867966672297878,"14":0.714612412999199,"15":-0.4324046026797555,"16":-0.32526372251146946,"17":0.21635474528437026,"18":0.312267717283876,"19":0.6396814222850834}},{"sx":1,"sy":1,"depth":20,"w":{"0":-0.35653415163739444,"1":0.09904622452834703,"2":-0.674618874237315,"3":-0.4123633670116303,"4":0.5145850203462577,"5":0.5704814994431543,"6":-0.05313703765374715,"7":0.15699083037571568,"8":-0.019409568486701237,"9":-0.6070203861775895,"10":-0.1759582854212297,"11":-0.1409330851465515,"12":0.27012579181627755,"13":0.23209789617810372,"14":-0.471745902250401,"15":0.03731119503536483,"16":-0.0591217752115874,"17":0.12161030124810647,"18":-0.3304728793092411,"19":-0.48697421799251916}},{"sx":1,"sy":1,"depth":20,"w":{"0":-0.46126721552846056,"1":-0.5415240987044097,"2":-0.5643606857467258,"3":0.27743218221411414,"4":0.11935461819192297,"5":-0.1928996645330647,"6":0.5538473346160774,"7":-0.2596796161887883,"8":0.08851377970654006,"9":0.45604490477869486,"10":-0.02302385722809804,"11":-0.2582613449844807,"12":0.09885278803150016,"13":-0.5498794930063025,"14":0.47696573227297206,"15":-0.5617545022135938,"16":-0.027235446511060694,"17":0.3051844814209577,"18":0.38366234802605204,"19":-0.15437663617459882}},{"sx":1,"sy":1,"depth":20,"w":{"0":0.0946842700388731,"1":0.1289591315629073,"2":-0.03597383218301083,"3":-0.3972560984953813,"4":0.2204649169186511,"5":0.22514984743574137,"6":-0.14721869587513814,"7":-0.22712621446679132,"8":-0.8950145298268584,"9":-0.2199209518499604,"10":-0.4356797412818367,"11":-0.337071566203845,"12":-0.2073709132837616,"13":0.5078360653418605,"14":-0.1831169041156292,"15":0.3157302102692398,"16":0.05905030899506812,"17":0.06260417667263214,"18":-0.20433318841148307,"19":-0.157199719228284}},{"sx":1,"sy":1,"depth":20,"w":{"0":0.044286975407534936,"1":-0.013330729245837097,"2":0.16017364873159,"3":-0.2671343297418089,"4":-0.2632990692910795,"5":-0.29598890380515486,"6":0.11512130694253662,"7":-0.007659487021285677,"8":0.13609601361543486,"9":-0.021844847157083812,"10":-0.23536781128854112,"11":0.06263522867550986,"12":-0.1941938395335227,"13":-0.08140552980265321,"14":0.5181202326042017,"15":0.17962783131942658,"16":-0.14292563073358225,"17":0.01144484912712584,"18":0.3753898709265506,"19":0.08331180410367794}},{"sx":1,"sy":1,"depth":20,"w":{"0":-0.2992033045462943,"1":0.1879044709679069,"2":0.8396722244250626,"3":0.33641754522707734,"4":-0.03900450254248209,"5":-0.025345956220962747,"6":0.06444601783301501,"7":0.424221300003427,"8":0.1525279668277785,"9":0.14901855471005723,"10":0.0842710034543985,"11":0.4183794200041606,"12":-0.16862977089551617,"13":0.2499935255547563,"14":-0.2087620746576194,"15":0.21940859363954368,"16":-0.004296582957985327,"17":0.12938406352818474,"18":0.017639964697813898,"19":0.30487900783136923}},{"sx":1,"sy":1,"depth":20,"w":{"0":-0.2928558913815508,"1":-0.5525873328734215,"2":-0.306863749313238,"3":-0.1123924714160169,"4":-1.1657278078736053,"5":-0.15556272658521997,"6":0.21480267957299795,"7":0.3615239027780676,"8":0.41218989680823465,"9":-0.06200438539043091,"10":-0.016492230433238015,"11":-0.32581127072628246,"12":-1.0434289696849555,"13":-0.11550713687060347,"14":0.33944277657285027,"15":0.05713981929909352,"16":-0.79527428780957,"17":0.481844198426229,"18":0.5384528621880035,"19":0.9113875012901995}},{"sx":1,"sy":1,"depth":20,"w":{"0":-0.2742022692671311,"1":0.02689279515856941,"2":-0.08003346610675077,"3":0.08771823024596917,"4":-0.4497062703681734,"5":0.24345466158903298,"6":-0.013145306603664387,"7":0.1534608566044322,"8":0.20117493251360102,"9":0.26264339997059566,"10":0.2486780031142823,"11":0.2619093559585885,"12":0.05866964818677709,"13":-0.46609434333635047,"14":-0.1803135285443228,"15":-0.04023052921973037,"16":0.34135299822601045,"17":0.233156075639723,"18":0.37071061880526995,"19":0.1553567698940745}},{"sx":1,"sy":1,"depth":20,"w":{"0":0.1161066788202325,"1":-0.029408974260295498,"2":-0.4117826294596172,"3":-0.42924002557772833,"4":0.04080289352849286,"5":0.20420431458767954,"6":-0.42890079365677064,"7":-0.7005261411381729,"8":-0.3340847814072032,"9":0.3711802279829975,"10":-0.20057621609656887,"11":-0.13169195979892648,"12":0.08824841970714291,"13":0.23016907946553036,"14":-0.07067869325070508,"15":0.14871947307125216,"16":-0.009782583051823357,"17":-0.3329241403440722,"18":-0.10734577602136329,"19":-0.17402720670729127}},{"sx":1,"sy":1,"depth":20,"w":{"0":0.45018685193405733,"1":0.20942318326170173,"2":-0.320061479786255,"3":0.11655622441763228,"4":1.0154988858479246,"5":0.003343943670890915,"6":-0.6869507833183767,"7":-0.3427676249039634,"8":-0.6304650971664346,"9":-0.5140497164400277,"10":-0.4424732450970313,"11":-0.6015199190223701,"12":0.27970121402191794,"13":0.7239659728381672,"14":-0.395110648380036,"15":0.5587241941613926,"16":-0.07971525162273684,"17":-0.10645671765134905,"18":-0.5497050636848391,"19":0.16424389436203046}},{"sx":1,"sy":1,"depth":20,"w":{"0":-0.023303295466557378,"1":0.12107029287308664,"2":0.780889324579651,"3":-0.9534081454079366,"4":-0.47899965891621454,"5":-0.2321592389162913,"6":0.20385484660037465,"7":-0.1336829221333191,"8":0.29505261746414835,"9":0.37565565144586766,"10":-0.1891019535203844,"11":0.3247108673205721,"12":-0.1887471341137125,"13":0.192783852129226,"14":-1.029127419459536,"15":-0.5442891523995693,"16":-0.2934280629525743,"17":0.2521763914689758,"18":0.6649559863684974,"19":-0.2787635551422041}},{"sx":1,"sy":1,"depth":20,"w":{"0":0.16812652930669864,"1":-0.14750243072369482,"2":0.418393008840813,"3":0.03073366284136527,"4":-0.06832656084136272,"5":-0.17068548616882537,"6":0.35622617170320875,"7":0.07155132872871961,"8":0.16053598751013357,"9":0.22684438191805872,"10":0.023956804629245994,"11":0.0007594775739610399,"12":-0.19850486364779768,"13":-0.22895933841853844,"14":0.21623854972969728,"15":0.15663254903523302,"16":-0.07129833775202231,"17":0.05112784768411766,"18":0.6049149562283015,"19":-0.3456404888989514}},{"sx":1,"sy":1,"depth":20,"w":{"0":0.22986390105087925,"1":0.1325414096703629,"2":-0.5076142239285347,"3":-0.0419226533512236,"4":0.2856777925675924,"5":0.3295132321327134,"6":-0.3622925959633615,"7":-0.052901060953760445,"8":-0.38208714517093767,"9":-0.5231748151660148,"10":-0.17516713646353568,"11":-0.5363810561936793,"12":0.29319473258280354,"13":-0.031188585199728478,"14":-0.5467761890287047,"15":0.19283533686739243,"16":-0.015037497151160938,"17":0.06481279418896749,"18":-0.13934829541700117,"19":-0.043563761870030276}},{"sx":1,"sy":1,"depth":20,"w":{"0":0.13293206283357503,"1":-0.37791293097935275,"2":0.05448805980877338,"3":-0.0341844442936579,"4":-0.0335978611405939,"5":-0.12101462223957801,"6":-0.7706141594207996,"7":0.40780538801687294,"8":0.1357484478090367,"9":-0.12129387254503303,"10":-0.30852551031795633,"11":-1.047393546100768,"12":0.3127009646460276,"13":0.27683417220820994,"14":0.55588083860572,"15":0.27458616867917895,"16":-0.44861636973685204,"17":0.056541155718770386,"18":0.15628626124738812,"19":0.23660348822466493}},{"sx":1,"sy":1,"depth":20,"w":{"0":0.527107406284257,"1":0.41148129150617047,"2":-0.01719292132522408,"3":0.12048858919669132,"4":0.908680258512536,"5":-0.33337227803515174,"6":-0.12659093733575616,"7":-0.035559469251018265,"8":-0.15593139146520346,"9":-0.11966439689294597,"10":-0.3194517493474046,"11":0.4602027307202655,"12":0.46054525291684856,"13":-0.029788963176557045,"14":-1.1839724225508852,"15":0.41917325934393757,"16":0.8454179477377408,"17":-0.8279057126738867,"18":-0.5277057595385954,"19":-0.221329207333121}}],"biases":{"sx":1,"sy":1,"depth":20,"w":{"0":0.06452352145404519,"1":-0.17545718172637717,"2":0.08497587175887411,"3":-0.17293320059673395,"4":0.13353924847673088,"5":-0.22826668528247523,"6":0.043783310373797714,"7":-0.2043607180176018,"8":0.016913605236743602,"9":0.022304639037646325,"10":0.06579045863804085,"11":-0.341895683306469,"12":-0.08163273945527966,"13":0.002371449782624526,"14":0.2561921608352969,"15":-0.1691568151124845,"16":0.07748417868746155,"17":0.10897553676847845,"18":0.14896455336419076,"19":0.21177523511406243}}},{"out_depth":20,"out_sx":1,"out_sy":1,"layer_type":"tanh"},{"out_depth":10,"out_sx":1,"out_sy":1,"layer_type":"fc","num_inputs":20,"l1_decay_mul":0,"l2_decay_mul":1,"filters":[{"sx":1,"sy":1,"depth":20,"w":{"0":-0.009858901103411892,"1":-0.03874039324729597,"2":0.21253598123339335,"3":0.20551717234844716,"4":-0.14660939929610628,"5":0.6218758718493292,"6":-0.4406517003447328,"7":0.37551482142509723,"8":-0.17988990376876568,"9":-0.08158802647336326,"10":0.06635578351988693,"11":0.13586222748367832,"12":0.16568375502789345,"13":0.021469248726318186,"14":-0.2820442965652217,"15":-0.1012768691132764,"16":0.12398242656995118,"17":-0.3968573250980876,"18":0.06620536780147877,"19":-0.13529026201629618}},{"sx":1,"sy":1,"depth":20,"w":{"0":-0.569201066231214,"1":-0.5099127205536145,"2":-0.08355169082764377,"3":-0.5109851640002356,"4":0.7754259758061033,"5":0.4793226323922292,"6":-0.1490061982457419,"7":-0.31402465425386983,"8":-0.2336003150129718,"9":0.232146752493568,"10":0.23786092382160062,"11":0.3854589680491019,"12":0.6549324377447079,"13":0.03838280044910075,"14":-0.6462247457550497,"15":1.6322817446255409,"16":0.4819567452099668,"17":-0.47056360952297904,"18":-0.6758583173398521,"19":-0.3746796706935814}},{"sx":1,"sy":1,"depth":20,"w":{"0":-1.3010151060374948,"1":-0.8576083631768731,"2":-1.3217686044805226,"3":-1.2473047410353135,"4":-1.4175002938764079,"5":1.287041702936259,"6":-1.5312965877957263,"7":0.44884800918560264,"8":-1.3950677542257328,"9":0.7309120854457231,"10":1.056248344996121,"11":1.695351207086606,"12":0.7581378397010338,"13":-1.7143081474229238,"14":-1.4770512606666033,"15":0.3336970846036909,"16":0.9394765862525648,"17":-1.4846766648153051,"18":-0.03714019951133205,"19":-1.7796781591153672}},{"sx":1,"sy":1,"depth":20,"w":{"0":0.03670052408997976,"1":0.3867895718235515,"2":0.11852114134410047,"3":0.412496349900328,"4":-0.2872670664018448,"5":-0.14748112261798357,"6":0.006808176074615135,"7":-0.10155171723127897,"8":0.19459352058488694,"9":0.36093249634629804,"10":-0.1524428992840189,"11":-0.09647263944100992,"12":-0.05461679743193514,"13":0.2632443886770963,"14":-0.21469745959732506,"15":-0.32082573375972423,"16":0.22243891898881182,"17":-0.30116192438690953,"18":-0.16066176078843328,"19":0.2236369003250611}},{"sx":1,"sy":1,"depth":20,"w":{"0":0.2349190015415741,"1":0.38897465164096173,"2":0.3150538572327867,"3":-0.14814513729316484,"4":0.407243996932998,"5":0.16636647307923713,"6":0.3713392225340169,"7":0.0964727590913801,"8":-0.24120438520559714,"9":-0.0012322838446384094,"10":-0.3145721558762479,"11":0.07111418618136847,"12":0.11184168533721228,"13":-0.1819332159426576,"14":-0.08439946262980628,"15":0.0574398324839475,"16":-0.19367893946241196,"17":-0.19970036224739507,"18":0.18200869699471303,"19":0.1570153561218836}},{"sx":1,"sy":1,"depth":20,"w":{"0":-0.6363194740123279,"1":-0.6024454880149853,"2":-0.7838005946318123,"3":-0.7614025266845031,"4":0.04387036931530547,"5":1.4317033960126908,"6":-0.9163824580628062,"7":0.7646817882131254,"8":-0.5443223600888177,"9":0.14771853658863,"10":0.6969241654773427,"11":0.6712776226498965,"12":0.8112286235687639,"13":-0.4578144099667641,"14":-0.911087453818665,"15":0.3776394062385492,"16":0.5089478254634777,"17":-0.6903763885615337,"18":-0.6077275973580758,"19":-0.6637508686151393}},{"sx":1,"sy":1,"depth":20,"w":{"0":0.0912397839207497,"1":0.06417473871862328,"2":-0.14416222123649247,"3":-0.37703981983051127,"4":-0.044241486600256494,"5":0.2991782858338932,"6":-0.16657277481164062,"7":0.8672261804869359,"8":-0.29688005911225135,"9":-0.14686664153870507,"10":-0.4369375171886203,"11":0.2253688437088822,"12":-0.05085008933145077,"13":-0.07164935634129917,"14":-0.31807248154486356,"15":-0.3722672887971963,"16":0.23478412495164652,"17":0.09718988386737026,"18":-0.45080490387609157,"19":-0.32185079888050655}},{"sx":1,"sy":1,"depth":20,"w":{"0":0.02053314678968821,"1":0.12206670366065656,"2":-0.19600029981820485,"3":0.1460855402139932,"4":-0.04597967534247438,"5":-0.5395894581079308,"6":0.4313273143465247,"7":0.5756469627607017,"8":0.013200501842469356,"9":-0.14028227401334986,"10":0.12798181441302273,"11":-0.2503604777490191,"12":-0.08786424863323158,"13":-0.13810027031338815,"14":-0.14279618508578099,"15":0.3913081678971214,"16":-0.14419033195450193,"17":0.013071246608328101,"18":-0.43135438200305315,"19":0.3428547566800565}},{"sx":1,"sy":1,"depth":20,"w":{"0":-0.5553796044382395,"1":0.06734506438433867,"2":-0.43792452357106687,"3":-0.32366708171492414,"4":-0.18501909882136153,"5":0.5677933209013296,"6":0.08440899330177754,"7":0.34258366409647717,"8":-0.35568961564755763,"9":-0.06532224403438426,"10":0.0012024165492690929,"11":0.08875134337609744,"12":0.25998901720198925,"13":-0.038556237875413284,"14":-0.6202770990151046,"15":0.5915665243696753,"16":0.16535683301819631,"17":-0.07541308191930154,"18":-0.953482299844269,"19":0.11075584793480157}},{"sx":1,"sy":1,"depth":20,"w":{"0":0.277618748838609,"1":0.17777786067433093,"2":0.06801140838771076,"3":0.07259297324238273,"4":-0.045521488434699206,"5":-0.37101846096588453,"6":-0.2407207584417889,"7":0.0182068065823886,"8":-0.2538650358973145,"9":-0.09062446951257547,"10":-0.07787912504035654,"11":0.04906313280690811,"12":-0.40499823592935685,"13":-0.055656822384619505,"14":0.08644883337065522,"15":0.02460858518647695,"16":-0.4371283346163142,"17":0.22303832297621068,"18":-0.21086204797203703,"19":0.0313829469926001}}],"biases":{"sx":1,"sy":1,"depth":10,"w":{"0":0.2383608331767346,"1":0.285495540474933,"2":1.1534809016830034,"3":0.002263124648718085,"4":0.106989982547459,"5":0.5878440725797652,"6":0.21318286290390717,"7":0.12455058667119238,"8":0.17071749152341542,"9":0.09203803543686855}}},{"out_depth":10,"out_sx":1,"out_sy":1,"layer_type":"relu"},{"out_depth":5,"out_sx":1,"out_sy":1,"layer_type":"fc","num_inputs":10,"l1_decay_mul":0,"l2_decay_mul":1,"filters":[{"sx":1,"sy":1,"depth":10,"w":{"0":1.2034397290948249,"1":0.6193393120299193,"2":2.380988022175294,"3":-0.24201726695189657,"4":-0.3803366559910864,"5":1.5725864640152476,"6":0.31028801212388435,"7":-0.7324098904287746,"8":0.02292411622277801,"9":0.11895758979840747}},{"sx":1,"sy":1,"depth":10,"w":{"0":0.18203921791686575,"1":1.5160428936319694,"2":1.9010893810190803,"3":-0.20466911437639332,"4":-0.18669962863684772,"5":1.862915086166877,"6":0.8443373534166944,"7":0.5392734770163726,"8":1.3034642384239081,"9":0.11494077696717175}},{"sx":1,"sy":1,"depth":10,"w":{"0":-0.3667799261570408,"1":0.35032419793350356,"2":3.062609558988619,"3":0.13953839605743854,"4":-0.4405190675382721,"5":0.7113894053023481,"6":0.08395804561404818,"7":0.5662631074486651,"8":-0.45274730726055956,"9":0.2664151655056978}},{"sx":1,"sy":1,"depth":10,"w":{"0":0.4283953034765882,"1":-0.7523660049397006,"2":2.890206499216949,"3":-0.2649641409474482,"4":-0.25624211728219554,"5":1.3847430392932945,"6":0.6419440332421973,"7":-0.7194137217974256,"8":0.23661890178840378,"9":-0.5914407054949349}},{"sx":1,"sy":1,"depth":10,"w":{"0":0.11705439840642579,"1":1.5486090947290192,"2":2.419454720422357,"3":0.4356094621020006,"4":-0.2967972463195884,"5":1.2443427148046053,"6":-0.6530458146174407,"7":-0.24392565853348872,"8":0.9010101102918822,"9":0.5002258671932696}}],"biases":{"sx":1,"sy":1,"depth":5,"w":{"0":0.10608021989563132,"1":0.2945762051542646,"2":0.1256180060252242,"3":0.15112991387369443,"4":0.1430091138352816}}},{"out_depth":5,"out_sx":1,"out_sy":1,"layer_type":"regression","num_inputs":5}]});
}