
//<![CDATA[

// a few things don't have var in front of them - they update already existing variables the game needs
lanesSide = 3;
patchesAhead = 25;
patchesBehind = 5;
trainIterations = 100000;

var num_inputs = (lanesSide * 2 + 1) * (patchesAhead + patchesBehind);
var num_actions = 5;
var temporal_window = 0;
var network_size = num_inputs * temporal_window + num_actions * temporal_window + num_inputs;

var layer_defs = [];
layer_defs.push({
    type: 'input',
    out_sx: 1,
    out_sy: 1,
    out_depth: network_size
});
layer_defs.push({
    type: 'fc',
    num_neurons: 30,
    activation: 'sigmoid'
});
layer_defs.push({
    type: 'fc',
    num_neurons: 30,
    activation: 'tanh'
});
layer_defs.push({
    type: 'regression',
    num_neurons: num_actions
});

var tdtrainer_options = {
    learning_rate: 0.002,
    momentum: 0.0,
    batch_size: 64,
    l2_decay: 0.01
};

var opt = {};
opt.temporal_window = temporal_window;
opt.experience_size = 10000;
opt.start_learn_threshold = 5000;
opt.gamma = 0.95;
opt.learning_steps_total = 10000;
opt.learning_steps_burnin = 1000;
opt.epsilon_min = 0.0;
opt.epsilon_test_time = 0.0;
opt.layer_defs = layer_defs;
opt.tdtrainer_options = tdtrainer_options;

brain = new deepqlearn.Brain(num_inputs, num_actions, opt);

learn = function (state, lastReward) {
    brain.backward(lastReward);
    var action = brain.forward(state);

    draw_net();
    draw_stats();

    return action;
}

//]]>
    
/*###########*/
if (brain) {
brain.value_net.fromJSON({"layers":[{"out_depth":210,"out_sx":1,"out_sy":1,"layer_type":"input"},{"out_depth":30,"out_sx":1,"out_sy":1,"layer_type":"fc","num_inputs":210,"l1_decay_mul":0,"l2_decay_mul":1,"filters":[{"sx":1,"sy":1,"depth":210,"w":{"0":-0.02787224533828544,"1":-0.15619896841625056,"2":-0.08824467768861588,"3":-0.05415466687814655,"4":-0.04102542733322573,"5":-0.18421830298695735,"6":-0.09462942572381293,"7":-0.004904661529075756,"8":0.044123389136192175,"9":-0.18937932767766727,"10":0.0007667433744246305,"11":-0.14584989494673123,"12":0.10858538573334671,"13":-0.08143682361535282,"14":-0.07633057460789044,"15":-0.07505718643444952,"16":0.02200402029405069,"17":0.04139137035206426,"18":0.013524371664773941,"19":0.0034019278490300146,"20":-0.07193501992175393,"21":0.13723867918714355,"22":-0.16342900950214642,"23":-0.14164930261018654,"24":0.06759704917041273,"25":-0.11826603513280685,"26":-0.009424186134768722,"27":0.050434688164526766,"28":-0.10232446148103207,"29":0.019997651885737124,"30":-0.25712841524145386,"31":0.10435922890810524,"32":0.009013887296117412,"33":-0.03844765212197587,"34":-0.2293645843081288,"35":-0.06988929619667848,"36":-0.012997616449472697,"37":-0.04019195357578811,"38":-0.09929495450705957,"39":0.00037450977445821075,"40":-0.08935206362236586,"41":-0.021140381123407527,"42":0.03731888246940671,"43":-0.005795806477819384,"44":-0.0672624479942223,"45":0.01878777119317497,"46":-0.017275307669461493,"47":-0.04289932131345453,"48":-0.07073657966392392,"49":-0.0952119203289343,"50":-0.13370204499806737,"51":-0.20884772508727345,"52":-0.13130485099644446,"53":-0.07760400077219544,"54":-0.055552001393507806,"55":0.08369249550582081,"56":0.07789520953076558,"57":-0.2104692262774493,"58":0.02896673277174674,"59":-0.33263770293504663,"60":-0.013157200043954388,"61":-0.05516016714517728,"62":0.0017972411098006195,"63":-0.03931595017211901,"64":-0.0647920435858198,"65":-0.16865491037874267,"66":-0.15643091984580598,"67":-0.009811897070745174,"68":-0.10226630297165719,"69":-0.057578123690004174,"70":0.05105248761751197,"71":-0.0028788631090019843,"72":-0.22545211885402267,"73":0.15293491536040807,"74":-0.12007359609554497,"75":-0.07454159012862609,"76":-0.12554216155860015,"77":-0.0075340037486912245,"78":-0.05327878834342991,"79":-0.3245652834666965,"80":0.16745316190202397,"81":-0.08406193388771137,"82":-0.06238080707227081,"83":-0.0617934091576285,"84":-0.06205988884966485,"85":0.026022221124273926,"86":-0.17863777535077222,"87":0.13208703992197632,"88":-0.06046721321587465,"89":0.0407055868875523,"90":-0.08394546497914436,"91":-0.03908599598979781,"92":-0.0585529496600205,"93":-0.03174856735738875,"94":0.14602872079548773,"95":0.0396852609293879,"96":-0.14688593265750852,"97":-0.10362941068585432,"98":0.0228796764245001,"99":-0.10331599933832548,"100":-0.04586300719199165,"101":-0.08293155983895428,"102":-0.04425036022524947,"103":0.03782113661305912,"104":-0.00007185495647724175,"105":-0.10616520732506385,"106":-0.065935102432722,"107":0.01863064962930643,"108":-0.3400721029474708,"109":-0.11400487349645613,"110":-0.05661546970458954,"111":-0.11890183219219722,"112":-0.19939942509731798,"113":-0.08710542700551105,"114":0.006511898552520866,"115":-0.06812156476756626,"116":-0.027338981497108148,"117":-0.016214025615174075,"118":-0.21521864468181506,"119":0.020148718489202543,"120":-0.13713153575520484,"121":0.042576585523931024,"122":0.08767504370776377,"123":0.047719184067531166,"124":-0.03996881111359449,"125":-0.15568659704989601,"126":-0.017578451103095735,"127":-0.009405611563282679,"128":-0.13513200490927088,"129":0.7105370190005436,"130":-0.26136669646785293,"131":0.006063796247198321,"132":-0.11781460337691105,"133":-0.0003567322007971295,"134":-0.07576310213691684,"135":0.1055033351323904,"136":0.7758393923295713,"137":0.18860223668280524,"138":0.07379590162624027,"139":-0.11451703883478898,"140":0.06184336059506471,"141":-0.03900439609866891,"142":0.14524839128109512,"143":0.5320246548377864,"144":0.20971660527222705,"145":-0.06775660086956302,"146":-0.06176252645902583,"147":-0.01269191012861537,"148":-0.12358785257600374,"149":0.16318881631498114,"150":0.5520121317622327,"151":0.27760980524982665,"152":-0.061265664079209844,"153":0.09967986318130237,"154":0.04262711397172412,"155":-0.2059148969910265,"156":0.23881475158847051,"157":-0.2803878964610189,"158":0.35177501136279976,"159":-0.08787746633070587,"160":0.0022299354157793686,"161":0.08049718294504943,"162":0.0156684573556981,"163":0.6466264223471825,"164":-0.32712381342070274,"165":0.3287611651053805,"166":0.08048902323455527,"167":-0.16656620243951117,"168":0.1293960470768182,"169":0.004602921427581576,"170":0.4123991543557796,"171":-0.4239022079985717,"172":0.1957062734520681,"173":-0.08632530536684892,"174":-0.03906731246521124,"175":-0.06571344156625326,"176":-0.00712944077051203,"177":0.2661916793575522,"178":0.35313963609360965,"179":0.2648042300834161,"180":-0.17036780679750838,"181":-0.09459277051430179,"182":-0.08437067497858466,"183":-0.08622267606146433,"184":0.17923876113162815,"185":0.19978490136338337,"186":0.17387487324599676,"187":0.031102611801432242,"188":-0.17138154047600138,"189":-0.03801426539212135,"190":0.012496059454491611,"191":0.2839355648968958,"192":0.20058443435367163,"193":0.37332644919030084,"194":-0.049667346509837534,"195":0.13023880027398546,"196":0.06219421567906411,"197":-0.22200733667667677,"198":0.2551437159733931,"199":0.20842674078716197,"200":0.4949531887865412,"201":-0.028678504387711003,"202":-0.04537984201749474,"203":-0.007854891074587058,"204":0.04764888022315659,"205":0.37545432774185866,"206":-0.44109509022327575,"207":0.4996596049282422,"208":-0.05972429333115323,"209":0.011721302690895738}},{"sx":1,"sy":1,"depth":210,"w":{"0":-0.039502828251972634,"1":0.009089414044562646,"2":-0.18312855643913098,"3":0.005671647809901485,"4":0.02876404282791577,"5":0.026261952754579085,"6":0.010007602980519682,"7":0.003355958006849313,"8":0.007275893636463479,"9":0.038316281815846794,"10":-0.0270014429573456,"11":0.2183391933518754,"12":-0.006213240831747059,"13":0.15839235640516433,"14":0.022647212361676505,"15":0.08640525089841779,"16":-0.07250929057285851,"17":-0.09423435181881955,"18":0.11592688335265372,"19":-0.011288342233155889,"20":0.12785505449630644,"21":-0.08178508639602601,"22":-0.02811513313598919,"23":-0.1097971014077801,"24":-0.019046592295831274,"25":0.1357601861393712,"26":-0.01999070352180401,"27":-0.008633603498668494,"28":0.030964375520572168,"29":-0.029740759632242934,"30":-0.03498422649062729,"31":-0.12365135403066643,"32":0.12303275372770692,"33":-0.04715793293589471,"34":-0.04780765062048642,"35":0.06159077099434228,"36":0.04698552691738236,"37":-0.12831935759992186,"38":-0.15405627157056292,"39":0.27960645992618116,"40":0.05106023419558594,"41":0.020566663886593936,"42":0.003493154987719277,"43":-0.1242473658739719,"44":-0.15292520642284868,"45":-0.06979771418476823,"46":0.2225666465543377,"47":0.055070386130442954,"48":0.07693048255457469,"49":0.07051447461715916,"50":-0.09070426026130818,"51":-0.1697983952136661,"52":-0.09259681977175298,"53":0.36296397113908774,"54":-0.004131202052326846,"55":0.09846388023373623,"56":0.06748136713741922,"57":-0.07743007097966674,"58":-0.08055369621280169,"59":-0.12630564534783786,"60":0.3019439172622891,"61":0.1207624925857191,"62":-0.00917433379305402,"63":-0.0024794112504334404,"64":0.05066742443946954,"65":-0.22536348925451774,"66":-0.06747695734714805,"67":0.3573154372303533,"68":0.06828789813614253,"69":0.1272849863311723,"70":0.0648005388159956,"71":-0.10931228857886285,"72":-0.1865685210115475,"73":0.04092970549721009,"74":0.4167683801789201,"75":0.05059297221170008,"76":-0.03178802420666524,"77":-0.06592166730750981,"78":-0.002784262171953098,"79":-0.03937066992214603,"80":0.27347319409642323,"81":0.2114787637569955,"82":0.10992272655597618,"83":0.007973506856388684,"84":0.08685925561244023,"85":-0.027151506305957078,"86":-0.20251294714490958,"87":0.045897129814403914,"88":0.37621758871615407,"89":-0.005807004768724226,"90":-0.028545501009815913,"91":0.024424973872433704,"92":0.032708854516051884,"93":-0.43642844022128935,"94":-0.12495093807546818,"95":0.3292245729645794,"96":0.018236119145665444,"97":-0.04018308124779192,"98":0.10092170741415099,"99":-0.21902784305597903,"100":-0.33935937412709827,"101":0.015825473648641727,"102":0.34130922128587543,"103":0.007178595012271704,"104":-0.04755240063791995,"105":0.022673263511943455,"106":-0.054772722476297005,"107":-0.37150798798423035,"108":-0.14547740787349106,"109":0.5127699565560266,"110":0.1611194983250442,"111":-0.07081617151496107,"112":-0.10462236167854223,"113":-0.07968581976169128,"114":-0.3305647006917021,"115":-0.2215152849793061,"116":0.5641753556191084,"117":0.00549031585858479,"118":-0.08402242697658564,"119":-0.1592450277985076,"120":0.06329179998009495,"121":-0.344616799039815,"122":-0.2660303967850146,"123":0.5568581773453983,"124":0.16927401528767475,"125":-0.04818810174160928,"126":0.0057731917215969345,"127":0.018437637293476087,"128":-0.3483157617980437,"129":-0.1890127585906534,"130":0.5344326464266834,"131":-0.11272161734272013,"132":-0.07276092071631704,"133":-0.004016776059034418,"134":0.08086885996844449,"135":-0.5796531594123776,"136":-0.14546021145416735,"137":0.8384789615697154,"138":-0.013544613860562552,"139":-0.014414600260237631,"140":-0.01025752917073613,"141":-0.14924281723379196,"142":-0.5621074400949247,"143":-0.05623899748199594,"144":0.7139047432332639,"145":-0.16498540729379735,"146":-0.011414043884804582,"147":-0.14398266827289596,"148":-0.07806048457650211,"149":-0.39434191568767435,"150":-0.07633323628074316,"151":0.6904947113252196,"152":0.07771291846640488,"153":0.20739414738601258,"154":-0.037466669526281866,"155":0.09810108719039136,"156":-0.49693588950670325,"157":-0.741988453207632,"158":0.6346903047856656,"159":-0.023264368336839442,"160":-0.07227022202789928,"161":0.006261676042544013,"162":0.009363697326682113,"163":-0.6508033835629427,"164":-0.7671479481005872,"165":0.6499682452563798,"166":-0.15563035683030205,"167":0.04410997209003872,"168":0.03817045267251685,"169":0.06835018803678541,"170":-0.4237481909810333,"171":-0.6472838414684843,"172":0.7311759816453645,"173":-0.07458530227869689,"174":0.006565645663435271,"175":-0.10949041108939174,"176":0.17909238056452423,"177":-0.43410030315467907,"178":-0.01764548764383025,"179":0.6437945116307039,"180":-0.07638311205694015,"181":-0.040534474796268864,"182":0.022172050668586667,"183":-0.0534461550611244,"184":-0.4545493244352401,"185":0.06362247766175246,"186":0.43240407248147505,"187":-0.07137186443094445,"188":-0.009748207940241236,"189":0.017156677779226227,"190":0.04818627586355867,"191":-0.2982915515753807,"192":-0.01970195508815454,"193":0.17820870879980477,"194":-0.006910733608133972,"195":-0.057296269434270235,"196":0.0018840543110848348,"197":-0.013517087967543119,"198":-0.3472309408374628,"199":-0.08212737395420451,"200":0.38520846919472795,"201":0.059637512804992306,"202":0.006942676885947899,"203":0.08907519685195006,"204":-0.06984161478742783,"205":-0.4450699593245426,"206":-0.6853425979422457,"207":0.6126142074168233,"208":-0.058828305570537746,"209":-0.012012945720536001}},{"sx":1,"sy":1,"depth":210,"w":{"0":0.10950067779829653,"1":0.23401446502128417,"2":-0.13222457420563416,"3":-0.3035471492013204,"4":-0.03506215130729091,"5":0.1679640396030504,"6":0.12048609291629327,"7":0.14274445097892804,"8":0.20338556326011245,"9":-0.10989236167168297,"10":-0.12615691909360413,"11":-0.13283213148868728,"12":0.1413716762920523,"13":0.01260019846667833,"14":0.1173512954943942,"15":0.26886443776368424,"16":-0.22892405781863126,"17":-0.14346852675544425,"18":-0.09200276053096984,"19":0.10104194416743074,"20":0.00007319174610017699,"21":0.19778524207229148,"22":0.23098921369880845,"23":-0.11255038179723438,"24":0.06343206368233563,"25":-0.0910373907676918,"26":-0.0007055750702974421,"27":-0.12353050626579745,"28":0.16627110121747973,"29":0.19925742865668405,"30":-0.23762466034488025,"31":-0.01866062791685396,"32":-0.062227713784153385,"33":-0.0141038358562168,"34":-0.09981807942375456,"35":0.23717278724693056,"36":0.20812880747808882,"37":-0.3806861989414731,"38":-0.03487715919652133,"39":0.10248325733829998,"40":-0.0462755075528021,"41":-0.031391007716516185,"42":0.12568710454482715,"43":0.24516140731600294,"44":-0.12080909280678848,"45":-0.13423271643062942,"46":-0.07718046894992629,"47":0.01633875135850819,"48":0.013205364405763734,"49":-0.02255384572772026,"50":0.24924053474588012,"51":-0.38507592244617006,"52":-0.2704926710455019,"53":-0.18943025826358692,"54":-0.11305317573824399,"55":0.08326029430876603,"56":-0.0008627039403775844,"57":0.17047613847907306,"58":-0.2421669701924346,"59":-0.2697589425493251,"60":-0.22820027075019578,"61":-0.059759929515207276,"62":-0.029113486701012662,"63":-0.2246236045858684,"64":0.2183792336753426,"65":-0.1682267077734063,"66":-0.12959010303357632,"67":-0.16674836111055152,"68":-0.04608653360789339,"69":-0.01500605977176809,"70":0.041577915081767586,"71":0.1409342445197738,"72":-0.21961915751859482,"73":0.07421484512298956,"74":-0.2428284978689477,"75":0.09691693319715385,"76":-0.030168111722166806,"77":-0.11313898855288207,"78":0.1935724353710539,"79":-0.2136009976555568,"80":-0.1145399322470666,"81":0.04655051752130524,"82":0.109049352117463,"83":-0.06474531499324311,"84":0.04969199774961116,"85":0.12561476865000867,"86":-0.11233197063330833,"87":-0.20357723473150796,"88":0.08048223485362016,"89":0.16436028829824242,"90":0.15738983958009659,"91":0.09039422707806166,"92":0.23802887720978785,"93":-0.10126454418241014,"94":-0.30920128665010593,"95":0.22754053422040676,"96":0.21646893444971155,"97":0.11472232450927294,"98":0.09216490348445518,"99":0.16970813446839023,"100":-0.13653059315864838,"101":-0.5616968014087728,"102":-0.08645075694104867,"103":0.061373617235828105,"104":0.14795297373404395,"105":-0.16351039342321527,"106":0.20254134046628797,"107":-0.15390605938329677,"108":-0.5399741830778847,"109":-0.3761228999210487,"110":-0.0396139774435875,"111":-0.012102024725719272,"112":-0.07472368860095241,"113":0.047769177337993275,"114":-0.011222469759424644,"115":-0.32703124655009447,"116":-0.20532069916482237,"117":0.040197850149571154,"118":0.09727927456960057,"119":-0.016464656933469983,"120":-0.03209698214222884,"121":0.027189021765053112,"122":-0.13880358232128356,"123":-0.11702003451642509,"124":0.01719497710208482,"125":-0.050635475399114414,"126":-0.0005616622741624003,"127":0.10875250832569439,"128":-0.23278437412488318,"129":0.38405142862865504,"130":-0.15038746607352738,"131":0.10190634778246631,"132":0.004821405890997374,"133":0.23544812099474763,"134":0.18703057664250466,"135":-0.13957503558804377,"136":0.4546351809520532,"137":0.1332528416458147,"138":0.281057376820028,"139":-0.04019576446304044,"140":0.03309446403199439,"141":0.23613261513695893,"142":-0.1857464957975546,"143":0.2551669374790087,"144":0.22470028044095738,"145":0.21511590551982077,"146":-0.10087010477978914,"147":0.029791833021989594,"148":0.3523988420831479,"149":-0.18211717549323675,"150":-0.13985049476211558,"151":0.18542210140691603,"152":0.18829541276913161,"153":-0.13309104001994396,"154":0.16146642262581978,"155":0.22387432942648874,"156":0.1530407054058593,"157":-0.395822856921135,"158":0.43868705526925234,"159":0.17763684431814297,"160":-0.15001657050672967,"161":0.05614845738899089,"162":0.12151804104545016,"163":0.378243101116082,"164":-0.5114115918485022,"165":0.49835439327490144,"166":0.017163173514805674,"167":0.07974607356981712,"168":0.0700164536726615,"169":0.22446105950465345,"170":0.19043320699087748,"171":-0.45333539714185056,"172":0.520596509494101,"173":-0.0823616866727889,"174":-0.002374319937643401,"175":0.02574302173919499,"176":-0.1514093516185927,"177":0.22864672793476046,"178":0.35685294188962224,"179":0.3947553476267018,"180":-0.09307557196247561,"181":-0.0019071617530591089,"182":-0.07246036810715875,"183":-0.04731450599031268,"184":0.09849761044764613,"185":0.204035654454234,"186":0.29927192958478804,"187":0.03608040338041261,"188":-0.03654128651137655,"189":-0.19565650814829336,"190":-0.07081338778621106,"191":0.3132424588426819,"192":0.19185580982616748,"193":0.26732860344077064,"194":0.048936443259170744,"195":-0.10935645178125154,"196":0.03057659741167052,"197":0.030853561510787865,"198":0.47620352394191573,"199":0.003961964505402097,"200":0.46959513458845215,"201":-0.06362874774403723,"202":-0.03976432393018866,"203":-0.031479387010184545,"204":-0.06849865390448807,"205":0.3252900561004882,"206":-0.4808706860326866,"207":0.6546004044435799,"208":-0.11605167572363997,"209":-0.06657886784313406}},{"sx":1,"sy":1,"depth":210,"w":{"0":0.009049822469980292,"1":0.011016580157526774,"2":-0.13569829310779832,"3":0.023876653738110376,"4":0.0033105453947483896,"5":0.10382807751521904,"6":0.061498514068046364,"7":0.06915130479817873,"8":0.002149958962795963,"9":-0.20012815447142474,"10":0.009294600729874314,"11":0.05854339316366697,"12":0.05016798302184641,"13":0.07027460350173638,"14":0.0934712857989839,"15":-0.05922011859272493,"16":-0.2049176950584241,"17":0.06784326185625261,"18":0.049000074729369514,"19":0.049131621345612636,"20":-0.015427978933734222,"21":0.03270405400332646,"22":-0.01946674621562284,"23":-0.13421446631107864,"24":-0.18473920486063583,"25":0.06671090767164915,"26":0.05710453073777303,"27":-0.013128735764361667,"28":0.03287166212224856,"29":-0.0326853508199809,"30":-0.14428117802685095,"31":-0.11147035681182535,"32":0.12425537604771385,"33":0.09438650723201047,"34":0.012211490931923544,"35":0.03277500259949927,"36":0.002833675402144113,"37":-0.17873190994456134,"38":0.10815073139465718,"39":0.12402844406489101,"40":0.10633462907971526,"41":-0.01636582186533896,"42":-0.018621310776990512,"43":0.10695200523711783,"44":-0.17738857909329642,"45":0.1573530460274664,"46":0.11043113127671676,"47":0.08232709345266036,"48":0.03295522196492927,"49":0.08328326255780287,"50":-0.10817276610571157,"51":-0.17692075377831237,"52":0.0983023316454536,"53":0.03920525935959175,"54":0.08667628981236514,"55":-0.01965982792909938,"56":-0.03794478046826082,"57":-0.03239933504054455,"58":-0.1359679668864531,"59":0.016183747923732023,"60":0.00881467370828987,"61":0.057581951262981726,"62":0.12642386981929762,"63":-0.016745252283506942,"64":-0.06695801980071006,"65":-0.2561826510332097,"66":0.03171225963889065,"67":0.04952453133650057,"68":0.15734602556376076,"69":0.07078994926716028,"70":-0.002759493686753518,"71":0.03321578859446995,"72":-0.19697144767033642,"73":0.07909560217139962,"74":0.00952478976863651,"75":0.1483853630651959,"76":0.0773648501014357,"77":-0.05382734724770114,"78":-0.09689590685430322,"79":-0.18812491636908021,"80":0.0013962724981486723,"81":-0.043053840327172264,"82":-0.05398373159378721,"83":0.012678098111681064,"84":-0.10643266345837266,"85":0.015586984581137518,"86":-0.15454026069326868,"87":0.12596164849319053,"88":0.019624481961726847,"89":0.17254395334485925,"90":0.14328921547991838,"91":0.054056423959200746,"92":0.016125748218593052,"93":-0.32721662171243887,"94":0.0558949013328324,"95":0.03817572496582851,"96":0.21709173140663202,"97":-0.03400805560644321,"98":0.01776967259136268,"99":-0.025428215217667867,"100":-0.18085268287895112,"101":-0.16360911218035915,"102":0.13997567397559002,"103":0.049885446889905934,"104":0.13157330341364112,"105":0.027407432780444187,"106":-0.19242348021294348,"107":-0.1465191713429354,"108":-0.03146174634795646,"109":0.07021968687213506,"110":-0.0004989061398955539,"111":0.055043199460814644,"112":-0.0229100581012897,"113":-0.004598100886985669,"114":-0.21945998307598286,"115":0.11395441845801842,"116":-0.0027802354707409634,"117":0.09266824116006851,"118":0.03116715919008391,"119":0.017473300156496716,"120":0.0908271594800805,"121":-0.20211084965229756,"122":0.2167069935507053,"123":0.09685447915987812,"124":-0.011862429630523122,"125":-0.03513871787470351,"126":-0.09290294654677954,"127":-0.007788305001756908,"128":-0.33959694842039867,"129":0.02515186310443865,"130":0.08390452724591725,"131":0.17333711170999963,"132":0.06941873623795569,"133":-0.002032942169969136,"134":0.034582412657471855,"135":-0.20954633134039108,"136":0.08852684475907618,"137":0.05574725083217939,"138":-0.04875018406076582,"139":-0.01882467197106036,"140":0.11136045517933897,"141":-0.0017562073702969475,"142":-0.16615190975873675,"143":-0.018505802828512028,"144":0.15674088205205386,"145":0.021412972453001423,"146":0.005188322002855458,"147":0.01315263777728021,"148":-0.0033138917698779208,"149":-0.30299268098365273,"150":-0.17406771181976397,"151":0.04513272968508485,"152":0.09017487526109234,"153":0.15277160271855875,"154":-0.10111673948247302,"155":-0.1435078285695882,"156":-0.2488866745608893,"157":0.07625655806250373,"158":0.07976499729046341,"159":0.11356142467031859,"160":-0.12455519257059207,"161":-0.028131331962361568,"162":-0.051400655904413416,"163":-0.17159381133206106,"164":0.15582814056549785,"165":0.05648418980417544,"166":-0.020029311776552067,"167":-0.03171973241252377,"168":0.0687017534338314,"169":0.0027362024452003285,"170":-0.10283360094858154,"171":0.04943313110889301,"172":-0.0004483922033932585,"173":0.09241524074891723,"174":-0.07015258493892121,"175":-0.05970404188664511,"176":-0.014160247272728892,"177":-0.08384253892814687,"178":0.0828940509918482,"179":0.016417304620408416,"180":0.02891793769657991,"181":-0.04446591060456494,"182":-0.13351751104133905,"183":0.02869472843283759,"184":-0.19968471174827826,"185":0.06986838426774297,"186":0.0753369286450881,"187":0.030879964001258878,"188":-0.06440747511306276,"189":-0.05779040281506231,"190":-0.05631308938621762,"191":-0.12378987146960825,"192":0.03387491591883344,"193":0.016550310519616862,"194":0.13699213947984498,"195":0.07515247223664222,"196":-0.11023268523381756,"197":0.061533941736417096,"198":0.026165714886506944,"199":0.04303277009516265,"200":0.0465299065359938,"201":0.12424122197557855,"202":-0.02817533583906169,"203":-0.08309456163127385,"204":-0.09502766089207225,"205":-0.17217597683072453,"206":0.03971554749753629,"207":0.168239159193991,"208":0.08865132302685148,"209":-0.09942805890834806}},{"sx":1,"sy":1,"depth":210,"w":{"0":-0.11341915400861285,"1":-0.1996827652095147,"2":0.031164754588727663,"3":0.024903697771517398,"4":-0.2614328592819487,"5":-0.0016054766475184542,"6":-0.11143052322313776,"7":-0.249157799034289,"8":-0.03497452152962854,"9":-0.07215616955480209,"10":-0.07250163231588685,"11":-0.14284788515613894,"12":-0.07913006628888165,"13":-0.00003790407669828773,"14":-0.1893950168026289,"15":0.0038263205361359636,"16":-0.006325379502626408,"17":-0.05248014995525269,"18":-0.07198965769663186,"19":-0.03362460982273476,"20":-0.033526252689873075,"21":-0.20328131814700123,"22":-0.3182481505142287,"23":0.002209087940375143,"24":-0.008439901652473518,"25":0.08903132139869761,"26":-0.04139772463065675,"27":0.08154231213819191,"28":-0.23897524348438787,"29":-0.14747555349809807,"30":-0.025403427137280728,"31":-0.008457345851682452,"32":-0.004085079741678748,"33":-0.0998014764579572,"34":0.02335191165694388,"35":-0.24321558702315121,"36":-0.020298595841781123,"37":0.1916763431756775,"38":-0.16699181990311918,"39":-0.02279629672996993,"40":-0.10735684691404161,"41":-0.002578588964212069,"42":-0.18605606299705238,"43":-0.1507755595146388,"44":-0.035848564585005016,"45":0.1717049456210659,"46":0.028742666207357274,"47":-0.05392364014111601,"48":0.06620135488634693,"49":-0.32183495226440845,"50":-0.09881520585564303,"51":0.03854681234087097,"52":-0.03786722490623598,"53":-0.09172587414869177,"54":-0.06260462404511231,"55":-0.13552161161655457,"56":-0.2980723202271261,"57":-0.15311284002306563,"58":0.04497862946909491,"59":-0.02926846711905807,"60":-0.061247011239789206,"61":0.11267476818963129,"62":0.14714108977261742,"63":-0.20265153984624124,"64":-0.040550558135766274,"65":-0.0038781070981386842,"66":-0.12690023869509312,"67":-0.08227002459549825,"68":0.03547568033199132,"69":0.14346575050422772,"70":-0.06498289624204988,"71":-0.023605188815879592,"72":0.15709583414802014,"73":0.09836085426365031,"74":-0.10654829123866848,"75":0.07682181598873497,"76":0.11004618764863608,"77":-0.1522385610614041,"78":-0.04040825517687992,"79":0.08256955216445393,"80":-0.006211961603126203,"81":-0.0857486089515589,"82":0.22970922135399688,"83":0.15230971688103218,"84":-0.1377531575654559,"85":0.03948795156106101,"86":0.07101084924701237,"87":0.02284278793442056,"88":0.10296577491976622,"89":0.03275640483155052,"90":0.11724027430086471,"91":-0.12105273479089945,"92":0.019459216733489538,"93":0.10314109882725228,"94":0.1695762202723142,"95":0.0625928784201844,"96":0.08808037746406358,"97":0.03964980269585804,"98":-0.2385557775427721,"99":-0.193579487334944,"100":0.0787973803050709,"101":0.1814655688973927,"102":0.0706610016063252,"103":0.048523705399826006,"104":0.07243397277535642,"105":-0.2594685335113136,"106":-0.18796744533435272,"107":-0.06572699061350336,"108":0.29536160774780595,"109":0.1008205077176765,"110":0.06262028034311166,"111":-0.08869097243931222,"112":-0.17540714922467215,"113":-0.04982394597235644,"114":-0.017133148556187063,"115":0.4175781837658148,"116":0.20297547095371024,"117":0.09520745124174439,"118":-0.11864216691675936,"119":-0.22237671646467838,"120":-0.13575896832492806,"121":0.19431580269323923,"122":0.26103326785028325,"123":0.008913749170815352,"124":0.019003026663856136,"125":0.10671801091591683,"126":-0.17426204398585526,"127":-0.0635432826852633,"128":0.033279335224364714,"129":0.7662603013552978,"130":-0.1581635853906242,"131":0.062465550851330175,"132":-0.017468212603999767,"133":-0.04739806417171687,"134":0.03582354850853975,"135":0.3078127483312142,"136":0.9179738856020697,"137":-0.10661785541178027,"138":0.05415176662915812,"139":0.0018654917600439216,"140":-0.2148034475444247,"141":-0.008061442532813413,"142":0.3946571286254565,"143":0.695571717026806,"144":-0.06513711227584486,"145":0.0062341772629052345,"146":0.00044376080097627957,"147":-0.1392431308480754,"148":0.015091905362442648,"149":0.37824388633437483,"150":0.6026102212115656,"151":0.11622616676587263,"152":-0.02710917060009239,"153":0.021622110706269848,"154":-0.23452648310384316,"155":-0.2005185091475134,"156":0.3166200596673764,"157":-0.4083541302818299,"158":0.21112277404132956,"159":-0.006854774283655962,"160":-0.12183593923808264,"161":-0.143463462663501,"162":-0.21323857182839348,"163":0.5023638460380484,"164":-0.4059770339254789,"165":0.16597958986966124,"166":-0.14801431197777445,"167":0.11559364965076017,"168":-0.08187933374525612,"169":-0.109728083221921,"170":0.6299305149625062,"171":-0.4048760025723493,"172":0.1428827831307411,"173":0.11718387636759826,"174":0.10907538303110477,"175":-0.18995800998308937,"176":0.04605715368607794,"177":0.48418069753588655,"178":0.08709085744309765,"179":-0.13758662584084147,"180":-0.037948969920551884,"181":0.0798995113502941,"182":-0.1503220556750255,"183":0.06494621864126704,"184":0.3614062110700981,"185":0.07212750569456501,"186":0.10495714991872963,"187":0.044206519116730174,"188":0.08901408628684278,"189":-0.12859714445827167,"190":0.07161665470363955,"191":0.24998474845213367,"192":0.1968946819923717,"193":-0.06757603048357425,"194":0.09757609513140071,"195":-0.01578211807375469,"196":-0.10006773735625807,"197":0.0005212572021986645,"198":0.3653713524060325,"199":0.13780059278331275,"200":-0.1798081363190575,"201":0.099658275512271,"202":0.09335623757216399,"203":-0.23389429339450118,"204":-0.046715337010522315,"205":0.38245127432950904,"206":-0.5839495508941235,"207":0.08693537483049993,"208":0.05194981273814792,"209":-0.011524463137960501}},{"sx":1,"sy":1,"depth":210,"w":{"0":-0.17098965203977703,"1":0.12173808077784737,"2":0.05637885067469185,"3":-0.052404170871734775,"4":0.051952058518983255,"5":-0.1511993322877327,"6":0.00418594102687234,"7":-0.16071860199723545,"8":0.04755401445184307,"9":-0.06745213816714603,"10":0.019699033654983187,"11":0.05380055414062247,"12":0.014697578939479983,"13":-0.08986542101434515,"14":-0.09395528516878332,"15":0.11007927707660231,"16":-0.041490259628226465,"17":-0.055482748403460715,"18":0.0924196925221545,"19":-0.042302421751169036,"20":0.06616212561667793,"21":-0.08143728350888915,"22":0.2026961047198827,"23":0.07228249441761447,"24":0.07389022773176683,"25":-0.05978117122482503,"26":-0.09045365274572877,"27":-0.009871508160752192,"28":-0.0956654512284284,"29":0.04177651942838917,"30":0.08654313493234883,"31":-0.013078011758371571,"32":0.030412307992796542,"33":-0.03069864276332267,"34":0.028794583323623005,"35":-0.04326604608087232,"36":0.14751863814889826,"37":0.1085950580872346,"38":0.030669005499329285,"39":-0.06366688127921358,"40":-0.19209431164717658,"41":0.015332003812966653,"42":-0.1063332092050747,"43":-0.0336735922927341,"44":0.019333326465783337,"45":0.11138252884589683,"46":0.027908231692711987,"47":-0.21542340648750116,"48":0.04781953157730897,"49":0.019773935616111158,"50":-0.03000212544445266,"51":-0.08871201050848632,"52":0.09383216343473733,"53":-0.05507009252234376,"54":-0.06799777157050754,"55":-0.03532392865677299,"56":-0.1525830235657495,"57":-0.016714134710135765,"58":-0.06080139755341852,"59":0.02697555547421936,"60":0.057554163141162094,"61":-0.062253709663417034,"62":-0.12625218679709593,"63":-0.06390272211387285,"64":0.050157276282838656,"65":-0.023151930902529268,"66":0.03616706497388342,"67":0.004327228946238863,"68":-0.003048824875199216,"69":0.06179802021561869,"70":-0.014193273444206065,"71":-0.0745421467412336,"72":0.10456428649457086,"73":-0.007644256256564705,"74":0.05272857367978785,"75":-0.12117564677480187,"76":0.16006721282024164,"77":-0.026901520932888303,"78":0.004538326056826559,"79":0.09084857554026382,"80":0.2932725571919814,"81":0.0742216538749856,"82":-0.10367006689135065,"83":-0.022877403623979522,"84":-0.03317471124058413,"85":0.025027070048215055,"86":-0.01328606940869507,"87":0.19017858952580685,"88":-0.0869907753551841,"89":-0.05607146398659015,"90":0.10674068278432214,"91":0.007929513460670824,"92":0.10056538938180105,"93":-0.17516642032695015,"94":0.22560050721345246,"95":-0.02135691078995712,"96":-0.058316816172000185,"97":0.027301052077381097,"98":0.05591275688085213,"99":0.15503315091762243,"100":-0.037781867901255636,"101":0.28187926791668866,"102":-0.0015634795980410169,"103":-0.049267100049848855,"104":-0.1323323895530948,"105":0.062231916927276976,"106":0.17727473945417324,"107":-0.09110524000930165,"108":0.14563654815684018,"109":0.12145359458100909,"110":0.12267089012791169,"111":-0.026038860962760074,"112":0.08610099061260625,"113":0.1160615195406529,"114":-0.0435724529533938,"115":0.10885511267478085,"116":0.16043600320165716,"117":0.03019155916744792,"118":-0.0092890444993725,"119":-0.012525912912037702,"120":0.18405651700769574,"121":-0.14251051300592815,"122":0.08649941650306636,"123":-0.05638303307911056,"124":-0.02336707120427386,"125":0.04669976167953175,"126":-0.046390106224661484,"127":0.09139628325877537,"128":0.07083073521819654,"129":-0.2183361988985139,"130":0.00232344564071185,"131":-0.06539488908804099,"132":0.037763907058188266,"133":-0.04090467824424354,"134":-0.05421754542631391,"135":-0.12109767861009328,"136":-0.3655410256926668,"137":-0.03966439569399991,"138":0.04985259863499436,"139":-0.081717433417841,"140":-0.04657452420672805,"141":0.05645835474922633,"142":0.12658564466781688,"143":-0.4406659082497321,"144":0.006625058619643988,"145":-0.08565740495326403,"146":-0.06965988216520026,"147":-0.19392117299892261,"148":-0.08981832732224085,"149":0.14080490408712748,"150":-0.18845947927498005,"151":0.08293073202490699,"152":-0.03798584392177886,"153":-0.12139164021054756,"154":-0.15581982985261913,"155":0.023417344086516082,"156":-0.08194434249636648,"157":0.22323919778560913,"158":-0.16333136668188833,"159":-0.17416008198796287,"160":-0.11619730189067104,"161":0.01913965469766689,"162":-0.0641894957635991,"163":-0.11789037371307233,"164":0.22651493142973653,"165":-0.07822674524328242,"166":0.01583508776829692,"167":0.04086316512370751,"168":-0.005161432251559812,"169":0.0030105960262129705,"170":-0.1768159546160195,"171":0.165585310908897,"172":-0.17197301600305448,"173":-0.13243935868515924,"174":0.11191699773132344,"175":-0.13902817251122068,"176":0.028387313749090322,"177":-0.1584130813047634,"178":-0.29550439162027414,"179":-0.22318406007320504,"180":0.05402527667785287,"181":0.08288814290490841,"182":0.0071860771926205436,"183":0.005373697878232452,"184":-0.17814324761194913,"185":-0.010132324311902863,"186":-0.23403106619824338,"187":0.12814909343003106,"188":0.19254530114571994,"189":0.02930836602329141,"190":0.03827087019634583,"191":-0.19758325018623082,"192":-0.11544316253972528,"193":-0.20928062195098496,"194":0.07679146915806805,"195":0.08846802740208978,"196":-0.0012582885564563523,"197":0.0707834210741223,"198":-0.31826786420045944,"199":-0.13448152953108078,"200":-0.22183631129892448,"201":-0.02022833852981445,"202":-0.03801934536528018,"203":-0.013748202244098104,"204":-0.06783683005048735,"205":-0.32265517080299966,"206":0.15944099557610203,"207":-0.2789289304402079,"208":0.040953679632354,"209":0.0366071430802539}},{"sx":1,"sy":1,"depth":210,"w":{"0":-0.05144716327351908,"1":-0.11510829604106823,"2":-0.00003730158938166554,"3":0.1540927432084823,"4":0.1786943171690207,"5":-0.07647144762073026,"6":-0.003925820329349682,"7":0.07144560956506373,"8":0.058970779036240914,"9":0.14005135754118922,"10":0.031490578381669306,"11":0.1357560443052091,"12":-0.06256063186600701,"13":0.05564895229380645,"14":-0.029422842196899654,"15":-0.02327175319067374,"16":0.12321714140008667,"17":0.05222573398647701,"18":0.015365328941609416,"19":-0.1355687957110828,"20":0.15329185220544622,"21":-0.06581352456541112,"22":-0.01836756464719894,"23":0.14408160453312074,"24":0.031507657333138546,"25":0.055865351598407165,"26":-0.03632410988881662,"27":-0.07288402457594889,"28":-0.0682973225233384,"29":0.05464981924925626,"30":-0.06426893434047648,"31":0.14494985062886914,"32":0.1608934164628854,"33":-0.07413973518491299,"34":-0.03036626799456449,"35":0.03269203341871552,"36":-0.07829338829420458,"37":-0.010046366066510106,"38":0.20686619531398365,"39":0.2595370939701162,"40":-0.006965681717860149,"41":-0.0017633625986680649,"42":0.05930639576236107,"43":0.021809152906298333,"44":-0.1725885124757953,"45":0.27381473990164024,"46":0.09065284362576721,"47":0.033703219615670604,"48":-0.079409977006074,"49":0.00415316183499673,"50":0.12432504235685614,"51":0.0948198831286017,"52":0.11705378331800585,"53":0.12104540192291659,"54":-0.02045614870070313,"55":-0.028783171563851344,"56":-0.02168259580643305,"57":0.056904913275535735,"58":0.05941311160770859,"59":0.1514622965001873,"60":0.14765007478712305,"61":-0.16557834293637697,"62":-0.16895765831744394,"63":0.08898156228290013,"64":0.1767959757477059,"65":0.08379239145476455,"66":0.1033234229752464,"67":0.178803082154278,"68":0.040352812028445637,"69":-0.07944180397342294,"70":-0.038582339555782566,"71":-0.03743523807609368,"72":0.21920144317478654,"73":0.14675922672875852,"74":0.01353702711374467,"75":0.005876016145626075,"76":-0.04459854555694448,"77":0.0025715872170166305,"78":0.036719183373838615,"79":0.09901907080027922,"80":0.16292653018080613,"81":0.0772631985391035,"82":0.024237560014258353,"83":0.021739384037430674,"84":-0.07536174150227157,"85":0.13786507589622635,"86":-0.08253439467866593,"87":0.17252870720518365,"88":0.18854650345674293,"89":-0.19959203229906258,"90":-0.09197938518325004,"91":0.004373370150354211,"92":0.0633030905124536,"93":0.015597003298383467,"94":0.045531459952345116,"95":0.17443010072437587,"96":-0.10454999162897555,"97":-0.09398163710071925,"98":-0.0017770560500614564,"99":0.04202005874650689,"100":-0.04378690413788149,"101":0.2546526404446183,"102":0.10596276610411352,"103":0.04601580546115904,"104":-0.03920005479185804,"105":0.056675640947212336,"106":0.16612878894424374,"107":0.18851768567749366,"108":0.14805425600877217,"109":0.05611819777011786,"110":0.21382987291882205,"111":-0.1314294027255295,"112":-0.07333661629810033,"113":0.11750557348855833,"114":0.14535418876348352,"115":0.2161557760118123,"116":0.323676717665436,"117":0.0063383024175294985,"118":0.019542198526986472,"119":-0.053196301164725124,"120":0.03671046882854932,"121":0.11767871932747045,"122":0.09027050856235944,"123":0.0069790150256405035,"124":0.06187858142238637,"125":-0.0037242595874629456,"126":-0.0037167087203459886,"127":0.008104189945672385,"128":0.1975076282991202,"129":0.07063321571142875,"130":0.06262431535328829,"131":-0.005571230627182662,"132":0.0517687138484231,"133":-0.00507536227854636,"134":0.009146901351467392,"135":0.22020155773726666,"136":0.05335794187267208,"137":0.2974325844251608,"138":0.03133759640323019,"139":-0.20063976374923928,"140":-0.018665697506823415,"141":0.14908928008312697,"142":0.20756263833294222,"143":0.19791293569566124,"144":0.13389853116548214,"145":0.011604726509056116,"146":-0.09356358256759542,"147":-0.09596749846162171,"148":0.05895348022466704,"149":0.15301044303899305,"150":0.12042769435275823,"151":0.023426400991786302,"152":-0.03441357725215399,"153":-0.23291672659377083,"154":-0.09508160720108952,"155":0.10735993027757033,"156":0.08459531209068545,"157":-0.28428194488534364,"158":0.0379686494818087,"159":-0.033967283158445806,"160":-0.06251145191294254,"161":0.037233826036576705,"162":-0.06930909714124439,"163":-0.022752799710683065,"164":-0.2738309729618959,"165":-0.015366586617947172,"166":0.0013940854457931571,"167":0.1276810902532509,"168":-0.013618478276262816,"169":-0.0640628431763676,"170":-0.05673035499446561,"171":-0.2733469543589946,"172":0.08347294874882984,"173":0.09267899389989176,"174":-0.05698742321682481,"175":-0.023376148359614518,"176":0.18675089085758761,"177":-0.1606036665601982,"178":-0.12632295127208912,"179":0.018571426100421198,"180":0.062048113201560964,"181":-0.07398991408719972,"182":-0.04259686380210942,"183":0.09366987883483556,"184":-0.17627379047218664,"185":-0.04901958102029908,"186":0.00408541296610453,"187":0.019193643318977188,"188":-0.04697346468902771,"189":-0.0434418100503415,"190":0.020938156671666774,"191":-0.2376437953173852,"192":-0.11746122870354325,"193":-0.03719657770312276,"194":0.06782583920460869,"195":0.0004517243473892434,"196":0.12087639075693998,"197":0.07866546689605163,"198":-0.24308159927855902,"199":-0.10216516469245535,"200":0.07043374455713838,"201":0.042404913717870404,"202":0.14287503568866172,"203":0.06308156741347931,"204":-0.019920037433778535,"205":-0.3059856936200346,"206":-0.4022388263155708,"207":0.1420404693700527,"208":0.07922364906858818,"209":0.025702784600652777}},{"sx":1,"sy":1,"depth":210,"w":{"0":-0.10264302962452544,"1":0.0019961130993668003,"2":0.02867729637266224,"3":0.02742710890457487,"4":-0.09111240882454598,"5":-0.013756123959463929,"6":-0.036733405918220434,"7":-0.11039313098009076,"8":0.12424082373011974,"9":-0.024187399717760245,"10":0.04848668119791687,"11":-0.06394721425737994,"12":0.018438167004194993,"13":-0.004621544398803011,"14":0.07768965631958914,"15":0.0770892661505206,"16":0.13106691395181433,"17":0.08350615231934047,"18":-0.009119584734296192,"19":-0.03971887233954252,"20":-0.06473045592200742,"21":0.07306417727040608,"22":-0.08799102088826778,"23":-0.0394317335565021,"24":0.007832123006764464,"25":-0.04765598617638316,"26":-0.13111840792788496,"27":0.0590001641290884,"28":0.05756116038438102,"29":-0.012751779270953095,"30":0.09332500298925264,"31":0.09385924632409558,"32":-0.07630589429976203,"33":-0.029020700842744725,"34":-0.0056764925065946655,"35":-0.08717462296625085,"36":0.048200378552939606,"37":0.03293800713146058,"38":-0.030920659317686186,"39":-0.002014328039582371,"40":0.05651480128931744,"41":-0.0011988576639293486,"42":0.05499162627480578,"43":0.09555451173876298,"44":0.08657590626932261,"45":0.031318788755499725,"46":-0.07387372135021208,"47":0.08182996124776284,"48":-0.014760758798767417,"49":0.0331948290355482,"50":-0.047807695189304805,"51":0.003279106793148072,"52":0.11434704215377557,"53":-0.06461205337621966,"54":0.08225471835203875,"55":-0.008389026778979245,"56":0.15925279310458323,"57":-0.007893300647807841,"58":-0.004583471679468119,"59":0.03489251986121097,"60":0.07178898029249993,"61":-0.08541229109783273,"62":-0.013288878244300587,"63":-0.03701443012128711,"64":0.05371205959715225,"65":-0.015174673988025232,"66":0.04016583858865244,"67":0.041452213889272414,"68":0.024122444212008983,"69":0.061640953925048106,"70":0.03672933827491523,"71":0.07750757817462023,"72":-0.036594935051929,"73":0.17156024462540878,"74":0.05840126106889034,"75":-0.0676816782770283,"76":-0.016172288924246717,"77":0.031019364916942217,"78":-0.10218533276986543,"79":0.07616302283102454,"80":0.18173582222728116,"81":0.09161531665343943,"82":-0.09685949506147458,"83":0.02897991749452322,"84":0.0224912870468598,"85":0.19181884232990676,"86":0.03199551580187375,"87":-0.04863866384902781,"88":0.039614792009211704,"89":0.01803144439429449,"90":0.04213205541613791,"91":0.1392198686510953,"92":-0.04620637461008254,"93":-0.014694561667183024,"94":0.09930791074516962,"95":0.03203744056898549,"96":0.054358194227996,"97":-0.0837183164188514,"98":0.07667950430015388,"99":-0.06766427565537722,"100":0.08540505533479484,"101":-0.010700403528166081,"102":-0.02143746765964138,"103":0.00003467364946965753,"104":-0.04290118880825515,"105":-0.08182684392173026,"106":-0.059149185750320465,"107":0.03493041283323425,"108":0.041389549266244004,"109":-0.029685663491646162,"110":0.002394835133676581,"111":0.08742398419330452,"112":-0.03139982943282764,"113":-0.07284582461815324,"114":0.09553327259833405,"115":-0.058189160330226426,"116":0.1374518541105437,"117":-0.08418042288879456,"118":0.15395799501927124,"119":-0.06293879211691886,"120":0.003080573395001484,"121":0.06862023095861705,"122":0.09853976850500011,"123":0.044888100857304096,"124":0.010626334826423549,"125":-0.012197117579127274,"126":-0.01008336462138867,"127":-0.08859429166274328,"128":0.010101195287238261,"129":0.038407795798493294,"130":0.08428919411871025,"131":-0.09758862308513581,"132":-0.035763749923281574,"133":-0.049496420196378704,"134":-0.02742025793606211,"135":0.11521063050787807,"136":0.11427009562930085,"137":0.007279811928435686,"138":-0.014955041530345653,"139":-0.020737666111832122,"140":-0.047499875671049664,"141":-0.021903912903137267,"142":0.04738468346460139,"143":0.0006193572499567231,"144":0.16968006912550845,"145":0.06581886065305108,"146":0.008951400910950114,"147":0.04287501552128432,"148":0.06808253518166359,"149":0.03157713771333965,"150":0.14459818835260393,"151":-0.01795667352443865,"152":-0.034185060067202816,"153":-0.08630122093359677,"154":-0.08892505827278384,"155":0.025870672122850987,"156":-0.10067196103778037,"157":0.16136545519352571,"158":-0.07019204876066218,"159":-0.09747572262115468,"160":-0.015161162497549105,"161":-0.02738608498130178,"162":-0.01987829763234168,"163":0.02655930340032499,"164":0.04426413055318322,"165":-0.03753045086020266,"166":-0.07646431647094881,"167":-0.0284849358083402,"168":0.061193168624501824,"169":-0.022239242327704876,"170":0.057322150624536494,"171":0.08235278759425604,"172":0.04848597733813449,"173":0.0748918004356904,"174":-0.02035731218339256,"175":-0.02563947916220853,"176":0.021263852227954017,"177":-0.09159215989699057,"178":0.24329754343703502,"179":0.01126656643774501,"180":0.05843654320409421,"181":0.1579173616671337,"182":-0.02881799649175238,"183":-0.014815905297870777,"184":0.04583910972421161,"185":0.2411108450848561,"186":0.0434582669187226,"187":0.0298734021155467,"188":-0.016108883974997067,"189":0.0005111201543877212,"190":0.15136455427232215,"191":0.07468041836164986,"192":0.1948893665446339,"193":-0.06004784132104293,"194":0.03540375495464556,"195":0.010498513174668298,"196":-0.06657773089813535,"197":0.03243775048733385,"198":-0.01995307628606428,"199":0.22480948115352184,"200":0.1438045143709946,"201":-0.04958326268057698,"202":-0.011883965465800297,"203":0.01299859062801046,"204":0.01647446894560215,"205":-0.07019977636303368,"206":0.0034365604079167455,"207":0.05845707838755063,"208":0.08725790002829707,"209":0.08475107861097124}},{"sx":1,"sy":1,"depth":210,"w":{"0":0.11294194318745912,"1":-0.0440757361618853,"2":-0.0015945853599049194,"3":-0.05179622478256093,"4":0.12796569906362093,"5":0.17855623071529694,"6":-0.10568432924539367,"7":0.030829863997112163,"8":-0.08193201024792049,"9":-0.04891833172080848,"10":-0.0012178853378106986,"11":0.15148781470709924,"12":0.06189173402667998,"13":0.14513771851827711,"14":-0.017586417698175975,"15":0.07401087636045824,"16":0.007693772148483062,"17":0.06464324041008304,"18":0.047280337122281295,"19":0.007470440532004192,"20":-0.049670002502505084,"21":0.029182962079585432,"22":-0.0029199706230407,"23":0.02205143973407954,"24":0.0872473428064264,"25":-0.0002984929284359176,"26":0.12072255617814054,"27":-0.14563614064868644,"28":0.06866466810627334,"29":0.1080452444377228,"30":0.0136600089790417,"31":-0.011202325108605837,"32":0.0015208610603765667,"33":-0.00016068445918776056,"34":-0.05923763290302382,"35":0.12615763859444826,"36":-0.05585614853628628,"37":0.018999293902501067,"38":-0.03583686057534303,"39":0.039511398786840464,"40":-0.006931573488803622,"41":-0.07151632480658347,"42":0.10844300197335975,"43":-0.005955423222426282,"44":0.003752888100216708,"45":-0.043508181050710554,"46":-0.03863440661215915,"47":0.03981730000318042,"48":-0.03596772266700244,"49":0.036123049864927405,"50":-0.08838612868321002,"51":0.0062959392373946555,"52":-0.038041014281307024,"53":-0.148013872237936,"54":-0.017013364881792503,"55":-0.01935122915245081,"56":0.00905889051041721,"57":0.026603405975699736,"58":-0.03934238551102865,"59":0.0014797685523248133,"60":0.024842903635542764,"61":0.05530821605155056,"62":-0.05233611672508202,"63":-0.09171443781500416,"64":-0.026773852118814195,"65":-0.04626592034010443,"66":-0.06739761026308495,"67":0.1484663994091116,"68":0.040630239432381046,"69":0.05468397644247797,"70":0.08980197258534132,"71":0.027686970942883606,"72":0.0012152113752652192,"73":0.13962600272871858,"74":0.15529097311673662,"75":-0.04665437712423017,"76":-0.0042843303582132,"77":-0.03256297698630463,"78":0.03780704671741219,"79":0.04261442448120931,"80":-0.04193280953151657,"81":0.07956850586963289,"82":0.02008181311542279,"83":0.04827813261316202,"84":0.01563873335342657,"85":-0.07018393661084693,"86":-0.0022248686889386085,"87":-0.1339775583195228,"88":0.0005959615758827679,"89":0.04691448942957509,"90":-0.1250993272572398,"91":0.008405395866059857,"92":0.03004559254926561,"93":0.06242593210297195,"94":0.032028303477631324,"95":0.05923232126724604,"96":-0.08665720159619675,"97":0.0449100314645893,"98":0.043725725841976655,"99":0.04816088844805068,"100":-0.022588451552402834,"101":0.1479665955491056,"102":0.049833504169209154,"103":0.03658302927428165,"104":-0.004179803988353527,"105":0.06069224770480781,"106":0.11984049899707686,"107":-0.0001864496297455055,"108":0.028598580115542893,"109":0.008484962442549688,"110":0.005487725336745185,"111":-0.0173785584801001,"112":-0.0677746214320917,"113":0.008185822345289785,"114":0.05722291788525603,"115":-0.015309345033549466,"116":0.06595483893869586,"117":0.0027092792313026326,"118":0.036295458205168434,"119":-0.03740795302590212,"120":0.11344666595089153,"121":-0.004084442192620202,"122":-0.09689419853180055,"123":0.03659167770793331,"124":0.16213965183477605,"125":0.1733968422076891,"126":-0.03716492632036794,"127":-0.0025266804545786056,"128":-0.004900030731930315,"129":0.07927834252529274,"130":-0.04586678098563054,"131":0.09683004253302033,"132":-0.017657192076780615,"133":0.08134884218611416,"134":0.04999445172381079,"135":0.06750871418330057,"136":0.0008308998881864695,"137":-0.08291228881492642,"138":0.10058485959296615,"139":-0.04187806676873434,"140":-0.06582636291623226,"141":0.07175678157510883,"142":0.049134187209894875,"143":-0.007943471386140507,"144":0.02510359867827762,"145":-0.13443252605038217,"146":0.0464478687177483,"147":-0.01802144219552553,"148":0.08079017474557286,"149":0.14080621946459146,"150":-0.1040249539486783,"151":0.01654454851108909,"152":-0.0008518266607120972,"153":0.0733361718500152,"154":-0.08679246527852306,"155":-0.01932057094838425,"156":0.016624464319938487,"157":-0.0024524585068473287,"158":0.010738767843695235,"159":0.07462682928254719,"160":0.04755675359319787,"161":0.005144421494553652,"162":-0.04935148904156619,"163":0.018881002784605784,"164":-0.05549605831750621,"165":0.015819023558833283,"166":-0.12404013375826609,"167":0.07012560368365658,"168":0.020777050229298114,"169":-0.14993569452642774,"170":-0.10857033887498001,"171":0.1141876673073163,"172":0.06442743777835294,"173":-0.06320595014540811,"174":0.09503867848087867,"175":0.10878334355750993,"176":-0.05204328598219799,"177":0.17074762233300567,"178":0.2526225800687329,"179":0.05520291985182413,"180":0.19654173518698548,"181":-0.04558971273985594,"182":0.004983590609314207,"183":-0.044684235644222824,"184":0.025578989741537717,"185":0.3276195000672781,"186":0.019483933790091643,"187":0.06880683566128741,"188":-0.041659955967101786,"189":-0.03575121152641059,"190":-0.07461696859365198,"191":-0.12328769661480614,"192":0.17997652488240895,"193":0.16810317149019693,"194":-0.06827197798827712,"195":0.021583034066564706,"196":-0.10357116321740893,"197":-0.07557227985057313,"198":-0.013059366176890325,"199":0.13748762091597588,"200":0.015030662066049619,"201":0.04068673222262036,"202":-0.021488148462678002,"203":0.03320030918808925,"204":0.02925987112120384,"205":0.07075328885584944,"206":0.05409141354873935,"207":-0.010320643240509289,"208":0.013559123190129084,"209":0.09607777801064453}},{"sx":1,"sy":1,"depth":210,"w":{"0":0.01634177559363181,"1":0.04221934133149154,"2":0.0563736598861561,"3":0.1299829436077563,"4":-0.15687834896268668,"5":-0.005578796845840617,"6":-0.02590040998432817,"7":-0.023849059974676824,"8":0.06323871993041985,"9":0.029287876253874127,"10":0.09141759217892269,"11":-0.024103898758240157,"12":-0.0913808256747638,"13":-0.07402686974393521,"14":-0.07021910209015943,"15":0.17441000282771768,"16":0.051987017892184954,"17":-0.00844108105660664,"18":-0.05914753415589819,"19":-0.01912859963352345,"20":-0.013157126408262854,"21":0.047976510814556506,"22":0.0407652281730435,"23":0.018748544102322268,"24":-0.09430617672899014,"25":0.06421558741100394,"26":0.013314353799829818,"27":0.040886236362736424,"28":0.02097720526061645,"29":0.06722493363126991,"30":-0.04044007425952752,"31":0.10068578545497212,"32":-0.04946186130390573,"33":0.1865954010987154,"34":0.04535669851755309,"35":0.06279238200498194,"36":0.13205209102921006,"37":0.04203424442022662,"38":-0.06442603895641762,"39":-0.07482187119824427,"40":0.028575082670567194,"41":-0.0036764883923466898,"42":0.08713828276311948,"43":0.1693434991002578,"44":-0.04451289162721445,"45":0.03432520121677276,"46":0.07876120398374935,"47":-0.007561763026230459,"48":-0.063197618899876,"49":0.0122855529131809,"50":0.11652819396515225,"51":0.18070306972042158,"52":-0.038867689104077785,"53":-0.08737563049153022,"54":0.048146579955606075,"55":-0.10648359739565699,"56":0.07830304221507496,"57":0.1321847215630186,"58":0.14000852669631075,"59":-0.024046553356217353,"60":-0.05740896891015226,"61":0.09190747315374498,"62":-0.06509668028834617,"63":0.05455335769590929,"64":0.12809321764046314,"65":-0.06843249763714856,"66":0.0022732141424843754,"67":0.03454483460738407,"68":0.04437296391609812,"69":-0.009170661637081134,"70":-0.12457389886088692,"71":0.019686480837337036,"72":0.00924557146715542,"73":0.1652820948626973,"74":0.13176708442581417,"75":-0.000053015664722540154,"76":-0.0797776190226261,"77":0.022395564858450512,"78":0.07288008013097894,"79":0.00001129890403289081,"80":0.043883262627631585,"81":-0.04190661707407216,"82":-0.13152401472489358,"83":0.053512944896244447,"84":0.020462660988894193,"85":-0.027789109634279135,"86":0.016828513791385134,"87":-0.01353358929522117,"88":0.022962433559642084,"89":-0.015815642440856627,"90":0.09309055589763081,"91":0.0344000064513117,"92":-0.06433553999122948,"93":0.07048893471607767,"94":0.05134083502652584,"95":0.13341941076406258,"96":0.06414999729500025,"97":-0.009962782601800165,"98":0.09702821997779089,"99":0.1609943294705197,"100":0.013030061549581733,"101":-0.0608353927375992,"102":0.17756659184553739,"103":-0.036560190027007514,"104":-0.10776169968258688,"105":0.06752110372602063,"106":0.11900294015106742,"107":0.08811774889799301,"108":0.03516988332237132,"109":0.201874503103255,"110":0.08243027664261507,"111":-0.0021564336547034994,"112":0.16046125372228376,"113":0.08313773123940521,"114":0.1340344368220858,"115":0.07317013039879108,"116":0.08193706280911225,"117":-0.00997087841185745,"118":-0.008195973447280049,"119":0.10026439875074607,"120":0.054461027178586564,"121":-0.0004297744429920592,"122":0.24032386117216828,"123":0.04146057508213518,"124":-0.12319431565316298,"125":-0.17326275977861494,"126":0.1038749301175045,"127":0.11048407729882063,"128":0.1349205836271408,"129":0.237084539357198,"130":-0.017455420653362624,"131":-0.01146409226271254,"132":-0.11644102067984964,"133":0.1310820177216599,"134":0.08276907469093894,"135":0.09095135237216456,"136":0.2621339400120582,"137":0.14666153308025426,"138":-0.015364935983435312,"139":0.018052718718032178,"140":0.04031704769285268,"141":0.12440465219377413,"142":0.04276227513597507,"143":0.20964344786398814,"144":0.18911899442544194,"145":0.04764371617995103,"146":-0.027443539248140462,"147":0.07191361112440289,"148":0.08641636322960809,"149":0.06907644772860488,"150":-0.12198682376756173,"151":0.21078571691099907,"152":0.10218453320879992,"153":0.005267982975784398,"154":0.031523343747901576,"155":0.06145756789473015,"156":0.12314926202493162,"157":-0.19216666277567884,"158":0.22391578015962949,"159":0.13646831931731132,"160":0.02487629070658563,"161":-0.06973991955481126,"162":0.17061693006731196,"163":0.04935237848258517,"164":-0.16649369339085252,"165":0.3326607987052441,"166":0.029677475028047136,"167":-0.002869998160236053,"168":0.04375191143924627,"169":0.050437438175654374,"170":0.06807282847325152,"171":-0.10504768215743795,"172":0.18533069841788247,"173":0.10848390440149541,"174":-0.07341569236123387,"175":0.054529956454766826,"176":-0.0125811322370259,"177":-0.02921301546766146,"178":0.07394361091139443,"179":0.13823684167321554,"180":-0.06574463624617315,"181":-0.06074967042991264,"182":-0.015708740601995456,"183":0.03704977096831634,"184":0.09215712172076404,"185":0.19664358414648675,"186":0.30317632597868416,"187":0.011543617629077687,"188":-0.13205906000755635,"189":0.019776357513941367,"190":0.12779613326879632,"191":0.038140096297077986,"192":0.18987175376215704,"193":0.24885408445300375,"194":0.024774110423708754,"195":-0.02249809916274057,"196":0.07669364775092871,"197":0.09004820435917804,"198":0.09985565370091666,"199":0.10049056625166576,"200":0.1980070570162357,"201":0.030189212924452428,"202":0.07943443973968167,"203":-0.04148563526750293,"204":-0.051149545145745226,"205":-0.007430753736234855,"206":-0.09917932290445224,"207":0.253646093495288,"208":0.006569452241638432,"209":0.006895686669552412}},{"sx":1,"sy":1,"depth":210,"w":{"0":-0.10220853473003153,"1":0.03525768779384932,"2":-0.09663027973474314,"3":0.07836336490115357,"4":-0.054351503381920394,"5":-0.1089663652217618,"6":-0.08281711521967931,"7":-0.03940094081730385,"8":0.04938657181796011,"9":-0.08738585088842173,"10":-0.07261061252102326,"11":-0.0060427484462418244,"12":-0.10073177070064578,"13":-0.06276665302169014,"14":-0.01609722843365723,"15":-0.027751523842372547,"16":-0.012511555289106779,"17":-0.05963128872740823,"18":-0.05248093924839065,"19":-0.12425402475059531,"20":-0.0674215760471868,"21":-0.16981603270920823,"22":-0.029165485642232536,"23":0.018494177056506994,"24":0.09356426196412611,"25":0.017588557244358514,"26":-0.03489945063067406,"27":-0.018502608999553305,"28":-0.016498158193087933,"29":-0.14256929107402003,"30":0.01726640472434517,"31":-0.059931592472038046,"32":-0.03186511525926123,"33":-0.1777259422749455,"34":-0.07332754147495746,"35":-0.09424510374417348,"36":0.02497800030466902,"37":-0.08056585325397625,"38":0.08107267526584193,"39":0.09165517173590888,"40":0.03486631138608462,"41":0.10378749912207495,"42":-0.0064730989194537,"43":-0.07243078657618725,"44":0.05202921520872082,"45":0.003037948244199133,"46":-0.04718638894060417,"47":0.059206829900591264,"48":-0.024012571086073322,"49":0.14406883195535772,"50":-0.0725803113997656,"51":0.022268889103573577,"52":-0.011949135743799561,"53":-0.12535903318365293,"54":0.05100412411777311,"55":0.06976926158043159,"56":-0.09955129586161417,"57":-0.01249905525492634,"58":0.028571099997397195,"59":0.0597365921938489,"60":-0.13731483390515636,"61":-0.2553079057922791,"62":0.04594749938445321,"63":-0.10137534303484683,"64":-0.06427667856958078,"65":0.025485536812153493,"66":0.03444766989731138,"67":-0.11031150745762001,"68":0.01562157602994855,"69":0.003774937214085618,"70":-0.025991547198736645,"71":-0.07348081296618487,"72":-0.08143418730382894,"73":-0.008685508350338418,"74":0.025869831054962496,"75":-0.08949810435538202,"76":0.06509275900666993,"77":-0.08446192828403108,"78":-0.010201248448429486,"79":0.09261629715246072,"80":0.13659753705087826,"81":0.014684627313182241,"82":-0.11981165557128956,"83":0.0869129551032496,"84":0.005110866775629775,"85":0.13768033102289842,"86":0.012290083020090936,"87":0.035982689639028,"88":-0.09432237930145274,"89":0.02268817986971475,"90":-0.005773937689444274,"91":-0.05029116518328611,"92":-0.10569406313679647,"93":0.011718215350009345,"94":0.0011080062826991214,"95":0.04409631730940172,"96":-0.08732723220506673,"97":-0.06018282998172619,"98":-0.04261710487499607,"99":-0.11627947136811437,"100":0.10242785515927423,"101":0.10271232413388362,"102":-0.025580715840872893,"103":-0.09772414683503967,"104":-0.05219201412731165,"105":-0.0015158431342386037,"106":-0.039920667305635156,"107":0.09564000338030658,"108":0.12547565418257073,"109":-0.15933848541658716,"110":-0.10299365009846953,"111":-0.04761264152583396,"112":-0.053920543864359384,"113":-0.018251807046043744,"114":0.09652608447405825,"115":-0.07607219547793181,"116":-0.17119480795115358,"117":0.006084015411665633,"118":-0.1020668094753669,"119":-0.0007882485156521238,"120":-0.007348480678741763,"121":-0.053324135745022844,"122":-0.10497207517403787,"123":0.03457705475136475,"124":-0.06956718894562788,"125":-0.058826249367668296,"126":-0.08555216366845164,"127":-0.10749321239567422,"128":0.17818255657669266,"129":-0.09412363437319407,"130":-0.021436859165076524,"131":-0.03381855391429819,"132":0.07799749319229196,"133":-0.01311832907245824,"134":-0.1485690821382725,"135":-0.036179288872433824,"136":0.057564971917314356,"137":0.13491756510786684,"138":0.0173446094738099,"139":-0.03582123548140845,"140":-0.023302303164675086,"141":-0.01779532136101102,"142":0.11666072707633818,"143":0.1409100729245994,"144":0.11737703188301928,"145":-0.0786532932962864,"146":0.0019943819391573603,"147":-0.04609190195217764,"148":0.16527591295054359,"149":-0.0009303914387759198,"150":0.05139669274714931,"151":0.07350173792457554,"152":-0.023179857162961833,"153":0.021935180242566486,"154":-0.1318694951648774,"155":0.07836163197015693,"156":-0.101427826133467,"157":-0.20405923185288227,"158":0.06731061482008882,"159":-0.05617803969026137,"160":0.04720843100848853,"161":-0.11828143916270448,"162":-0.10230845065867974,"163":-0.01867231850721419,"164":-0.3086794722184082,"165":0.12415081215326682,"166":0.041257584511930116,"167":-0.0441458253714833,"168":0.0294102345417832,"169":-0.12985479466537775,"170":-0.08332683731756725,"171":-0.2690512405430555,"172":0.05172518100351619,"173":0.00156827431831289,"174":0.031298219841077835,"175":-0.07731430669137815,"176":-0.0398091446379894,"177":-0.057286430654326585,"178":0.25568931005001627,"179":0.01263512915757877,"180":-0.06510099091275523,"181":-0.016369548224037578,"182":0.015550396622329288,"183":-0.08040108955818566,"184":0.00744182234703878,"185":0.2409281649744447,"186":0.14765256326098908,"187":-0.003255892313049673,"188":0.0176643515678557,"189":-0.08085551239278378,"190":-0.04428039344695965,"191":-0.05231564155905383,"192":0.21494755804446708,"193":0.3324983404900415,"194":-0.03569668731987787,"195":0.05603866187999958,"196":0.026760769359972156,"197":-0.09404787004185552,"198":-0.1744583032187115,"199":0.10912465673830732,"200":0.2100249707396344,"201":-0.06044235419788657,"202":0.03517448174881627,"203":0.013603645050423113,"204":0.00573249486824588,"205":-0.02293122335714161,"206":-0.2007062750559357,"207":0.2707254018273912,"208":-0.011931995218538253,"209":0.11211659579957735}},{"sx":1,"sy":1,"depth":210,"w":{"0":-0.062391657825663215,"1":0.026293705677861403,"2":0.15949368235867403,"3":0.13311669608103333,"4":-0.1694860635585675,"5":-0.17391577639340106,"6":-0.13317171715519513,"7":-0.06326181656788372,"8":0.04255937421598971,"9":0.18466596739012286,"10":-0.026671197381704193,"11":-0.10667875887973496,"12":0.02911693233608725,"13":0.030268505134305547,"14":0.03997583692192268,"15":0.04295091628039378,"16":0.15085288007085748,"17":-0.17998636307195243,"18":-0.215208075068445,"19":-0.13366608223723878,"20":0.030071197878997223,"21":-0.037441642129758375,"22":0.023615561497747985,"23":0.17121507537443661,"24":0.03070658125518256,"25":-0.19875798994168148,"26":0.08045824959034717,"27":0.05479220098954256,"28":0.08363072912423634,"29":0.030421104055499647,"30":0.13444080599302619,"31":-0.009178169785217703,"32":-0.16509226496718726,"33":0.06440935818090487,"34":0.06936038185960938,"35":0.16943653900725578,"36":0.04640319947632307,"37":0.1066965650280646,"38":-0.00785712996672811,"39":-0.13925602047188165,"40":0.0505105152708889,"41":0.07967304785133822,"42":0.025371441204268094,"43":-0.010177212951582316,"44":0.23704134659408696,"45":0.08578307480476034,"46":-0.15675872582325684,"47":-0.13948265162426,"48":-0.10637122579550803,"49":-0.031227408896437946,"50":0.06716659172576692,"51":0.1644082292438246,"52":0.11277550068415663,"53":-0.049327871604430244,"54":0.06009656935707548,"55":-0.06417598514821639,"56":0.08653491424449969,"57":0.08015328856498143,"58":0.1984387696510946,"59":0.08701884721367055,"60":-0.14871561525380778,"61":-0.07627648980749152,"62":-0.05673475524677309,"63":0.05210964600943639,"64":0.03459157952274228,"65":0.24012254498102184,"66":0.09402138776259521,"67":0.048708756891951664,"68":-0.02064862325303846,"69":-0.08790376605843737,"70":0.14334945316256112,"71":-0.02675003243867055,"72":0.232736689227079,"73":0.05068379043775034,"74":-0.04360553538002453,"75":0.0568985209147723,"76":-0.00020618157455669502,"77":-0.03529391107354102,"78":-0.10824753710260561,"79":0.19557744217494613,"80":-0.03294344581405849,"81":0.10628691959020496,"82":-0.03063482359856789,"83":0.016978790133413524,"84":-0.01957996867525259,"85":0.04592107257180204,"86":0.2556244904172848,"87":-0.014042307147919599,"88":0.005749665921737919,"89":-0.03429178298357418,"90":0.16442860019419372,"91":0.10657492853360451,"92":0.053545136735361466,"93":0.24871774977971553,"94":0.10429881432583105,"95":0.05290733491683057,"96":0.07844516632351406,"97":0.06499425289513243,"98":-0.11857354154772153,"99":0.03553706512500208,"100":0.17749344055472763,"101":0.2636257549767925,"102":-0.07974515781776464,"103":0.0036796834796353696,"104":-0.054804510987041484,"105":-0.08738112369311545,"106":0.11778146387093434,"107":0.19176913453671815,"108":0.17896742378106126,"109":-0.032322850090396635,"110":-0.0940166800818637,"111":0.01706552636998031,"112":-0.055619159323889736,"113":-0.007689966887019412,"114":0.2440374409822966,"115":-0.007299772375529126,"116":0.025383738222411238,"117":0.01113727296478181,"118":-0.11861625271642003,"119":-0.06457095939231751,"120":-0.020295069175805962,"121":0.304438002613451,"122":-0.06206100504847967,"123":0.010280672948316659,"124":-0.044768727767766914,"125":-0.12851591911104163,"126":0.018958113634261475,"127":-0.02003995670422936,"128":0.30363474012867575,"129":0.24395590859815577,"130":-0.02519853029832018,"131":0.028789765366679362,"132":-0.03184809533778418,"133":0.08110338480554702,"134":-0.09408382250604021,"135":0.20590103455792533,"136":0.08064278739243314,"137":0.20694833598635493,"138":0.02170990946797768,"139":0.029941859507431876,"140":0.16164234814359374,"141":-0.08913888061922455,"142":0.2920123166683987,"143":0.2311575796956545,"144":0.07240332424423532,"145":0.10153859418947138,"146":-0.06199558286457697,"147":0.12643799319205554,"148":-0.027978440878239277,"149":0.09504879409040012,"150":0.36831247076868373,"151":0.05517928637718067,"152":0.02182086419348959,"153":-0.2699226524002572,"154":0.10673093205136992,"155":-0.14525164109068142,"156":0.040096542889076964,"157":-0.38921243759400787,"158":0.20536362517397047,"159":-0.02281515266404226,"160":-0.06002439680307732,"161":0.08314996844615363,"162":0.025170725835008796,"163":-0.027462984374345262,"164":-0.43622134855614797,"165":0.14159502208963262,"166":0.1756376808549274,"167":-0.0533388564399802,"168":-0.08328905711047628,"169":0.10858233329499943,"170":0.19431720198880859,"171":-0.444018629726009,"172":0.27783387056377956,"173":-0.05766708303489558,"174":-0.09935875566444272,"175":0.09793438098133432,"176":0.14329937508943238,"177":0.06145085183506262,"178":-0.24360175792961047,"179":0.3119436680519,"180":0.0008696123213537607,"181":0.02600171968012679,"182":-0.04239223116939209,"183":0.09251338924551984,"184":0.08400450045504765,"185":-0.008242207865612649,"186":0.15386655057910434,"187":-0.15679421489030052,"188":0.012475453450083702,"189":0.09528125321225545,"190":0.06306160250883992,"191":-0.0914786993220272,"192":-0.21477452115332557,"193":0.0496043269517193,"194":0.032691019243949904,"195":0.00494390355209527,"196":0.0040322995142396,"197":-0.08773734926356536,"198":0.12018701784739885,"199":-0.21282595510100266,"200":0.12191470280006723,"201":0.04701915963295378,"202":-0.04706388503916634,"203":0.0014750654257157216,"204":-0.02109108626716309,"205":-0.012100117047511974,"206":-0.5331084448733872,"207":0.22275040308988564,"208":-0.1024236233416387,"209":-0.10047256894480297}},{"sx":1,"sy":1,"depth":210,"w":{"0":-0.1183410700883133,"1":0.03749457829414586,"2":0.08883107569341141,"3":0.17116289847722677,"4":0.02438322876233372,"5":0.10342516939061407,"6":0.11302123992749019,"7":-0.06124481567964448,"8":0.09491128571103585,"9":0.22474043075518704,"10":0.053240736124629,"11":0.11231309400903479,"12":0.14607258336469603,"13":0.05250257895458721,"14":0.08309264050702947,"15":0.1326990665346291,"16":-0.07140685227771286,"17":0.09977553040419196,"18":0.12157930029172245,"19":-0.041099876840195136,"20":0.009023601806308448,"21":-0.1485302247697406,"22":-0.08492776788681641,"23":0.08049968864107292,"24":0.12358103358918753,"25":0.10273116472717102,"26":-0.029314896538295988,"27":0.019774451160825955,"28":0.001539027996063547,"29":0.13300571755999976,"30":0.1845291131618788,"31":0.2138065245177447,"32":-0.016166220494083408,"33":0.07527127922400521,"34":0.0381765328546798,"35":-0.06660180852600865,"36":-0.056162346581426825,"37":0.14001855230025426,"38":0.21880329545393495,"39":0.18187630345353514,"40":-0.036311466647160694,"41":0.1211792840882827,"42":-0.09054796347594254,"43":-0.032047437897830246,"44":0.23629311661643246,"45":0.15638327792252246,"46":-0.05882788442358876,"47":0.018508945855130087,"48":0.15835429970059856,"49":-0.15774417753093598,"50":0.04470440626697734,"51":0.20132012850161776,"52":0.0458556767363011,"53":0.029520626889452065,"54":0.1566291397744024,"55":0.007329988814098495,"56":-0.01533076380550712,"57":-0.03247841713204286,"58":0.22636167639285915,"59":-0.016425917931944572,"60":0.07242962843875969,"61":-0.037510717710556495,"62":0.07459633646497305,"63":-0.050159340073150475,"64":0.05000452964153553,"65":-0.025218335528099416,"66":0.015861176663370682,"67":0.10975728650761477,"68":0.18546939843723068,"69":0.15934006604186013,"70":-0.08127286551161662,"71":-0.030437310099246957,"72":-0.042558067040322424,"73":0.17816946767077052,"74":0.08923050584473542,"75":0.05210948847269825,"76":0.01891767931657595,"77":-0.08841402343029742,"78":-0.04073055060605313,"79":0.04088687475474253,"80":0.1652529119912155,"81":-0.03528375830040221,"82":0.07069662411159348,"83":0.07715449773794925,"84":-0.14496380748712165,"85":0.03761991897544684,"86":0.023868520134447683,"87":0.15159651613247846,"88":0.014467074940610296,"89":0.06659726700001183,"90":0.18329312678231618,"91":-0.14872870149534204,"92":-0.012967520516484594,"93":0.062467146915675294,"94":0.0766403122614594,"95":-0.07554738124317542,"96":0.1275640302069945,"97":0.1287649062130054,"98":-0.11620652984647824,"99":-0.07807011234801388,"100":0.15519872930907042,"101":-0.02693514828506442,"102":0.04573866305557019,"103":0.14169731962377685,"104":0.059538390914103644,"105":-0.26432483881185465,"106":-0.122414227789767,"107":0.02318664815992173,"108":0.017017299047253444,"109":0.04596983780663918,"110":0.1623846551948804,"111":0.10050872779740255,"112":-0.13630193369090993,"113":0.05476740181080539,"114":-0.001783935169340454,"115":-0.14382121535520462,"116":0.04740485976973886,"117":0.087028781966484,"118":-0.05284189602564101,"119":-0.1361428197091502,"120":-0.103876183632261,"121":0.07216233419173279,"122":0.013137536523355923,"123":-0.021365578179526192,"124":0.0990258353678019,"125":0.05236223365274907,"126":-0.013431373595092989,"127":0.05507546048007662,"128":-0.08564322986179153,"129":-0.004409691390447154,"130":-0.19980616924313982,"131":0.15942916049547945,"132":0.05190962479180823,"133":-0.03905226624121134,"134":0.02203142599302745,"135":0.0022355526527567016,"136":0.1407383265774697,"137":-0.2093466755952283,"138":-0.053251205505770345,"139":0.05512554415219473,"140":-0.17259961183985215,"141":0.08078031213345803,"142":0.0385441978981954,"143":0.20751743989466026,"144":-0.18067738535179104,"145":0.04170201826232656,"146":0.03159303798382853,"147":-0.060868606166909076,"148":-0.09815615956074283,"149":0.10305018375490436,"150":0.12158194008816124,"151":-0.20767165457403067,"152":0.11923157899583013,"153":0.0532578468729953,"154":-0.13752856933800497,"155":-0.15023233219828225,"156":0.0691431187950675,"157":-0.09247579049863695,"158":0.007016449692167135,"159":0.03242269016597919,"160":-0.01281662520013637,"161":-0.16407903874422713,"162":-0.17417507906387095,"163":0.19178507760429625,"164":-0.14168703145428627,"165":-0.11663228121867589,"166":0.06882802158659258,"167":0.10371674619265589,"168":-0.024433702888301843,"169":-0.0005161199672289105,"170":0.25379239925531394,"171":-0.24898493101732763,"172":-0.06146655754615986,"173":0.1396896587992185,"174":-0.013344277226058342,"175":-0.15844536269437745,"176":0.002348846382554334,"177":0.20011218661465816,"178":0.022741102334641095,"179":-0.032345531303956544,"180":0.1299488492061801,"181":0.07928348593315035,"182":-0.02838180715455643,"183":-0.03616247368551505,"184":0.11456511945883566,"185":0.14266513830361705,"186":-0.02119953764620546,"187":0.1294269982436778,"188":-0.0469050216497435,"189":-0.03411717925389419,"190":-0.08750326462300555,"191":0.12715695615198255,"192":0.060564434696600784,"193":-0.04822140404405254,"194":0.13455013125317317,"195":0.09499856611604836,"196":-0.07720269645376188,"197":-0.10028754169204379,"198":0.20906520330854667,"199":-0.03300546282400919,"200":0.012374314408309587,"201":0.06414297039868737,"202":-0.06450356555047126,"203":-0.2789304001440273,"204":-0.18285566672233128,"205":0.3552972018908921,"206":-0.17614566806809592,"207":-0.21459765815696796,"208":-0.0921010235974378,"209":0.16751548996289325}},{"sx":1,"sy":1,"depth":210,"w":{"0":0.034881755835991554,"1":0.10365091254803036,"2":0.022105258851485763,"3":0.015623092502773188,"4":-0.24112849333068462,"5":-0.08698186152789804,"6":-0.023490012417032118,"7":-0.08202923853368187,"8":0.09772596765569941,"9":-0.009722655692884326,"10":0.0705069187825496,"11":-0.3457019960842318,"12":-0.1497481423520742,"13":-0.11818172888842705,"14":0.07713827242575201,"15":0.002512215813721804,"16":0.09820021230498958,"17":0.08419049554811521,"18":-0.2948876568164763,"19":-0.06613734407490102,"20":-0.08447444335351631,"21":-0.04154831388150789,"22":-0.04184626032552749,"23":0.024806445055715685,"24":0.05358966748474938,"25":-0.25837958576022196,"26":0.017489397214365748,"27":-0.028264024737786636,"28":-0.0849443405761673,"29":0.11502319791384455,"30":0.05287689250857432,"31":0.04747034207628515,"32":-0.31509270690050845,"33":0.0009369647752617026,"34":0.0013729796577958441,"35":-0.13831781978860905,"36":-0.18211355523367093,"37":0.0024094045080560737,"38":0.07414157696034572,"39":-0.33306782126325796,"40":-0.15755877977603308,"41":-0.16861361749006298,"42":-0.019921972673950506,"43":0.07698774994943368,"44":-0.006695189346374815,"45":0.05792785730122364,"46":-0.3153311111555601,"47":-0.06874965035753504,"48":-0.0470469167195851,"49":-0.012101993697649811,"50":0.02273693636234701,"51":0.05116091349099298,"52":0.176165461829102,"53":-0.3953188841761113,"54":-0.17880386238665863,"55":-0.04991905771606104,"56":-0.058979358419105045,"57":0.00714908047774637,"58":0.032465229168094016,"59":0.11296313380054815,"60":-0.29801751473959687,"61":-0.04598244858703843,"62":-0.04284491579305504,"63":0.03099048692811299,"64":-0.010838001474918677,"65":0.043453512909582784,"66":0.1214817648455664,"67":-0.3939571083423465,"68":-0.21930153954989193,"69":0.011791617080620815,"70":-0.04879614099273196,"71":0.056642844734246946,"72":0.07592785869815238,"73":0.01639012142059143,"74":-0.37834224682967316,"75":-0.10153997997626499,"76":0.11349810303451664,"77":0.04790035533120513,"78":-0.0783506842760418,"79":0.13614829709433868,"80":0.15518665619634373,"81":-0.4141724779379162,"82":-0.10254427961580385,"83":-0.013876856170631835,"84":0.005165901677901626,"85":0.005223020850800127,"86":0.0791965237108822,"87":0.29838836714412437,"88":-0.43683356759567005,"89":-0.021648678231656265,"90":0.06071429651008073,"91":0.04943436958199377,"92":0.05287610265678391,"93":0.0767879421082821,"94":0.30125490024445584,"95":-0.4097544370418809,"96":-0.17626240230336457,"97":0.009328830049550837,"98":0.024763834054067683,"99":0.05375248353979211,"100":-0.06927193343302568,"101":0.06056478819111988,"102":-0.41136423732636684,"103":-0.11677937667897181,"104":0.02924552545821076,"105":0.002594239474110313,"106":0.08686619562930227,"107":-0.07038497249697206,"108":0.23372123311510304,"109":-0.5220118559626095,"110":0.10686164359530438,"111":0.10634368113813951,"112":-0.14898472268283763,"113":0.15636756431660812,"114":-0.0308870166522902,"115":0.3255000233749264,"116":-0.4736822696357359,"117":-0.14205650054721028,"118":0.1063858944315393,"119":-0.0023676156797260792,"120":-0.08788471012764053,"121":0.15038792174450477,"122":0.4032595196073705,"123":-0.40803566110013634,"124":0.01348207357793781,"125":0.037538605566237185,"126":-0.06252657948082885,"127":0.05153995152252092,"128":0.231918602258113,"129":0.1928181300547716,"130":-0.28750884332912136,"131":-0.07631758978655213,"132":0.039955204773808206,"133":0.03648797296656336,"134":-0.033406061771751115,"135":0.06833507561020888,"136":0.19718688070680845,"137":-0.5333262893649798,"138":-0.050257433810492615,"139":0.019531746420902257,"140":0.045342567207210326,"141":-0.11707696979011162,"142":-0.08622395479358685,"143":0.22517577935816263,"144":-0.4427499835867446,"145":-0.09881005582158858,"146":0.05863194153135004,"147":0.06441509797563082,"148":-0.09649506113751127,"149":-0.12024978125535458,"150":-0.009308017782730642,"151":-0.46460933426304285,"152":0.07446994195337607,"153":0.05299919929764739,"154":0.009278507937476019,"155":0.011693737119071032,"156":-0.22608807217876487,"157":0.541213998950396,"158":-0.3593346407377366,"159":-0.05144757900008228,"160":-0.035488736792051966,"161":0.0988370842220667,"162":0.021438193147698938,"163":-0.04652835555842759,"164":0.6249153069717788,"165":-0.39459710700571243,"166":0.13563828213283274,"167":-0.22537813182814134,"168":0.10424104286121431,"169":0.09676813602034615,"170":-0.2993232745187907,"171":0.5904715314575449,"172":-0.3395361842383738,"173":0.046264604283302244,"174":0.03640724014150846,"175":-0.08243679414813658,"176":0.032943525708302376,"177":-0.23984069056779858,"178":0.17007125347722243,"179":-0.07627123773015798,"180":0.0388133528349889,"181":-0.024364750766394074,"182":-0.047017625646103026,"183":0.056440293340178076,"184":-0.3369105299621505,"185":0.18523209942909996,"186":0.02516767801140831,"187":0.027710457988064024,"188":0.10232807903094512,"189":-0.02992778566402593,"190":-0.07225095163645864,"191":-0.13457715208820215,"192":0.10506540746451302,"193":0.04104882450979895,"194":-0.06783396721093816,"195":0.05970338714622789,"196":0.04044566148610545,"197":0.0028247761142052266,"198":-0.2199038124895762,"199":0.2542007309482163,"200":0.13711041836770552,"201":0.1457952509699642,"202":0.00017181186317479532,"203":0.09390379258034665,"204":-0.1048869205869969,"205":-0.3404056594643522,"206":0.6762534749222391,"207":-0.08179158097970449,"208":0.08907307974299847,"209":0.014374661303505478}},{"sx":1,"sy":1,"depth":210,"w":{"0":0.04591825212799039,"1":0.027707299297898506,"2":0.10996971688818383,"3":-0.06010921071759094,"4":0.06499762064789284,"5":0.040229903896059446,"6":0.05935034443429027,"7":0.12984790253605566,"8":0.003476234888875352,"9":-0.03201649893313936,"10":0.09411250023964142,"11":0.17100752761460405,"12":-0.056136851517166214,"13":-0.018679807137561705,"14":0.05413803670126917,"15":-0.01526138808409878,"16":0.0948004520194412,"17":-0.04647609858643254,"18":0.12004484047675487,"19":0.048270877272659975,"20":0.13474325414832825,"21":0.057466398013715274,"22":0.00022094689562439086,"23":-0.08774239678692883,"24":-0.03395542788913638,"25":0.011379508481771683,"26":-0.08708469542598563,"27":0.050046103184122365,"28":0.01728902348090927,"29":0.03310370753460386,"30":0.006712112225432573,"31":-0.11445351753367414,"32":0.02728541119764651,"33":-0.01839914461014517,"34":0.10266046088840844,"35":0.058983559907089256,"36":0.08868950388163487,"37":0.08349784421481674,"38":-0.008580196150218367,"39":0.023047626810227605,"40":0.10665862379279709,"41":-0.0770343473062839,"42":0.034039754775500905,"43":0.006204113439925917,"44":0.016952220992579165,"45":0.026580696216065635,"46":0.06671912806164731,"47":0.07756811317119307,"48":0.0706605367099533,"49":-0.059610699909289806,"50":-0.03776438170571834,"51":0.0025076707764859238,"52":0.006209052994894839,"53":0.06269239733064998,"54":0.009283719187206944,"55":0.15622528751564926,"56":0.07590778535598379,"57":0.02526316558929711,"58":0.050102052880033776,"59":0.020253101844094717,"60":0.161451837674965,"61":-0.0823177969393579,"62":-0.04333261676304652,"63":-0.009509479396918475,"64":-0.033895343544635255,"65":-0.00007642370140275102,"66":-0.017408612315422175,"67":0.035228528900025945,"68":0.09074503828002643,"69":-0.007362316155593683,"70":-0.06865907453408888,"71":0.17036182191952773,"72":-0.060543823158695206,"73":0.0020784880795410286,"74":0.10477885939316389,"75":0.012334066333295287,"76":-0.14352406127613568,"77":0.070073464737691,"78":-0.0881855300108587,"79":-0.021297159423538915,"80":0.06947680742892869,"81":0.07502552454533963,"82":-0.03113115632513677,"83":0.03796507730838258,"84":-0.021988907875849346,"85":-0.02478832051292408,"86":0.08377435405441802,"87":0.005558354967350855,"88":0.03722635713165833,"89":-0.04873752250493244,"90":0.04842608169467081,"91":-0.07527467848124088,"92":0.008988818941973757,"93":-0.017770049134953954,"94":-0.07605181985522139,"95":-0.0432523356557577,"96":-0.03967398112843896,"97":-0.02851550352800552,"98":-0.03831248535547474,"99":0.1301320219386072,"100":0.08295670874239319,"101":-0.07355791645687612,"102":-0.08954781013103814,"103":0.011809641612807066,"104":0.03185201983213372,"105":0.07779343934021156,"106":0.08552993840522394,"107":-0.028897835770054326,"108":0.10022854487943648,"109":0.11404266993446278,"110":0.0218401233658563,"111":0.05178309215624958,"112":0.07390911635625694,"113":-0.02187383127815712,"114":-0.02442861259472973,"115":-0.030136655228279643,"116":0.01715910959051093,"117":0.030458521969783,"118":-0.061644077741404756,"119":0.09486000854675,"120":-0.0552841768632619,"121":0.09204428463773559,"122":-0.04542015276707308,"123":-0.07035811608691675,"124":-0.04265620102001019,"125":0.0838175955123358,"126":-0.01619275294428936,"127":0.07059420862023208,"128":0.02050050640622998,"129":0.2501005936043934,"130":-0.04606644885797556,"131":-0.016039478441472157,"132":0.04557469616882211,"133":-0.07527015965345996,"134":0.0334500538510224,"135":0.04119911787964393,"136":0.19373348935851237,"137":-0.07862081190293489,"138":-0.1941727799036072,"139":0.03428798307166128,"140":0.08833556524890765,"141":-0.09881582115477806,"142":-0.04148425956944859,"143":0.23082231728939476,"144":0.02492643874611267,"145":-0.05955528079875107,"146":0.027431945464933542,"147":0.09212699283759067,"148":-0.08262435858441447,"149":0.016311884813816534,"150":0.24196959622696548,"151":-0.15025154678904537,"152":-0.0012603801870829253,"153":0.0789224018249763,"154":0.009277747578567464,"155":0.029192828697197575,"156":-0.1487814395788862,"157":-0.10026089087511275,"158":-0.026332785184383815,"159":0.09513993375619138,"160":0.10186352376702171,"161":-0.06299641534474423,"162":-0.05835074313150448,"163":-0.11294077065686305,"164":0.08687186821307101,"165":-0.082234668372143,"166":0.036224715279878236,"167":0.12930984912665663,"168":-0.02805045099863302,"169":0.018340517682792958,"170":0.017848694441873588,"171":-0.07771997435510578,"172":-0.0010645542873542367,"173":-0.0730484149141575,"174":-0.10732854796619763,"175":0.05845957034541572,"176":0.06050769629660664,"177":-0.009231607975189585,"178":-0.23737281564397916,"179":0.06294066843003761,"180":-0.03568982430461438,"181":-0.007142236738387494,"182":-0.11282594171573006,"183":-0.015707769661045475,"184":0.11151890501018855,"185":-0.21119795560236826,"186":0.007010087444680777,"187":0.031979570096085874,"188":0.04085384300104693,"189":-0.055771163323409575,"190":0.04576855707044249,"191":0.043390613992429654,"192":-0.22230269771237426,"193":-0.05044372348091301,"194":0.1153604783564494,"195":0.03339483786554203,"196":0.017256624037520676,"197":-0.04560304188526343,"198":0.04474254016983157,"199":-0.1557347666497084,"200":-0.013127811088180008,"201":0.007511331458716115,"202":-0.07640601450684287,"203":0.034166801210655705,"204":-0.007220262230199623,"205":0.06590778399267701,"206":0.07627816452308299,"207":-0.09813135857744361,"208":-0.015669210833693513,"209":-0.013458766588881925}},{"sx":1,"sy":1,"depth":210,"w":{"0":0.05793311999458311,"1":0.0606540940118753,"2":0.03301325842532036,"3":0.18462308119661935,"4":0.1574107527628443,"5":-0.09330274720468949,"6":-0.012955628920722101,"7":0.041221114388593626,"8":-0.018674961353252757,"9":0.035174917565916106,"10":-0.05428948415750489,"11":0.11688717120000944,"12":0.01048500039624164,"13":0.008729587843218591,"14":-0.1382730770409801,"15":0.17846968593138524,"16":0.13613925586091016,"17":-0.009770085307861658,"18":0.10421856957169139,"19":0.031424101928403364,"20":0.059538457071323804,"21":-0.03832188273294461,"22":0.12796156561961017,"23":0.057002831915853466,"24":0.03036797810812416,"25":0.0657562013779659,"26":-0.1055246206213148,"27":0.04372102470985305,"28":-0.1213070549818158,"29":0.023056324942016978,"30":0.0020375564553144457,"31":-0.00010851875290890974,"32":-0.009225330280702776,"33":0.1881998793542935,"34":0.049804113909390386,"35":-0.04009489122715805,"36":0.011811378508777393,"37":0.12317106386197067,"38":-0.03696442713767833,"39":0.12286725628715946,"40":-0.025835656456542108,"41":0.09560246974516219,"42":0.04040548482603229,"43":0.05219741824642108,"44":0.012418724628294199,"45":0.003019763557929073,"46":0.1694144773400805,"47":0.027820876674373267,"48":-0.00484299838963012,"49":-0.009085750306365162,"50":-0.02871713025569674,"51":0.18261537131510366,"52":0.1260871482081118,"53":0.005561595045701098,"54":0.021629126066693222,"55":-0.07387381119626302,"56":-0.06587658942312935,"57":-0.025295804910135094,"58":0.12460469040050705,"59":0.04197866490989413,"60":0.05705423362986076,"61":-0.06883024589377014,"62":-0.15261651117209166,"63":-0.05684654793840921,"64":-0.0689355301252687,"65":0.06874071616442229,"66":0.17921464523483754,"67":0.04035258974132668,"68":0.019995657534868753,"69":-0.08057439120264488,"70":-0.04438071479311815,"71":-0.003486513067855514,"72":-0.07440208821792926,"73":0.1526287312818635,"74":0.011392757942733719,"75":0.0971770948343197,"76":-0.06837448873712472,"77":0.01591804235747609,"78":-0.10282715156533938,"79":0.0370671285491508,"80":0.24095354406975544,"81":-0.0018471407287488878,"82":0.04396664101105125,"83":0.11862916185006267,"84":0.04494041226042379,"85":-0.02814099935253022,"86":0.03423076393691181,"87":0.30219094945940356,"88":-0.02252754227124199,"89":-0.11076771466157428,"90":0.10320297478927175,"91":-0.00009876281870292348,"92":-0.0907852206900432,"93":0.01832950071746228,"94":0.40496512137162,"95":-0.04353410790960407,"96":-0.005260308662116156,"97":0.039072585540953886,"98":0.02979515569571141,"99":-0.06629813007844695,"100":0.05770332063057793,"101":0.30456735292286413,"102":-0.039225554244613874,"103":-0.028480386489026677,"104":0.034135647219869766,"105":-0.11702499933772631,"106":0.023959561659555963,"107":0.2826674342255512,"108":0.07306711441000704,"109":-0.07420308641470483,"110":0.03568578680429843,"111":0.09169854091888925,"112":-0.018331178950001373,"113":-0.006677844573567953,"114":0.13760387184797226,"115":0.09803634566303113,"116":-0.01185633486157272,"117":-0.01912533999060489,"118":0.05054366551253805,"119":-0.002052031146227555,"120":0.04117207211701185,"121":-0.028514202406920916,"122":0.11251231765664696,"123":-0.05185326822151317,"124":-0.06052312866687523,"125":0.01877898925904949,"126":0.026089009445214306,"127":-0.10453812321068202,"128":0.05758640086529513,"129":0.5650394433805437,"130":-0.013631567289431766,"131":-0.08638840496037345,"132":-0.11726636041822605,"133":0.13930001188035962,"134":-0.10129185983439767,"135":-0.021741598800923887,"136":0.4897081951030089,"137":0.04409811446135661,"138":-0.10956117867921061,"139":-0.030464406758851356,"140":0.14996222269305093,"141":0.021213259109691417,"142":-0.04671668143320857,"143":0.4893870116356206,"144":-0.0029974286189655506,"145":-0.1296600871221558,"146":-0.06127953198148808,"147":0.09269281033655441,"148":-0.0705520388958226,"149":0.06452942486687413,"150":0.48705070483688995,"151":0.20071447550281327,"152":-0.006879721687353264,"153":-0.06748576747078228,"154":0.14344610678427708,"155":0.07143146261847483,"156":0.01333053523692916,"157":0.031208416310846185,"158":0.136198441415748,"159":0.011321024205579828,"160":-0.06670836227672913,"161":-0.08171702079553375,"162":0.1668885351731333,"163":-0.16053778741342126,"164":0.1853864909037017,"165":-0.1480952230962565,"166":0.06774437736808825,"167":-0.06682646265755526,"168":-0.019307966986972673,"169":-0.07359195459335156,"170":-0.1151860247521974,"171":0.17192023844853987,"172":-0.16029993951959112,"173":0.04502234763095778,"174":-0.017139457249263912,"175":0.0795097157525274,"176":0.09821205858141704,"177":-0.11417999224892343,"178":-0.38247972127752256,"179":0.02221145798141615,"180":-0.032808061659786204,"181":0.05436916201219297,"182":-0.0899245433504862,"183":0.13637550065355586,"184":-0.00012217349074650615,"185":-0.42758341592714993,"186":-0.052412654901551156,"187":0.0347909290149781,"188":0.1817536277943741,"189":0.02524998235718801,"190":0.028382057370522563,"191":-0.15386624438991736,"192":-0.37678618120647955,"193":0.030917496029066606,"194":-0.15557870183374237,"195":0.2078207324007139,"196":-0.021703304210283304,"197":-0.03932108004241928,"198":-0.1560884266161396,"199":-0.34640006811024565,"200":-0.007726062174595628,"201":-0.04836051292074008,"202":-0.011061631056793095,"203":-0.11082766095822985,"204":0.06283758486053193,"205":-0.3959865517554449,"206":0.1806402643332061,"207":-0.3345397201086957,"208":0.09707984999442937,"209":0.03457248041632513}},{"sx":1,"sy":1,"depth":210,"w":{"0":0.08695642746539915,"1":0.002229782327958804,"2":0.0604757383919738,"3":-0.1379566131174322,"4":-0.05294777334078658,"5":0.01795978178687284,"6":0.08214819568736167,"7":-0.018138828649784857,"8":-0.012708836067616466,"9":-0.02246216059223617,"10":0.007833257071842646,"11":-0.06856620001551432,"12":-0.0013123699035998786,"13":0.07206653029449911,"14":-0.02857314422239338,"15":-0.054191302105535,"16":0.0036304770274125067,"17":-0.05202564998174518,"18":0.0792071259333655,"19":0.07824351942383523,"20":-0.028753778345512432,"21":0.03477460836663042,"22":0.02895028623394749,"23":-0.01794391547341134,"24":0.002361590678833874,"25":0.03905142715170894,"26":0.023519849358842226,"27":0.05510987132913169,"28":0.047789886344863176,"29":0.005262051686834323,"30":0.1147347692051246,"31":-0.048247035657352014,"32":-0.036308892576024404,"33":0.022829208538774178,"34":0.0038150795735099564,"35":0.1082230476932982,"36":-0.021533979576085813,"37":-0.07819017642987111,"38":0.04838143643011248,"39":0.1609562046570009,"40":0.014208261895286371,"41":-0.02823484883591218,"42":0.04174474281851249,"43":0.05968965965027401,"44":0.055557082978405434,"45":0.1586059248953924,"46":-0.019405615070145477,"47":0.027696232730767142,"48":-0.024609645255321295,"49":0.09150634780855209,"50":0.03652008209154407,"51":-0.015693885873746743,"52":-0.07844287127218275,"53":-0.06668031795134365,"54":0.0063962940636572785,"55":-0.05535198367241795,"56":0.08431651508905218,"57":0.10784496664475379,"58":0.040707322879616696,"59":0.07651278016402928,"60":0.06899310570089881,"61":-0.051292060388587996,"62":-0.006193847188118591,"63":-0.037873530208794144,"64":-0.016177095712861404,"65":0.008838580382353687,"66":0.10338501088607119,"67":0.07156298795558072,"68":0.07466164882756514,"69":0.05130308945792553,"70":0.015197419488938135,"71":0.06173521298634709,"72":-0.045831990569349355,"73":0.011943050154603434,"74":-0.015208879214999681,"75":0.009134800494262204,"76":0.02256118993254882,"77":0.14832879282170736,"78":-0.012040124588690831,"79":0.016471908991581113,"80":-0.0954571492385206,"81":0.005943608033690475,"82":0.08736520176936158,"83":0.0013009004344975087,"84":-0.029897582543742352,"85":-0.06261911019259786,"86":-0.0740287391238826,"87":0.019572998358440636,"88":0.1360462566994084,"89":0.013223851387645898,"90":0.01447651319960453,"91":-0.0670794624670206,"92":0.050899490887149505,"93":-0.09921088653568803,"94":0.025229037228414724,"95":-0.052833360413535126,"96":0.039741367610989876,"97":-0.02835659438410855,"98":0.020454097552524964,"99":0.13148855265081963,"100":0.03500331412858731,"101":-0.025230266139067283,"102":0.018168620275592916,"103":0.029567308498465998,"104":-0.029566838909103527,"105":-0.08047257647652392,"106":-0.0761218561343234,"107":0.11049697734242261,"108":0.14937944193136557,"109":-0.050243511643667076,"110":-0.10331464549685154,"111":-0.002495503677685527,"112":-0.08678399614156987,"113":-0.05428031784390886,"114":-0.09316738305608703,"115":0.09480288584391097,"116":0.024600605662859584,"117":0.017523178001398788,"118":0.0413885596273305,"119":0.06537603123157981,"120":-0.027950764208012846,"121":0.12404672917986106,"122":0.04171614237170202,"123":0.14311383263253527,"124":0.10633810390170773,"125":-0.05193393921816223,"126":0.02640234954005824,"127":-0.07470861778682401,"128":-0.09738454865196239,"129":-0.05913381346324915,"130":0.011226649956493038,"131":-0.006513581562606493,"132":0.03315853401765959,"133":0.04522034927632656,"134":-0.042297602423765956,"135":0.0050261958574040685,"136":0.0016723645653587056,"137":-0.018398946963793683,"138":0.08008693302390572,"139":0.11735346129623313,"140":-0.0016791325310005077,"141":0.012112516542799222,"142":-0.05146212443553169,"143":0.025789213053106684,"144":0.11528789342381596,"145":-0.004558049987379139,"146":-0.03922031268810112,"147":-0.0018682907527803262,"148":0.005248336697285792,"149":0.0005153751948809366,"150":-0.10109085668318946,"151":-0.05665840036751996,"152":-0.04128794465000595,"153":-0.1320019270910136,"154":-0.06858498213647614,"155":0.07721403405973963,"156":-0.016404956597206484,"157":-0.05285565553953739,"158":0.03915292892682529,"159":0.18556770399218228,"160":0.04265985657337334,"161":-0.05915281286729458,"162":-0.0023078042919076097,"163":-0.009829866214191456,"164":-0.026694868282854858,"165":0.02447694520413695,"166":-0.11621003985987516,"167":-0.051748385963355716,"168":0.05109390169860657,"169":-0.00809320205079821,"170":-0.04705902396337422,"171":0.057560632843959986,"172":0.07967022732589493,"173":0.0018455576704967675,"174":0.1551142920971854,"175":0.019508046614971776,"176":-0.11997107782647115,"177":-0.022961512011980944,"178":0.18084878601821533,"179":0.1179302759549324,"180":0.02453685034271867,"181":0.05613851176808517,"182":-0.1688928904337826,"183":0.03667214373610656,"184":0.014996607590811034,"185":0.22976683917252966,"186":-0.10992166393439973,"187":0.0681211351738685,"188":0.07127881265825875,"189":-0.005625128293359885,"190":-0.06828278250418714,"191":-0.15233773563922273,"192":0.2301344459820019,"193":-0.17704267658475528,"194":0.05559918468003154,"195":0.06163364005102764,"196":-0.05904602219064707,"197":-0.03514907570780022,"198":0.04514984244360511,"199":0.22707934078593855,"200":0.025905670470195912,"201":-0.02084514879372177,"202":0.012727550374099885,"203":-0.006041613859583425,"204":0.03662482865239808,"205":-0.1751652585536059,"206":0.004835568512582908,"207":0.07210115724929571,"208":0.06608129520890856,"209":0.05998622460950078}},{"sx":1,"sy":1,"depth":210,"w":{"0":0.029264994289282698,"1":-0.029417660543315946,"2":-0.017596308981087622,"3":0.008291522908293133,"4":0.0035269829577848676,"5":-0.03302772245669193,"6":-0.02016344989349121,"7":0.020063309045231115,"8":0.13114784565658966,"9":0.02604515050191647,"10":0.11726971155367494,"11":0.03080359662835221,"12":-0.017145411847960805,"13":0.15309191927901278,"14":0.02787614047213038,"15":0.10761128292162077,"16":0.02481030642761342,"17":-0.007824166349393744,"18":0.07827860286004595,"19":-0.07507514482352236,"20":0.052926221017944815,"21":0.006503925462068305,"22":0.02252400202541114,"23":0.09959518946696276,"24":0.10190215752236179,"25":0.053803593386309655,"26":0.014693271089593138,"27":-0.01052722395262229,"28":-0.017068879079481885,"29":0.0609242279030068,"30":0.04438198314106844,"31":0.17282251282221758,"32":0.10062700392933902,"33":-0.040608416008653156,"34":-0.15244211381608624,"35":0.021013423433638413,"36":0.18684766087850338,"37":0.059461369071671454,"38":-0.008097071611804082,"39":0.02937629424470574,"40":-0.07304930742697109,"41":-0.04916347199077037,"42":0.03297030719887126,"43":0.10637740443778596,"44":0.05212421550031199,"45":-0.12576217938496265,"46":-0.0705945510420245,"47":-0.04566698269114274,"48":0.0057560644235501906,"49":0.048451850835847306,"50":0.005819412700641068,"51":0.09336359268794785,"52":0.06632927886369613,"53":-0.036861312016387364,"54":-0.22728606939653379,"55":-0.007470426765514492,"56":-0.07789677540292451,"57":0.09752291795626104,"58":0.10049112891258295,"59":-0.07730332021800805,"60":-0.14031546351007115,"61":-0.08031157299827293,"62":-0.037951573427353495,"63":-0.12278127774555961,"64":0.12419243876198223,"65":-0.02622026462323423,"66":0.05658842457574557,"67":-0.03704910020685915,"68":-0.12416729822003988,"69":-0.14469241004337605,"70":-0.0012284546741525434,"71":0.04461430744056703,"72":0.017719055326273814,"73":0.16253781838986933,"74":-0.16919814654125748,"75":0.05061931573618613,"76":-0.014475410150420167,"77":-0.04118703665998625,"78":-0.14392922419910278,"79":-0.14132479248959462,"80":-0.04548707806253432,"81":-0.16614896913926075,"82":0.012487425853979366,"83":0.05849397551986603,"84":-0.06552654790068198,"85":0.09224433559974052,"86":-0.005082205297734156,"87":-0.08682235714611829,"88":-0.12334732579663779,"89":0.03508210361138313,"90":0.08204674310180897,"91":-0.09633582065508257,"92":0.1938856541898397,"93":0.07588151751264263,"94":-0.1612601227596367,"95":-0.049898722591020093,"96":0.022644993577025818,"97":0.10832673261427204,"98":-0.0368558567013738,"99":0.12457777813190955,"100":0.18296100503560214,"101":-0.12562731224148005,"102":0.04176708640779503,"103":-0.05396937618145185,"104":-0.005510006100459448,"105":0.15090335440131555,"106":0.07968451026114444,"107":0.11082777871935472,"108":0.08079955386105257,"109":-0.04439877694630002,"110":0.11226872892609285,"111":-0.07176843872812792,"112":-0.04943996659059185,"113":0.034471737841388496,"114":-0.001652058819767212,"115":0.12134410181005552,"116":0.0038625567502866623,"117":-0.1580770085825469,"118":0.016913115159996637,"119":-0.08575084396182603,"120":0.030089195612710094,"121":0.04860572274258948,"122":0.11338127232808348,"123":-0.07217322497785324,"124":0.05310415751132726,"125":0.12374168836716741,"126":0.041244645289593956,"127":-0.015481361050266072,"128":-0.0063436126051795595,"129":0.22711830781131828,"130":0.11633816478656452,"131":0.11530557825522818,"132":0.04834423678469906,"133":-0.050711134715850835,"134":0.02212693449871884,"135":0.16156830494939295,"136":0.08367907178587917,"137":0.2503458101910539,"138":-0.19345963134480446,"139":0.1491448121769681,"140":-0.07760714359316276,"141":0.09098681543853399,"142":0.08368699605385474,"143":-0.08035658681861722,"144":0.3140710454231822,"145":0.100617618523388,"146":0.013906508838239793,"147":-0.07064779417935918,"148":0.014388470586864942,"149":0.09656604975241281,"150":-0.24831582886152642,"151":0.30364721975666303,"152":-0.22162371874067024,"153":0.11096555666622497,"154":0.1343007192654707,"155":0.023972231751941755,"156":0.03967830199729506,"157":-0.36933903712047694,"158":0.2564419146679641,"159":0.1220616473098089,"160":-0.02341295336176199,"161":0.016662472091824348,"162":0.027840921331664503,"163":0.12251529993031693,"164":-0.3070586394595303,"165":0.10249005702839223,"166":0.01441720191151813,"167":0.00759724492020184,"168":-0.05161040757806431,"169":0.08617177184611591,"170":-0.06527938824674441,"171":-0.19026234500885303,"172":0.25417280195927866,"173":-0.0261889988653056,"174":0.0009328767849714863,"175":-0.08565324952980556,"176":-0.043372029300857866,