
//<![CDATA[

// a few things don't have var in front of them - they update already existing variables the game needs
lanesSide = 3;
patchesAhead = 40;
patchesBehind = 10;
trainIterations = 100000;

var num_inputs = (lanesSide * 2 + 1) * (patchesAhead + patchesBehind);
var num_actions = 5;
var temporal_window = 0;
var network_size = num_inputs * temporal_window + num_actions * temporal_window + num_inputs;

var layer_defs = [];
layer_defs.push({
    type: 'input',
    out_sx: 1,
    out_sy: 1,
    out_depth: network_size
});
layer_defs.push({
    type: 'fc',
    num_neurons: 30,
    activation: 'tanh'
});
layer_defs.push({
    type: 'fc',
    num_neurons: 25,
    activation: 'relu'
});
layer_defs.push({
    type: 'fc',
    num_neurons: 25,
    activation: 'tanh'
});
layer_defs.push({
    type: 'regression',
    num_neurons: num_actions
});

var tdtrainer_options = {
    learning_rate: 0.005,
    momentum: 0.0,
    batch_size: 128,
    l2_decay: 0.01
};

var opt = {};
opt.temporal_window = temporal_window;
opt.experience_size = 10000;
opt.start_learn_threshold = 5000;
opt.gamma = 0.93;
opt.learning_steps_total = 10000;
opt.learning_steps_burnin = 1000;
opt.epsilon_min = 0.0;
opt.epsilon_test_time = 0.0;
opt.layer_defs = layer_defs;
opt.tdtrainer_options = tdtrainer_options;

brain = new deepqlearn.Brain(num_inputs, num_actions, opt);

learn = function (state, lastReward) {
    brain.backward(lastReward);
    var action = brain.forward(state);

    draw_net();
    draw_stats();

    return action;
}

//]]>
    
/*###########*/
if (brain) {
brain.value_net.fromJSON({"layers":[{"out_depth":350,"out_sx":1,"out_sy":1,"layer_type":"input"},{"out_depth":30,"out_sx":1,"out_sy":1,"layer_type":"fc","num_inputs":350,"l1_decay_mul":0,"l2_decay_mul":1,"filters":[{"sx":1,"sy":1,"depth":350,"w":{"0":0.11267019355980099,"1":-0.0026414820535115044,"2":0.28184287001482733,"3":-0.3959111544621638,"4":-0.34952064149267936,"5":0.12454754248739712,"6":-0.054114779740413635,"7":0.026484529074091982,"8":-0.23203240440288017,"9":0.05085493263051727,"10":-0.18427959072968017,"11":-0.2893912357776971,"12":-0.0016009008453147918,"13":0.08412698185159376,"14":0.1849545522931087,"15":0.004251858314219978,"16":0.1358593956317887,"17":-0.094762852650499,"18":-0.26374066636972926,"19":0.09037542507396076,"20":-0.03288189372799496,"21":0.0587458937347238,"22":-0.02713816059470878,"23":0.17530975375153127,"24":-0.0230193109872722,"25":-0.28145146939560534,"26":0.026787613569129627,"27":-0.021620676018699735,"28":0.08094505375732892,"29":-0.027995961006919506,"30":-0.0021798285172090802,"31":0.08298540855988368,"32":-0.1628872653624798,"33":0.03987563398447343,"34":-0.07066722953515005,"35":0.06451112927961769,"36":0.10919863065822634,"37":-0.0325621403259184,"38":-0.15973354870478734,"39":-0.23212467255322872,"40":-0.021122455835253455,"41":0.017551082023404083,"42":0.08958694454551307,"43":0.022615591645989787,"44":-0.06722832257861233,"45":-0.34097554269556496,"46":-0.10845389728722818,"47":0.08064262008803946,"48":0.05823427095495037,"49":-0.0030518315596745815,"50":-0.24500761107575328,"51":0.0352990507966613,"52":-0.12712697979948884,"53":-0.14398948489404792,"54":0.08281199497045148,"55":0.21128983184973343,"56":0.2601783894400201,"57":-0.03337278747374266,"58":-0.07179380395213969,"59":-0.18928774964092587,"60":-0.1478344141622332,"61":0.1284836711958853,"62":0.12241152113013475,"63":0.23521031110454296,"64":-0.13355427626848865,"65":0.1801710803109742,"66":0.005801294325199594,"67":-0.058199007265907696,"68":0.06307445301740396,"69":0.12166697448266872,"70":0.15196727835692364,"71":-0.24170581802129645,"72":0.062184144093798084,"73":0.0365051594618641,"74":-0.1540626999140742,"75":0.020572674880459156,"76":0.07263431356621664,"77":0.2732081678951389,"78":-0.10785943994801596,"79":0.030372267036327737,"80":-0.12837507517104538,"81":-0.022097670920640102,"82":0.054319463120373286,"83":0.02153248441679458,"84":0.16677558831929137,"85":-0.229187767186609,"86":-0.07540124077890387,"87":-0.025000015096481625,"88":0.030247528346964835,"89":0.14074787118464985,"90":0.10005082852326708,"91":0.14215593394138087,"92":-0.28127566265913384,"93":-0.06594195512804829,"94":-0.2349392961071507,"95":-0.02150483783021493,"96":-0.09300252189602985,"97":0.022834448087285075,"98":0.12501594340269728,"99":-0.07645713839010641,"100":-0.07898327050285969,"101":-0.30999494679693795,"102":0.04781344340376216,"103":-0.05221879819755714,"104":0.13184961899937317,"105":0.1522432035698003,"106":-0.21118936327351165,"107":0.0283498018157277,"108":-0.11015005650245177,"109":-0.09803175141416459,"110":0.12346043203831288,"111":0.10390757674774322,"112":0.1541791933588917,"113":-0.11975047550432905,"114":-0.09265145361404296,"115":-0.23926768641388899,"116":-0.16249337628504745,"117":-0.08383985366368435,"118":0.07371681275211618,"119":0.03478402444314841,"120":0.05891671835082497,"121":0.0782432478378766,"122":-0.3157975953956784,"123":-0.1312895846686545,"124":0.0055777368544241805,"125":-0.11450137264190989,"126":0.10453947959080884,"127":0.09552145822869934,"128":-0.0055353112308718306,"129":-0.2959629118525335,"130":-0.21643760423659536,"131":0.048478677600797104,"132":0.05799169658594254,"133":0.042711878827539206,"134":0.0515267883777415,"135":-0.175276397478024,"136":-0.13582748684934592,"137":-0.18157467099258492,"138":0.029555008961772853,"139":0.05219333289709991,"140":0.1607758499715866,"141":-0.03700023552924632,"142":-0.0494633022272665,"143":-0.13633525624570733,"144":-0.026259383415514446,"145":0.03573442392965407,"146":0.09376937926472761,"147":0.2767466945221331,"148":0.12894228932081586,"149":-0.12670705338613286,"150":-0.12762899962373614,"151":0.181635995550588,"152":0.03510409652116597,"153":0.01631716067772335,"154":0.30732232120050745,"155":0.005579826838320907,"156":-0.2073414598304714,"157":-0.24422376003738233,"158":0.22819248637106834,"159":0.06710577172776627,"160":-0.013486765063830694,"161":0.4695311601835331,"162":-0.020977902901292048,"163":-0.01999244644285148,"164":-0.42458816974831476,"165":0.1384555295755453,"166":-0.06528480376000922,"167":0.047884403357422556,"168":0.2058965157613546,"169":-0.03366161996291315,"170":0.06550896630710942,"171":-0.4625774062724072,"172":-0.1577524880662808,"173":0.04068009885317479,"174":0.017199671801382085,"175":0.04936825712265178,"176":-0.005901766771579309,"177":0.00534296974188659,"178":0.13371992812082026,"179":-0.023598432724887757,"180":-0.009320676999792056,"181":-0.06622397056244471,"182":0.10154825690951001,"183":0.026191200076286836,"184":-0.05493548894260373,"185":-0.1089221237975004,"186":0.025548550790706878,"187":-0.21744826699966893,"188":0.039613739366769485,"189":0.18677528072920013,"190":0.02328820035448701,"191":-0.08277874212426489,"192":0.13143513116905414,"193":0.17591854553373243,"194":-0.008126015462518522,"195":-0.06992026015265265,"196":0.172310216033989,"197":0.08771833301549749,"198":-0.22462477348242602,"199":0.21778650809986905,"200":0.3876931121426513,"201":0.07900846955131309,"202":0.05842930237235633,"203":0.144086795767185,"204":-0.1685846036608791,"205":-0.2647317718707481,"206":0.008464118334843179,"207":0.024515334830038985,"208":0.0065010941839759835,"209":0.12406899068932667,"210":0.22057492344632104,"211":-0.15539804350615716,"212":0.17634307349931916,"213":0.3402481066476523,"214":-0.15861857748899036,"215":0.08553714996762853,"216":-0.09207754521993435,"217":0.07222939154732189,"218":0.04786200070013445,"219":0.2933687500185324,"220":0.507457955130335,"221":0.1857216901562629,"222":-0.08332320475210447,"223":-0.032816366165717356,"224":0.1844108678072074,"225":-0.18540970382882838,"226":0.3378655402369051,"227":0.8493596898760561,"228":0.3066612266285033,"229":0.010056486618376322,"230":0.01627215948926474,"231":0.25001467308595154,"232":-0.1820967163098094,"233":0.25522214983446184,"234":0.44337926106509923,"235":0.3045978196661482,"236":-0.02269698258803921,"237":-0.057061975896739496,"238":0.055290455909996976,"239":-0.14348194281394056,"240":0.27512600056918446,"241":0.3745889225674517,"242":0.6860002242482721,"243":-0.132464062519279,"244":0.1704508735051547,"245":0.09826845859914414,"246":-0.06321786766801077,"247":0.18145136431094352,"248":0.3060703081584143,"249":0.1925324103831888,"250":-0.12962988268015255,"251":0.10920675111385292,"252":0.05083977675537371,"253":-0.09589724586788669,"254":0.18700843810535678,"255":-0.4520436352581965,"256":0.12595520889060688,"257":-0.07461366898070637,"258":0.10820867869417837,"259":-0.11545494977602856,"260":-0.05763748240850568,"261":0.2283543842029402,"262":-0.3418877446122781,"263":0.21167202712125793,"264":-0.20137602481037473,"265":0.1646961911150365,"266":-0.03403176278049912,"267":-0.07602519444489306,"268":0.17619289766945373,"269":-0.46561673690843697,"270":-0.13255742130385748,"271":0.06209880399552367,"272":-0.10651154827951748,"273":-0.16416673305165239,"274":-0.07984141235306398,"275":0.13151765600638274,"276":-0.4797442747862708,"277":0.09209874779919751,"278":-0.08733302096556915,"279":-0.14059686915153455,"280":-0.06050215116908737,"281":0.2867775527437194,"282":0.03095385920011412,"283":0.05255444856396224,"284":-0.09639140986459069,"285":-0.1916113077399492,"286":-0.11236782435135013,"287":0.07279331283688598,"288":0.19162200371195162,"289":-0.0007572122393793446,"290":0.03255092880312341,"291":0.14991909393129074,"292":-0.04783240063904687,"293":-0.06528530240201219,"294":0.11967594508291092,"295":0.2787767041614465,"296":-0.03020868022515587,"297":0.096879811575295,"298":-0.1587816874742819,"299":0.02462596460819459,"300":-0.20405039253134422,"301":0.08258116724136295,"302":-0.034352985655333956,"303":0.13645067883487294,"304":0.003916008913797642,"305":-0.22757390614797673,"306":0.04003196020682102,"307":-0.049004471107324005,"308":0.1330535225671884,"309":0.07453886218986623,"310":0.3481423914129394,"311":-0.26000903562419664,"312":-0.12396085021333146,"313":0.16522907216675226,"314":-0.06710939280613065,"315":0.061326247955949535,"316":0.00011834484047881127,"317":0.10149491239926707,"318":-0.21766138578819103,"319":-0.06923909285087329,"320":0.09558011208936863,"321":-0.071485864621085,"322":0.12487977523406232,"323":-0.008377042465904557,"324":0.16200792083069165,"325":-0.17836142855688958,"326":-0.02530502443789927,"327":0.22412979475882402,"328":-0.09156840168916666,"329":0.14901854233271367,"330":-0.015669036364529872,"331":-0.01414894406790664,"332":-0.010344795992294162,"333":-0.06600450262377199,"334":0.10789196564672347,"335":-0.2448553163577202,"336":0.06883005156882123,"337":0.04525977117144293,"338":-0.16855165306264117,"339":0.12190725170743322,"340":-0.11907480734819277,"341":-0.07089357039746695,"342":-0.1473708219406838,"343":-0.05973265868571003,"344":-0.16824501255688779,"345":-0.03969288711281767,"346":0.03332491492752177,"347":-0.3045784981051201,"348":-0.05839563948261354,"349":-0.25660376729921625}},{"sx":1,"sy":1,"depth":350,"w":{"0":0.05148070816424666,"1":-0.21987628539329399,"2":0.20994566286384522,"3":-0.15778702262310812,"4":-0.12155292838026935,"5":0.029041390056184946,"6":-0.048959307997907556,"7":0.06261982752866009,"8":-0.3121370183193793,"9":0.2710515672032012,"10":-0.06912740363306699,"11":-0.14522238452216454,"12":-0.012188215724843427,"13":-0.019481365876480736,"14":0.1523901687519048,"15":-0.22560735037474502,"16":0.10315425425056841,"17":-0.005940364106110848,"18":-0.10817286093680442,"19":0.06697384755779971,"20":-0.023712140312654853,"21":-0.06208460857397896,"22":-0.06581081528571123,"23":0.08851006045986967,"24":0.019208043904472248,"25":-0.026509962834732375,"26":0.12626961619854632,"27":-0.023237326239115456,"28":0.03780774464010657,"29":-0.0815774011514752,"30":-0.08719702667616736,"31":0.06728386764396639,"32":0.041685019872490264,"33":0.0719818708484853,"34":-0.07926082519696362,"35":0.060493151122391974,"36":-0.10974839945588066,"37":-0.10339369425677768,"38":0.049673860921659624,"39":0.045353516373243224,"40":0.14994818587482978,"41":0.01411714551140107,"42":0.08292071274068538,"43":-0.025409599944125352,"44":0.006946592999864138,"45":0.06970424174446586,"46":0.05217727486175355,"47":-0.03664984768715865,"48":0.06533822160784543,"49":0.025828837015746495,"50":-0.15397868666831446,"51":-0.07490032827833382,"52":0.10054773299803492,"53":0.08639850818600622,"54":-0.03799434578102654,"55":0.01622801498357083,"56":-0.020926747969878808,"57":-0.05529551120283667,"58":-0.27622555009934247,"59":0.057341687253256717,"60":0.09917130068126477,"61":0.019840046287238164,"62":0.04290839230115975,"63":-0.08102731103459347,"64":-0.09172568685689027,"65":-0.13234238021064956,"66":0.08156809610585841,"67":0.0296585988988916,"68":0.030373691361282852,"69":0.07582173264217065,"70":-0.0774486194395308,"71":-0.005555249746322252,"72":-0.1571377745226172,"73":0.08610635737712606,"74":0.140387031201485,"75":0.13128425957885104,"76":0.13887220169470638,"77":0.05709704608928622,"78":-0.016110399054595766,"79":-0.23455833884978042,"80":0.1433875333850371,"81":0.010886814201465044,"82":0.08735997895100531,"83":0.011595253288691102,"84":0.14649480079493488,"85":-0.08072970217597629,"86":0.09356281642508665,"87":0.0947856282068557,"88":0.07993636292065402,"89":0.1326656641815733,"90":0.08820525036749506,"91":0.05994381524694962,"92":-0.08070794202318946,"93":0.018187489654128745,"94":-0.0009246852226854289,"95":0.15018035073126587,"96":0.04722537530208989,"97":0.10432914497177014,"98":-0.02976780760751551,"99":-0.013871819453482613,"100":0.026948967231795073,"101":-0.12058854335063432,"102":-0.14619453488091327,"103":-0.029101535303363534,"104":-0.01848703069534341,"105":-0.056614846240556786,"106":-0.06583504873416281,"107":0.04686593165753056,"108":-0.3176090689006766,"109":0.08806571434110157,"110":0.0018390126861832761,"111":0.06642037235995385,"112":-0.16182735082580943,"113":-0.10424177489577123,"114":0.012797733609223655,"115":-0.1478462103570191,"116":0.036238513601035596,"117":0.10394397214335979,"118":0.01561904143318709,"119":-0.01846744233423995,"120":-0.08125650895837702,"121":-0.04116596773616228,"122":-0.043014151253511664,"123":0.05439565839203198,"124":0.05505998211406822,"125":0.11722352802049214,"126":-0.021329348038675203,"127":-0.16788787278162567,"128":-0.03905028743962422,"129":-0.1377600153056093,"130":-0.025247298982754185,"131":-0.032410811792872966,"132":0.17223791404341227,"133":-0.009230155533009678,"134":-0.20434305258338564,"135":0.06035778175120368,"136":0.03315799129040734,"137":-0.15988698546690025,"138":-0.01670793834425778,"139":0.04938753271556217,"140":0.2872035747615402,"141":0.020759038691191785,"142":0.13339698452246995,"143":-0.08709623855803156,"144":-0.16589884662245502,"145":0.11168296577416677,"146":0.17061830710367182,"147":0.10742205028010639,"148":-0.052505732022258986,"149":-0.10917557466154298,"150":-0.09801939117923196,"151":-0.15609429122618798,"152":0.10715568775186897,"153":-0.19181030055133302,"154":0.169713992679981,"155":-0.0052210765028042555,"156":0.04169017096127561,"157":-0.007210863969298141,"158":-0.16596654260291094,"159":0.007839834050060373,"160":-0.22047439503045316,"161":0.25421551811111354,"162":0.27098447999927605,"163":-0.18977638313288306,"164":-0.025434109211522525,"165":-0.0709039422565006,"166":0.02380146116743451,"167":-0.253300066606999,"168":-0.051155507760265256,"169":0.03302088377516539,"170":0.10574610543908702,"171":0.011844928915835221,"172":0.1368012478806048,"173":-0.1738595017906043,"174":-0.24315457140128416,"175":-0.0970248738844245,"176":0.20268277591677242,"177":0.19623702752923775,"178":-0.012743659356615327,"179":0.05165553883277486,"180":-0.1363553519492007,"181":-0.16321420850367493,"182":0.06343866892652802,"183":-0.0183274765677877,"184":0.2957136789207389,"185":-0.007298351071198274,"186":-0.03781911189786999,"187":0.10863892673970564,"188":-0.09853427028726226,"189":-0.07599632274211127,"190":0.053754611610603714,"191":0.2916415484195864,"192":0.04671071573846516,"193":0.03959031622136821,"194":0.14909622006183515,"195":-0.014102152040181705,"196":0.004170240711123888,"197":-0.05184304957757502,"198":0.14995030402967802,"199":0.2592389310327325,"200":-0.0289253949220466,"201":0.042791924873969475,"202":-0.04668140761841433,"203":0.2289217776792539,"204":-0.09829232048482892,"205":0.169803800526543,"206":-0.09084368087912505,"207":-0.11469318256599251,"208":-0.0809112920360801,"209":-0.013655525333920992,"210":0.06611091118002753,"211":0.19754838230494462,"212":-0.12748582116584828,"213":0.017343466729158853,"214":-0.010207185607063582,"215":0.11037633228154077,"216":-0.027570037735464566,"217":-0.04184809529180881,"218":0.12604431944571576,"219":-0.19555805617050195,"220":-0.19071920282199364,"221":-0.06376559122997061,"222":-0.02380884320184773,"223":-0.07119442170438764,"224":-0.14071185451490667,"225":0.2245079929373021,"226":0.07911416920968192,"227":-0.26522361305728825,"228":-0.11472546920229257,"229":0.10799760373343915,"230":-0.01411674149943538,"231":0.06656361455921962,"232":0.1571672616249135,"233":0.0903905168886248,"234":-0.08856198790759486,"235":-0.05782019268042816,"236":0.0578701951236888,"237":0.08503291332664642,"238":0.04759297731708045,"239":0.16394986669878156,"240":0.08298769997566986,"241":0.085278807264252,"242":0.032920160624486015,"243":0.08780860575251588,"244":0.15879646047571097,"245":0.027779560513901885,"246":0.12205057186549578,"247":-0.03749964766570599,"248":0.16590467510966775,"249":0.04292339078505198,"250":0.23362482814327717,"251":0.28354970181922,"252":0.032464350175071474,"253":-0.0964116606757927,"254":0.022876754569634793,"255":-0.0013558340062034366,"256":-0.05139299232434969,"257":0.17457163004518383,"258":0.1482403206235695,"259":-0.09504034427029079,"260":-0.2885715853328498,"261":-0.11248181689835896,"262":0.08382624208531819,"263":0.12022651456516621,"264":0.06936166204853968,"265":0.03726582916835085,"266":-0.04672068824376613,"267":-0.06476083549157859,"268":-0.0315744064986896,"269":-0.24288621297436452,"270":0.24771333898723571,"271":0.17328084941932886,"272":-0.1021541664753755,"273":0.061759788133764926,"274":-0.1177879343437265,"275":-0.10011901321049216,"276":-0.25520121485689196,"277":0.22655910538605947,"278":-0.016192297317635967,"279":-0.14705810805076897,"280":0.04046492464809815,"281":-0.08670648493924824,"282":-0.24617315014949911,"283":0.12293824325617872,"284":0.36793296100071254,"285":0.040390518026313646,"286":-0.09402471984951624,"287":-0.05621910882490201,"288":0.054826789977186235,"289":-0.16741666079700487,"290":0.1977033554625152,"291":0.2208840280578885,"292":0.15082577847616702,"293":-0.10014047785185681,"294":-0.16155082850251823,"295":-0.055065278853557595,"296":-0.13860895892482275,"297":0.15192046110445998,"298":0.23088973731311324,"299":-0.12417393671020466,"300":-0.06202500592532936,"301":-0.1355767183251248,"302":-0.19660212456520085,"303":-0.19494816966051437,"304":0.16257992730163467,"305":0.3945301360145777,"306":0.15291526389820229,"307":-0.06829256515568284,"308":-0.07878529200715025,"309":-0.27169033179674473,"310":0.06825669664104814,"311":0.05709836553987106,"312":0.512052823990561,"313":0.05302828430620281,"314":-0.15714617657220395,"315":-0.05053520649500354,"316":-0.10408382948994585,"317":-0.11889426125880097,"318":0.08734093138227536,"319":0.2034466169045724,"320":0.005086500953151578,"321":-0.14708245746291254,"322":-0.1311722005857638,"323":-0.13718482494936396,"324":-0.20650727529483145,"325":0.1501962227557607,"326":0.20294855293737415,"327":0.017912546408851666,"328":-0.02232514069561459,"329":-0.055192024610204206,"330":0.01475825558487037,"331":-0.052721241035862385,"332":0.1823409648013472,"333":-0.11955463059746543,"334":-0.2397329183575082,"335":-0.11351939834223226,"336":-0.11582134617984721,"337":-0.08461223429916896,"338":-0.2226219181627517,"339":0.0490881863128754,"340":-0.21454217644711485,"341":0.0194262856257612,"342":-0.02545138370485254,"343":-0.18700918315005113,"344":-0.19281655912103304,"345":0.15488854251966835,"346":-0.05679207440245196,"347":-0.046296344378214394,"348":-0.07730751638354048,"349":0.0989419300672011}},{"sx":1,"sy":1,"depth":350,"w":{"0":0.1353285428566812,"1":-0.00703821159766436,"2":0.12459417069440878,"3":-0.06436328199643927,"4":-0.12558546024371445,"5":-0.36569010678278246,"6":0.07287532162022103,"7":0.08072520205029966,"8":0.05757248968567463,"9":-0.03244062816081634,"10":0.04637303437055127,"11":-0.0029760133868334234,"12":0.12014190476260621,"13":0.09771403343929749,"14":0.1576474213392712,"15":0.09106952376948513,"16":0.01708856995353061,"17":-0.013392308268963591,"18":0.04911332218089156,"19":-0.06127351197425667,"20":0.15529071231391994,"21":0.044080829812712836,"22":0.042435817025352006,"23":0.03832897625768693,"24":-0.041630883194675165,"25":0.004679409760908342,"26":0.10925204759571215,"27":0.18692423506588862,"28":-0.10127136269559944,"29":0.07832510363435578,"30":-0.10850309855275703,"31":0.13311270635527614,"32":0.047725820559847865,"33":0.07546014374855431,"34":0.13762537722647522,"35":-0.03726316997305541,"36":0.03463650625344407,"37":-0.12007793328871835,"38":0.08967121219497236,"39":0.10156608456349935,"40":-0.15093075470105569,"41":0.04216505615212963,"42":-0.11662872070388823,"43":-0.058596244231677905,"44":-0.09377347422599093,"45":0.01400734154484884,"46":0.07943543982880409,"47":0.023952056173755842,"48":0.04040851590897068,"49":-0.1788034391015505,"50":-0.11930941871960324,"51":0.021814704513112737,"52":-0.11207940181465208,"53":0.13039759826738823,"54":-0.02019001481857292,"55":0.0749715458947756,"56":0.04251321917656497,"57":-0.09333634809008648,"58":-0.05403956916775022,"59":-0.14442909570480425,"60":-0.03507233743711234,"61":-0.2283507127517274,"62":0.05966260109266509,"63":-0.040127281479786156,"64":-0.03502757727852632,"65":-0.08836781781515991,"66":-0.17251866510591254,"67":-0.06370644058685138,"68":0.02463368551181119,"69":0.022068485589848603,"70":0.10759692827172604,"71":-0.05188080413993529,"72":-0.09107607929486516,"73":-0.1702177278433345,"74":-0.22407980042351047,"75":-0.09691792814330859,"76":0.06031248767129605,"77":0.004676661695756242,"78":-0.01167983778001358,"79":-0.02337265915178794,"80":-0.17522172598132216,"81":-0.03887530565079515,"82":-0.027474412589737672,"83":-0.05161454862385335,"84":0.06571486089190783,"85":0.0554824135648538,"86":0.05624937095396771,"87":-0.12518382434836567,"88":-0.21648068362315137,"89":-0.13799005976085205,"90":0.01724597474161622,"91":0.2471074461498237,"92":-0.14393753050689492,"93":0.1316937358334636,"94":-0.009206585698454221,"95":-0.12339790743406653,"96":-0.15209346572013158,"97":-0.005864225374969164,"98":-0.012041526371594188,"99":-0.12503949082385438,"100":0.061651866662816156,"101":-0.13032125922637883,"102":-0.01337658149506045,"103":-0.05641927285822061,"104":-0.011541351783305485,"105":0.07472489249884554,"106":-0.2098087366198505,"107":0.1908146374106266,"108":0.01853032389359113,"109":-0.18939410198751616,"110":-0.20128553686076797,"111":0.13419453923888222,"112":0.16207798001117463,"113":-0.029421188223172808,"114":0.06160378298727288,"115":0.11801979410502454,"116":-0.029848757837857436,"117":-0.12586723634128916,"118":0.036249180542533524,"119":0.00941783063336739,"120":0.013274986175080432,"121":-0.032642396050148986,"122":-0.02438664528249312,"123":0.033127390329660916,"124":-0.20723572573442192,"125":-0.009885885234823175,"126":-0.053373075251727534,"127":-0.1011407743008385,"128":-0.20861425655920388,"129":0.0600174073084195,"130":-0.008691548661501847,"131":-0.19008298743872393,"132":0.1228470495069697,"133":-0.02968504766553494,"134":0.006593960387670743,"135":-0.07723327758219713,"136":-0.011068985452306957,"137":-0.026866935036328282,"138":-0.16806070387386,"139":-0.011911005869760462,"140":-0.0437976783174945,"141":-0.05145645368981108,"142":0.06507823525549213,"143":-0.04325821944206421,"144":-0.07409593816539704,"145":-0.2833432047921147,"146":0.003606433423434146,"147":0.0022169334546472312,"148":0.15161868430061642,"149":0.13746759496183972,"150":-0.07504956236043238,"151":-0.11262193655531913,"152":-0.11868216456932032,"153":0.041621762386087585,"154":-0.055930407217851016,"155":0.04919362435456995,"156":0.2239159422130767,"157":-0.11402725778846753,"158":0.038244410919898025,"159":-0.014444415100758366,"160":0.003747796889408215,"161":-0.09101372071655986,"162":-0.07296485549317494,"163":-0.05645343763448263,"164":-0.06835598675762833,"165":-0.07799358256665194,"166":0.10947134791293185,"167":-0.04341610479593959,"168":0.07062050510037361,"169":0.06322572734993004,"170":-0.014385927386914323,"171":-0.07070776731827609,"172":-0.06849590125535644,"173":-0.015652420132306583,"174":-0.021506248044178892,"175":0.08606755976783927,"176":-0.07513577686768744,"177":-0.11259380560131992,"178":-0.060975212571080746,"179":-0.08717986478626992,"180":-0.1643013844461932,"181":-0.07162471239508786,"182":-0.05678797705137786,"183":0.002928928757616989,"184":-0.22564452852351632,"185":0.16004575420661807,"186":-0.05939227172296181,"187":-0.19704161322938707,"188":0.12422670861025087,"189":0.04477288612472343,"190":-0.06468044488732985,"191":0.10656666637074083,"192":0.08071867314017123,"193":-0.15393354982176055,"194":-0.10377003744813114,"195":0.09297211917081516,"196":-0.16305780293886818,"197":-0.011681255580760577,"198":-0.03731087947464174,"199":0.10517949086187361,"200":-0.1314842421727661,"201":-0.009573010462953516,"202":0.10343582675806165,"203":-0.0075796942741263185,"204":-0.08383643724566016,"205":0.09081610678819346,"206":-0.02552333541954893,"207":-0.0759212248018258,"208":0.04785867768846717,"209":0.09693281620134556,"210":-0.11833735198258934,"211":-0.13360147203676853,"212":0.04649401523316288,"213":-0.045322616998652414,"214":0.020012140690268344,"215":-0.11185386461192204,"216":0.06027011640740803,"217":-0.07202206800700792,"218":0.06406165256353592,"219":-0.004663820046650941,"220":0.012423023404533561,"221":-0.037234568848633666,"222":-0.08636809133974262,"223":0.1329817564733444,"224":-0.0705369905193166,"225":0.08575930607378741,"226":0.16735453623177823,"227":-0.07172127332222235,"228":-0.011183682070135715,"229":-0.11206836224621852,"230":0.07483446239390201,"231":0.06447801723423774,"232":-0.02689778676015246,"233":0.22528253507110452,"234":0.08728779824514733,"235":-0.13615280405387534,"236":-0.2559606849310327,"237":-0.0425049177608724,"238":0.17447191632334982,"239":-0.10088707593517851,"240":0.13207661514759206,"241":0.29962464852187426,"242":-0.04861543780969927,"243":0.09134025830627382,"244":-0.005472078577742942,"245":0.3253526335999985,"246":-0.17647573242429693,"247":0.06566032232329573,"248":0.2608708587346595,"249":-0.060357740135456174,"250":0.012676349131024623,"251":-0.00005025425260487992,"252":0.11115689734004214,"253":-0.1964335480819561,"254":0.03885337869848225,"255":0.11541287186311322,"256":-0.20415625032321363,"257":-0.057346852910380296,"258":0.05322314485139326,"259":0.21755056292325795,"260":-0.15360749629746154,"261":-0.05047203443899041,"262":0.06558246353713863,"263":-0.06519966470378964,"264":0.015384485186506352,"265":0.140082924744225,"266":0.047431278207268744,"267":-0.10434162178953363,"268":-0.0031899041035185474,"269":-0.17998773099098378,"270":0.02152052394615166,"271":-0.07860204978891057,"272":-0.018197691232593845,"273":-0.04275615204243288,"274":-0.11809146676812414,"275":-0.01670703485676119,"276":-0.1981544545125467,"277":-0.15760747133998054,"278":-0.0657721484553279,"279":-0.03959831704514031,"280":0.1107510992140696,"281":0.11353353673802037,"282":-0.071392540407308,"283":0.5395135669679626,"284":-0.0013073523593881277,"285":-0.030567791908058993,"286":-0.03569964368848644,"287":0.0006896280536941366,"288":-0.024893584656897123,"289":-0.0161886412313159,"290":0.38659823205619986,"291":0.01238662997354578,"292":0.07275641970674672,"293":-0.10930868083053832,"294":0.00022208162242733404,"295":-0.02568516644995873,"296":0.03825591093360984,"297":0.4756367227655894,"298":-0.1360657778099718,"299":-0.025785549454072437,"300":0.020182856062560275,"301":0.10683176906478725,"302":-0.03249121087281133,"303":-0.23245342233059763,"304":0.3697627065835738,"305":0.0550761399859938,"306":-0.09503505645277043,"307":-0.0005302670489725819,"308":-0.043342386625277,"309":-0.11145379129016031,"310":-0.019324455550661614,"311":-0.15912156412521114,"312":0.03401766565556042,"313":-0.008118016483836985,"314":-0.06540235887733097,"315":0.085244716891016,"316":-0.1224104548564331,"317":-0.07964780013482786,"318":-0.0676767135147518,"319":-0.07386506483919297,"320":-0.1188817746728943,"321":0.10554867099109408,"322":0.05904807340347345,"323":-0.019755693861660092,"324":-0.0024994490937928393,"325":-0.14336561688255892,"326":0.15520771346092457,"327":-0.03454460757213182,"328":-0.07576293584809672,"329":-0.020930028441445116,"330":0.06202119827676974,"331":0.1057679614429909,"332":-0.1369419253412783,"333":0.0751270317462916,"334":0.11008347130100321,"335":-0.1874594529295787,"336":0.013909184444743889,"337":-0.06502234444912726,"338":0.0005621172432589438,"339":-0.06914051096282424,"340":0.1940960725397871,"341":-0.031036333490339213,"342":-0.11926519608596813,"343":-0.002852112662522744,"344":0.052192256269804484,"345":-0.2364197301038413,"346":-0.02825643501525315,"347":0.20707204574684926,"348":0.047759182916582495,"349":-0.2811143822932901}},{"sx":1,"sy":1,"depth":350,"w":{"0":-0.01721106378324252,"1":-0.07344800037538095,"2":-0.020302967011755987,"3":0.008811395790542591,"4":-0.004839742584040627,"5":-0.019890174835086,"6":0.032615727438569754,"7":0.07773536757010131,"8":-0.07151796690065479,"9":-0.03458410976270726,"10":0.10206307505303294,"11":0.018657846504236388,"12":0.02388931859761867,"13":0.010644760553867642,"14":0.08504995381046253,"15":0.043536013301845505,"16":0.018702932085860564,"17":-0.015772271412988446,"18":0.05616862537600673,"19":0.0037201220296936214,"20":-0.010111498243894906,"21":-0.019981856673154646,"22":-0.004618470338226691,"23":0.007118261381084109,"24":0.02954758104349522,"25":-0.012490470547973562,"26":0.07398716206288479,"27":0.025785289745300016,"28":-0.05818085204766758,"29":0.013904284969533281,"30":0.012977566513382763,"31":0.10159209108051662,"32":-0.01599394218453003,"33":0.00739192194200518,"34":0.030787675350495557,"35":0.06320050988244628,"36":0.06065921071693328,"37":0.01191208668095038,"38":0.04737309945992144,"39":-0.0028964149153117963,"40":-0.0394117134348186,"41":0.03469591234350403,"42":-0.03518799761141942,"43":0.009585205337241642,"44":0.03714610085003957,"45":-0.041841712285601074,"46":-0.01497645825417014,"47":-0.05082522464495745,"48":0.020267811898799046,"49":-0.06310886907134106,"50":0.027678627931727824,"51":0.07299823673880983,"52":0.028737569287159814,"53":0.060293510474235035,"54":0.1590763987651508,"55":0.11386372894629757,"56":0.05428126131516971,"57":-0.014203624453236353,"58":0.09509591743797853,"59":0.1006558040196064,"60":-0.04947286125769955,"61":0.03921842586785624,"62":0.05642344508806071,"63":0.02514886692174064,"64":-0.06215719372167587,"65":0.07995720181649943,"66":0.04487708554148823,"67":-0.00829118068545672,"68":0.006634458854969572,"69":0.046817109339189276,"70":0.010466552001540176,"71":0.09664248367327112,"72":0.06817899991690707,"73":0.06587320006656165,"74":-0.04225495093430019,"75":-0.003210022649578336,"76":-0.08762680562596602,"77":0.09680314192375856,"78":-0.046782231247020294,"79":0.0024113864666233066,"80":0.05016294822205714,"81":-0.015103233501257595,"82":0.04305570107403477,"83":-0.031761899107923666,"84":0.05006994930178057,"85":-0.007306695293673556,"86":0.07182318133170501,"87":0.047946676584249726,"88":0.10496418235217833,"89":0.007628246796449814,"90":0.031682459333896316,"91":-0.0143894853772849,"92":-0.052796967130330205,"93":0.03429198241105586,"94":0.06500464957287232,"95":0.04230753454023571,"96":0.07490514437621182,"97":0.045021156475578555,"98":-0.07774311833163824,"99":-0.04860663176570479,"100":-0.03422591778134787,"101":0.018656493506567017,"102":-0.05380331216550007,"103":0.06463004992255618,"104":0.01609326644913402,"105":0.05426990004897264,"106":0.044844292167803716,"107":-0.03226923854679594,"108":-0.007080580245890697,"109":0.04999410811193499,"110":0.007211811710420088,"111":-0.04533140488108707,"112":-0.02022088998965572,"113":0.03919977901210519,"114":0.021116491909963706,"115":-0.04271339278551267,"116":0.06633422931195976,"117":0.1377758540424457,"118":-0.05928304595040198,"119":0.009846041641558164,"120":0.02010377270187892,"121":0.04881519881278829,"122":0.010249851843765145,"123":0.02079932432860719,"124":0.022370356276090637,"125":-0.01498667857988139,"126":-0.04455640664161294,"127":0.022674409997470897,"128":-0.00048498019891343594,"129":-0.013032221767454307,"130":-0.01365604069725498,"131":0.022249356730895765,"132":-0.04110612072259412,"133":0.07958633397383778,"134":0.012813616425422936,"135":0.0270651251006993,"136":-0.03869760928587206,"137":0.09887827791495142,"138":0.08975556358084566,"139":-0.03405816983400806,"140":-0.008543341522752029,"141":-0.06932966922582272,"142":0.030429597211705402,"143":-0.006627257952743932,"144":-0.02810313012370663,"145":-0.04256570691486033,"146":-0.08710463331487149,"147":-0.017049382479078393,"148":0.009552780269894487,"149":-0.045159227277933645,"150":0.024631335968665968,"151":-0.00480852360958507,"152":0.054140777302913924,"153":0.02977497377423002,"154":0.037025942477705485,"155":0.0484588613875551,"156":0.014908291992202248,"157":0.048148391533227794,"158":0.03579567801785719,"159":0.07529466466302549,"160":-0.04141844276831864,"161":0.02837321476536686,"162":-0.027497769339127818,"163":0.09507469329887393,"164":0.12646040357416427,"165":0.03584841537083095,"166":0.036393787722514906,"167":-0.025573938913227196,"168":0.0757408659510269,"169":0.06380129777429318,"170":-0.05310643635480786,"171":0.08616923826001835,"172":0.04320025025088802,"173":0.04889338787140024,"174":-0.006554746376293195,"175":-0.02793892555809883,"176":-0.02304848291447295,"177":-0.08625527559936344,"178":-0.03098148229127061,"179":-0.03603989317187139,"180":-0.019947527235652372,"181":-0.04383444947422689,"182":0.020800036217730324,"183":0.030432684596400788,"184":0.11484836643789129,"185":0.021568701152377495,"186":-0.0015757369970559167,"187":0.008735066783301194,"188":0.04586126655384402,"189":-0.04379165374616932,"190":0.04653267507942248,"191":-0.05064927286611968,"192":0.09531290403997537,"193":-0.045752637643630516,"194":0.01332445295604306,"195":0.05138862080986264,"196":0.025108797906054386,"197":0.05466445690249999,"198":-0.045678855078526,"199":0.019068353263431682,"200":0.018510266173309708,"201":-0.1040696175809688,"202":-0.07615805010934568,"203":0.02158511034557522,"204":0.04691822728435488,"205":0.03585084266459454,"206":0.06598612752122524,"207":0.03607570632980533,"208":0.1254610717398459,"209":0.08460287759297289,"210":-0.044411441980858904,"211":0.014542654626719395,"212":0.10578795716324145,"213":0.09607079063415996,"214":-0.0082734654881016,"215":0.07386247892215074,"216":0.03601369038034249,"217":0.014494443034739448,"218":-0.061360519588421994,"219":0.040495091696550384,"220":-0.006403014569286703,"221":-0.02595017476953026,"222":0.05595816058130462,"223":0.014147046228762053,"224":-0.029266422869882507,"225":0.1821116279858629,"226":-0.023350266859474684,"227":-0.044624747329116234,"228":0.065139677340304,"229":0.02763781311294747,"230":0.07893970043001117,"231":0.0591355527584878,"232":0.047424204724666935,"233":-0.03519532085212179,"234":0.10468573836743471,"235":0.049989264923112633,"236":-0.005411840898250085,"237":0.06209371433340173,"238":0.01691198117793489,"239":0.05873469100374703,"240":0.0018633972671478793,"241":0.15607324216421145,"242":0.04072958007578892,"243":0.003391314485977036,"244":0.006878602402858173,"245":0.052646489908294646,"246":0.00949408701881331,"247":-0.012360486556999783,"248":0.035587149815068206,"249":0.021612620682685827,"250":0.045416448059869184,"251":-0.012398217083833835,"252":0.006670641378060679,"253":0.08590749665317228,"254":0.11848919083935922,"255":0.06360123765116275,"256":-0.05654269669411447,"257":-0.01910404094733622,"258":-0.030015663593195796,"259":0.014615438625389245,"260":0.04784813298282596,"261":-0.05863828374661257,"262":-0.03193793868243492,"263":0.03242519526819196,"264":-0.03545292109847897,"265":0.04871915767738272,"266":-0.014563686324379157,"267":0.06118728842133675,"268":0.03220462013658565,"269":0.025349477960357657,"270":0.03507026438294523,"271":0.03445115118682702,"272":0.014003538862100292,"273":-0.04676852849965996,"274":0.03224490481445703,"275":0.024363252962561917,"276":0.15087950273619355,"277":-0.028360940144336093,"278":0.05841194696010842,"279":-0.0030164473136399493,"280":-0.01373426227037131,"281":-0.005385695621929255,"282":-0.036200423222202564,"283":0.01956705126371205,"284":-0.018028906015424142,"285":-0.08399689336759428,"286":-0.014258040605506098,"287":0.14364042402059254,"288":0.08401545355516662,"289":-0.07384370038639089,"290":0.09100217961435196,"291":-0.028847346569851936,"292":-0.00800537741502378,"293":0.056777239178829944,"294":-0.027072654551153607,"295":-0.007720690310446107,"296":0.031446254648059904,"297":0.018941675050636975,"298":0.041456731341431456,"299":0.00861778447687842,"300":0.053561112326449827,"301":0.023214541416209905,"302":0.03719062412543551,"303":0.0071269823013394695,"304":0.023013770376113088,"305":0.043639721378328146,"306":0.07652194475555336,"307":-0.05230610552338285,"308":0.06153504598078622,"309":0.0390796739780571,"310":0.06583283773830606,"311":0.007137428699567799,"312":-0.014172716613348924,"313":-0.03860387458388664,"314":0.010647433198712883,"315":-0.010376489741306501,"316":0.1665633689755694,"317":0.04938253894357001,"318":0.08253691440012151,"319":-0.06758554050341431,"320":0.013696255242818386,"321":0.04360375270273035,"322":0.046147228401084886,"323":-0.012934571739095416,"324":0.09344228836233252,"325":-0.005488945593193259,"326":-0.03287542204428714,"327":0.05039404068754341,"328":0.005565530319112899,"329":0.008915543721458355,"330":0.06627767879881137,"331":0.029009855626231144,"332":0.015300437044574604,"333":0.0379309971427474,"334":0.04110166534150637,"335":0.033906624938250356,"336":-0.0331154684475702,"337":0.055759939590648025,"338":0.02939638093897098,"339":0.042977534255480815,"340":-0.03827565160902215,"341":-0.022780921781675567,"342":0.0031639778039662873,"343":0.02512489752043744,"344":0.021359687060057125,"345":0.01859632318845494,"346":-0.023844137080403116,"347":0.0562776337003662,"348":-0.024606437645987828,"349":0.005973320821813541}},{"sx":1,"sy":1,"depth":350,"w":{"0":0.034276038078508334,"1":-0.08105222322064398,"2":0.015467157415110556,"3":-0.05786748802871608,"4":0.028939270515455414,"5":0.0951142705653203,"6":0.1144722130161031,"7":-0.15683028099961424,"8":-0.08408195522013884,"9":-0.009731852427291876,"10":-0.04696406301080479,"11":0.08251772431442289,"12":-0.10194246314057867,"13":-0.015068989535228882,"14":0.1953470618089821,"15":-0.07250477781976444,"16":-0.05306321265320875,"17":0.018068081833501747,"18":0.13191684770572062,"19":0.029900759470784223,"20":0.01797297871931522,"21":0.10708504945937196,"22":-0.09750924887626707,"23":-0.03923696195720692,"24":0.11964363518059816,"25":0.10505789266909853,"26":0.015388301110533398,"27":-0.012041478235582574,"28":0.09367876150077455,"29":-0.0498407449231873,"30":0.06888008946908449,"31":0.004841091636851686,"32":-0.11977870888001659,"33":0.01628007071343392,"34":0.004809840728766701,"35":0.05631112996547101,"36":-0.11245775774061147,"37":-0.12124996048865454,"38":0.019157518296698463,"39":-0.1314208841949659,"40":0.040155420062290795,"41":-0.03178759196253509,"42":-0.08049863065009806,"43":-0.08869791878721865,"44":-0.04623525080839005,"45":0.004870602992233831,"46":-0.08630871709099737,"47":0.15060127246405436,"48":-0.05614996529703466,"49":-0.057806315149579846,"50":-0.01967048466445636,"51":0.06008521975451491,"52":-0.10276264545253558,"53":-0.06466021192002712,"54":0.1433637830264887,"55":0.0855377103787838,"56":0.054434477473415774,"57":-0.015811601951854416,"58":-0.0218707259577358,"59":-0.06952578666500328,"60":0.05545479022763358,"61":-0.027412970502627344,"62":-0.03667487643428493,"63":-0.019582692551532666,"64":-0.07365589680920158,"65":-0.015823427311523492,"66":0.1317264641653781,"67":0.04473575187803208,"68":0.09220367113226405,"69":0.02007127073495443,"70":-0.032953600118249875,"71":-0.1479292271189415,"72":-0.03478333216975088,"73":-0.0832975278023972,"74":0.04350589512739608,"75":-0.016842854260296088,"76":-0.004117466702156165,"77":-0.14975193236975465,"78":0.024360869665287894,"79":0.10914294188889932,"80":0.023996162507254733,"81":-0.01877112807062649,"82":-0.2215138163263924,"83":0.21531872718761225,"84":-0.13643573168243334,"85":0.016000532851874933,"86":0.10572696270020004,"87":-0.05781877636616615,"88":-0.064924885105767,"89":-0.14118186026287344,"90":-0.033807783549002095,"91":0.08730812466177973,"92":-0.04451082126634061,"93":0.1410622261133956,"94":0.04351940623159612,"95":0.02176838185056336,"96":-0.0795473610260658,"97":0.04939383461610415,"98":0.07393280526572378,"99":-0.20425771782468222,"100":0.14010128284369916,"101":-0.07297627339359619,"102":-0.09180013872593895,"103":0.014282661535149297,"104":-0.03815280035937263,"105":0.07820251811480704,"106":-0.08294664996586674,"107":-0.04213986282350017,"108":0.01853685738572214,"109":0.05128810109931432,"110":0.06370238419024303,"111":-0.1708245259088953,"112":0.10633930153991163,"113":-0.06112093919558243,"114":-0.06949764124657089,"115":0.08834577085465202,"116":0.005059978347141678,"117":-0.06156244484848258,"118":0.003197591838108859,"119":-0.008448577428231074,"120":-0.05301519434740289,"121":-0.06018965649674295,"122":-0.019849360265052414,"123":-0.017574034286584172,"124":0.015485591516923691,"125":-0.01794992758957545,"126":0.09563204775027029,"127":0.03557896436662419,"128":-0.09622904382651924,"129":-0.11888703495450104,"130":-0.013560401870670704,"131":-0.01396438414939246,"132":-0.12048463167420836,"133":-0.004243127676038948,"134":-0.146968289162133,"135":0.05915514373331714,"136":-0.08858842077646481,"137":-0.10525970352693365,"138":0.01162151021382526,"139":-0.14419851462006825,"140":-0.030661078522804815,"141":-0.1580300024229026,"142":0.04237585796853287,"143":-0.041262478258970454,"144":0.1872056221049627,"145":-0.1135092995072724,"146":-0.10700041723278154,"147":-0.011854314438195245,"148":-0.09101432721459433,"149":0.07879924917229898,"150":0.07305341963931608,"151":0.0575411488498838,"152":-0.01439189349338874,"153":0.01654068455502908,"154":0.05368166043955168,"155":-0.058386040276283864,"156":-0.010696090113146971,"157":0.005579752461886397,"158":-0.007131217652228084,"159":-0.19669438113432397,"160":0.07193814618725744,"161":0.030881552167691565,"162":-0.15498470343381143,"163":-0.005632279342549105,"164":0.16844511396613626,"165":0.044018419454025785,"166":-0.3919516674705662,"167":0.2028779042706961,"168":0.13912594488262586,"169":0.0362402202964311,"170":0.1889985165009547,"171":0.09956649411632454,"172":-0.12586699962220543,"173":-0.17422021063815377,"174":0.20416158291170203,"175":0.07146669862516826,"176":0.02957590094934,"177":-0.005407969533471592,"178":-0.06469733745575003,"179":-0.050239538424279306,"180":-0.31441061339705445,"181":0.0800637503888082,"182":0.06748896719691067,"183":0.1664180264017961,"184":0.056511376581731124,"185":-0.01053619282697791,"186":0.14373968288398642,"187":-0.08987267813451427,"188":0.04903426327393883,"189":0.07886001231918947,"190":0.22984043907680143,"191":0.0351683127548694,"192":-0.15117168709443293,"193":-0.04372600878074626,"194":0.05894333827098306,"195":0.11455960682967099,"196":-0.08126078524834952,"197":-0.001980682713543457,"198":-0.03838690145945086,"199":-0.13973166143773544,"200":0.29427395263551664,"201":0.04148953668825079,"202":0.010001310794176538,"203":-0.05540573867804401,"204":-0.21061363816319623,"205":0.05187864870883492,"206":0.09148686648019129,"207":0.05485933598953452,"208":0.22145968661403848,"209":-0.03612467428638583,"210":-0.025353200950984853,"211":-0.22920946204951181,"212":0.05614059358093518,"213":0.22125794437831692,"214":-0.1043854006053037,"215":0.05157730974012053,"216":-0.007030738961474997,"217":-0.006418242615066181,"218":-0.07602760031074085,"219":-0.11263267637930638,"220":0.1654789800204258,"221":0.12615055713152235,"222":-0.0946925979522389,"223":0.14751405268044956,"224":0.009342323826597302,"225":0.0018457393474175746,"226":-0.14530588170941636,"227":-0.35382568382353347,"228":-0.07822776616782058,"229":0.04929479139429759,"230":-0.10322495169153414,"231":-0.06205395447417381,"232":0.059265149210984934,"233":-0.11695110791952924,"234":0.6323315984942102,"235":-0.27535591072672194,"236":-0.03417142873525129,"237":0.08860775780031252,"238":-0.040129204941590085,"239":-0.07007788671123923,"240":-0.23735420231950732,"241":0.6968593844457727,"242":-0.07121773399504643,"243":0.167575706348358,"244":-0.03379812522917446,"245":0.10014992333423872,"246":-0.02601154013329821,"247":-0.14999350517708715,"248":0.82004380420137,"249":-0.010906636318332094,"250":0.03151726512151076,"251":-0.007666615158987387,"252":0.12050985378156098,"253":-0.09689241767407075,"254":-0.17016985175779278,"255":1.255882277878831,"256":-0.00396015406510844,"257":-0.09511856405631444,"258":0.17566922341094268,"259":0.06955436619662828,"260":-0.0704899329655906,"261":-0.2892688376909133,"262":0.14869446739747869,"263":0.07593441570468168,"264":-0.08939234232748106,"265":0.004090237879541809,"266":0.17901325448127978,"267":-0.011753233124786735,"268":-0.13431832857698167,"269":-0.01249389246431527,"270":0.11157955215553537,"271":-0.1047236997051973,"272":-0.05450499577068517,"273":0.03464895815470999,"274":-0.011958253647689925,"275":0.08398302961665946,"276":-0.09436869626389575,"277":0.028602172632929766,"278":-0.0338124770497768,"279":-0.06822771750778832,"280":0.08205211747718064,"281":0.0932188867793596,"282":0.004048917665238931,"283":-0.1884020740760577,"284":-0.08520370538193164,"285":0.06426991992338582,"286":0.09187497318854984,"287":0.012686415699114028,"288":-0.014868397698559459,"289":-0.06488257347190593,"290":-0.2203717209991112,"291":0.06840380663016962,"292":-0.12324067070662612,"293":0.1224720639353502,"294":0.07054160970519871,"295":0.16169598209162192,"296":0.08303720726016929,"297":-0.2714057290728525,"298":0.19607870751799925,"299":0.05717463571152269,"300":0.07051764704578542,"301":-0.09173928823541869,"302":0.11882062632751389,"303":0.24114369355308102,"304":-0.19791982687949128,"305":0.06903022119888835,"306":-0.00319163707800097,"307":0.06087674974517458,"308":0.024529988475379533,"309":0.03281293569398594,"310":0.33125079801305274,"311":-0.042603721569442386,"312":-0.13107371041957525,"313":0.0575715528107729,"314":-0.016110773728311174,"315":0.17225352909872563,"316":-0.034949673551280695,"317":0.2360748703287777,"318":0.01945363357430696,"319":-0.07557853596935303,"320":0.15175168015077906,"321":-0.027369891613571506,"322":0.0459772382656428,"323":0.04828858884975045,"324":0.14706555458142184,"325":-0.06354117347876012,"326":0.17160320590509698,"327":0.1746355875138788,"328":-0.04870195557258201,"329":-0.02506792011210831,"330":-0.05422240396892591,"331":0.1396014706448222,"332":-0.055626484402896255,"333":0.05437317874085606,"334":-0.014029128372324654,"335":-0.0639516017929715,"336":0.012115132665582172,"337":0.14115264692443247,"338":0.3542138999570244,"339":-0.03899340413207823,"340":0.23280615425368018,"341":-0.24817846198866478,"342":-0.01454416866955825,"343":-0.04506807622600192,"344":0.060001199760083626,"345":0.2958391503873268,"346":-0.07387673611839218,"347":-0.0327511201661103,"348":-0.10802118091130623,"349":-0.08577427626332208}},{"sx":1,"sy":1,"depth":350,"w":{"0":-0.16845284006459046,"1":-0.11919352720429482,"2":0.007510992844670473,"3":-0.06970241014458084,"4":0.014026088266046352,"5":0.05368777546736551,"6":0.1072101375968675,"7":-0.14609310536871284,"8":0.023654752511943784,"9":-0.12672935968142846,"10":0.1030496363189948,"11":-0.09072503070158448,"12":-0.08778831869857488,"13":-0.014422323779179807,"14":0.00631868794436517,"15":0.014834257239851045,"16":-0.03396931465442667,"17":-0.17217918985589692,"18":0.05753970048004404,"19":0.19590853668354996,"20":0.12771958098739422,"21":0.0041311732929440945,"22":0.07574189081646288,"23":-0.09778847463597383,"24":-0.050076010549274776,"25":0.19791626435292803,"26":0.08586424162219133,"27":-0.033899867354859566,"28":-0.15500862431769888,"29":0.06174574105026845,"30":-0.051215989236002624,"31":0.10820292011125224,"32":-0.0750623280699085,"33":0.1736356730001588,"34":0.05779063914592543,"35":-0.10592326752002088,"36":0.05224963262026533,"37":0.11783676770002059,"38":0.0739236679125745,"39":0.102234203843029,"40":0.07001595662666002,"41":0.06333196285575753,"42":-0.08720783922378678,"43":0.04426724187478411,"44":0.16869495773985418,"45":0.18747194074887236,"46":0.026399230569243128,"47":-0.09561690454162074,"48":0.03080391020966331,"49":-0.14009194472972727,"50":0.26504880607812586,"51":0.2136922586428363,"52":0.21557697284749952,"53":-0.11550983253175404,"54":-0.06542464278966668,"55":-0.10270442919762997,"56":0.05162798011564118,"57":0.10526375987600041,"58":0.23538126341929452,"59":-0.005502868481967502,"60":-0.13434850493483605,"61":-0.09202507041307482,"62":-0.08934834471373702,"63":0.023392138238502537,"64":-0.04239930958456394,"65":0.1849589086955706,"66":-0.043196230694907474,"67":0.11353861403357353,"68":-0.04405485139215812,"69":0.13343910098031447,"70":-0.08151232541378503,"71":0.12578600731582348,"72":0.2631092572597888,"73":-0.04319954199596621,"74":-0.05049366699574622,"75":-0.009491592341632252,"76":-0.03726100521414836,"77":-0.035542230272697116,"78":0.004156312676450032,"79":0.13517298254935717,"80":0.09882983588338062,"81":0.14707146315367592,"82":0.03238616548844635,"83":-0.10319488477527,"84":-0.07560139181875744,"85":-0.015601821552452795,"86":-0.019147618482370003,"87":0.020272621131052992,"88":0.11245467363249084,"89":0.1434781724927592,"90":-0.011140545836293292,"91":-0.06346812749776812,"92":0.10862923149609009,"93":-0.031219670884202005,"94":0.20550682726076133,"95":0.06423969852097161,"96":0.12421112862097286,"97":0.057065469200003355,"98":-0.06955809454122376,"99":0.017928262998847033,"100":-0.09120322701978494,"101":0.028701603701057274,"102":0.10764432960775891,"103":0.11602355929282689,"104":0.07870808352323388,"105":0.046793765919258136,"106":0.15449646115587398,"107":0.05961479816298405,"108":-0.08667513876545292,"109":0.022235965804945718,"110":0.2073143493177206,"111":-0.13940678738218285,"112":-0.03861243792109758,"113":0.2108211559470619,"114":0.09076317513290218,"115":0.08949009126943061,"116":0.1218791173938165,"117":0.10960012512009598,"118":-0.15217519283625708,"119":-0.022219643444271554,"120":-0.029199997920628593,"121":0.4041657090483206,"122":0.03944382688889029,"123":-0.08275324148905948,"124":0.020580097169840588,"125":-0.1525475157325056,"126":0.2177563114112762,"127":0.046272051364925106,"128":0.3252443487660071,"129":0.2231399806662476,"130":0.027534839393938988,"131":-0.03088247610916538,"132":-0.18537532565704962,"133":0.14800269261337226,"134":-0.02653538233721641,"135":0.3184623074581657,"136":0.04866247600303529,"137":0.2683302379232497,"138":0.02530421881221585,"139":-0.2068965641878335,"140":-0.028465852304056995,"141":-0.08347792898115293,"142":0.3539462561585031,"143":0.02037200334246338,"144":0.2534696380136581,"145":-0.013753914955079537,"146":0.06694242891410412,"147":-0.061616271355484274,"148":0.09715106574824747,"149":0.47390637894136745,"150":-0.006610194621801296,"151":0.05681279667357679,"152":-0.012976141780540029,"153":0.1958851382982748,"154":-0.13039763671378674,"155":-0.0022221080624365928,"156":0.1674443549324399,"157":-0.14524184255965047,"158":0.040177557629235514,"159":-0.11829954614983776,"160":-0.007631541477782154,"161":-0.10748514141203293,"162":-0.09179294409322963,"163":0.2647628290868252,"164":-0.05564224431570487,"165":-0.13451118253330538,"166":-0.239000327617458,"167":-0.017611298881354227,"168":0.14412448208694612,"169":-0.113465555598517,"170":0.2122466233524583,"171":-0.013382841877327828,"172":-0.03524388464838378,"173":0.023623589688823304,"174":-0.11188843890804157,"175":0.006476369017032895,"176":0.04837105798767609,"177":0.0792209704972547,"178":0.039467460896849986,"179":-0.03658183871908503,"180":-0.015027942968778924,"181":-0.2231499344480954,"182":0.15647605981485435,"183":0.01180354215844423,"184":0.32322313913362805,"185":-0.07903973014078881,"186":-0.14147708388824745,"187":-0.09105223507371205,"188":-0.10038420344502348,"189":-0.02325779904454086,"190":0.16811062644636773,"191":0.14483254928792094,"192":0.09275994755936855,"193":0.13750444498265596,"194":0.07280412874139962,"195":0.1527132586842202,"196":-0.22648737236849464,"197":0.19601941204018997,"198":-0.0038692420298664827,"199":-0.02521329122779058,"200":-0.11191283416774975,"201":-0.19841599422479742,"202":0.08377440475516847,"203":-0.07282165663246304,"204":0.14689994784336688,"205":0.027093543095870285,"206":0.6528173559468163,"207":-0.09223402344561696,"208":-0.09910319687246008,"209":0.0831599202151342,"210":0.11089259228128573,"211":0.0628070209915903,"212":0.02384715152001855,"213":0.7353019768022138,"214":-0.04750861990205404,"215":0.02457807233232629,"216":-0.010800725339642743,"217":0.05502770489150492,"218":0.10822608005137369,"219":0.05244578656827412,"220":0.7588567910215729,"221":-0.09692697420621134,"222":0.06260817422653492,"223":-0.12030407952388623,"224":0.06769502609600447,"225":0.15617604897737558,"226":0.02821827968324589,"227":0.8515658014394437,"228":0.17206927777551703,"229":-0.0881859663617912,"230":-0.059389747455159334,"231":-0.16608543187970334,"232":-0.15091683109064838,"233":-0.23386033247374433,"234":1.0832119207929727,"235":0.005827909648910449,"236":-0.019292928210381564,"237":-0.13472393949438696,"238":-0.06518001049875928,"239":0.14771939067332818,"240":-0.2552737700750386,"241":1.0900291345995776,"242":0.0843448688977642,"243":-0.10959357406553391,"244":0.02107740796038186,"245":-0.2242742945252538,"246":-0.01103277230038913,"247":-0.24518325735225363,"248":0.9313522794130252,"249":0.15634462383666534,"250":-0.2739935160000214,"251":-0.10118485916636444,"252":-0.14686582799735434,"253":-0.1290083090731395,"254":-0.27472906482881576,"255":0.5916318951950166,"256":0.20135095510268985,"257":-0.03257357893931785,"258":0.04625563463416715,"259":-0.0701174403177371,"260":-0.13717631444074055,"261":-0.1084031782241946,"262":-0.27456680981137754,"263":0.15744738948925507,"264":0.06449855729681672,"265":0.023324240611344187,"266":0.0933670454580234,"267":-0.2166234041919941,"268":-0.3224375990251307,"269":-0.4792126033607037,"270":0.046522022264284604,"271":-0.017807041084743486,"272":-0.02339492398738029,"273":0.1917402620697243,"274":-0.14129968836283802,"275":-0.23035372386007325,"276":-0.6162041256818013,"277":0.27036334007048224,"278":0.08857583415774031,"279":0.03912097520469668,"280":0.0013621686825769433,"281":-0.1781285363541115,"282":-0.10520820116422006,"283":0.054562953363271396,"284":-0.15089775456292612,"285":0.12720791195969408,"286":-0.053219343935341466,"287":0.10620906376586767,"288":0.094439360739744,"289":-0.11703199007812665,"290":0.03477655293515206,"291":-0.056606745852273356,"292":-0.08227068848537632,"293":-0.092222580232463,"294":-0.1252529491982177,"295":-0.07656075874518493,"296":-0.1672788926721944,"297":0.05137419602296927,"298":-0.06893960306907305,"299":0.01794705778091369,"300":-0.02685042538277378,"301":-0.07870686269231485,"302":0.00878280533530911,"303":-0.15498310697528347,"304":0.02085581566441288,"305":-0.2721135235186708,"306":-0.013297679426346406,"307":-0.0745188504454555,"308":0.002419712693902445,"309":0.11025015387736736,"310":-0.4651228687941408,"311":-0.721254340162369,"312":-0.18003729888795605,"313":-0.08487492899504653,"314":0.054494057432712927,"315":-0.08210886139870875,"316":-0.35087000324294293,"317":-0.6879285439151287,"318":-0.5220455902979155,"319":-0.47748926838624967,"320":0.07089000598872744,"321":-0.011247326681524502,"322":0.009756330846734582,"323":-0.09665449391274931,"324":-0.32340598015697053,"325":-0.626414459480689,"326":-0.3796675105828545,"327":0.07923663321332028,"328":-0.10738734360818106,"329":-0.07009643739723899,"330":-0.1734447342511941,"331":-0.40398081489699195,"332":-0.3351309294908073,"333":-0.3815756943973271,"334":0.12855582461063247,"335":0.1360431678193464,"336":0.009111712606612676,"337":-0.130721166681901,"338":-0.25749131399347885,"339":-0.2628510514331959,"340":-0.21767226160204614,"341":0.15718166376642156,"342":0.10139526159761039,"343":0.12801576453364463,"344":-0.0023538287977343886,"345":-0.26111876459684,"346":-0.43538627248363754,"347":-0.3227551587333342,"348":0.18358485862629367,"349":-0.1287545593941933}},{"sx":1,"sy":1,"depth":350,"w":{"0":-0.032558716352734544,"1":-0.04293792116786232,"2":0.10745058916961055,"3":0.0033342889500371283,"4":-0.19856093064731412,"5":0.014162844359962038,"6":-0.02793209734637891,"7":-0.03057842496361576,"8":-0.026034579637609762,"9":0.1585545321786605,"10":0.009389005171214144,"11":-0.03371396066053863,"12":-0.008779031292386275,"13":0.028937944816452257,"14":0.00887596769581664,"15":-0.048598438016309996,"16":0.0036136632722865328,"17":0.030422146227151975,"18":0.03740337808912656,"19":-0.11108407476822404,"20":-0.03292849653818231,"21":0.12397784615870436,"22":-0.018477749398653123,"23":-0.030764642108009402,"24":0.060252428350349836,"25":-0.006634801172990879,"26":0.036692346238410875,"27":-0.20529839391286067,"28":0.0814542102519909,"29":0.031787487990067094,"30":0.10996250827590284,"31":0.10588028637251244,"32":-0.017948729953018126,"33":0.056381890417138536,"34":-0.04192160210134703,"35":-0.10757734294384762,"36":-0.06123203453606061,"37":0.0007843669864756635,"38":0.10069682754569495,"39":-0.09486257943142273,"40":-0.03222569549884594,"41":0.032699650624357014,"42":0.027546365686679588,"43":0.12913776816302786,"44":0.08615995603017176,"45":0.05484009552951466,"46":-0.14298442161854025,"47":-0.030164111436099775,"48":-0.01025421194192223,"49":0.03423215912505363,"50":0.04502234156176709,"51":0.12977197110079638,"52":-0.04757082772472941,"53":-0.05804860169136701,"54":-0.06683575364667307,"55":0.18024752046893647,"56":-0.012797280837596226,"57":-0.007906798115440197,"58":0.09294824107088222,"59":-0.04898898394181674,"60":-0.04889524720908922,"61":-0.0018050927358995955,"62":-0.026854702933835396,"63":0.06507862814661032,"64":0.011257182504956326,"65":0.062123138352119536,"66":0.0176632048862781,"67":-0.06721938242234685,"68":-0.03403142138206874,"69":0.01373031088702069,"70":0.1007931775080737,"71":-0.002927129355488211,"72":0.05249885163048137,"73":0.07947671388371245,"74":0.03066474910191154,"75":0.06204200877942255,"76":0.009490506612792438,"77":0.016635019129404283,"78":0.002648413133873976,"79":0.11939663575794052,"80":-0.09268159662589706,"81":-0.07914733532971055,"82":0.02242117190453206,"83":-0.029241842379944073,"84":0.03332320962837878,"85":0.10123433947204406,"86":0.1303034566910661,"87":0.06353309438020338,"88":-0.06348733678089562,"89":0.010081898572069859,"90":0.1252058721890297,"91":-0.0027306940245184316,"92":0.08064597258185088,"93":0.025587386577451146,"94":0.01997665415940862,"95":-0.10565314267273572,"96":0.005513529352148545,"97":0.012279733070379441,"98":0.022115347828905233,"99":0.03442447288408581,"100":0.019317002216182932,"101":-0.06256147803364595,"102":-0.02252039215088958,"103":0.049790870895027525,"104":0.19488706545737158,"105":-0.0343084186010939,"106":0.03183903857165907,"107":0.14511295458158255,"108":0.08388953497840501,"109":-0.25095741415411693,"110":0.03300361054803893,"111":0.21549108075449735,"112":-0.057082938593775424,"113":-0.04809094960543427,"114":0.065973283376598,"115":0.04039503948653691,"116":-0.10677777734615386,"117":0.028673787609107007,"118":0.1723086936247162,"119":0.09617232440785803,"120":-0.04237003640153702,"121":0.003802926083716851,"122":-0.0678169128039062,"123":-0.14993657333068452,"124":-0.013423598845190442,"125":0.09975071698810042,"126":-0.018501800404361807,"127":0.014780846340389899,"128":0.13956300118918236,"129":-0.02807191335652345,"130":-0.09513262033144021,"131":0.02999899085470449,"132":0.14638361698086147,"133":0.023053451013244058,"134":0.01760275981509094,"135":0.13130309915611357,"136":0.08122535520459788,"137":0.019454594045861886,"138":0.11244145747532026,"139":-0.020924017434596143,"140":-0.036463723015244975,"141":0.008133603548409913,"142":0.03275780373977958,"143":-0.0511655559629483,"144":-0.11900637747109276,"145":0.07243547514354984,"146":-0.009271928922054692,"147":0.029673778598874788,"148":0.016108602373045188,"149":0.1697401696080512,"150":0.03075306183045272,"151":-0.009545983308978542,"152":-0.013493723949152117,"153":0.09089503451136663,"154":0.030306377292986363,"155":0.02734796240365562,"156":0.030360220943800958,"157":-0.03333326050395538,"158":-0.07466799563872757,"159":-0.09314187110970053,"160":0.1491373649227385,"161":-0.01787039461847606,"162":0.023512867284907923,"163":0.08736493644223893,"164":-0.019139528201820966,"165":0.013785273075756554,"166":0.0850095247218952,"167":0.06253560954195533,"168":-0.01750452987972358,"169":-0.011230184368196821,"170":0.05303539196267114,"171":-0.014580482946918806,"172":0.22619308161505947,"173":-0.09774153909249425,"174":0.060193969270573154,"175":0.06436130631784713,"176":0.044240857680007566,"177":0.058782378925063765,"178":-0.004605802333611055,"179":0.13625571071357492,"180":-0.1258908807845749,"181":0.006988104292545089,"182":-0.0017877312314707548,"183":-0.0068192414247510505,"184":0.09976389003531466,"185":0.03332622379135585,"186":-0.06270097880421267,"187":0.07769473228825889,"188":0.018922679725108412,"189":0.08261941759613853,"190":0.043538991998703286,"191":0.10509866391425483,"192":0.03983372677120244,"193":0.06353085435708847,"194":-0.027427474935124187,"195":0.07078190432326308,"196":-0.018187804327774813,"197":-0.04113581912113589,"198":0.03904893628848108,"199":0.04449744058579813,"200":-0.06646060060503929,"201":-0.001018845277661939,"202":0.08698119582369983,"203":0.10799838542397126,"204":0.05302312748158743,"205":0.09207635249383947,"206":0.14681349464265556,"207":-0.11703370697601703,"208":0.038135560558344175,"209":0.09127123703821798,"210":-0.043006970592574,"211":0.020616500651719466,"212":0.09159335045426498,"213":0.08902895865895179,"214":0.014681159176406071,"215":-0.20576109734455791,"216":0.15513736987327703,"217":-0.012071461135636292,"218":0.045156727941088715,"219":0.12555660963173768,"220":0.009425743630827871,"221":-0.0075455487697575424,"222":-0.1331294818501617,"223":0.06335559319498645,"224":0.004232559713303614,"225":0.04992737771099825,"226":0.05973809734638678,"227":0.09328715039457035,"228":0.0034622941217037763,"229":-0.11028707570019969,"230":0.06724693750847707,"231":0.06976111296626444,"232":0.0073407993920851025,"233":0.07296813634517617,"234":-0.023396208632778172,"235":-0.0647473170285708,"236":-0.1797389326092692,"237":0.0115791754953891,"238":-0.05576551460154158,"239":0.04150607340419978,"240":-0.06567888544397586,"241":0.06848601889012763,"242":-0.005951712160499267,"243":-0.022097983670013255,"244":-0.1318160065829042,"245":0.003132618532525251,"246":-0.046823133497257086,"247":0.07110068063252896,"248":-0.06059607819250773,"249":-0.05124646851445685,"250":0.06407823802114118,"251":-0.028750786404912694,"252":0.02469749489704299,"253":-0.00045373430477892537,"254":0.10381611534420154,"255":0.07307316992396606,"256":-0.15942959904581014,"257":-0.04731904674733911,"258":0.0427861077537297,"259":0.09155621942463689,"260":0.08602395867948094,"261":0.15424923432008747,"262":-0.11361286273735964,"263":-0.06450039455215144,"264":0.01353858997908895,"265":-0.12611478192787773,"266":-0.06050763098455129,"267":-0.0565498810647478,"268":-0.02833068718250481,"269":0.07108751094921466,"270":-0.048501002302893066,"271":-0.0067586325961489,"272":-0.0754459369375443,"273":-0.012872669513146251,"274":0.03190889321292546,"275":0.09967536877435415,"276":0.07394203508668368,"277":-0.13811604715845516,"278":-0.028230075777288574,"279":-0.16420296042925953,"280":0.007450068656413233,"281":0.008924318124189276,"282":0.12363224671909984,"283":-0.13762593130073258,"284":0.16145325016447828,"285":0.03235740712876215,"286":-0.08027149605280452,"287":-0.0030380735854951555,"288":-0.08942463621796681,"289":0.12395888902448549,"290":-0.026503203732011333,"291":0.1642921745245687,"292":0.09318648754831343,"293":-0.14344466555227248,"294":0.1023149779157077,"295":0.09353830842960323,"296":0.0502509173028419,"297":-0.038776125064794026,"298":0.04140457114108199,"299":0.009367141943521121,"300":-0.15330080623997747,"301":0.00007658305248492665,"302":-0.02366906088633787,"303":0.07259541852884815,"304":-0.024061138578635764,"305":0.17150780765953164,"306":-0.000026182302179483368,"307":0.05545971933483879,"308":0.002414666644844359,"309":0.056431714648230345,"310":0.03531420668934503,"311":0.026351577796464912,"312":0.1528025417184421,"313":0.006489424759616562,"314":-0.04373299273939355,"315":0.025872072969295435,"316":-0.04203886660460672,"317":0.16441337853280977,"318":0.0025528144601401938,"319":0.22841774306314516,"320":0.13627058260568592,"321":-0.07222409675762013,"322":-0.030204061802106212,"323":-0.0577370848265348,"324":0.05648161751741423,"325":-0.013712881112859513,"326":0.2581192868356119,"327":0.004545219264308765,"328":-0.08480080717579408,"329":0.09040339215511195,"330":-0.0007653360476629616,"331":0.01604205133028144,"332":-0.02360340514243084,"333":0.36697912718749226,"334":-0.059037486201193076,"335":-0.0917907174672022,"336":0.11651025930165337,"337":0.00789388866193464,"338":0.026896127962350167,"339":-0.04201673606331877,"340":0.11936811121910795,"341":0.07660560742956317,"342":-0.08005636963055225,"343":-0.07689404475731158,"344":-0.052583167233568755,"345":0.0013339595122452007,"346":-0.05091157955876062,"347":0.07662728318674072,"348":-0.080575599766383,"349":0.0007202623935016748}},{"sx":1,"sy":1,"depth":350,"w":{"0":-0.10898825496307016,"1":0.032975252042306724,"2":-0.15882096420763503,"3":-0.04834779346531365,"4":-0.24433225359120928,"5":0.4321757530866728,"6":0.07202064817453155,"7":-0.26354367674291035,"8":0.0052689054533021015,"9":-0.06912119625027575,"10":-0.26073182220113883,"11":-0.029895983626952432,"12":0.14803526371262132,"13":0.22393281366549805,"14":-0.2105622421475628,"15":-0.03371864056384438,"16":-0.10830072265848639,"17":-0.23928864150774368,"18":-0.18970502839499986,"19":-0.09711661724703496,"20":0.10808978083635211,"21":-0.10017848588812617,"22":-0.10348486037688963,"23":-0.13821183434585427,"24":-0.20490073872753295,"25":-0.09555259524528348,"26":-0.016880403474965028,"27":0.008850612209184983,"28":-0.06786171151401106,"29":0.12700268739175966,"30":-0.03554123840453529,"31":-0.0962707923136292,"32":-0.08756982995256193,"33":0.10385185200418441,"34":0.28267841119056347,"35":-0.14937565255149557,"36":-0.1139525328973361,"37":-0.06391796398938046,"38":-0.2826678854780144,"39":0.054966412494211477,"40":0.17989744064429622,"41":0.04287900730936811,"42":-0.09925605271915755,"43":0.053903879423912615,"44":-0.13371367311941104,"45":0.029908568093952488,"46":-0.03423816485799472,"47":0.03198256579979641,"48":-0.05490774361941769,"49":0.0837069670083221,"50":0.11357767300285385,"51":0.0006856172590515964,"52":-0.04895677069415985,"53":0.2211424466273481,"54":0.016780763011192766,"55":0.14712649302558065,"56":-0.032261609830627536,"57":0.025575718812912845,"58":0.09177666950167077,"59":-0.18066752481616088,"60":0.08243484042521057,"61":0.23214033250827862,"62":0.148224790710556,"63":-0.04623556558296284,"64":0.15607964143959616,"65":0.01695060010842957,"66":0.0680072545070937,"67":-0.1490328431196465,"68":0.1153279133222071,"69":0.03332790436135572,"70":0.10795026409453506,"71":0.1509092156878511,"72":0.02523997447003196,"73":0.13646123262934692,"74":0.06968357608311038,"75":0.37274047576079194,"76":-0.000683882861306434,"77":-0.14039223082151783,"78":0.008488392984924098,"79":-0.09392697437105522,"80":-0.08290971652602411,"81":0.10178376249173686,"82":0.4093482848708405,"83":-0.03727196133445647,"84":-0.16346021614456,"85":0.10274546246392761,"86":-0.03630848861974967,"87":-0.09283273464404178,"88":0.07097063715450994,"89":0.21610962178883536,"90":-0.08525286308119606,"91":-0.13859226370869054,"92":0.06144452751044741,"93":-0.21564920056900305,"94":-0.1415781240064391,"95":0.22695826971071392,"96":0.3515608897193617,"97":-0.02398918459631058,"98":-0.08807570468221351,"99":-0.10578577677974053,"100":-0.13259006215965413,"101":-0.1927025010579773,"102":0.17492295405036262,"103":0.17675477943898385,"104":0.09606663580952493,"105":-0.016988105161039255,"106":0.02301994135042717,"107":-0.11555895743726306,"108":0.04688051555377819,"109":0.18319065208078292,"110":0.2570948980878735,"111":0.030983689275827085,"112":-0.07173572153430889,"113":-0.12310887195561457,"114":-0.25731186350626883,"115":-0.03462381272588755,"116":0.1126184594279115,"117":0.0666888703910228,"118":0.04140471826860255,"119":-0.012955999894611572,"120":0.11429357488379757,"121":-0.11934966011644028,"122":0.07615360873813261,"123":-0.10489580897739927,"124":-0.016981988560891958,"125":0.11493264946744396,"126":-0.21369787491256778,"127":0.07623537741204628,"128":-0.2862511075375816,"129":0.030509414743518846,"130":-0.008849593738655433,"131":-0.11966097454953493,"132":0.15528531196201156,"133":-0.0682843922650664,"134":-0.13343489880614712,"135":-0.29875703582639274,"136":-0.2216928748753473,"137":-0.05302450072523969,"138":-0.12058971502582876,"139":0.2998859522337937,"140":-0.15509899907077962,"141":-0.028787449806097765,"142":-0.5414556037160567,"143":-0.13433570111606447,"144":0.17393303842583302,"145":0.1857418741764673,"146":0.20754628894454785,"147":-0.09044935226648523,"148":-0.14860610920909523,"149":-0.272462669721034,"150":-0.1764447263357553,"151":-0.002487510629498816,"152":-0.014841282091785426,"153":0.1687786106048543,"154":-0.1250466286711996,"155":0.05870628957301912,"156":-0.1399735492826243,"157":-0.4020976320370508,"158":0.035293932128838565,"159":-0.03656334816869812,"160":0.163735930426877,"161":-0.13300412940906556,"162":0.014210537510645818,"163":-0.2695569964889107,"164":-0.007735795777107915,"165":-0.16794308447017156,"166":-0.016727811950066975,"167":0.14935607056802422,"168":-0.08433467694869796,"169":0.02547945821290777,"170":-0.03329480941736445,"171":-0.29714096493413616,"172":-0.12096451770835241,"173":0.02240526929937788,"174":0.24789481605683283,"175":-0.16252610935102016,"176":-0.1608902388976163,"177":-0.10693685325908896,"178":-0.25175936140293564,"179":-0.05482628479008136,"180":-0.02401266269001477,"181":0.25991307049656226,"182":-0.16866110232879702,"183":-0.08351572396924267,"184":-0.14215924903035196,"185":-0.22171058952934566,"186":-0.003729703623054062,"187":-0.05069225713514627,"188":0.3258491197064313,"189":-0.19453799716349773,"190":-0.1534397682658467,"191":-0.20708175571584786,"192":-0.22509830238940123,"193":-0.18065309295092946,"194":-0.03857410766403318,"195":0.23070328558950248,"196":-0.06691615198209733,"197":-0.09949930013233532,"198":0.01133350325372951,"199":0.07992675134319778,"200":-0.23846035453701112,"201":-0.27391534253820554,"202":0.2249416847649327,"203":-0.13712492007503974,"204":0.04618858773261173,"205":-0.20009350305165197,"206":-0.3542105766202195,"207":-0.3816192869759879,"208":-0.11501574136502717,"209":0.16270195324316555,"210":-0.1060015675240399,"211":-0.026238727856991165,"212":-0.052885889280874496,"213":-0.20608565632247547,"214":-0.2864118735573038,"215":-0.01946167901730788,"216":0.13846611455500193,"217":-0.07099302890831476,"218":-0.08223470745018775,"219":-0.20318729675601202,"220":-0.30083268457739987,"221":-0.4170458083260487,"222":0.09575075419332493,"223":0.20411761748420376,"224":0.018750851857350453,"225":-0.05198870509191077,"226":-0.21821327989854172,"227":-0.7738962681466534,"228":-0.45636995953764575,"229":-0.12327389832299387,"230":0.13076248942087343,"231":-0.10448619719688226,"232":0.13697164706671042,"233":-0.01757148687273865,"234":-0.7146106077287533,"235":-0.40531527940417755,"236":-0.10714991908412055,"237":0.19532904828445413,"238":0.030034850136144587,"239":0.12186834071264299,"240":0.07102715499748975,"241":-0.620125283620976,"242":-0.47825465091196445,"243":0.06384424075365289,"244":0.2802963684850179,"245":-0.070697670041912,"246":0.04514800039662403,"247":0.10065617898179977,"248":-0.6513658812782057,"249":-0.48170204297002805,"250":-0.14078493078093995,"251":0.34781251655183787,"252":-0.12855173012783883,"253":0.09616994580517998,"254":0.11638519450606429,"255":0.057643726387117525,"256":-0.4725792300890454,"257":0.15254010182560745,"258":0.18099316748077407,"259":0.1482640927629947,"260":0.009068505368941658,"261":-0.0901830286277722,"262":0.32310524571666804,"263":-0.17969736588233592,"264":0.12163104969645516,"265":0.1009807180195837,"266":0.09543449421378612,"267":-0.05050492588089138,"268":-0.03960060659150084,"269":0.4904148991659346,"270":-0.3897142395733628,"271":-0.11395339847592592,"272":-0.07243677626755655,"273":-0.012419635334404015,"274":-0.038715622451546756,"275":0.039774440793082975,"276":0.5246453701188042,"277":-0.2672925571184711,"278":0.12357108068433151,"279":-0.08657592820466044,"280":0.10898469462518884,"281":0.10843360258903938,"282":0.19919707160647956,"283":0.13332099831658933,"284":-0.13954562694768852,"285":0.14867118590036532,"286":-0.06127951826643761,"287":-0.001623609099131931,"288":0.07735885541948563,"289":-0.12900656432007862,"290":0.06383819906476727,"291":-0.1753527346472172,"292":0.256885378594174,"293":0.021587307773448142,"294":0.012314989297668649,"295":0.0633796392641483,"296":0.015375058156636678,"297":0.08376416875570135,"298":0.15860811249144938,"299":0.24056178229645397,"300":-0.23853246154379146,"301":0.09653563466921046,"302":0.024544454368387487,"303":0.050715284764671874,"304":0.04753563452380661,"305":0.2015382230447213,"306":0.2875617902813421,"307":-0.2278150625595646,"308":-0.05383617983115238,"309":0.10316870963210943,"310":-0.027607659628903602,"311":0.4081005524310903,"312":-0.22473823516321378,"313":0.27428427714104725,"314":-0.12864645227271299,"315":0.0288780061250241,"316":-0.039070093473298206,"317":0.23769498457198032,"318":0.4713060707712052,"319":0.2151686212004075,"320":0.2051366669489406,"321":-0.03677336854615001,"322":-0.00009576463331691688,"323":0.05682118128295583,"324":-0.04277802564150776,"325":0.46995466643927447,"326":0.008146425240698722,"327":0.1476945010289908,"328":-0.030195752840099184,"329":-0.13925364213964395,"330":0.017983703358991805,"331":-0.007233477863282078,"332":0.23405422828010503,"333":-0.20174486637509792,"334":0.23932549125864228,"335":-0.20086266983466478,"336":-0.053563471608744244,"337":-0.004156005936846121,"338":0.011843294305521432,"339":0.016092917779504157,"340":0.09404441427830249,"341":0.08558269281050611,"342":0.018673980355934993,"343":-0.016076576891847577,"344":-0.05093953496550462,"345":-0.050948894655514436,"346":0.033050035263539224,"347":0.02598424003742853,"348":-0.16861665487710034,"349":-0.10455539102818702}},{"sx":1,"sy":1,"depth":350,"w":{"0":-0.07024824294244582,"1":0.033531285893431205,"2":0.07517872713291443,"3":0.29553560409244456,"4":-0.14737143859300475,"5":0.00869420807972148,"6":0.0012359009061285995,"7":0.04139039323619124,"8":-0.06462613646258691,"9":0.048061837536593245,"10":0.23354623355957016,"11":0.004842066541276907,"12":0.10325693405485134,"13":-0.0062030877584042,"14":0.1441047447716263,"15":-0.05163105454817704,"16":-0.1550613187138213,"17":0.1682465835955785,"18":-0.054318146933711876,"19":0.19022719558354065,"20":-0.013063588697704173,"21":-0.07671999075226185,"22":0.006011159775031091,"23":-0.08481345207277392,"24":0.23841322809350954,"25":-0.0317711521783405,"26":0.07893981409030623,"27":-0.03711424803039526,"28":-0.0856020189130491,"29":-0.19201966999659864,"30":0.01981310281280447,"31":0.2897946328818042,"32":-0.11573919079405907,"33":0.019658439733388138,"34":0.010228103201362805,"35":-0.0031767240986658044,"36":-0.253457609641768,"37":-0.0927862183742865,"38":0.1682744068426302,"39":0.05372602830978006,"40":0.028808182207790696,"41":0.07952013186310786,"42":0.035072413567692064,"43":-0.35327981139069475,"44":0.03881374155048957,"45":0.2493670748042421,"46":0.0754093787545125,"47":0.1782855598881318,"48":-0.07540813033415815,"49":-0.05286386975435833,"50":-0.2824452582943773,"51":0.13149009493722044,"52":-0.05536158888450431,"53":0.1509390835652202,"54":0.015981881809744514,"55":-0.05011185974105863,"56":-0.0528946170720957,"57":-0.5206916172024406,"58":0.01215013419156939,"59":-0.0894504918848655,"60":-0.06430495172673975,"61":0.06025291490348147,"62":0.09064856216252348,"63":0.14505574681567585,"64":-0.13817312830468237,"65":-0.05437555563499352,"66":0.036635233048337795,"67":-0.11009005550220394,"68":0.16022718749258713,"69":0.05035683271349153,"70":-0.013928464179604649,"71":-0.20955644562344786,"72":-0.13618159824537343,"73":0.06555457519529118,"74":0.04701497604370386,"75":-0.015200039293136002,"76":0.1392954002462,"77":0.07091037856230714,"78":-0.20546882331095276,"79":-0.11880665397952683,"80":0.21473874150677055,"81":0.15611592303636584,"82":0.0050348309516334636,"83":-0.010784199320811934,"84":-0.054555179017390015,"85":0.06458240568809225,"86":-0.08124053925969736,"87":0.16114716379661356,"88":-0.04561187767505088,"89":0.09409127450208518,"90":-0.07847200533098359,"91":-0.040938219020639634,"92":-0.13270110814246946,"93":-0.19755335135961127,"94":-0.09168492376345057,"95":0.08164756721819587,"96":0.09116933303994593,"97":0.008679238305813445,"98":0.04592469713365571,"99":-0.12254610321201101,"100":-0.05077694224994388,"101":-0.12081335085016912,"102":0.21144806500274083,"103":0.06712993057131564,"104":-0.012772697049629906,"105":-0.0766712484769631,"106":-0.08376206956137128,"107":0.05054545041579579,"108":0.06941865284487458,"109":0.20970319577787588,"110":-0.02154045672172968,"111":0.07606691651282231,"112":-0.010357208183530893,"113":-0.1835411903209537,"114":0.04474873148368908,"115":0.123465557275817,"116":0.13379522827793797,"117":0.0024299040208705333,"118":-0.019434182265388383,"119":-0.03571679342362744,"120":-0.36079161635295215,"121":-0.022318304455410713,"122":0.11127764765185863,"123":0.09724558521139996,"124":0.12079646934927243,"125":-0.017138395853629553,"126":-0.015736496752729208,"127":-0.25239605990227076,"128":0.09255026852803014,"129":-0.09392945841467232,"130":0.10631193472161639,"131":0.09189115796315571,"132":0.009564267182517447,"133":0.05267920968445891,"134":-0.23852065287415325,"135":-0.013329196191722209,"136":-0.025307964007870137,"137":-0.10482112132396805,"138":0.08334890189812794,"139":0.07911043439398457,"140":0.03993312024962526,"141":-0.1695527906762467,"142":0.005577108830613237,"143":0.016004643649205154,"144":0.22018017307750054,"145":0.10810815387470019,"146":0.06054613111623233,"147":-0.1229346306653824,"148":-0.17132658118548819,"149":-0.0005549521770541172,"150":0.24309976506301412,"151":0.022203636514809326,"152":0.12360155097588948,"153":-0.004005277161214782,"154":-0.34501014821875053,"155":-0.164323866523833,"156":-0.17246822538270956,"157":0.23191195230210776,"158":0.2524739038767479,"159":0.10611271966683654,"160":0.11788437409723966,"161":-0.18199720008288905,"162":-0.1343942289454023,"163":0.04609933558583888,"164":0.16263658301364842,"165":0.26208557390196224,"166":0.13328346208502356,"167":0.05308042344966588,"168":-0.3367274353054905,"169":-0.10802043914742879,"170":-0.13173667022158755,"171":0.3307060108097949,"172":0.20279338080624817,"173":0.16052374097922653,"174":0.06278371546285628,"175":-0.1626751699721636,"176":-0.14429911252500896,"177":-0.14167311698120744,"178":0.35065317903355064,"179":0.13448929897181572,"180":0.11857550671788764,"181":0.024312757089888108,"182":-0.16178181016770546,"183":-0.2011606526656519,"184":-0.12776982664833103,"185":0.23113087136882124,"186":-0.15629496826542164,"187":0.10353335050494318,"188":-0.10713102108240306,"189":-0.03542581094831837,"190":-0.21668632996382442,"191":-0.06753967654937965,"192":0.3462283772520175,"193":-0.03399777843358927,"194":0.07905200667767594,"195":0.06159893919095184,"196":-0.09057233557786168,"197":-0.057083654653560446,"198":0.06543091620286896,"199":0.16484457127240962,"200":0.10181552353947367,"201":0.02768385456218342,"202":-0.021554068187244837,"203":-0.20482087201326935,"204":-0.15404661477358456,"205":-0.052854774337839534,"206":0.07994178432179837,"207":-0.017750277973207364,"208":0.09177743564090779,"209":0.03570233404099681,"210":0.1802268016690815,"211":0.09557899191515609,"212":0.16026139367503933,"213":-0.07242320457589901,"214":0.17664886227561843,"215":-0.04995174737506167,"216":0.05716038500975559,"217":0.03880800450305629,"218":-0.056450036347710175,"219":-0.05938692126434037,"220":-0.06739422394284146,"221":0.2633127058165488,"222":0.02670465011592876,"223":-0.00268603883581743,"224":-0.03837956795333905,"225":-0.14795169784106219,"226":-0.054402094527344555,"227":-0.1093330149666641,"228":0.21376840849295362,"229":0.006896580922400975,"230":-0.02859336457704747,"231":-0.17874921274423866,"232":-0.02471426653932949,"233":-0.038550760405078474,"234":0.11591809702694966,"235":0.15190219009204053,"236":0.14487134637215093,"237":0.062482885078389935,"238":0.062330517875386945,"239":-0.0841225813332509,"240":-0.12286259201572998,"241":0.35036092155956683,"242":0.1094001674662536,"243":0.12307207518366352,"244":-0.0019177573088313955,"245":-0.09516237230936722,"246":0.1543672985037014,"247":0.21382270851452753,"248":0.2841671957495084,"249":0.1893065823728964,"250":0.11804883058235112,"251":0.0060115152608473214,"252":-0.20306365110069322,"253":0.19925385969339424,"254":0.22833040395519774,"255":0.3011827334570683,"256":-0.08031097759869077,"257":0.0707959293869846,"258":-0.03259037252688605,"259":0.06405478689744688,"260":0.2741036336942942,"261":0.4616222803981931,"262":-0.1852993061095251,"263":0.07093420524636943,"264":0.16341531057338912,"265":-0.02494254402359075,"266":-0.02750876581135921,"267":0.14952231350554943,"268":0.3190505257960204,"269":-0.3057756294029688,"270":-0.03359353448284498,"271":0.12754918108585075,"272":0.07575949372774919,"273":0.035984926296720704,"274":0.20590483553607658,"275":0.13925880269815274,"276":-0.2827189782651412,"277":-0.07242486346511817,"278":0.015006076487097713,"279":-0.054216875060904335,"280":-0.04217869789749037,"281":0.18724757171693465,"282":0.23227796780060886,"283":0.126517337875435,"284":-0.1536075847930203,"285":0.08715101816815404,"286":0.005217850584945015,"287":-0.03711464660045487,"288":0.08009661041066958,"289":0.02737422653504379,"290":0.09245981356643056,"291":0.014931349551136066,"292":0.044741252950703254,"293":0.09692392383910607,"294":-0.06294656419164105,"295":0.04361570218074866,"296":0.09366894249976142,"297":0.10645540281085236,"298":-0.16229769339189545,"299":-0.014015554710319322,"300":-0.03793245374722908,"301":-0.13714215580478306,"302":0.10908051851972864,"303":0.330524401601876,"304":0.1100165839689297,"305":-0.22759419876361847,"306":0.09150309153450356,"307":0.09942812636758462,"308":0.07340434899436435,"309":0.036868053245324245,"310":0.1182426711007817,"311":-0.1871777542129054,"312":-0.23775510377979492,"313":-0.022450433121376328,"314":0.017250430584595515,"315":-0.06639017030552773,"316":0.029285367185640516,"317":0.16705303941570318,"318":-0.12124656266198568,"319":-0.20089429006190032,"320":0.07852848008070924,"321":0.14405109751111156,"322":0.036599042906982696,"323":-0.07089954816574706,"324":0.050376090021672565,"325":-0.1031967691976284,"326":0.15644883494530712,"327":0.01630417974371051,"328":-0.07400152323812008,"329":0.22118045764660935,"330":-0.0014793911112218046,"331":0.08574539079967544,"332":0.29296432500511993,"333":-0.13282870472948355,"334":-0.019353263438611695,"335":-0.049523580818843796,"336":0.21498473185962017,"337":0.15245489720588418,"338":0.2222038060502375,"339":0.14772732474410313,"340":0.014295961731733305,"341":0.005934456943128563,"342":0.11190838611642345,"343":0.002646354954772273,"344":0.23569885871642096,"345":0.18127188926747667,"346":0.012272965061525346,"347":-0.05122704336543883,"348":0.09942181334082117,"349":0.01338396271543628}},{"sx":1,"sy":1,"depth":350,"w":{"0":0.0021861579662296664,"1":-0.027958659716901618,"2":0.04219239812225007,"3":-0.10047783462927527,"4":0.04580209310527866,"5":0.01182192945048285,"6":-0.03913569364089151,"7":-0.009379104394579453,"8":-0.01648055639867357,"9":0.022730569790341836,"10":-0.04796763652529978,"11":0.09652037223129983,"12":0.03805422821170065,"13":0.02735448864985567,"14":-0.07501885636422957,"15":-0.0056516875991961145,"16":-0.08544269356644629,"17":-0.04944564138239488,"18":-0.023620988701527762,"19":-0.07999841753428293,"20":0.03528091870295207,"21":0.07706678401082594,"22":-0.08093903433001587,"23":-0.12380656232884679,"24":0.09991781517563453,"25":0.042959399932756735,"26":0.013361647506789049,"27":-0.12175853157152525,"28":0.010769210487044593,"29":-0.07464403689289081,"30":-0.06870151508910247,"31":-0.08118854371372768,"32":0.03253480570320242,"33":0.0307412450018429,"34":0.017576400003161918,"35":-0.03298134170720817,"36":-0.0494317270160044,"37":-0.03527792579486748,"38":-0.0006388165379052609,"39":-0.08451013800288161,"40":0.06193142584691184,"41":0.12583409088242453,"42":0.040823518882396354,"43":-0.03094262665149753,"44":-0.07532915025580428,"45":-0.06878992433800839,"46":-0.052516929014780805,"47":0.017710780557114156,"48":0.04207630169435168,"49":-0.0003294577162664862,"50":-0.0262181872063333,"51":0.05139054997778462,"52":-0.0387587227381355,"53":-0.0598221173079471,"54":-0.01407618858186013,"55":0.05163145849334866,"56":0.1107376216106695,"57":0.06482279342954743,"58":-0.07049843529407929,"59":-0.08861968910518442,"60":0.027682383938535605,"61":-0.04826086582764779,"62":0.006833592152541856,"63":-0.01592955697044461,"64":-0.047141319234091865,"65":0.008938680887430774,"66":-0.005341877416784169,"67":-0.0017918815352922675,"68":-0.08564576281657615,"69":0.01979760322163684,"70":0.022767849452564836,"71":0.042794936862867866,"72":0.007267213515731778,"73":-0.00146194394934023,"74":-0.021245422333088394,"75":0.06464947536359952,"76":-0.0704575433616073,"77":-0.0693785885859746,"78":0.01789721182538662,"79":-0.02027510149187604,"80":0.044103517043241273,"81":0.01269960786789359,"82":-0.08001372573551015,"83":0.08576650779252874,"84":-0.044005412881166196,"85":0.057327246496049304,"86":-0.006764726276226242,"87":-0.14117464128385981,"88":-0.02328803207318118,"89":-0.024736030035560668,"90":0.013801716785419641,"91":0.023766191280387886,"92":-0.009324745221803245,"93":-0.07581560820485994,"94":-0.02025872809909891,"95":-0.05332330023882587,"96":-0.07705889394697317,"97":-0.021406900092276308,"98":0.0855318058882527,"99":-0.05086277429467953,"100":-0.022633485122307822,"101":-0.02881161104233039,"102":-0.06668967079346967,"103":0.0431501268496029,"104":-0.043556126507842075,"105":0.009184176586486136,"106":0.011369607517905533,"107":0.08865077311419874,"108":0.012778953022687715,"109":0.035379222447476766,"110":0.0412584160808673,"111":0.053214429878473114,"112":-0.047851246772100474,"113":-0.09306182645568407,"114":0.04730391286274307,"115":-0.01949384662544798,"116":0.010968356593476865,"117":-0.02253766201309873,"118":-0.044208878754153684,"119":0.008950766771839693,"120":-0.07448140582136331,"121":-0.023475064720353548,"122":0.040746325833379136,"123":-0.05523527132339933,"124":0.15798984335725658,"125":-0.05270600335040922,"126":-0.03149412510435204,"127":-0.055051333889885465,"128":-0.006075672566984241,"129":-0.06657309556373663,"130":-0.1022691672215567,"131":-0.03181670502760515,"132":-0.06858310621626695,"133":0.028469559611081035,"134":-0.039591551479155496,"135":0.10561783303364486,"136":0.018387342371643366,"137":-0.020391810904783658,"138":-0.022075837501818085,"139":0.02750549140454656,"140":0.06599340627351208,"141":0.06928514696698561,"142":0.04009294754058178,"143":-0.01377471860662821,"144":-0.035366982089614044,"145":-0.05227448379356662,"146":0.07030050630031559,"147":0.09530781722040889,"148":-0.034792086979071664,"149":0.08370985142172122,"150":-0.10088378754621886,"151":-0.08123301410125798,"152":-0.04156907762596941,"153":-0.0466385981285994,"154":-0.01931153448964116,"155":-0.032128352280674614,"156":-0.0682127171238273,"157":-0.11862005410059685,"158":0.05743188292689031,"159":-0.033717579306258016,"160":-0.08340542591462978,"161":0.01965324074970803,"162":-0.037940841019574956,"163":-0.008806505308375751,"164":-0.04187474522789296,"165":0.1175326910357949,"166":0.04016542984983984,"167":0.07603525565430853,"168":-0.02808526222375075,"169":0.029008813070839794,"170":0.009204435932672207,"171":-0.0598941605912957,"172":-0.07219389215701949,"173":-0.031681632205072766,"174":0.01141962117893008,"175":-0.08775899248944083,"176":0.05684189319223998,"177":-0.028923157510432687,"178":-0.05643420537845728,"179":0.06039322367410245,"180":-0.09735972662556021,"181":-0.005418945173168352,"182":0.08197865754879698,"183":-0.05160270176609465,"184":-0.02613176209243381,"185":-0.06705837038797255,"186":-0.017189879858817276,"187":0.020340972869765658,"188":-0.014581962886864005,"189":0.01583607151037801,"190":-0.012270614977039095,"191":-0.028640044066786424,"192":-0.009728146894023758,"193":-0.04236890095635064,"194":-0.07250318334113463,"195":-0.021959626115245004,"196":-0.037727715517631155,"197":-0.040882935944696025,"198":-0.028264094371399127,"199":0.06627395622071086,"200":0.07089440217282532,"201":0.05803604512439904,"202":-0.027359937764762848,"203":-0.03512175644702347,"204":0.020283656215530528,"205":-0.060025958661193896,"206":-0.014380328368069791,"207":-0.07797144778405048,"208":-0.05905294791783682,"209":0.0654338312086211,"210":-0.01553163369061418,"211":0.027292103663988643,"212":-0.0063906524450068215,"213":0.077136621560301,"214":0.023931202841899542,"215":0.039791165005855056,"216":0.03919282655709254,"217":-0.06587373775623351,"218":0.04898315022586787,"219":-0.02741505865456042,"220":-0.058204299894027395,"221":0.017460326398228962,"222":-0.04270053994920347,"223":0.04716396724686767,"224":0.01511956097712988,"225":-0.07530823497215969,"226":-0.01332963205704819,"227":0.09368388870149952,"228":-0.03803170697735511,"229":-0.021189005232901487,"230":0.02785522456983958,"231":-0.03076979887430726,"232":0.0024134925471121934,"233":0.008126862296917859,"234":-0.05245477916904217,"235":-0.011735253464763744,"236":0.06680379094164186,"237":0.02729140275639249,"238":0.004663032410694671,"239":-0.0050636946597247,"240":-0.015226926526544114,"241":-0.08504982047249253,"242":-0.024587004361142806,"243":-0.04042566100792644,"244":0.06110468693241876,"245":0.0246688225697754,"246":-0.0646367325974328,"247":-0.016714831948994317,"248":-0.042739727187790184,"249":0.03244808050558977,"250":0.13052633748162687,"251":0.06007474620351298,"252":0.046881933079609715,"253":-0.06173350973499081,"254":0.008727538998820937,"255":-0.03191724556417418,"256":-0.08309283802983392,"257":-0.04256462513441454,"258":-0.038547544554727094,"259":-0.03070088627292897,"260":-0.052714739194854296,"261":0.018565751632281642,"262":0.08117060813176762,"263":-0.10297316327442367,"264":-0.016780413237262246,"265":0.03373380017410008,"266":-0.07914479692509972,"267":0.06027770643019528,"268":-0.04447455971215212,"269":0.04575857561944859,"270":-0.07881034021478306,"271":-0.10062317096094275,"272":0.034407603712922556,"273":-0.029314773113634427,"274":-0.12628263248265703,"275":0.03700499622691715,"276":-0.004152220508146266,"277":0.03778225117180228,"278":-0.05702077496472795,"279":-0.06372506012025785,"280":-0.008387790441518807,"281":0.009159501604023297,"282":0.01785464127874208,"283":-0.11611893237558304,"284":0.008696696744775459,"285":-0.03422239584693414,"286":0.026864128734298404,"287":0.01781328359790638,"288":0.03360358689496133,"289":0.14480138102554688,"290":0.02026680947443309,"291":-0.025621255053427827,"292":-0.02077459042689457,"293":-0.024114205562122265,"294":0.04560175317556807,"295":-0.11156505784031788,"296":0.043995539054293806,"297":-0.199715353407996,"298":-0.011102834494150575,"299":-0.04723262537759988,"300":-0.02710845833594918,"301":0.0088095749119414,"302":-0.05939977631577366,"303":0.0044802333536204785,"304":-0.15014914199511178,"305":-0.006374889163391481,"306":-0.0972527712586752,"307":0.041938082279580256,"308":-0.10699702341850394,"309":-0.004604585735008022,"310":-0.019007506177019004,"311":-0.03215323689779537,"312":0.03960470341915867,"313":-0.0013700088875353512,"314":-0.05804265871484026,"315":0.004439015191587903,"316":0.04958383746441107,"317":-0.06675655906144833,"318":-0.04378761371730814,"319":-0.13075720383121356,"320":-0.0838823479901901,"321":-0.01685956378566855,"322":-0.04384682137412814,"323":-0.08301693275411164,"324":-0.06671007623033348,"325":-0.039938588663710306,"326":0.0025342425256978185,"327":-0.0187946872377411,"328":-0.06303756551943748,"329":-0.05922821791412879,"330":-0.02011160348298421,"331":0.03562335782427737,"332":-0.05693907870708269,"333":-0.02922118518442734,"334":0.0073171715414526535,"335":-0.035950783372988786,"336":-0.004280809325758235,"337":-0.12300585581281001,"338":-0.005232396730340115,"339":-0.0019383145879867864,"340":-0.14643057668009432,"341":0.006550979784371521,"342":-0.0822564358995895,"343":0.012111292728948321,"344":-0.01749292867029611,"345":-0.07420152198105491,"346":0.01604070846774965,"347":0.018340696946563234,"348":-0.01423234247706185,"349":-0.018522728294111872}},{"sx":1,"sy":1,"depth":350,"w":{"0":0.004557907389050982,"1":-0.11570159354678308,"2":0.0751360588759351,"3":0.15739177642038407,"4":-0.1873714015888733,"5":0.11068773344354225,"6":-0.08126429582652375,"7":0.14061678539201491,"8":0.14214406414481925,"9":-0.014447898229794259,"10":0.01705559268052574,"11":-0.026527318188072666,"12":0.10772998168511384,"13":-0.03517952570794043,"14":-0.08617526737782451,"15":-0.03472969335170279,"16":0.1295491078748345,"17":0.17304024985369854,"18":-0.041939237290490816,"19":0.031913333224478806,"20":-0.205946666972227,"21":-0.0949932276492323,"22":0.004552049137484179,"23":0.07335079556725463,"24":-0.03406672735061372,"25":-0.013023197422704875,"26":-0.10608604515506061,"27":-0.23090379322200452,"28":-0.10021901939617406,"29":-0.041335534674328794,"30":0.14403984119427204,"31":-0.07768714927475004,"32":0.14974774437638286,"33":0.005846717683597537,"34":-0.14917482950477404,"35":-0.052392401873402765,"36":-0.2262939785179236,"37":0.07995451129468337,"38":-0.020084310460228117,"39":0.048216767191405725,"40":-0.06838050068261879,"41":-0.20331043471226307,"42":0.010325247376273959,"43":-0.03046466965317185,"44":0.01140376966508324,"45":-0.04855334120726124,"46":0.13880892367863315,"47":-0.03872950015818024,"48":-0.20335207671312014,"49":0.0294655394879381,"50":-0.10492833253387734,"51":-0.12035404911101161,"52":0.006074301762688666,"53":0.14463556519606852,"54":0.032279088729110735,"55":-0.17041967671545014,"56":-0.1652902314345709,"57":-0.07058916508596413,"58":-0.0005361162085409956,"59":0.03140876082927372,"60":0.061275085445736,"61":-0.0464730253569977,"62":-0.09505975702825942,"63":-0.21028144579140515,"64":0.04720150586773763,"65":-0.20899696769948342,"66":-0.137429643961173,"67":0.20778520378618032,"68":-0.10341114144831569,"69":-0.09091430163998894,"70":-0.06381176162701807,"71":-0.02032182139216031,"72":0.09813144328458509,"73":-0.05607261136052722,"74":0.16199969839265485,"75":-0.004808873347903224,"76":-0.015349458196906886,"77":-0.06308267692728348,"78":0.10650485126428343,"79":0.036348515542906794,"80":0.015012336435915204,"81":0.14246169637801517,"82":-0.06883320548740243,"83":-0.0023312133939978703,"84":-0.13507958674250808,"85":0.07564489837718665,"86":0.003966152063028214,"87":0.031211369853687092,"88":-0.030260604066913013,"89":-0.048586664336051,"90":-0.05119422267912577,"91":-0.15998693081779977,"92":-0.023865186222679403,"93":0.041208214293786884,"94":-0.07013710305256192,"95":-0.17532118780409278,"96":0.10586494369023332,"97":0.09791457492118988,"98":-0.13321811688736673,"99":0.10168078909575305,"100":0.0028286347049610054,"101":0.03308990082211079,"102":-0.0813264042003377,"103":-0.07364867709847653,"104":0.14796515217459813,"105":-0.08811535622245335,"106":0.002051794668618591,"107":-0.013345723998237306,"108":0.09759560817290878,"109":-0.00999580156026905,"110":0.10635304741293876,"111":0.07143482183147348,"112":-0.08763399170426646,"113":0.1843001425465495,"114":0.13971542460310735,"115":0.022710545497497698,"116":0.11495017219723284,"117":0.1421270813953697,"118":0.12463022212646864,"119":-0.05861923100155558,"120":0.0006402141095987523,"121":0.10904651143436125,"122":0.0679466201360179,"123":0.13091399737560713,"124":-0.13729413661375198,"125":0.07899392820057889,"126":0.020196747597295554,"127":0.11631495000253844,"128":0.07071558544601604,"129":0.21058216590968745,"130":0.0030754487846150753,"131":-0.030676333233162743,"132":-0.055365424948943004,"133":0.034509746304736535,"134":0.10293541970064905,"135":0.2631966131155124,"136":0.22892914372583803,"137":-0.01591824677434383,"138":-0.06623212110457606,"139":0.03828886238843602,"140":-0.027372657909886106,"141":0.01773489134026459,"142":0.15627414466822143,"143":0.19766128019271267,"144":0.004680266291718842,"145":-0.04835116817080588,"146":0.034969702933214095,"147":0.05384569795902452,"148":0.09382189132141863,"149":0.20586169557550554,"150":0.21753988816925468,"151":-0.022558300062920165,"152":-0.02038412805597704,"153":0.0631622530933776,"154":-0.06745225321545872,"155":0.023526296215021624,"156":0.05368134106232664,"157":0.1888591167400694,"158":0.021656359044717115,"159":-0.08262298096617575,"160":0.06398276014917983,"161":0.054537301431213804,"162":-0.1568168939975311,"163":0.04132337766911757,"164":-0.06964817104557436,"165":-0.022149698329087267,"166":-0.07258088546443386,"167":-0.023962749638978233,"168":0.07171049328544093,"169":0.03936204654619686,"170":0.1332187470598755,"171":0.04457045738361441,"172":-0.11136334441874626,"173":-0.0658457588942785,"174":0.06968799866738483,"175":-0.02654405961442344,"176":-0.032571254967051426,"177":0.24159525585089148,"178":0.06437217606035772,"179":-0.003973116751678745,"180":-0.03657526739203006,"181":-0.04010588449975666,"182":0.06598152144075102,"183":-0.09666944696993574,"184":0.2604968302796923,"185":-0.23396389900982492,"186":-0.03596460536632939,"187":-0.0197821615870636,"188":-0.000620601933978367,"189":-0.1947869028020451,"190":0.13324321816318385,"191":-0.03878332624029596,"192":-0.061956751338902535,"193":0.0012113749041784971,"194":-0.13633971895126018,"195":0.025050203345493047,"196":-0.09935927381278885,"197":0.00012979614613397916,"198":0.19385193821988106,"199":-0.04280421728929145,"200":0.07353076352524522,"201":-0.05921317020600616,"202":-0.019367677099975947,"203":-0.15138181241567542,"204":0.08243963227565673,"205":0.12120076993093895,"206":0.22339052893598543,"207":-0.0439685664464825,"208":-0.09681888606154215,"209":0.012703217717354725,"210":-0.09996461021899351,"211":0.044850251366652806,"212":0.15826686847839616,"213":0.051247109523727664,"214":-0.11321306937933487,"215":-0.21652280541860758,"216":0.05544352924120176,"217":-0.06607222043106574,"218":-0.1122330949111027,"219":0.18523373801732534,"220":-0.14467860994036713,"221":-0.1631490046230784,"222":-0.04569008597002322,