
//<![CDATA[

// a few things don't have var in front of them - they update already existing variables the game needs
lanesSide = 2;
patchesAhead = 25;
patchesBehind = 5;
trainIterations = 50000;

var num_inputs = (lanesSide * 2 + 1) * (patchesAhead + patchesBehind);
var num_actions = 5;
var temporal_window = 0;
var network_size = num_inputs * temporal_window + num_actions * temporal_window + num_inputs;

var layer_defs = [];
layer_defs.push({
    type: 'input',
    out_sx: 1,
    out_sy: 1,
    out_depth: network_size
});
layer_defs.push({
    type: 'fc',
    num_neurons: 20,
    activation: 'tanh'
});
layer_defs.push({
    type: 'fc',
    num_neurons: 15,
    activation: 'tanh'
});
layer_defs.push({
    type: 'regression',
    num_neurons: num_actions
});

var tdtrainer_options = {
    learning_rate: 0.005,
    momentum: 0.0,
    batch_size: 64,
    l2_decay: 0.01
};

var opt = {};
opt.temporal_window = temporal_window;
opt.experience_size = 6000;
opt.start_learn_threshold = 2000;
opt.gamma = 0.88;
opt.learning_steps_total = 10000;
opt.learning_steps_burnin = 1000;
opt.epsilon_min = 0.0;
opt.epsilon_test_time = 0.0;
opt.layer_defs = layer_defs;
opt.tdtrainer_options = tdtrainer_options;

brain = new deepqlearn.Brain(num_inputs, num_actions, opt);

learn = function (state, lastReward) {
    brain.backward(lastReward);
    var action = brain.forward(state);

    draw_net();
    draw_stats();

    return action;
}

//]]>
    
/*###########*/
if (brain) {
brain.value_net.fromJSON({"layers":[{"out_depth":150,"out_sx":1,"out_sy":1,"layer_type":"input"},{"out_depth":20,"out_sx":1,"out_sy":1,"layer_type":"fc","num_inputs":150,"l1_decay_mul":0,"l2_decay_mul":1,"filters":[{"sx":1,"sy":1,"depth":150,"w":{"0":-0.035764167236885316,"1":0.22647181156322652,"2":-0.1514915279165206,"3":0.04995975212696095,"4":-0.1268434458863476,"5":0.03518378767951247,"6":0.136226930155146,"7":-0.018640733930360434,"8":0.05025145191823783,"9":0.04395106340981962,"10":0.02317251125983158,"11":0.06685430184131805,"12":-0.11604652077396323,"13":0.14888063524099343,"14":0.055558928654924816,"15":-0.03663441906865099,"16":0.056657590209451804,"17":-0.042016299960273444,"18":0.10571257972415869,"19":-0.027685098476860223,"20":-0.10054848176410706,"21":0.01573491947584912,"22":0.039681800470452076,"23":0.22196885845535738,"24":-0.023359603499295663,"25":-0.019262087911317425,"26":0.08069875734189176,"27":-0.06123854233712693,"28":0.01667166227564569,"29":-0.1305456633928238,"30":-0.05790397820842493,"31":0.09957264323962192,"32":-0.03210932926613892,"33":0.10660054939232246,"34":0.0874081447598751,"35":-0.02215832501082594,"36":0.11758418929497154,"37":0.011080973697144664,"38":0.10885334683343141,"39":0.15469796921516427,"40":-0.09740597553220247,"41":-0.002116115624356562,"42":-0.12293465468471428,"43":0.18338740369392392,"44":0.01647213878576623,"45":0.018189777260488423,"46":0.10269436179535157,"47":-0.10806875744921933,"48":0.28598893091813343,"49":0.01939798016871143,"50":0.03331159009604435,"51":0.009138749288191793,"52":-0.1845408508803899,"53":0.06749444846773346,"54":0.17120727898091337,"55":0.030275050088114756,"56":0.006489638827708253,"57":-0.22857221242064982,"58":0.36317991942008726,"59":0.1400827970389525,"60":-0.03804019984961242,"61":0.02579988489436039,"62":-0.15486275959162157,"63":0.214442323270761,"64":0.0035449990883503835,"65":-0.043684536689318945,"66":-0.25530216398780436,"67":-0.27833409099555645,"68":0.42998707889608173,"69":0.04964659250469033,"70":0.16707792772410543,"71":-0.07753643987786255,"72":-0.035947954026901936,"73":0.20107878732792225,"74":0.10569831800869037,"75":-0.04410316172516366,"76":-0.09781232452832456,"77":-0.2471407883519701,"78":0.25414801458473885,"79":0.0669824987367788,"80":-0.09214486873823895,"81":-0.14089882915704408,"82":-0.24943771810747442,"83":0.4851660345901661,"84":0.0701447208915918,"85":0.07123225076433205,"86":-0.10757458618489568,"87":-0.3086078926189241,"88":0.40182038446366514,"89":0.010994676036074333,"90":0.04895827778305521,"91":-0.1568686933409383,"92":0.10541883491806141,"93":0.6695107884071032,"94":-0.005136436366063963,"95":0.02076926900873289,"96":-0.22100986031187012,"97":0.012173224874122224,"98":0.5092653649018782,"99":0.174869415903856,"100":0.05192075032483334,"101":0.01040576914938013,"102":-0.3827759397968066,"103":0.5875587784337488,"104":-0.02103911509725953,"105":-0.15726057554565498,"106":-0.14085680790430483,"107":0.15794964599845113,"108":0.642755629555601,"109":0.13252099271152992,"110":0.15692234339810757,"111":-0.04942997431967682,"112":-0.700353790732082,"113":0.4963685973895244,"114":-0.08241426339617239,"115":0.08869570995946044,"116":-0.08007836949869854,"117":-0.6326191844665736,"118":0.33656024966581655,"119":0.05435261708646397,"120":0.0864282014004121,"121":-0.1012411935857037,"122":-0.7564306072781913,"123":0.26237106591982456,"124":0.05041411410499592,"125":-0.1453447840947798,"126":0.007911507089227375,"127":-0.02219892911497644,"128":0.42288298084932113,"129":-0.040220238123624755,"130":-0.11886488343314991,"131":-0.04037689288575273,"132":-0.19155462914130866,"133":0.09483246710307312,"134":-0.006314757218570115,"135":0.11096412475878698,"136":0.11358907171480095,"137":-0.09018657738694272,"138":0.20321634483643716,"139":0.12964857642590483,"140":-0.1172469358875488,"141":0.002226213413960335,"142":-0.14723206369978198,"143":0.15317531653412747,"144":-0.030233449292208375,"145":0.036418548735845706,"146":0.008715931765659199,"147":-0.6559914277856935,"148":0.20910160322100113,"149":-0.14231469335649413}},{"sx":1,"sy":1,"depth":150,"w":{"0":-0.27935410713663655,"1":0.03415174691792757,"2":-0.19538718767059354,"3":0.1274030613635004,"4":-0.07362059055912414,"5":-0.28459561414097,"6":-0.09362910738149381,"7":-0.003527030082012691,"8":0.17345264103887845,"9":0.037761839451086195,"10":-0.19795365362160516,"11":-0.01617855351218891,"12":0.018647186692504713,"13":0.14826361502443822,"14":0.028815476041388018,"15":-0.09467649305425503,"16":-0.17477186464891997,"17":-0.15160052802394444,"18":0.15603616342088986,"19":0.08610002504321553,"20":-0.14395131893321106,"21":-0.20613207105596484,"22":-0.06347667038501693,"23":-0.056829285594581315,"24":0.14264525942947454,"25":-0.09894480020215694,"26":-0.03339911234988449,"27":0.05567049187862374,"28":0.09116604739414054,"29":0.259978709208898,"30":-0.3502531730782255,"31":0.17547118194264005,"32":-0.1172567987062869,"33":0.028162770340340683,"34":0.015511268400646056,"35":-0.31646698704792503,"36":0.1326887828964188,"37":0.00924660156027654,"38":-0.05091543868346672,"39":0.12744948353988728,"40":-0.2619331036412405,"41":-0.21371840688967292,"42":0.10939892763632011,"43":0.0796412956568367,"44":0.14607979245688935,"45":-0.29670650748045413,"46":-0.09046779948171312,"47":-0.02146995188081719,"48":-0.03428713807255196,"49":-0.050446787062922264,"50":-0.45671560700032476,"51":0.12056207851371181,"52":0.17236805496381746,"53":0.051675655356588884,"54":0.028482845553953164,"55":-0.22271929719350197,"56":-0.07447916266114263,"57":-0.1545462101401445,"58":0.17996659040021237,"59":-0.10100866291749153,"60":-0.23921251777684266,"61":-0.12160005944103781,"62":0.1706079702374713,"63":0.033961176984055895,"64":0.1319269850904793,"65":-0.27768042754058614,"66":-0.12955655083916318,"67":0.2843753811173768,"68":-0.02419566147770503,"69":-0.025789317278090546,"70":-0.17149014104112478,"71":-0.2394842874720639,"72":-0.0325223203412993,"73":-0.016487405475898116,"74":-0.00001774356202133417,"75":-0.20774871884650012,"76":-0.16326953440975717,"77":0.20413138409748846,"78":0.10076861221479705,"79":0.020600837848114704,"80":-0.12793657296947517,"81":-0.24751881239431608,"82":-0.023512359953291942,"83":-0.2425524690416544,"84":-0.0013156016776995029,"85":-0.10268893537669076,"86":-0.138439519742107,"87":0.0954707133334379,"88":-0.1677903977731725,"89":-0.15256876786807047,"90":-0.26899155958870785,"91":0.024201725461032532,"92":-0.05573470861294942,"93":-0.49365625537684477,"94":-0.05988242220568586,"95":-0.20197682663606176,"96":0.10892932408868228,"97":0.017818884144624465,"98":-0.516705841560288,"99":0.016924067613363902,"100":-0.09440263123994415,"101":0.22299994515119398,"102":0.023856372746237756,"103":-0.4436027060174173,"104":-0.05653993109050371,"105":-0.09555500173620085,"106":-0.017815271248634336,"107":0.266044845624375,"108":-0.4509849727742407,"109":-0.0631244703587566,"110":-0.1526371519594146,"111":0.20273168124791477,"112":0.781720929641741,"113":-0.5226038153471259,"114":0.09125306561692341,"115":-0.373942715644562,"116":0.1927053594022879,"117":0.6925694285163697,"118":-0.6626505853491899,"119":-0.16086505769836235,"120":-0.3568448014722163,"121":0.11298696348774558,"122":0.9314177061565324,"123":-0.535225861572136,"124":0.2223895134791566,"125":-0.2766071085584128,"126":0.1729660301380578,"127":-0.04459144559399553,"128":-0.44807119095872455,"129":0.044529490101334966,"130":-0.00915653179806342,"131":-0.04844761428860504,"132":0.014093819112886449,"133":-0.688749650995199,"134":-0.0394042459914463,"135":-0.20079148044285186,"136":0.12963503272854365,"137":0.04040558902210818,"138":-0.5183163639691186,"139":0.04003022903615506,"140":-0.22635722314234408,"141":0.23782439876009448,"142":0.025840838764077344,"143":-0.5576718409454624,"144":-0.1081530797658641,"145":-0.11316640066576943,"146":-0.051675867293959475,"147":0.6927601091825233,"148":-0.72150204315833,"149":0.005985933656042034}},{"sx":1,"sy":1,"depth":150,"w":{"0":0.021942454025731122,"1":-0.2545501817361992,"2":-0.061166844085363645,"3":-0.05596843517986193,"4":-0.08136993960410217,"5":0.13248014287944632,"6":-0.016589534123272107,"7":0.04409402489690116,"8":-0.045112242575350944,"9":-0.11711646594811462,"10":0.0650138085003874,"11":-0.18147048918943307,"12":-0.012891209521208584,"13":-0.12083453355748584,"14":-0.2084504681450061,"15":0.15035493176312836,"16":-0.15805860087989831,"17":-0.017624901471833695,"18":-0.11711450649873105,"19":0.026444618690555016,"20":0.06800587487446161,"21":-0.16069842250051056,"22":-0.11479679942527772,"23":-0.09640915420202402,"24":0.08913330433257431,"25":-0.001449930015897322,"26":-0.22005651289238184,"27":-0.03159823513619996,"28":-0.0629351333170906,"29":-0.06840518030317244,"30":-0.00836272596002395,"31":0.040897493996756684,"32":0.17466808124984276,"33":-0.03205729531786249,"34":-0.14949897872912463,"35":0.10057302761078768,"36":-0.05692515745257076,"37":-0.043675314325271664,"38":0.017537000191108473,"39":0.09452174778985445,"40":0.13443058112538678,"41":-0.07547979876160579,"42":-0.08059721370212518,"43":0.0776661380141599,"44":0.10701576105759857,"45":0.011077332945626989,"46":-0.06951994710478886,"47":-0.16489603191418353,"48":-0.09712827986447035,"49":0.19057281346980195,"50":0.01860495315137925,"51":-0.23304426277128654,"52":-0.17080694000860971,"53":-0.005046785507921163,"54":0.13125143137652726,"55":-0.09906630645014756,"56":-0.10780979876790554,"57":-0.177063387691052,"58":0.025368835402094708,"59":-0.08513823929951293,"60":0.0009071469186025171,"61":-0.12393941192124007,"62":-0.12543308045995966,"63":-0.16286983272689998,"64":0.027015681809101032,"65":-0.002482082173895947,"66":-0.12359385237377506,"67":-0.2936735919637548,"68":-0.009131529384253361,"69":-0.010982983770087383,"70":0.005727179280808373,"71":-0.21336050503533163,"72":-0.27316896313617567,"73":-0.006620022321005349,"74":0.1750000836718166,"75":-0.20527451242476993,"76":-0.19362656995084718,"77":-0.24568107102571926,"78":-0.036010552376221666,"79":0.06257316249167354,"80":0.0021998210071658437,"81":-0.051247142515367126,"82":-0.14476352583549304,"83":0.15365401757808922,"84":0.054845324047872214,"85":-0.09651240211765018,"86":0.07719500495423999,"87":0.571968043214742,"88":0.15972366240387947,"89":0.14450353755417727,"90":-0.10736274441598846,"91":-0.18382442262516327,"92":-0.8301723337479265,"93":0.003638521952181627,"94":-0.13671104253816752,"95":0.06941764252365852,"96":0.0477004680230918,"97":-0.653744704169676,"98":0.11573367799804563,"99":0.0032257458980057144,"100":-0.047123981166622454,"101":0.17694568786483994,"102":-0.7474400319587272,"103":-0.018974625910976217,"104":-0.017141632416458615,"105":-0.12814623970187514,"106":0.299302137373534,"107":-1.2205976397561067,"108":-0.03904884553143725,"109":-0.031205954214217405,"110":0.038492419848283055,"111":0.3213661277209701,"112":-0.24286300346396128,"113":-0.052531349366855565,"114":-0.06872529261388631,"115":0.024902641110649645,"116":0.40801022754660493,"117":-0.2797783276157821,"118":0.1637633740579868,"119":-0.030648189465911916,"120":-0.06591460446846435,"121":0.44083529730794796,"122":-0.3350709226072617,"123":0.05892672829452632,"124":-0.09294286330710581,"125":-0.09164702037131545,"126":0.24285624329998098,"127":0.22032732271916264,"128":0.03816136371208775,"129":0.18323705878531102,"130":-0.15468336082990514,"131":0.3587300879191649,"132":0.24551611706338772,"133":0.07199234169610376,"134":0.04084482048382334,"135":-0.07604212076013676,"136":0.048215361175346985,"137":0.2971034373201335,"138":0.05064703220793738,"139":-0.014377290229476633,"140":-0.063773989837345,"141":0.3233646123834275,"142":0.34954613324155387,"143":0.1139972054177282,"144":-0.01241660582479308,"145":-0.2348672492227659,"146":0.3935483199034972,"147":-0.2805195508514945,"148":0.025638815051142218,"149":0.08383280162063385}},{"sx":1,"sy":1,"depth":150,"w":{"0":0.023957963235977337,"1":-0.1561159850153123,"2":-0.14590871678451983,"3":-0.24801147917562086,"4":0.1529927621814036,"5":0.06067442783295053,"6":-0.02077344692862392,"7":-0.1610015751574761,"8":-0.06120181743615029,"9":-0.060672699659886524,"10":0.13093587308506593,"11":-0.024714730716097824,"12":-0.051841650732646266,"13":-0.10074076332454421,"14":-0.011114327564771036,"15":-0.05622871033849961,"16":-0.12333298848251167,"17":-0.021916463984740342,"18":-0.19017006346323015,"19":0.03598654578136987,"20":0.02219572452301084,"21":-0.04742813388987335,"22":0.06279488041594737,"23":-0.00653538701866809,"24":0.038770799004197706,"25":0.04536048150284656,"26":0.0004392014088351724,"27":-0.033628020993754344,"28":-0.0504049142451797,"29":0.043206636292515234,"30":0.014474891161808225,"31":-0.027537261572928354,"32":-0.07727209689289752,"33":-0.02964026832423863,"34":0.08458135162831705,"35":-0.08623822103944358,"36":0.06527427245680363,"37":-0.14076735274233726,"38":-0.06458269371196326,"39":-0.04066912231189469,"40":-0.06869879393386744,"41":-0.11464177984873096,"42":-0.17709919743279207,"43":0.027918959568844767,"44":0.10221256952032752,"45":0.10776984281072528,"46":0.11311025199573119,"47":-0.08603403105401876,"48":0.09135466107285492,"49":0.027123044052752975,"50":0.07101868410596122,"51":-0.08580669491546483,"52":0.04369495019119681,"53":-0.19237297389425675,"54":0.07099814863736954,"55":0.07532911568302787,"56":0.005425042157798628,"57":0.25114805983757277,"58":-0.05387307155728799,"59":0.08211676766467087,"60":-0.08119841214760527,"61":0.11755840980053243,"62":0.20215371278647545,"63":0.0531055390035397,"64":-0.08083700975647108,"65":-0.06304905412977359,"66":0.011489051544201871,"67":-0.05334133462241364,"68":-0.09340338257537743,"69":0.06986337903859144,"70":-0.030316496595275987,"71":0.09987188893845435,"72":-0.02605098220314101,"73":-0.1654188190973734,"74":0.05722538156469616,"75":0.1089368546474902,"76":0.09678664824484054,"77":-0.006227982573215139,"78":0.051550262757700964,"79":0.06814391268329624,"80":-0.07638557672465908,"81":0.07192798335794597,"82":0.25882323092940285,"83":0.057429266985993606,"84":-0.07290736892046194,"85":-0.043324980169466926,"86":-0.01141613519483826,"87":0.06864201433442486,"88":0.20207775257640892,"89":0.12640145514403103,"90":-0.0031492514111983714,"91":-0.03189311830149246,"92":0.6195737344049363,"93":0.19266827551190965,"94":0.04280500495205464,"95":-0.09843094502110356,"96":-0.22320794366223734,"97":0.2767899067519244,"98":0.21706454854494187,"99":0.07618740884092831,"100":-0.045650772279717054,"101":-0.1444495577733864,"102":0.2751963485273903,"103":0.3924549341811117,"104":0.014803449983266196,"105":-0.09561298117366665,"106":-0.09316417249031801,"107":0.34684551178505557,"108":0.624580235839172,"109":-0.2476112340510962,"110":0.018832870546246515,"111":0.06189231835987052,"112":-0.8135999289387749,"113":0.5360743044531581,"114":-0.1061161083597195,"115":0.0012882803094558075,"116":-0.05660740813426585,"117":-0.5308625573206291,"118":0.5343178133201223,"119":-0.12236517947804268,"120":0.09944619463767311,"121":-0.12964418164456032,"122":-0.6059747441197305,"123":0.6834564339059739,"124":0.008428000298702124,"125":-0.18846552094775607,"126":-0.06843748731091225,"127":-0.017379168621057282,"128":0.5277044943640105,"129":-0.10917831494584715,"130":0.019573053019285185,"131":-0.18194069023817994,"132":0.011552212780054973,"133":0.3580439688831918,"134":-0.036653510975404716,"135":-0.06365216637390694,"136":0.011577397849544277,"137":0.00021628082806414027,"138":0.3668862274567539,"139":-0.11444766113647073,"140":-0.11378872117868065,"141":-0.14278129322475908,"142":-0.015963220591653598,"143":0.39951048337968664,"144":-0.10250663313067813,"145":-0.13229631248285909,"146":-0.32526130161776134,"147":-0.4421880490982963,"148":0.5681098947583856,"149":-0.0929318299697394}},{"sx":1,"sy":1,"depth":150,"w":{"0":0.04378366671832155,"1":-0.11711888988398392,"2":0.12827773352493582,"3":-0.06760882217280043,"4":-0.021881209829027904,"5":0.15001105845613782,"6":0.06884662768298709,"7":-0.015005424162283938,"8":0.14048521930587612,"9":0.02192641054681766,"10":-0.04231075332312471,"11":-0.1120087745545685,"12":0.023423628567917635,"13":0.02660023190986441,"14":0.05620760234518175,"15":0.05868593300593794,"16":-0.0006036537788382319,"17":-0.1562058786157916,"18":-0.043379851700882786,"19":-0.022804542848176994,"20":0.08268665341661233,"21":-0.03885667314075689,"22":0.17770223507494542,"23":0.1686310835972921,"24":-0.020434373581699247,"25":0.05067834929466222,"26":0.03941534023396668,"27":-0.06213824337614301,"28":-0.002348504583889329,"29":-0.10051768532492425,"30":-0.01300474734462805,"31":-0.04464623341029543,"32":0.08249624041652609,"33":0.045900389081516946,"34":0.07000826958853541,"35":0.021161610062181976,"36":-0.018701621609450984,"37":-0.010855119318842352,"38":0.01910840766049995,"39":-0.03340229212868633,"40":0.07644761871257572,"41":-0.01750267787340879,"42":0.01611095707417844,"43":-0.053178054746005246,"44":0.13033836946965666,"45":0.08522749472698932,"46":0.06787720329642545,"47":0.0059623409776366505,"48":0.0010737779281716502,"49":0.0020606446722328605,"50":0.03702048780959309,"51":-0.10157031968862842,"52":-0.04431469194679774,"53":-0.05661182787930533,"54":0.0544673009955822,"55":-0.07251244640411449,"56":-0.0421542044179759,"57":-0.02867504300145472,"58":-0.02310118919621327,"59":0.043037252600336404,"60":0.004211090839897858,"61":-0.07657778349539952,"62":-0.03793221723956089,"63":0.07036452197959198,"64":0.1333742882995083,"65":0.027258946591678684,"66":-0.00513725797018656,"67":-0.08340359689849643,"68":-0.17153826180372578,"69":0.037862009150966415,"70":-0.05483739217954492,"71":0.02183304785775296,"72":-0.22330529865585597,"73":-0.15402390239287483,"74":0.04889843180404543,"75":-0.008990957722669324,"76":-0.01523733499314173,"77":-0.17926241518511918,"78":-0.013010947798192205,"79":0.0036941328271756922,"80":-0.08393457693173079,"81":0.1296934601370924,"82":0.074413161488589,"83":-0.016645487885048767,"84":0.05895637972331326,"85":-0.02710868421704821,"86":0.08173216040211835,"87":0.1167975409049383,"88":-0.07087950417610571,"89":-0.005437717448038088,"90":-0.027529456117133023,"91":0.06658946210535713,"92":-0.1442410180817389,"93":0.04322528771091202,"94":-0.1618063843102503,"95":0.0116585269661168,"96":0.0402842109025923,"97":0.026979518451054545,"98":0.2094350752841042,"99":0.031985210079293516,"100":-0.04894188194788032,"101":0.044085553212455796,"102":0.10054900544589394,"103":0.03754479125510746,"104":0.13230129728350098,"105":-0.01925887854730554,"106":0.02006474429620518,"107":-0.015384792209959376,"108":-0.038912346760125144,"109":0.11290988262542878,"110":0.04447652146941383,"111":0.09615727576763312,"112":0.05659964534429719,"113":0.08940013920707919,"114":0.0019579799145966735,"115":0.00009281456642194869,"116":0.02823589127867693,"117":-0.0008363667108380503,"118":0.12669766318189252,"119":0.03393938091991025,"120":-0.013790990565781982,"121":0.04337012761579387,"122":-0.08485990386594348,"123":0.029554893850042563,"124":0.06535686529178457,"125":-0.08752379631109286,"126":-0.09198010419784326,"127":-0.013523524706626761,"128":0.10305921212188986,"129":0.11373957988412965,"130":-0.03271222622752877,"131":0.09119232474019986,"132":0.005396080146862166,"133":-0.015006576445361054,"134":0.17980530070319695,"135":-0.10831270688541694,"136":0.07996914996880995,"137":0.036508958596412136,"138":0.08791468032408947,"139":0.006141189219426247,"140":-0.12787695000718735,"141":-0.036524251523090766,"142":0.24208200451414646,"143":-0.03638200891055809,"144":-0.04499601173182625,"145":-0.009479204536795703,"146":0.016790838750677467,"147":0.009093490776959682,"148":0.0303240187302545,"149":-0.08880212210197075}},{"sx":1,"sy":1,"depth":150,"w":{"0":0.22804590557784607,"1":-0.033859457108066426,"2":-0.06921196344616284,"3":0.00301501208697957,"4":0.12232823223646093,"5":-0.022337828456454815,"6":-0.16647652650895622,"7":0.02611937617111436,"8":-0.04325538743754905,"9":0.156000378817791,"10":0.20278138634908482,"11":0.07900716925995163,"12":0.030731256875341017,"13":-0.20866059674794477,"14":-0.06284984194976666,"15":0.08366421966010408,"16":-0.13861102862716448,"17":-0.12851654249417288,"18":0.06553300967363694,"19":-0.0318937593151638,"20":0.07588057351208338,"21":-0.21698458295299428,"22":-0.010132767177797623,"23":-0.016408673324924874,"24":-0.13920944423255682,"25":0.008969133563303653,"26":-0.0368762542763995,"27":-0.1992655368040291,"28":-0.013699206645570821,"29":-0.026511668283027583,"30":0.01525506884858132,"31":0.11991301653569152,"32":-0.09203192260621072,"33":0.17773899883328653,"34":-0.0421937979175894,"35":-0.1293134140982905,"36":0.09989320550035626,"37":0.02775514480275947,"38":0.09109935090804805,"39":0.05562375119843324,"40":-0.1987692001824438,"41":0.12070336875052802,"42":0.0231000308605199,"43":-0.04031335196289347,"44":0.009551761538944294,"45":-0.0788755078680911,"46":-0.010932464013207924,"47":0.03574645870370112,"48":0.016229803545361493,"49":0.09165110998586187,"50":0.024436170267294912,"51":-0.08796125816642271,"52":-0.23104360356916104,"53":0.06150449970030892,"54":0.10911591616277383,"55":0.07897994138516039,"56":-0.05727868262980075,"57":-0.04923909505770537,"58":0.027813318944907715,"59":0.002267455076382076,"60":0.10574125994314242,"61":-0.05096469387224525,"62":-0.10280055798853306,"63":0.03843072217132361,"64":-0.07309150128240878,"65":-0.03237779153869358,"66":0.0779135051634174,"67":-0.2760405656822929,"68":0.17199848776122498,"69":0.07595528701495274,"70":0.051456969590496816,"71":-0.33580648746266273,"72":-0.22779282811695817,"73":0.13778890343100145,"74":-0.11786085923465979,"75":0.04965730258862391,"76":-0.2719275177125943,"77":-0.07697811816481294,"78":0.13594942355150183,"79":-0.011242371771049073,"80":0.0017849815524524169,"81":-0.021794044194249233,"82":-0.19606764801818824,"83":-0.04612153762244082,"84":0.03271000672018695,"85":-0.2014030983915071,"86":0.003863360068330723,"87":0.013236882035572281,"88":-0.07230983990610097,"89":0.03146489673855052,"90":-0.24796529778015947,"91":0.03746378483319792,"92":0.14555087195143937,"93":-0.2352829181566004,"94":0.0014397984939423013,"95":0.10807322996621492,"96":0.09233756939261172,"97":0.0864942552633213,"98":-0.11382944611551542,"99":-0.06438709845335223,"100":-0.024956061795504532,"101":-0.051658586718085334,"102":0.2638384121203358,"103":-0.04726649178835878,"104":-0.12193887893263224,"105":0.09138581341992984,"106":-0.014295239509842449,"107":0.3381918984719508,"108":-0.2565963354587161,"109":0.1586649689307158,"110":0.04012750453124456,"111":0.11931178437516285,"112":-0.059357589571597855,"113":-0.018859452058349407,"114":0.02598547544536542,"115":0.024350209637504196,"116":0.15655570937367064,"117":-0.2601734269711366,"118":-0.09614146256525657,"119":0.00727447254592831,"120":0.01370100097881279,"121":0.24298924199458358,"122":-0.25095535409119724,"123":-0.15016320176088477,"124":0.13134017450488716,"125":0.006871487334150322,"126":0.4399866698422047,"127":0.22653846651002885,"128":-0.10924773072162539,"129":0.06906841297096776,"130":0.004385145205902257,"131":0.19360309763483077,"132":0.23012554482134448,"133":-0.06754714603943071,"134":-0.05819965488665079,"135":-0.01992642547261642,"136":0.28745098275905384,"137":0.04203225566350137,"138":0.0024049535061370342,"139":0.10970571750115389,"140":-0.08673472672001185,"141":0.28439078709824717,"142":0.05970175287830289,"143":-0.2316832101350723,"144":-0.12169866347090247,"145":-0.19719772475850172,"146":0.2878692860892027,"147":-0.21881190060396397,"148":-0.07601419091936487,"149":0.02798586601749667}},{"sx":1,"sy":1,"depth":150,"w":{"0":0.08372120473232786,"1":0.2892880786418596,"2":0.02833175303073872,"3":0.14440269164105382,"4":-0.028823051213104918,"5":-0.11492871436909173,"6":0.10948253493640664,"7":0.19416401922115725,"8":0.03330979701365063,"9":0.18798034307391287,"10":-0.13911371419776836,"11":0.13188268325401648,"12":0.19684189380171344,"13":-0.17669029633918498,"14":0.10878066872079065,"15":0.025547131816163207,"16":0.1208686582210306,"17":0.18834962166492542,"18":-0.08367652992786027,"19":0.20823253516616064,"20":0.023255629729720357,"21":-0.2180161227110981,"22":0.04640698905402481,"23":-0.14981340617628422,"24":-0.15216657934792985,"25":-0.011624653581483011,"26":0.13445326911258876,"27":0.14215698758402587,"28":0.17627900211035777,"29":0.011827860601513453,"30":-0.029255924307102346,"31":0.06321628903136778,"32":-0.20249541059919035,"33":-0.182420650857337,"34":-0.07599015634906821,"35":-0.09602552558957451,"36":0.13655386732735206,"37":-0.02708860785824569,"38":0.16298159384961286,"39":0.03053381938200916,"40":-0.02233452844243812,"41":0.037796904240209754,"42":0.06488139726234374,"43":0.11241169890787232,"44":0.041606704836398146,"45":-0.1323392554597747,"46":0.035172778348410816,"47":0.11264031021292176,"48":0.260633951636737,"49":0.00012962336927408412,"50":0.05235039688067402,"51":0.16134365285257363,"52":-0.011820885833793062,"53":0.14051146798859335,"54":0.024967686096808134,"55":0.02640348849267324,"56":0.01685428041373957,"57":-0.05092753862251692,"58":0.04121758133644722,"59":0.07224316799957853,"60":-0.08790159548745105,"61":0.03586623856634014,"62":-0.0007360941073371598,"63":-0.033265343128636,"64":0.09964085359180233,"65":0.22083176070947244,"66":0.01980405863680067,"67":0.2091147818823619,"68":-0.19202736999180076,"69":0.008923040175235805,"70":-0.06121205457253666,"71":0.12633475713723183,"72":0.33625818014249687,"73":-0.02575338769190023,"74":0.07005006625009665,"75":0.03537384391482287,"76":-0.04805188779376316,"77":0.24300028729432654,"78":0.09128401995231843,"79":0.03950986708133795,"80":-0.16219662194645446,"81":0.010365512290761207,"82":0.2426486625219816,"83":0.10855110229775437,"84":0.11629901078751322,"85":0.050490631580610124,"86":-0.04723768276632402,"87":-0.1547593909176547,"88":0.16729124070345433,"89":-0.1290080135964609,"90":-0.08325235445807107,"91":0.15991748452037033,"92":0.3174896678390517,"93":0.40976956524535485,"94":0.06152289550429693,"95":-0.005788887630621202,"96":0.18493758596767645,"97":0.027793700331727417,"98":0.03334160197447124,"99":-0.1653515538830447,"100":0.15972801142835308,"101":0.21377193470742725,"102":-0.11002686587678524,"103":0.06137408793288426,"104":0.03657671052570825,"105":-0.02967502732264681,"106":0.015800266516222756,"107":0.4457017964104544,"108":0.031436440163477,"109":-0.09498339286081037,"110":0.043183059833276125,"111":-0.06522349495013159,"112":-0.1749192210731538,"113":0.14211600829530494,"114":0.06274684247903162,"115":-0.05075454632225987,"116":0.10507026577465774,"117":0.259221870645902,"118":-0.3329738678799649,"119":0.09844241764900284,"120":-0.011809643133107789,"121":0.02281126410168251,"122":0.48281356432269346,"123":-0.12148571776970457,"124":0.26681888436976736,"125":0.09615851408495242,"126":-0.15615108568165323,"127":-0.34419705334316913,"128":-0.30231583914961074,"129":0.1056203196183822,"130":0.047646967233547784,"131":-0.08685711431279057,"132":-0.36236540281809393,"133":-0.18052676635696766,"134":0.03736594132186042,"135":0.045923752148110446,"136":-0.2466513445602822,"137":-0.33261714339685444,"138":-0.1589127139879421,"139":0.04119925845729076,"140":0.0632138390508336,"141":-0.12134326877634899,"142":-0.23720294583708743,"143":-0.3349062812153182,"144":0.0710192231628023,"145":0.010175039654828074,"146":0.05106193220121653,"147":0.3073743822834968,"148":-0.5147067141586372,"149":-0.006944236878071054}},{"sx":1,"sy":1,"depth":150,"w":{"0":0.1320574818785634,"1":-0.03324487548041674,"2":-0.15062500758745692,"3":0.05458305848816392,"4":0.0928550689973041,"5":0.06709195720653532,"6":-0.20736295477270036,"7":-0.16046469228273202,"8":-0.2951323632202225,"9":0.017471195012479943,"10":0.21915718257345873,"11":-0.061218452072000766,"12":-0.11553606702855128,"13":-0.1314335602592269,"14":0.22665269663025134,"15":0.06848311624524563,"16":-0.0702433997542231,"17":-0.3487947918171484,"18":-0.1762588946468275,"19":0.0860530996994736,"20":-0.14464074368125898,"21":-0.09112133713722986,"22":-0.22867129090139054,"23":0.05676649836643227,"24":0.17371118729698987,"25":-0.008491184211264557,"26":-0.017008449594122475,"27":-0.32852506667705283,"28":-0.06943293764614757,"29":0.04781692191856548,"30":-0.10675316593629003,"31":-0.22403933276288943,"32":-0.31579009667980323,"33":-0.11709093698532098,"34":0.13315669568392638,"35":0.07277667199108055,"36":-0.07015396672743257,"37":-0.24243983101136551,"38":-0.026803017368758873,"39":0.1989004685530416,"40":0.14729745150271864,"41":0.11734734126108114,"42":-0.17333703844802736,"43":-0.004750905548023976,"44":-0.061158163244192744,"45":0.025722815281230202,"46":-0.2857853727420563,"47":-0.16386850373402292,"48":0.14144752658889856,"49":-0.017576129630568895,"50":0.010688546235039965,"51":-0.20162212492156192,"52":0.04741896339617383,"53":0.07297730340259258,"54":0.14761629541149526,"55":-0.03527319968010829,"56":0.03077412445735908,"57":-0.004945778302042294,"58":0.133176829070196,"59":0.06055870665038232,"60":0.11972376387305608,"61":-0.10884341628906775,"62":0.09879219190748738,"63":0.025418396925190778,"64":-0.01454238348341813,"65":0.06422587540774345,"66":-0.10620172211324688,"67":0.07545694343399333,"68":0.06818696855506855,"69":-0.058973162924132655,"70":0.22993340804877785,"71":-0.031719708944275206,"72":0.3884788454622072,"73":0.07209562112762287,"74":-0.12449860564682273,"75":0.07708556606478381,"76":-0.19568096959954712,"77":0.42198416837157465,"78":0.11065822087730799,"79":-0.04264617460455902,"80":0.13871337991175378,"81":-0.2592198092020815,"82":0.529738185737695,"83":0.11187800420283771,"84":-0.04048665236312521,"85":0.05622061888758602,"86":-0.05825533517323843,"87":0.3103765905081226,"88":-0.01632397125579882,"89":0.054544300402810955,"90":0.32491118645666694,"91":0.09390501616981219,"92":-0.3287532538924721,"93":0.18159050017476125,"94":-0.023058528442804278,"95":0.10230506592551922,"96":-0.008823132631757172,"97":-0.4721229064769026,"98":0.0868365453226111,"99":0.01422633625770223,"100":0.053307161438886246,"101":-0.0018941282969196266,"102":-0.5356235953470837,"103":0.09575484498574109,"104":-0.09517685053514333,"105":0.08216975461628967,"106":0.10984589149856672,"107":-0.5303257166563771,"108":-0.056962228888748696,"109":-0.0335357087334496,"110":0.09423046534580552,"111":-0.0793617693268831,"112":0.420345032677599,"113":-0.1236158302901268,"114":-0.10636917288389493,"115":-0.03568642423073389,"116":-0.17894280499267676,"117":0.29964673398844927,"118":-0.2413586500658157,"119":-0.033456547934228704,"120":0.07436773553600613,"121":-0.19389219652605336,"122":0.429878748585079,"123":-0.20169375146659285,"124":-0.20401962989750733,"125":-0.0299004976050429,"126":-0.1831761636195161,"127":-0.08824683828532102,"128":-0.25909015241384664,"129":-0.2055784630704237,"130":0.012170358255641596,"131":-0.2482206300673736,"132":0.0014416691275615256,"133":-0.11678288383226917,"134":-0.03288331281137567,"135":0.04555321221496286,"136":-0.1295699794368727,"137":-0.05359172798891348,"138":-0.0657672868952955,"139":-0.1568379841827606,"140":0.1213243857635944,"141":-0.06426236890561039,"142":-0.06730258878087426,"143":-0.21106412056974996,"144":-0.1777017609937731,"145":0.12111244713032882,"146":-0.17841878115672688,"147":0.3996390608866886,"148":-0.23651067560829117,"149":-0.2220237950757665}},{"sx":1,"sy":1,"depth":150,"w":{"0":-0.15200667982729946,"1":0.029985205509495662,"2":-0.10434259568121836,"3":-0.07583309353504351,"4":-0.02750528166535151,"5":-0.02895572316194512,"6":-0.08187937128511903,"7":-0.03493516097730273,"8":-0.020407665746657287,"9":-0.027297289686445785,"10":0.032110357245359634,"11":-0.03634701125336754,"12":-0.05093736263144249,"13":-0.036890768665685914,"14":0.025215727429706743,"15":-0.029103629864019785,"16":-0.07662717133986219,"17":-0.09160246978611143,"18":0.017385421836259508,"19":-0.03145264332197647,"20":-0.09680544834657391,"21":-0.1345552669192246,"22":-0.004380230295583226,"23":-0.1100891551970422,"24":-0.0253668883129549,"25":-0.09482595834145092,"26":-0.034373799327929284,"27":-0.05218627327489158,"28":-0.11197956491865065,"29":0.0730749499250532,"30":0.012976781465200803,"31":-0.23223532051966853,"32":-0.157816790580009,"33":-0.05631962343806289,"34":0.0407337779320259,"35":-0.06167521555136583,"36":0.0662131115892027,"37":0.060949826807772965,"38":-0.17609761030290508,"39":-0.06043229084900567,"40":-0.06481781187697572,"41":0.024189439522406143,"42":0.029828792185449985,"43":0.0029755804687953413,"44":0.0571348635463993,"45":-0.09468413856848314,"46":-0.08282654295903787,"47":0.04845766290868865,"48":0.05905612144835692,"49":-0.052983669143294373,"50":0.12004995328168247,"51":0.06982289468592778,"52":0.02781745003097617,"53":-0.015339957168889418,"54":-0.15801664294200973,"55":0.09651281138609763,"56":-0.08632779881305888,"57":-0.13290661585689617,"58":-0.10701065268925755,"59":-0.09490406671210812,"60":-0.024284829029293603,"61":0.10161852515906873,"62":-0.02638443638527252,"63":-0.025663576536544594,"64":-0.043837808899074196,"65":-0.01265117011502796,"66":-0.10266611773102378,"67":-0.04125749862196399,"68":0.03248600807378295,"69":-0.04526634444091168,"70":-0.017370443838693763,"71":-0.10517165181107242,"72":0.02326207689983635,"73":-0.005889292883222187,"74":0.03764332462275657,"75":-0.033249882158155025,"76":0.03563850964037877,"77":0.04946816671150976,"78":-0.14295632559675756,"79":0.051673569507587905,"80":-0.21749530034513162,"81":-0.04608462766279517,"82":-0.07167181791017284,"83":-0.027045613809539838,"84":0.024437054408422518,"85":-0.06004180881613265,"86":0.08366118713081443,"87":-0.04049967655635709,"88":-0.08017621417113491,"89":0.014009563225621127,"90":0.10944569501264474,"91":-0.20084264081329506,"92":0.06678435580374364,"93":-0.12955997699229427,"94":0.01073124354082671,"95":-0.0011673793439164544,"96":0.07526830271859192,"97":0.1956679129541192,"98":-0.017226895401168774,"99":0.1719098830937624,"100":-0.00038099897263071703,"101":-0.04553298959138151,"102":-0.025832630855789518,"103":-0.02322288400273972,"104":-0.022058296921856426,"105":0.07822542289561635,"106":0.016248114870352538,"107":-0.08344501744512219,"108":-0.0011875905645677275,"109":-0.1766905047825797,"110":-0.059265489134891,"111":-0.1133966542291649,"112":-0.08176731142404062,"113":0.03082068195451311,"114":-0.09333774029733678,"115":-0.040551281348243796,"116":-0.03211155023912303,"117":-0.0346214453852637,"118":0.0007970266187094709,"119":-0.014697850573753364,"120":0.05532795357844382,"121":-0.19214479674041082,"122":0.02159137719429564,"123":-0.06272508193983774,"124":-0.09487125688357301,"125":0.04353157743032404,"126":0.005578497162841826,"127":-0.19825809987735515,"128":0.09077665685001687,"129":0.06736540787148446,"130":-0.11141541693574819,"131":0.06427321663255028,"132":0.01909995857162727,"133":0.04893624267922832,"134":-0.14483968113412996,"135":0.19226449287478245,"136":0.03405771579213032,"137":-0.2092159620082354,"138":0.06113492145080255,"139":-0.13932494323792946,"140":0.07512526334069018,"141":0.08906607873414389,"142":-0.14499404116271242,"143":0.007632550553525037,"144":0.054634451333282194,"145":-0.038440373908922236,"146":-0.06563836409213425,"147":0.0246185613773149,"148":-0.044057596623183155,"149":0.0941049080124434}},{"sx":1,"sy":1,"depth":150,"w":{"0":-0.29100823196293246,"1":-0.37898422166492757,"2":-0.017095405728250877,"3":-0.2293383970317743,"4":-0.06254703844472644,"5":0.022533835408442872,"6":-0.3485443135629139,"7":-0.2802759771324278,"8":-0.08073412926604676,"9":-0.007409862726699283,"10":-0.18836354462679125,"11":-0.11431369277160376,"12":-0.0736481284212005,"13":-0.2650805118935319,"14":-0.0764736185263212,"15":-0.2198029349284929,"16":-0.04315777452190759,"17":-0.18113110979901223,"18":-0.28136051628743025,"19":-0.10840225399023944,"20":-0.35241674282411184,"21":-0.15552089116382609,"22":-0.15761082421860245,"23":-0.11245573507549364,"24":0.07102399606189877,"25":-0.22367856658010762,"26":0.02483189582345125,"27":-0.12623740357205576,"28":-0.05902749226520711,"29":-0.01880884549281011,"30":-0.18351284698403997,"31":-0.002161702130536915,"32":-0.07989874179485283,"33":-0.17812987815695977,"34":0.13542222264846274,"35":-0.16998444955695632,"36":-0.01912085641128782,"37":-0.06718311234028679,"38":-0.16676046158416089,"39":0.00999274687869333,"40":-0.14035119843823635,"41":-0.03510835747789177,"42":-0.1802959100028933,"43":-0.3274822526497897,"44":-0.025236745941829994,"45":0.01626238872119601,"46":-0.023432046776972935,"47":-0.1585459173736873,"48":-0.06937980744101373,"49":0.18556067463712833,"50":-0.22184573783962205,"51":0.16543372525303335,"52":0.096719154350677,"53":-0.21222406882283737,"54":-0.023395181015567687,"55":-0.19673081260622122,"56":-0.014541456726541108,"57":0.08761169172642325,"58":-0.1756214678331627,"59":-0.0041781169805644005,"60":-0.17374018853968656,"61":-0.15310938857505282,"62":0.1361728295584058,"63":-0.1451931658621092,"64":0.0969514337591758,"65":-0.06460897657350463,"66":0.04242621626771951,"67":0.25838598935472207,"68":-0.023942538447640736,"69":0.014325672881397477,"70":-0.16267610605019614,"71":-0.02595354660734116,"72":0.37227595033997785,"73":-0.09943919236414847,"74":0.04740688613648739,"75":-0.061384412111161434,"76":-0.057552184156779866,"77":0.4406839305797656,"78":-0.1660625447975189,"79":-0.15987768249396228,"80":-0.12210449353322157,"81":0.0845979824533671,"82":0.7321049618682761,"83":-0.06875639164138841,"84":-0.12505730257128553,"85":-0.3134193976322442,"86":0.14760004565622856,"87":0.7933655697789899,"88":0.14047155717130838,"89":-0.06734798862743667,"90":-0.25581768599364524,"91":0.2535725085225144,"92":0.9110184054167644,"93":-0.017748153545737253,"94":-0.05800108610515291,"95":-0.1747941087220162,"96":0.3378104256684441,"97":0.9189736682246945,"98":0.46393168511066574,"99":-0.32377337770007447,"100":-0.13988470181659324,"101":0.5430027447201377,"102":0.6310242346205255,"103":0.4449635288921138,"104":-0.1505866286639084,"105":0.008455318162100694,"106":0.4864625137200304,"107":0.5585911341791387,"108":0.40623536784009306,"109":-0.18074601283852865,"110":-0.1200091658488734,"111":0.5350019384229371,"112":-0.5222726976893274,"113":0.4462037394288639,"114":0.03043776699145868,"115":0.0437192665389073,"116":0.49026315098765116,"117":-0.7290993178317183,"118":0.6491386030741769,"119":0.026270689543759617,"120":-0.03680540910450118,"121":0.5424972520775027,"122":-0.8098630644688762,"123":0.45443892245264234,"124":-0.05860615201405407,"125":-0.11581199804954916,"126":0.4946698501217874,"127":0.0019359020983574743,"128":0.6830625112169244,"129":0.05668328393854208,"130":0.08539298934755224,"131":0.22826266598198244,"132":0.12489687435466211,"133":0.09871473517071515,"134":-0.06256220439596637,"135":0.03390089779132049,"136":0.21521437259266493,"137":0.08133601450847229,"138":0.15727903797387444,"139":0.05278598746161183,"140":0.007520848066764027,"141":0.24425961323919987,"142":0.07828828476817423,"143":0.311218732235015,"144":-0.03350371058011031,"145":-0.00757741674418438,"146":0.5152989886428916,"147":-0.8710756443198322,"148":0.4020755040178557,"149":0.026450605685704818}},{"sx":1,"sy":1,"depth":150,"w":{"0":-0.0314084378424025,"1":0.09659134366434086,"2":-0.10059607734422402,"3":-0.050430533733409416,"4":-0.021578562779216277,"5":0.030205475547205568,"6":0.1632707607635681,"7":-0.12643281279193838,"8":-0.0822113254695096,"9":0.050836867396305475,"10":0.041514247407673496,"11":0.02958362174939504,"12":-0.03877913549556638,"13":0.12264428272397225,"14":-0.03156991509316679,"15":0.045971479247584136,"16":0.18953109624940914,"17":-0.10223274086816117,"18":0.129906622371816,"19":-0.036693858147342835,"20":0.10884440951749463,"21":0.06294521396416733,"22":0.01173472027060934,"23":0.13412182288888932,"24":0.07177847621415126,"25":-0.0917027680959062,"26":0.1416641150396596,"27":0.06643738367089412,"28":0.10644215150985357,"29":0.026840795922351047,"30":0.059663770860967504,"31":0.1602058472383209,"32":-0.017065355051409478,"33":0.17588186907287187,"34":-0.08637086511384681,"35":-0.02443600889432175,"36":0.039720004227744486,"37":0.08018427483165133,"38":0.02363975743762875,"39":0.023677073331989637,"40":-0.10918539755630792,"41":-0.012675360559369995,"42":0.09616394701616557,"43":0.1444197450801667,"44":0.03616885491462014,"45":-0.09007332454807264,"46":-0.014443553768235907,"47":-0.09019711273496442,"48":-0.029753104903934083,"49":0.06293415616051569,"50":0.0520936948293685,"51":-0.06470608391666718,"52":-0.04267095932850976,"53":-0.1162722881014528,"54":-0.22235750672412297,"55":0.05168842255878936,"56":-0.022426457018864553,"57":0.1271560904987282,"58":-0.008347369039299649,"59":-0.09883881842159245,"60":-0.048073908355008035,"61":0.09206186090872163,"62":-0.01643016176254016,"63":-0.08436877915105157,"64":0.07217146102765971,"65":-0.07749029494200889,"66":0.06042953247019859,"67":0.10845959293215074,"68":0.14018842478681248,"69":0.0815116351120242,"70":0.0041053998379283,"71":0.026495450998517012,"72":-0.03978024339685187,"73":0.1603122482320909,"74":-0.10896789471455198,"75":-0.06301273892162489,"76":0.13464359005586563,"77":0.06091836548285949,"78":-0.1222025241785265,"79":0.016008769553245473,"80":-0.13508754773365755,"81":0.2582659571609366,"82":-0.23554875962512153,"83":-0.09289965516542689,"84":-0.06200698083166585,"85":0.08588753587456126,"86":0.29081412817659663,"87":-0.20498226261605637,"88":-0.052608163479118085,"89":-0.05029668339652925,"90":-0.006563468246524184,"91":0.0819413846074883,"92":-0.21466785553362785,"93":-0.029280649568419307,"94":0.04730319908509563,"95":-0.06669645241618613,"96":0.12649198161089203,"97":-0.3109662112501582,"98":-0.021858384470933283,"99":0.07373824569236972,"100":0.0330100815610159,"101":0.23211431228944382,"102":-0.18251373586109795,"103":0.0029043285382691257,"104":-0.0193716200013927,"105":-0.02853814875795146,"106":0.2292275734084346,"107":0.09404507475492443,"108":0.27270400494019603,"109":-0.1285133063551789,"110":-0.11958280781169332,"111":0.15074413616379284,"112":0.13288984326750092,"113":0.14131539486859634,"114":-0.087192102564005,"115":0.021708120244763474,"116":0.23659608525588507,"117":0.08863709897249335,"118":0.24619952004751502,"119":0.14664524450460664,"120":0.022712266751055168,"121":0.39097484437484276,"122":0.28644953636696385,"123":0.20142348814802433,"124":0.03354738935802846,"125":0.1078896116543764,"126":0.3910458427041509,"127":-0.35464400999279555,"128":-0.01064424862919784,"129":0.1092386919738771,"130":-0.06940721574207309,"131":0.31847965956893104,"132":-0.16117517389885697,"133":0.0061426351269373795,"134":-0.06968532731696865,"135":0.04156495088236191,"136":0.4043652893132651,"137":-0.29386426391540127,"138":0.05061983643207201,"139":-0.027681472747385326,"140":-0.07429578707741757,"141":0.2111518608835206,"142":-0.35722087637876027,"143":0.02986053709887256,"144":0.06454150109496704,"145":0.0179161850241383,"146":0.1701353869973505,"147":0.20478714659277106,"148":-0.13447759640567442,"149":0.12518133256565514}},{"sx":1,"sy":1,"depth":150,"w":{"0":-0.013791234639025724,"1":0.01882764729256961,"2":0.06778373905587914,"3":-0.020102533436092668,"4":0.019649604306302085,"5":-0.03922884387611596,"6":-0.010089150637043461,"7":-0.06272716661120835,"8":-0.03864057571146988,"9":-0.08301746766542903,"10":0.005955818384168979,"11":0.00954027197321756,"12":0.025549877349064942,"13":0.05498205497445657,"14":-0.08994664806691254,"15":-0.018141467356218334,"16":0.029036293175792368,"17":0.013922011564637635,"18":0.19211841999080473,"19":0.030534243082709602,"20":-0.05865779618217883,"21":-0.0240436747843001,"22":-0.06974103873581818,"23":-0.00019817078485300969,"24":-0.07823812976981304,"25":-0.06985028254739536,"26":0.04033790117979734,"27":-0.1344711793764813,"28":0.029374019865583263,"29":-0.04012460595248555,"30":0.06894186012744612,"31":-0.12550689284924302,"32":-0.0998288854926412,"33":-0.09502591176284221,"34":0.020209115264011753,"35":-0.04579554567156668,"36":0.17154018241434504,"37":0.11727341821877602,"38":0.06642505310762185,"39":-0.005423565437950014,"40":0.028537532703093192,"41":0.10913635120169868,"42":0.08724590829683594,"43":-0.040407236688186465,"44":-0.18647194242556694,"45":0.06031320525965067,"46":-0.057694319083860295,"47":-0.1553754907293461,"48":0.056217447769558594,"49":0.16047296836573915,"50":-0.03166390984193519,"51":-0.09685749674345052,"52":-0.08272202488688017,"53":0.029123940618237185,"54":0.02592474473277712,"55":-0.013176319778225094,"56":0.055171772708677826,"57":0.01310013452219074,"58":-0.06958838225260007,"59":0.10527301567326287,"60":-0.03899184843938162,"61":-0.018492775703300105,"62":0.07078609879023631,"63":-0.04705666515813385,"64":-0.07113835327063836,"65":-0.0652148562535433,"66":-0.08915512034936138,"67":-0.028747868057282164,"68":-0.04332403378136725,"69":0.002515305585410825,"70":-0.05821731545265635,"71":-0.021029572142442936,"72":0.10563359434762243,"73":-0.07497332102880011,"74":0.010012520219555322,"75":-0.08093317195024854,"76":-0.08006349347539146,"77":-0.1829570234979922,"78":-0.07140107978252035,"79":0.02779953347096999,"80":-0.09794874174348056,"81":-0.12931777956474025,"82":-0.031146031971971924,"83":-0.08344993865773155,"84":-0.005080759660416565,"85":-0.10953827637077547,"86":-0.09085235548870477,"87":-0.11395957394963184,"88":-0.08126961540113348,"89":-0.027259043996770947,"90":-0.12064697192318169,"91":-0.013533290268161255,"92":-0.05585681131742188,"93":-0.131077815968494,"94":0.057686167068445926,"95":-0.0911169931197304,"96":0.05609184090487911,"97":-0.06876416570933704,"98":0.0031342033382819744,"99":-0.10676756628281596,"100":0.03731133186532678,"101":-0.011568179427515434,"102":0.0012690672470970223,"103":-0.050369665175224364,"104":-0.025992326980550148,"105":0.0386184102710817,"106":0.010493058223417163,"107":0.06160745207747763,"108":-0.14060150947453948,"109":0.05215815253383128,"110":-0.03662561490389783,"111":-0.017997771226666393,"112":-0.05852753300248154,"113":0.027759696351593206,"114":-0.08917879628451487,"115":-0.06895761875329195,"116":-0.05013161064033177,"117":-0.0845744892147859,"118":-0.08153278368964678,"119":0.05205463505574552,"120":-0.03961848056694038,"121":0.022930135601322815,"122":-0.14970461120978706,"123":-0.1858242220087969,"124":-0.03823805378724509,"125":-0.03311324405414932,"126":0.02969286420875667,"127":-0.24829429704032518,"128":-0.0659204249579032,"129":-0.04173548504189603,"130":-0.06956104417671581,"131":-0.03733187605166864,"132":-0.2346702873387764,"133":0.02136112786089762,"134":0.0003814800688129835,"135":-0.039872723392106575,"136":-0.024071905537014184,"137":-0.23419360777394665,"138":-0.0374363532803253,"139":0.030272508527248106,"140":-0.04234078053401585,"141":-0.08395040156709574,"142":-0.2105746605859131,"143":0.011349036616857011,"144":-0.05683387505449574,"145":0.17094618960042868,"146":0.05636313612535692,"147":-0.1243380559444251,"148":0.013720720777192715,"149":-0.08192127129388999}},{"sx":1,"sy":1,"depth":150,"w":{"0":-0.18418855737893822,"1":-0.12778740792694937,"2":-0.016818775903298746,"3":-0.06414684764915989,"4":-0.007422758990957872,"5":0.08725231689344795,"6":0.058642333163873274,"7":0.013943264043589991,"8":0.021209484935596552,"9":-0.12021716306175954,"10":-0.2020465558030929,"11":-0.11569523879407961,"12":-0.09102011792631393,"13":-0.010074200367586588,"14":0.11227764948408953,"15":0.012853972550648365,"16":0.0783249723072082,"17":-0.09954549641103966,"18":0.010685960137507004,"19":-0.06517180897551215,"20":-0.08156416121243323,"21":0.02325652765496094,"22":-0.06985428762811895,"23":0.02821647345287539,"24":0.04629772389032121,"25":-0.14763237815380137,"26":0.008973799535570346,"27":-0.006852859104045307,"28":0.058476449957590326,"29":-0.06260912483834219,"30":-0.005299111079065707,"31":-0.29241536588539196,"32":-0.030757268408698222,"33":-0.1162334464079905,"34":-0.05655274875576314,"35":0.13352981750340548,"36":0.020735555863292135,"37":0.02007490474443811,"38":0.012155364399290549,"39":0.07383214135821924,"40":0.13015261871569558,"41":-0.1260285232543823,"42":-0.16682261888708272,"43":-0.044521339090641154,"44":0.00041731951556976703,"45":-0.1408951178875785,"46":-0.024841394397619145,"47":-0.14480467215202822,"48":0.10298212582129677,"49":0.05083799786849813,"50":-0.13209558453388978,"51":-0.09079773960762835,"52":-0.06407956708788622,"53":0.0030794540097480033,"54":0.0553412381267596,"55":-0.089283417369669,"56":-0.10288968464105465,"57":-0.1037705921195103,"58":-0.02728380313207003,"59":-0.13842106547526226,"60":0.0645551831060866,"61":-0.08758822456017694,"62":-0.004963677335169124,"63":0.08841250596010361,"64":-0.029712539050708815,"65":-0.16962696532145963,"66":0.08183409451992235,"67":0.051188617177910505,"68":-0.09203791622024034,"69":-0.016616614990740183,"70":-0.1586352710484645,"71":-0.057670771886491126,"72":0.0027177341002747506,"73":0.007576544858439573,"74":-0.1226488175389444,"75":0.03342547638067925,"76":-0.042045331482409506,"77":-0.004935581294824728,"78":0.035002056897812245,"79":-0.13538560156012805,"80":0.0969721816066969,"81":0.00284099075245594,"82":-0.009836769927433668,"83":-0.08059822244781834,"84":-0.03000542085044669,"85":0.11676205337921378,"86":-0.09712703915534592,"87":-0.050584701449933364,"88":-0.022142326402633035,"89":0.02251962064105256,"90":0.0669386746571178,"91":-0.011260741741781502,"92":-0.24119986440038543,"93":-0.011944683317603033,"94":-0.09400969956879174,"95":0.08865398752852041,"96":-0.023535000836810944,"97":-0.008969890197553445,"98":-0.0502173324005887,"99":-0.010129587595666054,"100":-0.03611581606711551,"101":0.11005629188058058,"102":-0.016076760577313387,"103":-0.12478702171220417,"104":0.04074218171933126,"105":0.07206779170683683,"106":-0.0547553810806638,"107":-0.18369013103290624,"108":0.027354313166384286,"109":-0.0057409098550363,"110":-0.16598295051513332,"111":0.00435314380366494,"112":-0.03185619328349117,"113":-0.03581787060164817,"114":-0.09638778070511327,"115":0.09287663428079095,"116":0.08745911932021914,"117":-0.0828326053909266,"118":-0.07563094224591468,"119":0.06244763967018496,"120":0.08317843131599713,"121":0.028097609723072885,"122":-0.2048365099551601,"123":-0.08612864235099205,"124":0.028294959653200582,"125":-0.014703395463289012,"126":0.1320995762995499,"127":-0.0846015018704925,"128":-0.09522009074421273,"129":-0.045867696578030075,"130":-0.13733275311292165,"131":-0.0645423331057093,"132":0.006231313865231153,"133":-0.028098546362654714,"134":-0.17400440030728598,"135":0.020130437051683263,"136":0.008001473611936143,"137":0.022297257744555033,"138":0.00013163163389047096,"139":0.00009588811456000513,"140":-0.007883013725135609,"141":-0.05443754227394285,"142":-0.11524511361118758,"143":-0.09588968874306507,"144":-0.08964868997304107,"145":-0.04242752164212621,"146":0.05072259874841337,"147":0.018687137846665532,"148":-0.03537216852994618,"149":0.006305969892859191}},{"sx":1,"sy":1,"depth":150,"w":{"0":0.05985510761308732,"1":0.10526272206574462,"2":-0.10076077296685823,"3":0.025966164851694912,"4":-0.03140384304390876,"5":0.16729165505877533,"6":-0.04052468985666922,"7":-0.0039058380392771085,"8":-0.01159395849686365,"9":0.014257810175355786,"10":-0.06663009677910878,"11":0.047599765614174006,"12":-0.021550402854533756,"13":0.07026757745350462,"14":0.12341253417116683,"15":-0.026007284664630453,"16":-0.11769310290843737,"17":0.00015620456493855016,"18":0.026692072285968895,"19":0.06035080346316668,"20":-0.027460442674997317,"21":0.03819840453070215,"22":-0.01269906506541497,"23":0.002147137079601793,"24":0.02279690528987846,"25":-0.03760019183486813,"26":0.029686129457866913,"27":0.1322869988897665,"28":-0.023558332799477923,"29":0.05647581858927494,"30":0.039808454719816526,"31":0.03467560962329779,"32":0.04444267037728211,"33":-0.09023850764976638,"34":0.10788207623579739,"35":-0.1350880646658251,"36":0.2038137017786653,"37":0.06391925775798508,"38":-0.06652057626277717,"39":0.09659375726476874,"40":0.03286125354362683,"41":0.03379774882077602,"42":-0.031572966913557474,"43":0.03743364915342197,"44":0.06743825130509734,"45":0.1435027654966283,"46":-0.054818107525160704,"47":0.07724365759790411,"48":-0.024260137412392215,"49":-0.002072078671434564,"50":0.08942128267526048,"51":-0.09875471961794031,"52":-0.027864182590285624,"53":-0.06522559004472482,"54":0.24578288036493384,"55":0.11859309933706232,"56":0.029212387399424822,"57":0.047955299337855285,"58":0.03756902509101057,"59":0.05709706575991167,"60":-0.09655003743170822,"61":-0.1022289876892703,"62":0.036939438394390525,"63":-0.03885797410784179,"64":0.16412954424737214,"65":0.13809538862598403,"66":0.11598779628728224,"67":0.17620618929489917,"68":0.04886310841712925,"69":0.08542644584433641,"70":-0.008982258561554185,"71":0.11944330168924065,"72":-0.08671371511108159,"73":0.024175531129664342,"74":0.013472559848299766,"75":-0.07561718888902474,"76":-0.009833819349460671,"77":0.06453910152835025,"78":0.09494301742725182,"79":-0.07064524270850535,"80":0.1236802033090779,"81":-0.03624070976120547,"82":0.12419567145181815,"83":0.09073244629974149,"84":0.10471739926337598,"85":-0.035314700121843436,"86":-0.014298618478598937,"87":-0.04559956087829399,"88":-0.11365509863297778,"89":-0.025691367154847447,"90":0.09029372979004531,"91":0.053362854859980706,"92":0.06983341644742976,"93":0.03582254338298276,"94":0.02322574304676238,"95":0.011641909627144675,"96":0.007206377808617411,"97":0.12534403969017047,"98":0.03641144148286113,"99":0.03213070546334366,"100":0.14003343225048873,"101":-0.004482655039566829,"102":0.17239593177074217,"103":-0.0357051138552971,"104":0.01908842952737677,"105":0.007659993069118615,"106":0.08590882258342045,"107":-0.11049785636634536,"108":-0.07590961824330701,"109":-0.05768674371414966,"110":0.14700468475858686,"111":0.024255546608609766,"112":0.13829739670337954,"113":0.19496639471402985,"114":0.03325740200105102,"115":0.14613404858804066,"116":0.15070885899363234,"117":0.10944041438273527,"118":0.09476919995517788,"119":0.20472331208351086,"120":0.059439470972417634,"121":0.0029295250523472213,"122":-0.024883843234512617,"123":-0.07628887921591392,"124":-0.02040026659780398,"125":0.13338519750710226,"126":0.018978996469947593,"127":0.09458917109989623,"128":0.07667348138785787,"129":0.011010635938520268,"130":-0.002800328149096615,"131":0.0646425224697159,"132":-0.0004970714405392783,"133":-0.0814694118921475,"134":-0.03248403766589825,"135":-0.021545013974945015,"136":-0.09937833016348288,"137":0.09312925464230667,"138":-0.04210103894665697,"139":0.20250661565207323,"140":0.030195141730459497,"141":0.1576151269668167,"142":-0.001625263381883545,"143":0.09892334158578862,"144":0.13061547595329684,"145":0.11403130339617365,"146":-0.0018488888090666756,"147":0.007865136723407688,"148":0.07784710899850902,"149":-0.11226727182765919}},{"sx":1,"sy":1,"depth":150,"w":{"0":-0.17469219950252707,"1":-0.05826130522522631,"2":-0.05810064023975348,"3":0.2718936445730745,"4":-0.1260188662827644,"5":-0.08646288908904663,"6":-0.056481044493208905,"7":-0.22273155728734537,"8":0.29628448436396443,"9":-0.24425697800198973,"10":-0.1059325121423289,"11":-0.05471717280392203,"12":-0.06655406322091825,"13":0.013168546649338121,"14":-0.12018341356559975,"15":0.025001383728118966,"16":-0.12956003472469327,"17":-0.02923598555118223,"18":0.20173709110492766,"19":0.04834515195432637,"20":0.012388499584773746,"21":0.003915523591208774,"22":-0.16769573305817087,"23":0.11904817736297248,"24":-0.025885328837330197,"25":0.0740870155875832,"26":0.017836614729787065,"27":-0.2076009585366199,"28":0.2218974319609385,"29":-0.08453687289233838,"30":-0.07925889970696107,"31":0.15413585822547643,"32":-0.0014813154189066168,"33":0.19466142492131444,"34":-0.09337029234369694,"35":0.020241009656827756,"36":-0.007859687894384421,"37":0.0031443774748236624,"38":0.2709442664440422,"39":-0.014964152844463334,"40":0.01236647621704547,"41":0.04213240785700098,"42":0.043260172467703986,"43":0.0877569686168196,"44":-0.10053186282184755,"45":-0.01592496783524444,"46":-0.07702636365094429,"47":-0.18880800374725631,"48":0.3012844736859706,"49":0.1620759777582567,"50":-0.08588202298412345,"51":0.11339103150983829,"52":-0.013291000642640017,"53":0.28167827845284765,"54":0.0009542241455746324,"55":0.01634191128726423,"56":0.048128910100946345,"57":0.06816699346306493,"58":0.20876194722383223,"59":0.08801320416009265,"60":-0.06297990446837967,"61":0.4574741108219507,"62":0.11675641455406825,"63":0.3120249677277467,"64":0.11365187704119939,"65":-0.202245867125903,"66":0.30168062569000614,"67":-0.10230797460330138,"68":0.09217466477444976,"69":0.16390832376957615,"70":0.043266513038855696,"71":0.0895153855139811,"72":0.14583435320374877,"73":0.07621571562316785,"74":0.16321037107534248,"75":-0.09422427799828414,"76":0.06513202720202241,"77":-0.16753280729463124,"78":0.07686819874423945,"79":-0.07582880631169157,"80":-0.12580437205914538,"81":0.15699616773922725,"82":-0.09517119887126685,"83":0.243898075427929,"84":0.030104114699820262,"85":-0.04704656861349153,"86":0.25204864188092263,"87":0.19708344175315684,"88":0.403242465937337,"89":0.04886205549751515,"90":0.031189261950074244,"91":-0.1387355224006855,"92":-0.20541073461242684,"93":0.18898840753026716,"94":0.013101334311227028,"95":-0.08728586720628798,"96":0.09373568668209523,"97":0.22765683730057965,"98":0.029182671132215954,"99":0.21876021889013664,"100":-0.21996008486975138,"101":-0.082645534266398,"102":-0.08376207097761461,"103":-0.07911589512163562,"104":0.2866658967626854,"105":-0.22262924922968277,"106":-0.02966747995636588,"107":-0.24771163127102122,"108":-0.07169249956804662,"109":0.33970507087150303,"110":-0.17110078649476765,"111":0.036893922941589836,"112":-0.45580753739343755,"113":-0.14064957985148688,"114":0.1715143013116587,"115":-0.028963245680977835,"116":-0.05614986448001015,"117":-0.5440406692736184,"118":-0.05798327252076408,"119":0.18563102259460557,"120":-0.060873808541082326,"121":-0.1547487881681715,"122":-0.5107001653789263,"123":0.13078641114004358,"124":0.10007576404369227,"125":0.10224145475317326,"126":-0.030355976160016084,"127":-0.09906836054416439,"128":0.0193163600738513,"129":-0.0470507171806895,"130":0.08817108555688334,"131":0.15198828759357624,"132":-0.13278054651365234,"133":-0.0792846008147713,"134":0.04897886209574951,"135":-0.004201211297645707,"136":0.0973362090165019,"137":0.060946083639438306,"138":0.03968853206965964,"139":0.09805121616566971,"140":-0.05222871764332053,"141":0.16823124295391007,"142":0.026397754732582816,"143":0.20395740971870013,"144":0.0852829210291329,"145":-0.06630689499137538,"146":0.08149160816391152,"147":-0.618789692056769,"148":0.16204609752598229,"149":0.16789508815249626}},{"sx":1,"sy":1,"depth":150,"w":{"0":0.04652712067299326,"1":0.2967153277883036,"2":0.014487203047781281,"3":0.022839589889524333,"4":-0.04929625505144013,"5":0.03169646783322718,"6":0.034010952020832944,"7":-0.16932947168911577,"8":0.12459778156214683,"9":0.10966235945263908,"10":-0.04884812352465154,"11":0.19865356562978798,"12":-0.0009697972498007204,"13":-0.11063332429123951,"14":0.022851611558700614,"15":-0.15431279565482783,"16":0.04020846403872739,"17":-0.05511651050243369,"18":-0.06143151012277686,"19":0.03977320533370244,"20":0.0764384513702059,"21":0.10982756285670094,"22":-0.17695503984773622,"23":-0.0005134244143712185,"24":-0.03970831417795228,"25":-0.037683535289721994,"26":0.06582557860225227,"27":-0.053614205994858805,"28":-0.04821170883255607,"29":0.02612137280700175,"30":-0.024844391178174365,"31":0.32915669888577476,"32":0.035728023448126846,"33":0.07483100490886858,"34":-0.019189391908725484,"35":0.10949385193296175,"36":0.09965968185833181,"37":0.100641751469977,"38":0.12006760497463922,"39":-0.02324236372802884,"40":-0.08206718194978027,"41":0.20632450496990393,"42":-0.1584011851058899,"43":-0.0764283450178499,"44":0.00845613461623036,"45":0.03919967344395797,"46":0.3207943266311543,"47":-0.12951711782294956,"48":-0.12495598730519891,"49":0.021869520722981522,"50":0.1259917869707607,"51":0.2686536851010717,"52":0.17134165071978436,"53":-0.10960344454352533,"54":-0.0191221209444426,"55":0.08481660578355603,"56":0.20859039025047704,"57":-0.008193406704909603,"58":0.05603104976928682,"59":0.007865004612782032,"60":-0.048995426906603315,"61":0.24433103734561648,"62":-0.15468867242924628,"63":0.07159753916850141,"64":0.04838565056880754,"65":0.07649762094089795,"66":0.2993334916565311,"67":-0.1625188482535122,"68":-0.020812144984684144,"69":-0.07342619672862916,"70":0.14264950759255934,"71":0.37780433073107966,"72":0.09378777634560542,"73":-0.10281455261575495,"74":0.04824571691200339,"75":0.04089007248738289,"76":0.36667682055725936,"77":-0.19379686401391316,"78":-0.03444829753985938,"79":0.07390144811903909,"80":0.07992351634512362,"81":0.2873884580503483,"82":-0.26989200674061387,"83":-0.10743577900903604,"84":0.03105952342205245,"85":0.11940877161308562,"86":0.4622270008707909,"87":-0.3805363230267517,"88":-0.010311314026254716,"89":-0.003029470748568509,"90":0.07800634589186219,"91":0.4556599444020083,"92":0.1781069887191191,"93":-0.04955068396947633,"94":-0.10718997753732434,"95":-0.023472150974229878,"96":0.6477218719636957,"97":-0.023753939442536384,"98":-0.18157853987132025,"99":0.0024048453204992023,"100":0.09217442361555274,"101":0.5932350655253971,"102":0.20705397431659417,"103":-0.150779536933791,"104":0.012392254157128281,"105":0.01915456895121795,"106":0.6632862456991961,"107":0.5205369678130753,"108":-0.05226477194703773,"109":0.03521064941723139,"110":0.03638894107197975,"111":0.564074420169982,"112":-1.255773632613564,"113":-0.02252935462529534,"114":-0.047446329319861105,"115":0.059516518072936495,"116":0.563027376638387,"117":-1.182346755056914,"118":0.12631021887904045,"119":-0.10512763141507847,"120":-0.01318502368158411,"121":0.47416156383113894,"122":-1.1720772250475104,"123":-0.042014434628924194,"124":-0.12196375937417216,"125":0.01649167291382582,"126":0.6250663183839421,"127":-0.23203591167141374,"128":-0.11152124319047063,"129":0.08176566022248138,"130":0.004464798739629834,"131":0.3299128643311239,"132":-0.16348166144213244,"133":0.04981551436459235,"134":-0.06870449692737086,"135":0.08835962049979046,"136":0.29746227681943355,"137":-0.033697576943374274,"138":0.22162489846072186,"139":0.16394709684459988,"140":-0.12970817842064966,"141":0.3975649194492585,"142":-0.08345966326836363,"143":-0.056344622144725715,"144":-0.10655055434259515,"145":-0.23973951200381335,"146":0.7230555735872893,"147":-1.2837901048238565,"148":0.0331317972089295,"149":-0.04018591009737319}},{"sx":1,"sy":1,"depth":150,"w":{"0":-0.12281477360253025,"1":-0.17207725769419338,"2":0.16384814664919053,"3":0.018455720313711742,"4":-0.19381280400865358,"5":-0.19529237715319742,"6":-0.14640536175114394,"7":0.008894198559912945,"8":-0.08864400781086344,"9":-0.11261668424867187,"10":-0.1313352489175592,"11":0.05960540282243496,"12":0.1262142652231757,"13":-0.09122540409837282,"14":-0.12544182511355198,"15":-0.06610848529404396,"16":-0.02260956268835803,"17":0.22315560037173912,"18":0.06910543292113493,"19":0.13579055220184716,"20":0.01292908942249774,"21":0.052996438848109874,"22":0.4746583121663954,"23":-0.1288511364690261,"24":-0.044262743140799206,"25":0.11180563336920471,"26":-0.0706810607546312,"27":0.33459586203792396,"28":-0.03722093872758143,"29":0.09217869001681961,"30":-0.09305619088690426,"31":0.020799203254980553,"32":0.2430164041302594,"33":-0.2317823884397134,"34":0.0044697472936302855,"35":0.028403579958920153,"36":0.08427933026033212,"37":0.24244833831139428,"38":-0.027960922391629783,"39":-0.07087116345726285,"40":-0.036952082151149666,"41":0.040308936560923846,"42":0.32964546901005903,"43":0.17400011602569118,"44":-0.09336541276746421,"45":-0.00987263866858026,"46":0.009260156426481194,"47":0.4134877138209958,"48":0.06771358294817864,"49":-0.23056068844547908,"50":0.11952760994134094,"51":-0.1502705280110813,"52":0.5426041968199354,"53":-0.03058545436580662,"54":-0.0643549110144326,"55":0.24370154085887005,"56":-0.01780560837167123,"57":0.3932566748575615,"58":-0.07863983280327397,"59":0.04419782310844965,"60":0.05424832944024235,"61":0.13278148129083067,"62":0.38445615943687045,"63":0.22689891448743804,"64":0.12944834938124497,"65":-0.11050698611305695,"66":0.14736936196903436,"67":0.3207497021932368,"68":0.1175063473380752,"69":-0.05492327412183585,"70":-0.062317530100026976,"71":0.06956274115221506,"72":0.6213466568531268,"73":0.11783361173076572,"74":-0.1989469048748916,"75":0.08434213054558057,"76":0.07083394260782253,"77":0.5771169428799522,"78":0.35484009799171706,"79":-0.10719308047429772,"80":-0.160464349563903,"81":0.19286691475220397,"82":0.5965787878641374,"83":0.23699793083037654,"84":0.19099632666462812,"85":-0.01067216656582778,"86":-0.07620885451734745,"87":0.3590259567565477,"88":0.16076379002330823,"89":0.07632313165703569,"90":0.08800911308457629,"91":0.30247585848118397,"92":0.16591347102655246,"93":0.25073026826041794,"94":0.18250462049232735,"95":0.1000196498903223,"96":0.12507504171975792,"97":0.10310258462603497,"98":0.22999363853527774,"99":0.13855868414942052,"100":0.0017459106686828138,"101":0.20184971673294183,"102":0.23251383866655845,"103":0.23518576912239825,"104":0.16686399999661683,"105":0.08963269671474204,"106":0.12836498700093119,"107":0.17919348455163375,"108":0.17311614847577617,"109":-0.09985698766869597,"110":-0.0800712127591867,"111":0.15741298896667058,"112":-0.7116144316542425,"113":-0.05981331403288255,"114":-0.1742127821020583,"115":-0.012117309122676638,"116":0.025227126108211515,"117":-0.7592778311333166,"118":-0.05767209736888431,"119":0.2999947123846775,"120":-0.16561719735128733,"121":0.017026140698344912,"122":-0.7515373231583761,"123":0.03052419263415651,"124":0.074058640087365,"125":-0.15354674901761156,"126":0.05501564262032251,"127":0.024345320755159883,"128":-0.09076273159437438,"129":0.06830354699746,"130":-0.007980877087279879,"131":0.09975487654391006,"132":0.020325034214179614,"133":-0.22561007116397966,"134":-0.016613620572238322,"135":0.05683823657359327,"136":-0.1386401684102211,"137":-0.2213375430863246,"138":-0.19682772491661474,"139":-0.04015145476290793,"140":-0.08912895489075502,"141":-0.21894599391318806,"142":-0.22965247093429628,"143":-0.22693536313019833,"144":-0.0697889704791725,"145":-0.09473034936251402,"146":-0.11627871360678371,"147":-0.8653330707525821,"148":-0.23521941819736375,"149":-0.06525812150462763}},{"sx":1,"sy":1,"depth":150,"w":{"0":0.07703999531048243,"1":0.15517874303875098,"2":0.28587891191049697,"3":0.19717983665493446,"4":0.012122168950380298,"5":0.13599234899273024,"6":0.09768082732911047,"7":0.15353352187213384,"8":-0.013645594609252206,"9":0.02732545648810237,"10":-0.02386899716778373,"11":0.04973305920755025,"12":0.31915349915626073,"13":0.1026394059709228,"14":0.13288867248801833,"15":0.1373791934838897,"16":0.12046103923172737,"17":0.17965503323664223,"18":0.04416410329887516,"19":0.1575795922489026,"20":-0.014593162239503467,"21":0.11182814613385883,"22":0.33093723700180017,"23":0.1979912014304706,"24":-0.1163284259814174,"25":-0.023233868722284796,"26":0.1032214082393058,"27":0.022654618774290976,"28":0.1794864945990811,"29":-0.034791210343845934,"30":-0.0002893420881735206,"31":0.10249413632306698,"32":0.313843732698954,"33":0.06629934254051428,"34":0.052340682527882036,"35":0.004783327616817171,"36":0.122899935985116,"37":0.34017924504396335,"38":0.049791816834629236,"39":0.07063957806565396,"40":-0.027393292428526974,"41":0.09614778812869841,"42":0.27895590588808894,"43":0.1312366861180732,"44":-0.028518403116435255,"45":0.04022221512175283,"46":0.03226032440021609,"47":0.21096092402043348,"48":0.11449806697133182,"49":0.0287111303624842,"50":-0.06485649451174666,"51":0.0030141100629982346,"52":0.521730253921134,"53":0.07427312991594781,"54":-0.05191077837612184,"55":-0.0917156352777741,"56":0.14890304797536166,"57":0.33691106461368314,"58":0.09485087894453331,"59":-0.034033276235636886,"60":0.011788690273777816,"61":0.001925309144513089,"62":0.40526242366679516,"63":0.07593479155521411,"64":-0.024270411996870484,"65":-0.08303666811798324,"66":0.040080725551248815,"67":0.4149797344863126,"68":0.08962418102105199,"69":-0.0730619172207273,"70":-0.0010859145331161284,"71":-0.005554816587247791,"72":0.6429362227064096,"73":0.17131978018527064,"74":0.11974898401290643,"75":-0.07097461672745489,"76":-0.13778252227063548,"77":0.7402442231974312,"78":0.016359404669019882,"79":-0.10205978729067029,"80":-0.022819443827713778,"81":0.06535541620233216,"82":0.4982456722264312,"83":0.013675473842577815,"84":-0.07447079018178465,"85":-0.0750221644529893,"86":0.03798534815307527,"87":0.7010514865279487,"88":-0.12324233328721372,"89":-0.09766292302125594,"90":-0.008623473994316181,"91":-0.0012507614217484152,"92":0.8272686778359198,"93":-0.13216616260193692,"94":-0.013362457794874893,"95":0.06427997526359207,"96":-0.07141074163755284,"97":1.055873688161711,"98":-0.167816387323527,"99":-0.011326093359162471,"100":-0.14143286524312812,"101":-0.0297469940649079,"102":0.8015237165169364,"103":-0.18947739936984678,"104":-0.06348164992916681,"105":-0.0860330823287286,"106":-0.08385951862129268,"107":0.22809754854026956,"108":-0.13394293860178444,"109":-0.02987024104780533,"110":0.08714744601620841,"111":-0.02880885813065632,"112":-1.2823692475495612,"113":-0.20127189985849345,"114":-0.10516410776690335,"115":0.02977565451844438,"116":-0.2007136170426173,"117":-2.0297616122981665,"118":-0.2622593112452457,"119":-0.06474968252888195,"120":-0.08270101807621552,"121":-0.21899974295348446,"122":-2.0711971494511,"123":-0.25657522458871973,"124":0.1042226080658016,"125":-0.21783542786643806,"126":0.06583238467129607,"127":-0.017034383221794826,"128":-0.10315145221014266,"129":0.012823887700150045,"130":-0.059528062342561146,"131":-0.18657085483610605,"132":0.09357764421358515,"133":-0.09125749935112785,"134":-0.12177213929202835,"135":0.05963549099905934,"136":-0.1360816752702018,"137":0.17804333377429513,"138":-0.2425427898092028,"139":-0.05881201384051113,"140":0.01706074785464568,"141":-0.05425381888549499,"142":-0.1036270379377702,"143":-0.07429547300092268,"144":0.1265869544421129,"145":0.05873004011857917,"146":-0.11045746883748173,"147":-1.9105176224282627,"148":-0.22029638986198616,"149":0.07545135751993245}},{"sx":1,"sy":1,"depth":150,"w":{"0":0.056328418188291235,"1":0.047697125561366745,"2":0.02020451610120559,"3":-0.18957063269934002,"4":0.06934716776940013,"5":-0.08350572072089334,"6":-0.16498318068685514,"7":-0.056969212432099944,"8":-0.11389326776812914,"9":0.13479101847769503,"10":-0.01354273495174753,"11":-0.08467037070771823,"12":0.07734728233059177,"13":-0.07515190833235498,"14":0.00843023291835578,"15":0.01985213555737083,"16":-0.041524151865802245,"17":0.06453567476234665,"18":-0.020826638958774308,"19":-0.11015665903737415,"20":0.060774905064124474,"21":0.022950709585605928,"22":0.11207119824156278,"23":-0.02062699762291946,"24":-0.053679481232236134,"25":-0.1184949950540649,"26":-0.05345169332868001,"27":0.03213127437701896,"28":-0.0327619156421543,"29":0.012755764061466616,"30":-0.03393618464211299,"31":-0.11353104614458295,"32":-0.08082285494877846,"33":-0.11222074245210617,"34":0.03953357383723009,"35":0.07302102909622037,"36":0.021999965982581644,"37":-0.09763248336946365,"38":-0.15339352427789132,"39":0.04688929343111612,"40":-0.05375732292920522,"41":0.023222985480880524,"42":-0.1271907420976139,"43":0.02033129805977403,"44":-0.20305885279217592,"45":0.1044376903658731,"46":0.013804580349914192,"47":-0.08414044029057298,"48":-0.04685568018719264,"49":-9.978869889175264e-7,"50":0.04076441402014047,"51":0.037862742843001146,"52":0.011427027816015657,"53":-0.16123496191232906,"54":0.02497701379279598,"55":-0.009722771308424501,"56":0.05653703403284453,"57":0.1395004636958016,"58":-0.01289331034630875,"59":-0.053848710959765136,"60":-0.030539939969997064,"61":-0.03467887721900091,"62":-0.07954168305217316,"63":0.05699845926490479,"64":-0.07867912042088844,"65":0.0088614847979051,"66":-0.044097212804584396,"67":-0.018831386224760487,"68":-0.050924156426278344,"69":0.08249931960505741,"70":-0.050484394825564397,"71":0.05254684501892815,"72":-0.015194264137163654,"73":0.11168600491245267,"74":-0.07822550979989334,"75":-0.09974879756230592,"76":-0.10148766070514141,"77":0.102735709767383,"78":-0.0459708936009932,"79":0.06377093916558245,"80":-0.06405170835661429,"81":0.01836146716096561,"82":-0.04520454274352612,"83":0.0850120745637586,"84":-0.057486652428177666,"85":0.031072611987832,"86":-0.10693702032870475,"87":0.021141674451957068,"88":0.0038642361868276368,"89":-0.03147827518444467,"90":-0.008191662352318068,"91":0.03365947755835226,"92":-0.19688271455216674,"93":0.19489956793564256,"94":0.00020607469074197677,"95":0.1690738509219354,"96":0.05496045901395168,"97":-0.17671499331091392,"98":-0.17477255442752343,"99":-0.06290192418381538,"100":-0.04816373363090568,"101":-0.11136682502362141,"102":-0.0795802763195447,"103":0.08256890177389369,"104":-0.048211832760434184,"105":0.03155325402700178,"106":-0.05617915600027136,"107":-0.1924366522182246,"108":0.16402545064815952,"109":-0.11144735141836162,"110":-0.09683414171866601,"111":-0.05037261854910596,"112":-0.05367591659747008,"113":0.032724327724330905,"114":0.019965403413873983,"115":-0.05489763540807095,"116":0.04981312424754812,"117":-0.07308739292392845,"118":-0.03743960826321816,"119":-0.05061703260033786,"120":-0.01563557826656802,"121":-0.02182176420530488,"122":-0.025512908722249473,"123":-0.018805456366367535,"124":0.13952460293496974,"125":0.06237492612458097,"126":0.007646733686444667,"127":-0.10684537507550401,"128":0.051886764648819764,"129":-0.050842264884862515,"130":-0.06457045798955831,"131":0.03948410501593031,"132":0.05820456452032952,"133":-0.07787926549824195,"134":-0.032383544399657106,"135":0.05421833517003488,"136":-0.05687679013260811,"137":0.06608213896305389,"138":0.012618482984528953,"139":0.1010994216545632,"140":-0.054276290422228396,"141":-0.06170536930360666,"142":-0.11973016763251473,"143":0.02992755220630503,"144":0.015271766518959935,"145":0.0834817762703648,"146":0.019531856307664238,"147":-0.17542399029836964,"148":0.029879796256471317,"149":0.031870483714475144}},{"sx":1,"sy":1,"depth":150,"w":{"0":0.0131848697385836,"1":-0.11314847982567344,"2":0.10828910889108603,"3":0.014403536804201554,"4":0.03467513540162369,"5":-0.2191366286829233,"6":-0.0013810070591919392,"7":0.01902741500449564,"8":0.05267218239389738,"9":-0.09692816090765885,"10":-0.11776762081076426,"11":-0.10119554363341397,"12":0.0850195047159999,"13":0.014355464236004813,"14":0.06287193562877888,"15":0.06856420921104943,"16":0.018878724996454602,"17":0.10332688034366536,"18":-0.053580877130500484,"19":0.00867821846728743,"20":0.08312088238853191,"21":0.10772978904241773,"22":0.19972583843281796,"23":0.011198527813070661,"24":-0.0007584551491411519,"25":0.0667526721441194,"26":0.10012110243679463,"27":-0.09670838619403682,"28":0.13438641918585867,"29":0.014575512747846185,"30":0.1058806326778014,"31":0.03223670138528172,"32":-0.05372240681814421,"33":0.059514436907641126,"34":-0.21641355506902984,"35":-0.03228628024124542,"36":-0.03418003783011761,"37":-0.04545604181398271,"38":0.11218561301501612,"39":-0.09029264259242631,"40":0.031138681232847576,"41":-0.11349787666900595,"42":0.04699626758130379,"43":-0.028564502749802025,"44":-0.023824796573768087,"45":0.07697155736040266,"46":-0.15247888838919635,"47":-0.15938598941976825,"48":0.04809429210537403,"49":0.11050255163835164,"50":0.01711001855642406,"51":0.05254074507693273,"52":0.0056332055292017845,"53":-0.058196286996970416,"54":-0.08635332770881586,"55":0.11764995980290828,"56":-0.06118482772530924,"57":-0.13519520852446096,"58":0.06228005915009531,"59":-0.015938847771616093,"60":-0.00035855827403773324,"61":-0.18034296905110572,"62":-0.07142674741419974,"63":0.08229193359654755,"64":-0.10998441634769594,"65":-0.0978115350349002,"66":-0.10655959059636198,"67":-0.09225862505566512,"68":0.05896079023880691,"69":-0.007564971035384275,"70":0.02010076804939196,"71":-0.08938369072006583,"72":-0.2171882067994149,"73":0.10185595466961143,"74":-0.08743525727242506,"75":0.003542683483808119,"76":-0.01759831110307065,"77":-0.10666043288757668,"78":0.006753732075050389,"79":0.0055824986779370415,"80":-0.037317589269966096,"81":-0.11964784603755028,"82":-0.062151319592573036,"83":-0.05313466563439094,"84":0.05374208619917335,"85":-0.12387653732363449,"86":-0.13116094959788707,"87":0.03717539760848093,"88":-0.024148318012698552,"89":-0.1164165120126821,"90":-0.00007266774288300121,"91":0.06324890130574343,"92":-0.3141708329691181,"93":0.04717087296392849,"94":0.07492898645326487,"95":0.08510902854976503,"96":0.01399556721174829,"97":-0.3348154099687155,"98":-0.13875625166004119,"99":-0.024086793304500777,"100":-0.1074855485227919,"101":-0.04427930741826917,"102":-0.22293677176009571,"103":0.01296610601201376,"104":0.002609757647091045,"105":0.05559623396588972,"106":-0.08767416120949292,"107":-0.16470295322767153,"108":0.11986348393271216,"109":-0.05731781282263744,"110":0.010000533828890747,"111":-0.13729191100856042,"112":0.04717951551963256,"113":0.055119226463606785,"114":-0.09937012625430058,"115":0.023020398939874648,"116":-0.11218488623206023,"117":0.06026129791314855,"118":-0.04253015954287189,"119":0.016590739693542356,"120":-0.04945369169571887,"121":0.06618518534566958,"122":-0.09753926027843125,"123":0.02776225592960475,"124":-0.07445008996519069,"125":-0.11355745886203375,"126":-0.0524479694195917,"127":0.2364334637468656,"128":-0.006877611396524964,"129":0.003975474965954105,"130":0.04604687280006738,"131":-0.017809784333101666,"132":0.126105075348968,"133":-0.05630388643398803,"134":0.06099089887913717,"135":-0.029733496111391203,"136":0.033673997136515754,"137":0.17037192748574748,"138":-0.016160319346878137,"139":0.08290533664070385,"140":-0.062303499793962644,"141":0.014699404433694887,"142":0.19935708773358268,"143":-0.03343773442247769,"144":0.23880892305035814,"145":0.08036139211622365,"146":0.11694541858350285,"147":-0.06074085144167206,"148":0.05629975752211951,"149":0.02427592249141246}}],"biases":{"sx":1,"sy":1,"depth":20,"w":{"0":-0.7433669291568805,"1":0.8375746118161034,"2":-0.31331760011848386,"3":-0.5951110806332289,"4":-0.005195599779753975,"5":-0.2265568995907231,"6":0.37066404985741275,"7":0.40649645989125177,"8":-0.025961287644536236,"9":-0.8863492170319259,"10":0.1877529209455001,"11":-0.0431794263735637,"12":-0.020520562844682132,"13":0.034380627863679396,"14":-0.6366524161249998,"15":-1.2942583540896553,"16":-0.8269564968183316,"17":-2.0628780087411887,"18":-0.021134243440936427,"19":-0.044398835669978716}}},{"out_depth":20,"out_sx":1,"out_sy":1,"layer_type":"tanh"},{"out_depth":15,"out_sx":1,"out_sy":1,"layer_type":"fc","num_inputs":20,"l1_decay_mul":0,"l2_decay_mul":1,"filters":[{"sx":1,"sy":1,"depth":20,"w":{"0":-0.3164047321396848,"1":-0.2025858866970962,"2":0.051395346002356436,"3":-0.3159096477567803,"4":0.2995356736779272,"5":0.7893063512529048,"6":-0.25252013325812533,"7":-0.28986824992698595,"8":0.2013356192842857,"9":0.5938268379062134,"10":-0.2417384956163639,"11":0.5022207677732978,"12":-0.030482116635059404,"13":-0.3073266288337667,"14":-0.040628125621194625,"15":0.930889850056567,"16":0.4193895772273264,"17":1.2070590297904826,"18":-0.2003125923933167,"19":0.10037134818186542}},{"sx":1,"sy":1,"depth":20,"w":{"0":0.09615381941130567,"1":-0.6807276932226178,"2":1.340853974542864,"3":-0.03501961149462678,"4":0.08471365868366955,"5":-0.3838968974808864,"6":-0.6915720627722803,"7":-0.05818496156459291,"8":-0.3487514970834237,"9":-0.7338882737896082,"10":-0.23295327349716882,"11":-0.11212622587916064,"12":0.21144618265231624,"13":0.01929829638340998,"14":0.1413027001587853,"15":-0.15049689027358834,"16":0.17688200817126415,"17":0.7966722234528983,"18":-0.09658441960663511,"19":0.1001825895844873}},{"sx":1,"sy":1,"depth":20,"w":{"0":0.7058408217876184,"1":-0.35035856968944357,"2":-0.015666337748256754,"3":0.03280025144612997,"4":0.027330765082939763,"5":0.28345779925702475,"6":0.24436359020221163,"7":-0.4050390004809484,"8":-0.14811977848373983,"9":-0.09511191881743337,"10":-0.43144941706922885,"11":-0.5726031877834353,"12":0.07385677344119283,"13":0.22035104952009002,"14":0.20784531030756195,"15":1.1157157439693164,"16":0.22148215786612377,"17":0.6201253536645203,"18":-0.1579864446359123,"19":0.11566799973725289}},{"sx":1,"sy":1,"depth":20,"w":{"0":0.11200083035554391,"1":0.005472467696757787,"2":-0.2644795992916183,"3":0.3505764180860413,"4":0.03600210575779845,"5":0.3584491386425011,"6":-0.18086285310765207,"7":-0.24731643301211628,"8":-0.006908880280688543,"9":0.15092471309681776,"10":0.07693497867701597,"11":-0.49091048307152363,"12":-0.4568065782044317,"13":0.3672890782401836,"14":0.015600099914506131,"15":0.15513979171808293,"16":0.1368055092816409,"17":0.07892925902963822,"18":-0.40100129058108536,"19":0.3224064833792229}},{"sx":1,"sy":1,"depth":20,"w":{"0":0.22818693173858626,"1":0.050836739957955665,"2":0.10359323327965092,"3":0.1557198327564602,"4":0.4947189262192628,"5":0.21797183431350511,"6":-0.18288500455961645,"7":-0.4820819342148857,"8":-0.5768990842623803,"9":-0.35507804229091827,"10":0.25335787442052454,"11":-0.4688640157609366,"12":-0.47728404113287987,"13":-0.33457179317146785,"14":0.12032189323712449,"15":0.4422981200664923,"16":-0.05717007958648045,"17":0.2901776955482008,"18":-0.08106443959181872,"19":0.010207979029492742}},{"sx":1,"sy":1,"depth":20,"w":{"0":0.05336460915516206,"1":-0.25518622782734107,"2":0.5815825452171606,"3":-0.44889530674421624,"4":0.055461846960680336,"5":0.1393998449511218,"6":-0.27003854078121675,"7":-0.3324389470900082,"8":-0.16756937639870556,"9":-0.15813716432699737,"10":0.08206063730978848,"11":-0.22467932961095166,"12":0.1038140374378828,"13":0.17381286068454094,"14":0.04733098102544621,"15":-0.2606883055939291,"16":-0.03250804374716758,"17":-0.2867842413891212,"18":-0.07201302119576404,"19":0.8458281993960192}},{"sx":1,"sy":1,"depth":20,"w":{"0":0.179791377164272,"1":-0.23566615416514994,"2":-0.08145747840954348,"3":0.2798352820582828,"4":0.3964238135283516,"5":0.010738247947737848,"6":0.030480847280778364,"7":-0.2861680037744992,"8":-0.10427449399847927,"9":-0.28057634421331507,"10":-0.0642559491634828,"11":-0.20002548454854574,"12":-0.4081737231842416,"13":0.46687027914867024,"14":0.00989469363944946,"15":0.46063211245604146,"16":0.09469865624584059,"17":0.34012869658828365,"18":-0.4536241681478053,"19":0.3816599473347205}},{"sx":1,"sy":1,"depth":20,"w":{"0":0.42903183320621047,"1":0.8055507086171309,"2":-0.7637129873927537,"3":-0.058794897109373634,"4":-0.11769104203764223,"5":-0.3274099897897191,"6":0.7157690812582278,"7":0.23603148106077515,"8":-0.265516649482668,"9":-0.36612106646969766,"10":-0.13590104515934873,"11":0.10966380984350843,"12":-0.1232452583011175,"13":0.0884837902117137,"14":-0.5239767125222184,"15":0.08722299413337554,"16":-0.4474027793661779,"17":-0.8071349966244663,"18":-0.4410123620689861,"19":-0.33029052663323993}},{"sx":1,"sy":1,"depth":20,"w":{"0":0.19863513420010218,"1":-0.06911116722923823,"2":0.3217627781397608,"3":0.19895287012099658,"4":0.2610346142263109,"5":0.1801362314875777,"6":-0.0907030165851368,"7":-0.05448440631693036,"8":-0.267890974697648,"9":0.052565332918388594,"10":-0.12197845546914357,"11":-0.8796849019236125,"12":0.06863318112906985,"13":0.5011645606752897,"14":-0.20022808535993034,"15":0.10627227100177349,"16":0.11436765166941025,"17":-0.02091725471616589,"18":-0.4100698194845197,"19":0.27033290756108097}},{"sx":1,"sy":1,"depth":20,"w":{"0":0.19567782661019514,"1":-0.10708029562553212,"2":0.22669829917671014,"3":-0.4222392014122221,"4":-0.3776513991006452,"5":-0.07816913573051115,"6":-0.4490538784974707,"7":0.6138037409917653,"8":0.3934297492720252,"9":-0.34230485934968596,"10":-0.06041732589860916,"11":0.08309101584326868,"12":0.046825760150331144,"13":-0.13259909841578618,"14":-0.3853067269832334,"15":-0.393583201455869,"16":-0.34374083453918863,"17":-0.09072858576517939,"18":0.41355828804898814,"19":-0.3691604571386638}},{"sx":1,"sy":1,"depth":20,"w":{"0":0.5133256467631849,"1":0.6555841247108599,"2":0.25801293570199807,"3":-0.7691161364247735,"4":-0.20763230597449306,"5":-0.14586555767114479,"6":0.0792600466322674,"7":0.15021938725529063,"8":0.37223391156287194,"9":-0.6185062720295628,"10":0.11777637519079767,"11":0.1146694417561248,"12":-0.11452709625601135,"13":-0.18143041288630482,"14":-0.3008997413803209,"15":-0.5660302904708684,"16":0.19410958461796585,"17":-0.42405281709638987,"18":0.35770511989667736,"19":0.08526973747663827}},{"sx":1,"sy":1,"depth":20,"w":{"0":0.3614023330083898,"1":-0.11828775463020615,"2":0.20227785141378854,"3":0.7014857906846489,"4":0.077847371688666,"5":0.20895766236362567,"6":0.06682673090630513,"7":-0.3603522581513383,"8":-0.21536138008632671,"9":0.9289885703027452,"10":0.6869155336485941,"11":-0.24582315713007824,"12":-0.1902925579369789,"13":-0.0017875352460516368,"14":0.24573294189675912,"15":0.8740171748949541,"16":0.11652252638352051,"17":0.376170011874717,"18":0.21722239663518023,"19":-0.028899188816036835}},{"sx":1,"sy":1,"depth":20,"w":{"0":0.30345760419636597,"1":-0.4285084408297523,"2":0.7030558779285793,"3":-0.27051753534668915,"4":0.23341533181459348,"5":0.608939429616528,"6":0.02293021600377871,"7":-0.42218341060390996,"8":-0.015986728702059715,"9":-0.38368918136850444,"10":0.1872487558268475,"11":-0.3680378988162768,"12":-0.29371600534800596,"13":-0.2533330304201311,"14":-0.06940606857036734,"15":0.19502510668915268,"16":0.0696904457982762,"17":0.10777572649927138,"18":-0.07210936440881349,"19":0.8784260306093861}},{"sx":1,"sy":1,"depth":20,"w":{"0":0.38979508862673623,"1":-0.028792804067466368,"2":0.04029301148078468,"3":0.23434662304662213,"4":0.23697599944308106,"5":0.315982220651205,"6":-0.3496290142018029,"7":0.031557567335105015,"8":-0.43456491272854675,"9":-0.11289314353421909,"10":-0.011643949212905808,"11":-0.7231965158013031,"12":-0.18812527707159576,"13":0.4097380200702762,"14":-0.13093012014477073,"15":0.019304980766446593,"16":-0.19899951651043782,"17":0.14557084482616078,"18":-0.6897655361199619,"19":0.07454110749150461}},{"sx":1,"sy":1,"depth":20,"w":{"0":0.8768387474204584,"1":-0.43560873886618584,"2":-0.70433491877783,"3":0.4372180885548457,"4":-0.3096217529557807,"5":-0.23122895373593386,"6":-0.39461493048677304,"7":-0.9677539267227198,"8":0.13491764468186007,"9":0.6837840543030597,"10":-0.8066662761847906,"11":-0.08358645381957379,"12":0.015901671586316106,"13":0.04702409459520456,"14":0.3017306134263062,"15":-0.07421573500275076,"16":0.6487534565399904,"17":1.156515722081607,"18":-0.1283499078323831,"19":-0.7397336807165533}}],"biases":{"sx":1,"sy":1,"depth":15,"w":{"0":-0.07055460139870826,"1":0.019474202534251302,"2":0.22828484025082685,"3":0.18090830936833077,"4":0.2085177979476301,"5":0.07678819123669639,"6":0.2810065069770566,"7":-0.024523987262476534,"8":0.24898174456148217,"9":-0.08513976773098834,"10":-0.13425927149239075,"11":0.18381761264274005,"12":0.14441379730265932,"13":0.16364111190507888,"14":-0.009249208782490378}}},{"out_depth":15,"out_sx":1,"out_sy":1,"layer_type":"tanh"},{"out_depth":5,"out_sx":1,"out_sy":1,"layer_type":"fc","num_inputs":15,"l1_decay_mul":0,"l2_decay_mul":1,"filters":[{"sx":1,"sy":1,"depth":15,"w":{"0":1.6975410005292018,"1":1.1304868068395504,"2":1.5945826665368619,"3":1.2474394069032628,"4":1.7603156865908824,"5":1.9665951133981043,"6":1.1062737902335673,"7":-1.7215638744415664,"8":1.6596003743675845,"9":-1.4381615714744462,"10":-1.5181857313501557,"11":1.0007016216530684,"12":1.6835237654829673,"13":1.4442987706759454,"14":1.4067290276516817}},{"sx":1,"sy":1,"depth":15,"w":{"0":1.6011601268540359,"1":0.711268174573843,"2":1.1638941979709787,"3":2.029615033164501,"4":1.8192228007304996,"5":1.2539896511344364,"6":2.043416298582305,"7":-1.235618494277892,"8":2.068998429114437,"9":-1.5633328961347035,"10":-1.3064137505449043,"11":0.7671689155382744,"12":1.4757269283440837,"13":1.8293711059646123,"14":2.0736587268341133}},{"sx":1,"sy":1,"depth":15,"w":{"0":1.1791230900984,"1":2.5462113077485378,"2":1.137571147810165,"3":1.6278864267749065,"4":1.5460745818571813,"5":1.4294610153294378,"6":1.324014250972943,"7":-1.759108012824091,"8":1.7609829838969404,"9":-1.2021345323341046,"10":-1.593673944375923,"11":1.3876868473953816,"12":0.49818746872947095,"13":1.9140757602500382,"14":0.49451263451567734}},{"sx":1,"sy":1,"depth":15,"w":{"0":2.1470292249498897,"1":1.1240732954624324,"2":2.0437221453364343,"3":1.4005199437555527,"4":1.472617955551503,"5":2.233415154417767,"6":1.3337735059552678,"7":-1.5225725870352382,"8":1.542823016801364,"9":-1.5071230884146911,"10":-1.77221855127397,"11":1.817159136026169,"12":1.7039644476154387,"13":1.335854850320458,"14":0.1858708690739243}},{"sx":1,"sy":1,"depth":15,"w":{"0":0.15509436999623458,"1":1.766761952308236,"2":1.6151303616891364,"3":1.2861724615272443,"4":1.546238298700392,"5":1.8333711841408769,"6":1.0940603393874615,"7":-1.5674523631781043,"8":1.5444396038466648,"9":-1.6087165167266457,"10":-1.5693224550699247,"11":1.591322586348889,"12":1.9418597393630483,"13":1.6870822753893164,"14":2.5267123515627534}}],"biases":{"sx":1,"sy":1,"depth":5,"w":{"0":1.3592039302285437,"1":1.9392135219024924,"2":1.4326827699535383,"3":1.384309402878775,"4":1.246589927701568}}},{"out_depth":5,"out_sx":1,"out_sy":1,"layer_type":"regression","num_inputs":5}]});
}