
//<![CDATA[

// a few things don't have var in front of them - they update already existing variables the game needs
lanesSide = 3;
patchesAhead = 40;
patchesBehind = 10;
trainIterations = 100000;

var num_inputs = (lanesSide * 2 + 1) * (patchesAhead + patchesBehind);
var num_actions = 5;
var temporal_window = 0;
var network_size = num_inputs * temporal_window + num_actions * temporal_window + num_inputs;

var layer_defs = [];
layer_defs.push({
    type: 'input',
    out_sx: 1,
    out_sy: 1,
    out_depth: network_size
});
layer_defs.push({
    type: 'fc',
    num_neurons: 35,
    activation: 'sigmoid'
});
layer_defs.push({
    type: 'fc',
    num_neurons: 25,
    activation: 'sigmoid'
});
layer_defs.push({
    type: 'fc',
    num_neurons: 25,
    activation: 'sigmoid'
});
layer_defs.push({
    type: 'fc',
    num_neurons: 25,
    activation: 'sigmoid'
});
layer_defs.push({
    type: 'regression',
    num_neurons: num_actions
});

var tdtrainer_options = {
    learning_rate: 0.01,
    momentum: 0.0,
    batch_size: 64,
    l2_decay: 0.01
};

var opt = {};
opt.temporal_window = temporal_window;
opt.experience_size = 20000;
opt.start_learn_threshold = 5000;
opt.gamma = 0.95;
opt.learning_steps_total = 10000;
opt.learning_steps_burnin = 1000;
opt.epsilon_min = 0.0;
opt.epsilon_test_time = 0.0;
opt.layer_defs = layer_defs;
opt.tdtrainer_options = tdtrainer_options;

brain = new deepqlearn.Brain(num_inputs, num_actions, opt);

learn = function (state, lastReward) {
    brain.backward(lastReward);
    var action = brain.forward(state);

    draw_net();
    draw_stats();

    return action;
}

//]]>
    
/*###########*/
if (brain) {
brain.value_net.fromJSON({"layers":[{"out_depth":350,"out_sx":1,"out_sy":1,"layer_type":"input"},{"out_depth":35,"out_sx":1,"out_sy":1,"layer_type":"fc","num_inputs":350,"l1_decay_mul":0,"l2_decay_mul":1,"filters":[{"sx":1,"sy":1,"depth":350,"w":{"0":0.3682701958808634,"1":0.23010517241262968,"2":0.09046201867234596,"3":0.3006953864937058,"4":0.0932598680320811,"5":-0.058250362597510916,"6":0.09778254669406805,"7":0.07574197261918061,"8":0.3732492840405128,"9":0.06257777630318721,"10":0.2895381216137484,"11":0.07118723814804774,"12":-0.09073634530154762,"13":0.056028351807591165,"14":-0.1945043389447978,"15":0.2705196689530759,"16":-0.04094207942468829,"17":0.1623427141252469,"18":0.49440565464789094,"19":-0.1097499008078202,"20":0.13768510673050113,"21":-0.24212686848572587,"22":0.13082409730912767,"23":0.05405012290829768,"24":0.2259517192855592,"25":0.20568007628233995,"26":-0.47859838924629683,"27":-0.04770974213463772,"28":0.2774728595554412,"29":0.42180764818927863,"30":0.24483592246448785,"31":0.09589973008929151,"32":0.04132835998491293,"33":-0.09514053424224717,"34":0.11304951264929874,"35":0.1348681798339235,"36":0.2541605302064546,"37":-0.08145301749141183,"38":0.21628679729402991,"39":0.048552393818993414,"40":-0.08600057275820913,"41":0.021699565840849807,"42":-0.048629376166078486,"43":0.27981757714266486,"44":-0.1101010977342125,"45":0.015355342697872094,"46":0.16039919216892337,"47":0.11525093379473153,"48":0.10157625170629156,"49":-0.09384858225464102,"50":0.47419176504693433,"51":-0.14371694010863895,"52":-0.15677686661452772,"53":0.15695029608634584,"54":0.07414519133882812,"55":0.08687003931741843,"56":-0.22853727808078264,"57":0.3766585712736484,"58":-0.37056516367044023,"59":-0.030856832876126148,"60":0.20177474483006805,"61":-0.11141585202057844,"62":-0.1414093718365864,"63":-0.03456540050430621,"64":0.3159449165043698,"65":-0.14046717229523717,"66":-0.005536610723058491,"67":0.307454193727426,"68":-0.27873452041612207,"69":-0.130349715565071,"70":-0.1692713297009012,"71":0.0927556865592397,"72":-0.13890995426742753,"73":0.08189951454725948,"74":0.22549651799037917,"75":-0.06848432084779255,"76":-0.15337160050241203,"77":0.16380822831507302,"78":0.13917986192409934,"79":-0.3171877239634586,"80":0.09858949943539563,"81":0.25158035989195254,"82":0.19746597565638435,"83":-0.26029472382226937,"84":-0.07170248442087802,"85":0.1493039799964177,"86":0.005113048424954102,"87":-0.37335882883176796,"88":0.29847119996701055,"89":0.16124511630954597,"90":0.11335709522124354,"91":0.06904570818689264,"92":0.14989020783762416,"93":-0.25300091101720146,"94":-0.35753354721092917,"95":0.08517022969845259,"96":0.20532910067450533,"97":0.1617378442753341,"98":0.19241222499635194,"99":0.261704289246587,"100":0.03558888338107516,"101":-0.20367730425750133,"102":0.19013588567270126,"103":-0.023957226272437685,"104":-0.10615112706549756,"105":0.06306754292811417,"106":0.1429018897828891,"107":0.24699749134077748,"108":-0.1775946193240294,"109":0.2700459521109855,"110":-0.08593105407567567,"111":0.08903139188189248,"112":0.007381150408699912,"113":0.005937602507104231,"114":-0.08095231195665235,"115":-0.066141919685697,"116":0.31478108666348237,"117":0.24096262893123477,"118":0.03126726801064181,"119":0.12474194116951907,"120":-0.14637608559592466,"121":-0.0595742556821099,"122":-0.15893669164823782,"123":0.2009307639231033,"124":0.25893317424362655,"125":-0.01812012051838407,"126":0.233341284699122,"127":0.20580679459081008,"128":-0.11391901184812236,"129":-0.29691032677036483,"130":-0.018118541629600558,"131":0.16125296777448717,"132":0.13279668649787932,"133":0.08010600971318875,"134":-0.2600711245324959,"135":-0.3103845754804902,"136":-0.17284241325668254,"137":-0.15240372151889783,"138":-0.11685443904847623,"139":0.11162849717280406,"140":0.4145834636282747,"141":-0.10285884188578795,"142":0.009604627149435961,"143":-0.44880345910652,"144":-0.1392935780943481,"145":0.014504721366480854,"146":0.08667528774717076,"147":0.2568548597397089,"148":0.1438292562185536,"149":-0.11091390040212862,"150":-0.49757245485655277,"151":-0.24178078558643235,"152":-0.15239705571982706,"153":0.10250788169622384,"154":0.10830475837831142,"155":-0.02814408369809789,"156":-0.08020411545851007,"157":-0.6182956037015929,"158":-0.234627507339272,"159":-0.20141906597212506,"160":-0.006838508641474995,"161":0.2823845418780529,"162":0.04069462760730216,"163":-0.27961861625755363,"164":-0.674801066046981,"165":-0.19622401778620255,"166":0.03527713305450945,"167":0.06727166556860392,"168":0.2070489170526757,"169":0.03176993791861098,"170":-0.3476926977084132,"171":-0.5283187669001541,"172":-0.37150949634643116,"173":-0.08674678615471015,"174":-0.12579086144404059,"175":0.3704404111101054,"176":-0.27977682888778993,"177":-0.046372228647019814,"178":-1.3128833506649136,"179":-0.2483341782484726,"180":-0.009356008900172241,"181":-0.06917787941051701,"182":0.3746101801066651,"183":-0.30651085410984036,"184":-0.3818085244652268,"185":-0.9944440658539679,"186":-0.3216119942320722,"187":-0.0846119481988465,"188":-0.08290606925754003,"189":0.24719452828031338,"190":-0.16340774583097495,"191":-0.38337221131705346,"192":-0.8496896138846047,"193":-0.35737779307776923,"194":0.06806943259030611,"195":-0.07385254585511977,"196":0.011688249270005124,"197":-0.2908372514036919,"198":-0.49943365573926074,"199":-1.1478759744394427,"200":-0.2737113659115053,"201":-0.14577628802974588,"202":-0.053844169676285226,"203":-0.025784980152370053,"204":0.12480901618668207,"205":-0.8184947542182228,"206":-0.9757755321910155,"207":-0.13397000489075145,"208":-0.06048797054405958,"209":0.022494882325594583,"210":0.1403712464711275,"211":0.056500542832992225,"212":-0.7393915525099546,"213":-0.8265578464684705,"214":-0.10377786834221292,"215":0.02070782778830639,"216":0.034710176024253234,"217":0.11103269984701493,"218":-0.13802662614658934,"219":-0.697265551399789,"220":-0.6095905494202192,"221":0.15912050181807846,"222":-0.04820935292308571,"223":-0.0837809180892859,"224":0.12060321273896822,"225":-0.11479209597012947,"226":-0.6975905846826862,"227":-0.08427439858182066,"228":0.2827547412636616,"229":0.021653405528879066,"230":-0.024704843486359974,"231":-0.02141269590226964,"232":-0.1603812600628416,"233":-0.8268393891753343,"234":-0.004064187715308625,"235":-0.35918647906807666,"236":-0.06427542400145451,"237":0.09451330598996009,"238":-0.05722446636325046,"239":-0.045858121082273405,"240":-0.9142084973897833,"241":-0.10602448515439471,"242":-0.3262972696849602,"243":-0.21142000936485952,"244":-0.07922501267948792,"245":-0.21050611945163164,"246":0.016235578684655597,"247":-0.9247909180806809,"248":-0.5985391533704159,"249":-0.2075844405874789,"250":-0.14105601221495498,"251":-0.003367894063838936,"252":0.05535429977407054,"253":-0.1431641520138717,"254":-0.925668060110515,"255":-0.06866143082316735,"256":-0.5930674152863091,"257":-0.10793300565555412,"258":-0.04803395268186378,"259":0.19168099648177286,"260":0.044385497459639316,"261":-0.21706368691514114,"262":0.2710573237007697,"263":-0.12825729088549284,"264":0.01241393958112332,"265":-0.0100205467261292,"266":0.013525019505007858,"267":-0.039355568527299815,"268":-0.13927802464410638,"269":0.4519847167821296,"270":-0.16668507162351923,"271":-0.0066023250574834165,"272":0.1332165801161568,"273":0.26164199697497115,"274":0.07393787401816197,"275":-0.07535860496630255,"276":0.4490534832761796,"277":-0.4437623112593472,"278":-0.03284283705042485,"279":0.08551333219896186,"280":0.2096451858197398,"281":0.1303709916304938,"282":-0.28667308660812113,"283":0.24532762254728885,"284":-0.10466724105139744,"285":0.043648840230000714,"286":0.025501249662995933,"287":0.08606008044752085,"288":0.05145910353645606,"289":-0.1104865322281525,"290":0.22786899907372665,"291":-0.0015637037446583626,"292":0.060596807804407835,"293":0.06793827456416925,"294":0.06718491146719885,"295":0.07797413215626302,"296":0.28788866372793526,"297":0.27894236451196686,"298":-0.2832729045864112,"299":-0.15243362731133564,"300":-0.04931656021314605,"301":0.24146113439531727,"302":0.043967692015832546,"303":0.2696065002007825,"304":0.25630262876096166,"305":-0.2629875576508351,"306":-0.08914551473436752,"307":-0.19233417720188548,"308":0.05049638595938771,"309":0.08552652232023865,"310":0.39859896297758135,"311":0.43924244479635455,"312":-0.2695520689897839,"313":0.12367399958046249,"314":-0.005154956888268152,"315":0.12117673461147914,"316":0.14826138856557183,"317":0.4037659836668435,"318":0.5213824201390705,"319":-0.19377670920697834,"320":-0.047284403139159506,"321":-0.08337133015699162,"322":0.17088873560899046,"323":0.02535290501004902,"324":0.10745229640690898,"325":0.5013027170716219,"326":0.28395696804951404,"327":0.18614225157294673,"328":-0.0392458412738481,"329":0.028553713735192252,"330":-0.05840709501124257,"331":-0.08785677315833493,"332":0.1779335709043579,"333":0.18899842162470934,"334":0.2897085476058467,"335":0.040946124788661484,"336":0.2109602109507692,"337":0.1471810667879005,"338":-0.06119542875893453,"339":0.09395602143124752,"340":0.16973587661105305,"341":0.09510609108681181,"342":-0.1535290569132237,"343":0.06996547643571997,"344":0.23435883164332658,"345":-0.2842962393618982,"346":-0.25589503982743034,"347":0.26007669089277957,"348":0.04951890354307232,"349":-0.09397707944301593}},{"sx":1,"sy":1,"depth":350,"w":{"0":0.4711085142694418,"1":0.01100778338791044,"2":-0.01853681033423385,"3":-0.38719795143974634,"4":0.018246332152032783,"5":0.022508038436640867,"6":0.2498587932745111,"7":0.3269274030540136,"8":-0.11536767152906512,"9":-0.2582269826131059,"10":-0.16572097788621012,"11":0.10643356896814377,"12":-0.20847406297094878,"13":-0.09512244617709596,"14":-0.07274324220674497,"15":-0.07909077645973862,"16":-0.03777077276320574,"17":0.20660497069846895,"18":-0.4715341241993217,"19":-0.039880699514896166,"20":0.1251724993795487,"21":0.3527957203881784,"22":-0.1580492397023125,"23":-0.3987833495673097,"24":-0.3420389627151954,"25":-0.10229173927761018,"26":-0.13063452506144219,"27":0.07556891371251401,"28":0.43946488277197043,"29":-0.3224358673621639,"30":-0.2784751403042766,"31":0.06222643232910893,"32":0.006212663756622919,"33":-0.3405171855654718,"34":0.3410095044555971,"35":0.3783907498564662,"36":-0.323354630891663,"37":-0.2787355338628543,"38":-0.28520711028939233,"39":-0.1568058969381364,"40":-0.41560557989284735,"41":0.207700284288458,"42":0.47835705555923735,"43":-0.2989161298427094,"44":-0.20337422501953656,"45":-0.32877552160913953,"46":-0.29573703975042875,"47":-0.18830087903551873,"48":0.3007650212758837,"49":0.053828131164016566,"50":-0.17842607266471544,"51":-0.16380816094294684,"52":-0.1590121187953372,"53":-0.1641512068819084,"54":-0.05964201181899884,"55":0.29455842747456107,"56":0.2909208656852546,"57":-0.03271772184299723,"58":-0.37353899586271705,"59":-0.2350589140219011,"60":-0.0524013133123909,"61":-0.29528031045128483,"62":0.2184911071375185,"63":0.3454892104170237,"64":-0.2920186268693515,"65":-0.2739043084461669,"66":-0.23557301924936758,"67":-0.10442436346435316,"68":-0.42511463472383904,"69":0.18561410943460296,"70":0.08235163889181508,"71":-0.13791244063060765,"72":-0.20851252770734652,"73":-0.1605241650141545,"74":-0.22962735478174326,"75":-0.038704259059853696,"76":0.28345955519494465,"77":0.2599300442015165,"78":-0.297457065139387,"79":-0.21028767013297647,"80":-0.43156517171523473,"81":-0.2650257274086866,"82":0.009205918659844091,"83":0.07246678062463226,"84":0.18556312352884394,"85":-0.19620820868195518,"86":0.14279185800885122,"87":-0.3050523153861206,"88":-0.01996186742591407,"89":0.12663594891369445,"90":0.37598976844122395,"91":0.35083594891088055,"92":0.06160845868997515,"93":-0.18882564649783193,"94":-0.21575438779679917,"95":0.09414315305777436,"96":-0.10402511472046898,"97":0.22316272338920382,"98":0.47472847923084205,"99":0.06985000739492854,"100":-0.19992930290220776,"101":-0.30392674924138957,"102":0.06423669189336512,"103":-0.2704668620794191,"104":-0.11562568633627458,"105":0.25249544839663923,"106":0.01189653461557048,"107":0.014119073578443365,"108":-0.41050329889741843,"109":0.013806710992025626,"110":-0.05914716686213144,"111":0.1819135264115797,"112":0.19433062365476686,"113":0.07089815771220587,"114":-0.11792631270482222,"115":-0.23975254113839287,"116":-0.2665632039858882,"117":0.14706286733347626,"118":0.2541990368175168,"119":0.24361568695553273,"120":-0.04739164198551985,"121":0.12633812873358533,"122":-0.43818689322842014,"123":-0.047965738121466636,"124":0.2681560096084023,"125":0.3631142194573839,"126":-0.07940250359460038,"127":0.06439928122188301,"128":0.08213636268373806,"129":-0.40464643363573427,"130":-0.022868212886618212,"131":0.15466259413222355,"132":0.4120361651238018,"133":0.07180412517617869,"134":-0.024976833366368776,"135":0.00042849326909786373,"136":-0.5209965813334707,"137":0.11939655252312165,"138":-0.10260779372120228,"139":0.07103709345961458,"140":0.20324827312112695,"141":0.07869475265723533,"142":0.4086495975120487,"143":-0.7049881443446898,"144":-0.1618486674459218,"145":0.1748248610320185,"146":0.08122594827370129,"147":0.08368622914819766,"148":0.05605126594455476,"149":-0.001106220018755539,"150":-0.8545316439422439,"151":-0.5015038380356577,"152":0.0497916537172359,"153":0.30957028409591103,"154":0.13005017245803058,"155":-0.074632411402477,"156":-0.08532063042582821,"157":-0.7877679751201471,"158":-0.43433250859349276,"159":0.08484911971896102,"160":0.13075090322918925,"161":-0.00999266319394766,"162":0.05735555822135739,"163":0.00353728710854894,"164":-0.7144460627481809,"165":-0.23178647307911004,"166":0.06127585471545474,"167":0.1868180595592437,"168":0.03227064251016028,"169":0.17185627896369532,"170":0.09359776801798488,"171":-0.876625060308076,"172":-0.19218651817295346,"173":-0.00876170253064772,"174":0.19921290095000635,"175":-0.10166295648200384,"176":-0.08846489153244122,"177":0.18894603572491492,"178":-1.0205575683585109,"179":-0.18892391741131614,"180":0.0719781514187086,"181":0.029878235912117666,"182":0.17911223018009192,"183":0.2515598890873412,"184":0.03506114414534927,"185":-1.1212533787061951,"186":-0.28150098108211946,"187":-0.05033793171108095,"188":0.23423995279169832,"189":0.10594308310384891,"190":0.0394917883799428,"191":0.23955143856787528,"192":-0.8566702864463204,"193":-0.2926490956457362,"194":0.0025278738631502886,"195":0.2517857257772671,"196":0.06235187827261571,"197":0.02182799612819459,"198":-0.16163048727351953,"199":-1.1465147441536143,"200":-0.0035578170864074008,"201":0.07985917682180353,"202":0.19027672532050388,"203":-0.01484736789562717,"204":0.22025963200760898,"205":0.4159268357921809,"206":-1.300612223280548,"207":0.11032537995729075,"208":0.07901097379978246,"209":0.28398936482215476,"210":0.2804928827778428,"211":-0.015678385403621344,"212":0.4922428172464541,"213":-1.1056672646828802,"214":0.062131794257742096,"215":0.03668686207623852,"216":0.1375692074417249,"217":0.25088841859095873,"218":0.12351702112827977,"219":0.2226318746866671,"220":-1.269907370905521,"221":0.12446724325347831,"222":-0.06351683956402004,"223":-0.1383850187382412,"224":0.14269332424359585,"225":0.48385858797075443,"226":-0.1293874965358184,"227":-0.9124851279077127,"228":-0.19975402730378172,"229":-0.0204602462555709,"230":0.050053265659253374,"231":0.18553088185810224,"232":0.25476673393860716,"233":0.5919951655214702,"234":-1.6882528143099673,"235":0.4864214679694602,"236":0.10328553900645297,"237":0.29100157595700077,"238":0.07201036231568676,"239":0.07272257742180668,"240":0.3874332435131764,"241":-1.508517152880306,"242":0.40864490672361276,"243":-0.07029927579084105,"244":0.20146590279092996,"245":0.13905819029746672,"246":0.471435440988094,"247":0.34859636048199727,"248":-0.8065593098201074,"249":0.6328391342570994,"250":0.01319467957950801,"251":0.36222132985732464,"252":0.37905352434422834,"253":0.12106511368029221,"254":0.4448108160060789,"255":0.08310865122302746,"256":0.676598897618018,"257":-0.004788281719541552,"258":0.11680568662633617,"259":0.10508472023638103,"260":0.2250346443764253,"261":0.15822253770822275,"262":2.1075088160157014,"263":0.22981863857843216,"264":-0.04322518610469903,"265":0.1241607570757259,"266":0.023146258213463253,"267":0.14362915489863645,"268":0.2517817172931678,"269":2.1361384604940636,"270":0.5293993819995582,"271":-0.12819914093944615,"272":-0.0359571900633523,"273":-0.06484230478126876,"274":0.22861334367434832,"275":0.7452472756243367,"276":1.9783171488101552,"277":0.6330072505138798,"278":-0.08899406388372727,"279":-0.13868363598876082,"280":0.19949873214517752,"281":-0.09547940210063946,"282":0.4164887623918349,"283":-0.019231798499111982,"284":0.4255387965273817,"285":-0.09085761311515607,"286":0.005459955151286278,"287":0.08016341779393435,"288":0.11255820438716461,"289":0.28744323802070026,"290":0.021237130394280223,"291":0.5027468922152375,"292":-0.04031821337545977,"293":0.30044243174575325,"294":0.19249008373722412,"295":0.01344851938475336,"296":0.38785770803829867,"297":0.05825977426528605,"298":0.3117734333616488,"299":0.013674655031994356,"300":-0.0014284660888217542,"301":0.21603361965611373,"302":0.013182920796616242,"303":-0.19070455097767705,"304":-0.016179806547757754,"305":0.09787542633167103,"306":-0.22667958822196205,"307":0.2952461130014589,"308":-0.09878216212126054,"309":0.22382308549444174,"310":0.033147469547860374,"311":1.8471166111911062,"312":0.6325206929975846,"313":-0.26855784494427937,"314":0.4043431047977509,"315":0.3174986508949884,"316":-0.04290585002510426,"317":-0.20946544098804196,"318":1.6144128004992961,"319":0.43897042741811254,"320":-0.011140514416826857,"321":0.18053030933789346,"322":0.1304143779489847,"323":0.04432542414831135,"324":-0.13491759295714417,"325":1.5439066538483552,"326":-0.0011292886251891997,"327":-0.41503417584972374,"328":0.17667737067071915,"329":-0.05735619028168739,"330":0.08674133844983473,"331":-0.42772181495019873,"332":0.5012661076191468,"333":-0.3682339323645552,"334":0.19954187968727027,"335":0.033261189045944765,"336":0.2165661668485861,"337":0.03033161346511988,"338":-0.20146287143496242,"339":0.4037250347421574,"340":-0.30318154772221656,"341":0.035757988670619224,"342":0.11108168854978684,"343":0.12050702700278676,"344":-0.23116722033591267,"345":-0.6282519186194432,"346":0.35946200925790583,"347":0.15176365729456917,"348":-0.07522900088709987,"349":0.0649413446520516}},{"sx":1,"sy":1,"depth":350,"w":{"0":0.20333803546281376,"1":0.3271875795068941,"2":0.3907003018158279,"3":-0.35552417258574875,"4":0.26543305769719977,"5":0.2560395430326058,"6":0.4118010903044147,"7":0.27795316534469505,"8":0.0793765378142921,"9":0.2064272653422824,"10":-0.49370565036326736,"11":0.2433682268994028,"12":0.05088769894006058,"13":0.3010811218078782,"14":0.051970511042141586,"15":0.20614097401758763,"16":0.17269449343949747,"17":-0.22571319727491368,"18":-0.17082771699198332,"19":-0.01161482593038572,"20":0.21627777590267253,"21":0.29253366616194204,"22":0.22987867147359947,"23":0.20103070624887723,"24":-0.21151261088250567,"25":-0.014383397176490285,"26":0.13536956138829426,"27":0.3553178618876851,"28":0.23490193160740802,"29":0.15596882896789283,"30":0.0882872625354637,"31":-0.04319747295024199,"32":0.20501573492469005,"33":0.08511314242763549,"34":0.343468382851395,"35":0.1856450793360738,"36":0.2507048033848182,"37":0.1335607328722106,"38":-0.09035028945726316,"39":0.11875911319078447,"40":-0.0043441246088753716,"41":0.2513317541636446,"42":0.1621679536278789,"43":0.0684456907298661,"44":0.12523870030216386,"45":-0.19445649620609246,"46":0.031494071511287657,"47":0.104795575713527,"48":0.3751068296590104,"49":0.13275701586287,"50":0.24764732956496313,"51":-0.01437942962555353,"52":-0.053083424836134964,"53":0.03872496550405669,"54":0.02364332295779701,"55":0.20047401150171026,"56":0.228726802023929,"57":0.2834884086421922,"58":0.137482859234494,"59":-0.0028341146370572524,"60":0.1276304799620135,"61":-0.11535834129831853,"62":0.09579613891821157,"63":0.35134799874056816,"64":0.13206260199477604,"65":0.02118839434018139,"66":-0.11190109406220519,"67":-0.13489786640967466,"68":-0.2033204085864233,"69":0.21479102696602603,"70":-0.008561390633603415,"71":0.29551196735820123,"72":-0.06105893108880663,"73":-0.007461495906304304,"74":0.031188400031496488,"75":0.0851057047933015,"76":-0.03662619394896072,"77":0.15572058958805007,"78":0.01064491661873701,"79":-0.07953877908222656,"80":-0.25527549916478437,"81":-0.05637184361971016,"82":0.20459700671005027,"83":-0.2306654197815095,"84":-0.06565897664210159,"85":0.2445462953864235,"86":0.2069573068294288,"87":-0.37332867234700934,"88":-0.00144711304819539,"89":0.07037923618182414,"90":0.12099097973790175,"91":-0.04098210713151118,"92":0.17184979737823325,"93":0.007628370293792045,"94":-0.2015225586318498,"95":0.2211276474167479,"96":-0.15102524437736725,"97":-0.10982879572268422,"98":0.1497036958163642,"99":0.2730663324681864,"100":0.014320363402784687,"101":-0.25443986067852514,"102":0.0925338360338289,"103":-0.020312841011129148,"104":-0.07273318524655431,"105":-0.09822920382077226,"106":0.33130249366635356,"107":0.1160591169648044,"108":-0.3221085307015508,"109":-0.010299921586284275,"110":0.1179757886298589,"111":0.1581642133488056,"112":0.09766712263385618,"113":0.06196914119336015,"114":-0.07085499274076261,"115":-0.20015486336500835,"116":-0.09484923451417737,"117":0.19848056118211174,"118":0.2477579292024808,"119":0.003050621461766102,"120":0.13497560433408684,"121":0.1384504134983883,"122":-0.44872210010033237,"123":-0.005036025048782166,"124":0.03885685590760726,"125":0.10730724761698197,"126":-0.2758516537155242,"127":0.09713850852624663,"128":0.17253680059503834,"129":-0.45624670824437835,"130":0.16379353510957953,"131":0.24676498326714377,"132":0.20067337894689438,"133":-0.1394459196716608,"134":-0.1298622780228741,"135":0.2770186584556166,"136":-0.5594133231167664,"137":0.0677774453847297,"138":0.07270000287018505,"139":-0.012184024929987977,"140":-0.2534234195781046,"141":0.07331953981182997,"142":0.542362740250098,"143":-0.6415555558061737,"144":-0.06476693480224935,"145":0.267861656607508,"146":-0.03309670997168459,"147":-0.26020960501202006,"148":0.18393692513808566,"149":0.3807182608529616,"150":-0.6681708181431947,"151":-0.24200221300402777,"152":0.09495175233439472,"153":0.13919939097623663,"154":-0.2296590725577298,"155":0.06525936578669791,"156":0.2885695038159457,"157":-0.5490157776557596,"158":-0.24691093558255728,"159":0.22265532152037523,"160":0.24077591171211363,"161":-0.190643936839289,"162":0.10168306573491281,"163":0.3431879923106338,"164":-0.6398408837158736,"165":-0.057056014636392774,"166":0.19876356534778444,"167":0.05186770863705523,"168":-0.22342857284768777,"169":0.0011357601249427265,"170":-0.1737420512306507,"171":-0.6533038684107003,"172":0.1494967557926693,"173":-0.01600525850528395,"174":0.11261436412464287,"175":-0.1989231804989335,"176":0.18298269994958552,"177":-0.008333083270853837,"178":-0.7405826861303664,"179":-0.06439963056693448,"180":0.25363938039674516,"181":0.10687711695015291,"182":-0.08476649257230123,"183":0.47298373098402224,"184":-0.053892228500759115,"185":-1.0008449311796903,"186":-0.015445685323762826,"187":0.107250901012215,"188":0.045831417270396205,"189":-0.18934784801963528,"190":0.34416066901956194,"191":-0.08364092977666342,"192":-0.7093300929321421,"193":-0.05482791117486026,"194":0.12555960008861464,"195":0.18868079607086669,"196":-0.021404804278809145,"197":0.38377295149890567,"198":0.007112095582861629,"199":-0.9959699119274169,"200":0.011274740367752696,"201":0.09657379000082562,"202":0.28978319350789605,"203":-0.09304410486253986,"204":0.16468981932786061,"205":0.23869947078271128,"206":-0.9317962308819224,"207":0.01597187373574525,"208":0.20238666727075647,"209":0.07829115332731831,"210":-0.08856970442045736,"211":-0.1468657485878027,"212":0.27314036801224706,"213":-0.777837275219634,"214":0.06393651528976688,"215":0.09986847060974911,"216":0.10919125751650478,"217":0.02261191461360346,"218":0.05036994857580826,"219":0.2820639426899058,"220":-0.7818539891454577,"221":0.10012025268221045,"222":0.05885253256683819,"223":0.30494471001968093,"224":-0.04755166109597277,"225":0.0553494328646993,"226":-0.16983904755650597,"227":-0.4353672294279427,"228":-0.0952748457193955,"229":0.1538829090542235,"230":-0.05624651851306818,"231":0.1868660290882403,"232":0.06383073734666656,"233":0.860035388048401,"234":-0.9341148604575367,"235":0.46422266519067523,"236":-0.012535100662217668,"237":0.06075054997909494,"238":-0.09436759818905106,"239":-0.054733039578521665,"240":0.6216504153488791,"241":-0.738312863417404,"242":0.42162928574825553,"243":0.21710504713642595,"244":-0.055348443938084024,"245":0.05008434838965103,"246":0.15656116291541414,"247":0.5770357656668411,"248":-0.45071899076774813,"249":0.46968559382887776,"250":0.1821513861660056,"251":0.029453115477280647,"252":-0.015648843645709263,"253":-0.058686165017286115,"254":0.9101737569315635,"255":-0.024500291763545796,"256":0.7432147387066715,"257":0.25011294668954087,"258":-0.06746040998663948,"259":-0.0780667168209874,"260":0.19140953195613106,"261":0.08129355290258033,"262":0.9102046633839312,"263":0.39276653670542727,"264":0.23231725365112144,"265":-0.026723463349794467,"266":-0.13301904698952743,"267":0.07119988167217634,"268":0.16372007445418418,"269":0.8615178333664496,"270":0.4506716207637601,"271":0.05353949216226813,"272":-0.034338250200151785,"273":-0.13981501317798212,"274":0.4414872050922985,"275":0.35833873606735306,"276":0.9046552015622755,"277":0.2878475459279985,"278":0.17059118353427905,"279":-0.012451221607407246,"280":-0.1787682550020559,"281":0.27047645231885664,"282":0.19016340511030821,"283":-0.13724855278558717,"284":0.5302183700263609,"285":0.0846444647831684,"286":-0.24971398161555747,"287":-0.24243712554936206,"288":0.24597259095364934,"289":0.3029538297415769,"290":-0.10810794044426715,"291":0.27123606132085004,"292":0.10308099482791162,"293":-0.06922977003458496,"294":-0.22299167757785326,"295":0.23466813079672474,"296":0.2630153499821615,"297":-0.06554180932669446,"298":0.26610271989484474,"299":0.14905116537970142,"300":-0.15105016904698143,"301":-0.05901607086548618,"302":0.15571075594031067,"303":-0.07067230032370338,"304":-0.17904177713658545,"305":0.2991297496340363,"306":-0.0247203968500752,"307":-0.04308770792792907,"308":-0.010115106803878978,"309":0.18062940140181563,"310":0.13419162527901646,"311":0.8491157839434004,"312":0.34725561916859615,"313":0.08800412610648967,"314":0.20566823838002501,"315":-0.18939771297460867,"316":0.06341009790544866,"317":0.04447658703580476,"318":0.8044867644026595,"319":0.1520646425262673,"320":0.09444492974972617,"321":0.28545959948606325,"322":0.030075816074063122,"323":0.14037973653505612,"324":-0.0022554124038863,"325":0.7564078677061464,"326":0.18463778986157062,"327":0.07551738409905365,"328":0.18079936239831096,"329":-0.11853645306850479,"330":0.011006590905018127,"331":-0.17756138570804214,"332":0.158754656066927,"333":-0.14606820123616646,"334":0.2555595181311334,"335":0.11078982965607735,"336":-0.0802471610851905,"337":0.2942202555443969,"338":0.21539298971678608,"339":0.1896427427243737,"340":-0.13818000351137466,"341":0.08959688389462794,"342":0.244627216409094,"343":-0.012668747934571479,"344":0.28156168483430416,"345":0.11922973848364136,"346":0.04149632137890582,"347":0.02856205929471244,"348":0.2382560474512884,"349":0.009177677711335501}},{"sx":1,"sy":1,"depth":350,"w":{"0":-0.2755710388988849,"1":0.02116335716094555,"2":0.013433183240538958,"3":-0.09386821912392443,"4":0.01835109260569353,"5":0.13903856061049413,"6":0.04586425751609365,"7":-0.22889982837705386,"8":0.021430239329728405,"9":-0.24888025035983208,"10":0.19842322561517334,"11":0.35318258046938605,"12":-0.16520317770906887,"13":0.12517270170791542,"14":-0.23134969322722576,"15":-0.12234670906522728,"16":-0.08409934790812179,"17":0.013460672844295384,"18":-0.004953267299807661,"19":-0.021842643836184717,"20":0.15463409002125214,"21":-0.3534694162440799,"22":-0.08297854342021053,"23":0.00834718311055649,"24":-0.058808684532305026,"25":0.15992482128260938,"26":0.40094718168412263,"27":0.2783041374128444,"28":-0.2736637391657582,"29":-0.18196804001877973,"30":0.06703864915934496,"31":0.12081313742671565,"32":0.11624007734233534,"33":-0.065330298406827,"34":0.19232869952443596,"35":-0.3735332827770625,"36":-0.1938204429048845,"37":0.0015688234636701253,"38":0.10925788286965704,"39":0.14357652502090884,"40":-0.2458209616008507,"41":-0.05258971082258414,"42":-0.3913565568938177,"43":-0.15786148773068406,"44":0.031944274297905674,"45":0.180453270844689,"46":0.010911239647672266,"47":0.02710283651087902,"48":-0.006089405659136184,"49":-0.30111993863634007,"50":0.06737867341908593,"51":-0.06129364146359111,"52":0.26868338946349896,"53":-0.18395557928954703,"54":-0.07901618963556047,"55":-0.144068964530586,"56":-0.2637606406124785,"57":0.045552762062215424,"58":-0.11245528532486827,"59":-0.010888347010015407,"60":0.34795419478193934,"61":0.024356518257743737,"62":-0.10759080242213519,"63":-0.24838209905295386,"64":-0.10959227307757297,"65":-0.09757179394191393,"66":0.04701792165727914,"67":0.015128538404314351,"68":-0.10812428532729011,"69":0.10989368116720867,"70":-0.22503142840080803,"71":-0.1570030592401526,"72":-0.25670831122628346,"73":0.2802628606817633,"74":-0.23801456095794477,"75":0.09291700428281749,"76":0.05789006475079968,"77":-0.20775886908831498,"78":-0.09138974895779235,"79":-0.1917637135914516,"80":0.0002261886420010597,"81":-0.19562782281211322,"82":-0.11468603693824,"83":0.1314370279496286,"84":-0.25934535998904606,"85":-0.11612255504488218,"86":0.21296856673636297,"87":0.0720566454363142,"88":-0.02820158252101969,"89":-0.0739443387101298,"90":0.007085281190290703,"91":-0.21283620779100776,"92":-0.00434025979063008,"93":0.054004505210449284,"94":-0.025725272163470914,"95":-0.06978458516624729,"96":0.09542757478301177,"97":-0.2426967651240164,"98":-0.1991507690269411,"99":0.05502972116442384,"100":0.2889983540562391,"101":-0.016180491103743064,"102":-0.0640936280833832,"103":-0.18788156444596651,"104":-0.15675576917319764,"105":-0.1034778785276734,"106":0.06984792782250995,"107":0.1250476444665177,"108":0.06474803026616748,"109":-0.11320460650848763,"110":-0.10078456068437926,"111":-0.04987363366395221,"112":-0.10904872782335832,"113":0.05655474291201812,"114":-0.010335857385449166,"115":0.2451394518453671,"116":-0.19251591356122325,"117":0.2764160720619626,"118":0.12282272509996223,"119":-0.04931780283341172,"120":-0.129151137961719,"121":0.12247646178096756,"122":0.2936052112791126,"123":-0.21894880477523168,"124":0.09096164177303173,"125":0.13837852558774996,"126":-0.22348262058119514,"127":-0.12791392592399772,"128":-0.04541543565450565,"129":0.7503248128612584,"130":-0.07116165383187652,"131":0.02200114871705435,"132":0.19287829676808196,"133":-0.2008857579849218,"134":-0.09383768806105018,"135":0.04760102713097106,"136":0.5815154524801006,"137":-0.35757184408254894,"138":0.2638451056248059,"139":0.13267754451223213,"140":-0.2808960999279581,"141":-0.06364350578901187,"142":-0.0974619837486957,"143":0.39361031396772383,"144":-0.3071430037009885,"145":0.2228818330765189,"146":0.013380882884318329,"147":-0.2483371127623966,"148":0.058750832728661655,"149":-0.24157052038362878,"150":0.7231080910656964,"151":-0.42215950696426785,"152":0.1147077504432825,"153":0.05427179843416468,"154":-0.2458930080722597,"155":0.03940942000116614,"156":-0.26383479533445775,"157":0.2396141184482002,"158":-0.023515858209317713,"159":-0.026791369740012776,"160":0.28899454281531717,"161":-0.17288659015638982,"162":0.007647955962674382,"163":-0.24031094343567716,"164":0.4518532405636561,"165":0.14666320368679267,"166":0.16071566559056483,"167":-0.12828678615386713,"168":-0.18756344249897897,"169":-0.08981359441552028,"170":-0.34008333339201935,"171":0.48590296697648233,"172":-0.026123545575599712,"173":0.21890212660635358,"174":0.1267770133413406,"175":-0.2473129504698428,"176":-0.24052835618141158,"177":0.1787592281513638,"178":0.22696285684670398,"179":-0.1566401165947044,"180":-0.06518969578623572,"181":0.13795314148911073,"182":-0.26155496757119934,"183":-0.3072978270785383,"184":-0.04703108638793428,"185":0.23928031017940388,"186":-0.38107200307747213,"187":-0.03665571097360315,"188":-0.08953541256578229,"189":-0.27957533238798304,"190":-0.10621603725141945,"191":-0.060875773131367564,"192":0.25425102278152795,"193":-0.4361453916172368,"194":0.11706916915990981,"195":-0.12763739098715013,"196":-0.2597100219156519,"197":0.14692425618564559,"198":-0.21002093271091782,"199":0.43073640783264217,"200":-0.45909928083936247,"201":0.07130590454649892,"202":-0.033710291251892135,"203":-0.3132603276717025,"204":0.06476861148315645,"205":0.02063803130454047,"206":0.3729473506125029,"207":-0.23542934927221623,"208":-0.124307247661964,"209":0.06284634030575671,"210":-0.2352767063540532,"211":0.1639208209802449,"212":-0.029281962427471695,"213":0.3365057791449001,"214":0.16785041677143214,"215":0.10561844686540968,"216":0.05635335820257134,"217":-0.1430817939488828,"218":0.3141278630443862,"219":-0.35649353216076834,"220":0.15092539574644523,"221":0.1740648624186733,"222":-0.20595104206406997,"223":0.07748616268558939,"224":-0.2708998580962377,"225":0.2364275240499868,"226":-0.11228585159190825,"227":0.542517424368769,"228":-0.39936679018636556,"229":-0.201131905772716,"230":-0.040210403135239305,"231":-0.4220161226919953,"232":0.41218726307501136,"233":0.28098004105037516,"234":-1.6060922046181827,"235":0.3534541874743599,"236":-0.17973270483635664,"237":-0.08850767234081361,"238":-0.35827589997652093,"239":0.22186821180422858,"240":0.05169816954392024,"241":-1.5400706301835716,"242":-0.283368235353822,"243":0.11423407924818178,"244":-0.12817546996787554,"245":-0.4042581681403576,"246":0.2417975019262285,"247":0.1481632206818345,"248":-1.2652756989492087,"249":-0.20895960084560303,"250":-0.1272971733337773,"251":-0.03956458788003125,"252":-0.3020573792987905,"253":0.2161326842524335,"254":0.11230162275656488,"255":-1.6070187690228126,"256":0.2251015571510616,"257":0.015203330040279125,"258":-0.051915903753574064,"259":-0.5066715631631172,"260":0.28863171075335053,"261":-0.22089761745219147,"262":0.5945325609964269,"263":-0.652534572376344,"264":-0.03724807718970161,"265":0.1378982460740533,"266":-0.3488335811736804,"267":0.10514532588223133,"268":-0.38249677406400906,"269":0.4943647115371136,"270":-0.7290012657534927,"271":-0.059521032141513004,"272":-0.05186711491915973,"273":-0.31468560825607056,"274":-0.120891596755896,"275":0.026893703603216277,"276":0.4967613407042948,"277":-0.862686110549371,"278":0.1484040989332406,"279":-0.035892240732898574,"280":-0.2235626362682297,"281":-0.24634166900356907,"282":0.10959189685805071,"283":-0.1593571133182788,"284":-0.9044493448979877,"285":0.03201045060965662,"286":0.08781016380893872,"287":-0.01155339549915385,"288":-0.17131460726608083,"289":-0.028567225873514138,"290":-0.121968276806851,"291":-0.8114715973104383,"292":0.12866380058054022,"293":0.018841211397144446,"294":-0.0637914881419283,"295":0.07512777814471626,"296":0.32959029033880033,"297":-0.05254932994812227,"298":-0.6554661909180558,"299":0.05772952806668993,"300":0.14653081862379613,"301":-0.0836883392676375,"302":0.12205637941418476,"303":0.2686870664717688,"304":-0.1765055613830391,"305":-0.6920763927695618,"306":-0.027369875804489567,"307":0.1776576022236273,"308":-0.07072948165293988,"309":0.16426604260813676,"310":0.25935034252499,"311":0.3077213601520138,"312":-0.7779018015253094,"313":0.018766527617162892,"314":0.35283007875285155,"315":-0.25972249647523904,"316":-0.08459462596300577,"317":0.10979242086033855,"318":0.21224365012593788,"319":-0.28012139649463713,"320":0.10498391539064104,"321":0.4702161994817199,"322":-0.1463404014626823,"323":-0.05023186804037707,"324":0.13746148333747138,"325":0.28262180114532437,"326":-0.31212594342965116,"327":-0.11312573111763015,"328":0.16082372711641818,"329":-0.14758559918349587,"330":0.13504761160381387,"331":-0.0703973109264144,"332":0.10460626810843708,"333":-0.15510874421657012,"334":0.11612043150700346,"335":0.304851730877601,"336":-0.04349476747959372,"337":-0.02141529317021425,"338":0.21636894932389653,"339":-0.25037672628835633,"340":0.12950210613102964,"341":-0.14423992261625104,"342":0.40518334297681496,"343":-0.05513107696215526,"344":0.12340235452211386,"345":0.15213498593461014,"346":-0.5035858658850755,"347":-0.3363111271846185,"348":0.21859163995614259,"349":0.3264785063386716}},{"sx":1,"sy":1,"depth":350,"w":{"0":0.1344241699759099,"1":-0.02346139207098138,"2":0.33248323441512073,"3":-0.10724618003515857,"4":-0.12021532062872353,"5":0.001620111398129042,"6":0.2621141708976715,"7":0.2151705119569695,"8":-0.05935988057399424,"9":0.27186165299545656,"10":-0.25083078665246633,"11":-0.29812204335231757,"12":0.1928117901321011,"13":-0.40965749173155774,"14":0.029746649983879818,"15":-0.1662443390535162,"16":0.26495483606007975,"17":-0.45232724089353554,"18":0.13860796476477583,"19":0.03055874117353456,"20":0.39392061393196615,"21":0.0601195828090571,"22":-0.21741730924349453,"23":0.1686665596895614,"24":-0.12749112963381054,"25":0.06043804443210397,"26":-0.25401883729817615,"27":0.18636080958380058,"28":-0.1182908372777759,"29":-0.24804492307059853,"30":0.212667107751233,"31":0.04561717862922863,"32":-0.21317851299972637,"33":0.31486456865112095,"34":0.08877034453443855,"35":-0.2828771428203236,"36":-0.3494098477745487,"37":0.25590624330133194,"38":0.11287089618617095,"39":0.10926849493624835,"40":0.3673188087740939,"41":0.3048134671443704,"42":-0.25751732959914503,"43":-0.25537938436981217,"44":0.2307210972193417,"45":0.15989630358142332,"46":-0.1611635090384151,"47":0.2967647122713011,"48":-0.5303675352491999,"49":0.040868029467575374,"50":-0.33998520445358793,"51":0.03455528249138335,"52":0.26686901130757046,"53":0.13496602456437,"54":0.3528071752437334,"55":-0.4821757076121912,"56":-0.046379705226059484,"57":0.04485391401237806,"58":0.022157510834239145,"59":0.2212089414107147,"60":0.27325648674693037,"61":0.42228633250256237,"62":-0.3026236968852294,"63":-0.13084640719270205,"64":0.09491659188485876,"65":0.00529143226621199,"66":-0.02917668026678171,"67":0.06368391710780152,"68":0.21827692031990517,"69":-0.21795487806604194,"70":0.19606646337819061,"71":-0.008540508765902816,"72":-0.13567673485569717,"73":-0.12602397718493333,"74":-0.10523155716373418,"75":-0.0367943780254537,"76":0.03178932153008975,"77":0.1323892885881916,"78":0.03749892094262694,"79":0.12316131438311452,"80":0.26201211648359585,"81":0.006090864674757886,"82":0.15153039008928032,"83":-0.1300876858611367,"84":0.03558733488258768,"85":0.07937576088029996,"86":0.0660892413606693,"87":0.2046517143024448,"88":-0.19764146237960242,"89":0.26384079628387574,"90":-0.12704065812497614,"91":0.03892950644306583,"92":-0.03429431110616715,"93":0.052582643362350204,"94":0.3877114485253002,"95":-0.2130812041640743,"96":-0.001558125430046793,"97":0.2331625628978147,"98":0.009513721943901222,"99":0.07737013530061158,"100":-0.09053912115340133,"101":0.22158101729191387,"102":-0.018342357690193753,"103":0.47404965715090286,"104":0.11388307037661914,"105":0.12990654938495566,"106":0.3274424367672537,"107":0.018975383245767436,"108":0.12932681814029828,"109":-0.05449013335258861,"110":0.5945432014521485,"111":0.20604491548508097,"112":0.10495947545461574,"113":0.22199566390772255,"114":-0.20742119393101943,"115":-0.11147351400397054,"116":0.18724856409257234,"117":0.12127973522413318,"118":0.44104347052394527,"119":-0.059409041935433546,"120":0.0006252104221394787,"121":-0.018511459091139895,"122":0.1482590148926264,"123":0.10097003460485839,"124":0.21850728230765315,"125":0.1349195122929039,"126":0.13570748850717126,"127":0.06497124612978766,"128":-0.1872958092369381,"129":-0.6226446933453551,"130":-0.1147309289096135,"131":-0.25775382165343863,"132":0.24507664326650838,"133":-0.019725320299628885,"134":-0.20418106114490292,"135":-0.2719041015610114,"136":-0.4356889361902794,"137":-0.10670513530668958,"138":-0.438756812439661,"139":0.09697431010607879,"140":-0.00043609943603121603,"141":-0.04769228182095997,"142":0.04804584515812297,"143":-0.5758608318572808,"144":0.025771784384484537,"145":-0.3864836595840045,"146":-0.20408833613550173,"147":-0.032404221832063776,"148":0.3404268532033752,"149":0.09135914856192504,"150":-0.8956305926515197,"151":-0.0016779753911633792,"152":-0.2284546066448781,"153":-0.23072413825216104,"154":0.04460668479459778,"155":0.2042991759575367,"156":-0.1332486312063383,"157":-0.45528574849507975,"158":-0.008911744086744909,"159":0.1435607486693735,"160":-0.008013338325958389,"161":0.039887828438041284,"162":0.20655113708549055,"163":0.014727317273087926,"164":-0.3767037352032659,"165":-0.0009893756238915307,"166":-0.044488027334582465,"167":0.3324484711456947,"168":-0.2284668949851048,"169":0.0693366352063929,"170":-0.09551528513227205,"171":-0.16000234946621703,"172":-0.11287694911951048,"173":0.09385810949629142,"174":0.2073891757588169,"175":0.15804442910221717,"176":-0.05276659656409217,"177":-0.46593940154175395,"178":-0.4040272453066224,"179":0.003937188229274901,"180":-0.07224575862045049,"181":-0.012895951880532294,"182":-0.06377383305806679,"183":-0.10493214459219026,"184":-0.17883537085669615,"185":-2.056366110135187,"186":-0.1869822191392257,"187":-0.14637511740273906,"188":0.08246800363381404,"189":-0.19685535361875117,"190":-0.14391274856609587,"191":0.1232385987003181,"192":-2.3433543885664374,"193":0.30406437278304915,"194":-0.30407531148950906,"195":-0.18328393508610683,"196":-0.41436121384554037,"197":-0.33537241331789713,"198":0.511530874384304,"199":-2.526179911170166,"200":0.20048190593644152,"201":-0.2681012109835207,"202":-0.17680797718331834,"203":0.016391317669565003,"204":-0.5293880660052774,"205":-0.23568376029999608,"206":-2.206292363068206,"207":-0.16689841342686923,"208":-0.28136085409474626,"209":-0.09496679464491849,"210":-0.16064704844544703,"211":-0.3058592767612449,"212":-0.19532026603235356,"213":-0.4561983166451764,"214":-0.16894601439124546,"215":-0.44646342723324905,"216":-0.19088662134716253,"217":-0.2714526646805566,"218":-0.5732008557400086,"219":0.015251888362021342,"220":-0.5505363536450916,"221":-0.28717134098386343,"222":-0.22746375269330635,"223":-0.1677157102476288,"224":-0.21393643946079074,"225":-0.2292168506024946,"226":-0.07167838208011089,"227":-0.7231416191207969,"228":0.21239254123945425,"229":-0.18405712858449172,"230":0.1785915446586023,"231":-0.14869484867024305,"232":-0.2741468279458543,"233":-0.19847035956623693,"234":2.134247251279781,"235":-0.9638965124765461,"236":-0.17035734030522137,"237":0.2004331076636394,"238":-0.15834860603722165,"239":-0.312821020275402,"240":0.07749067515376906,"241":1.9607371040767414,"242":-0.7043993537013228,"243":-0.02730762387424795,"244":0.14100775551315184,"245":-0.24706312116720702,"246":-0.13557181433186152,"247":0.00011746384086417272,"248":1.9230148668246967,"249":-0.5456277164130393,"250":-0.06856436857843953,"251":0.0743687741675485,"252":-0.041132216496765454,"253":-0.14717386563373944,"254":-0.14660954784757813,"255":1.9266459090266546,"256":-0.6695481383253473,"257":-0.5261102515623118,"258":-0.1110035274187809,"259":0.07630508717568509,"260":-0.1416002237698646,"261":-0.030582732645792088,"262":-0.8435800179743544,"263":0.023518049449380813,"264":-0.29679585242986256,"265":0.05086466073163471,"266":-0.025544504682667373,"267":0.044604184925307606,"268":0.11858506749059795,"269":-0.5364894573193718,"270":0.04206126683599664,"271":-0.3938338377739202,"272":0.11494625843780919,"273":0.09138047538034123,"274":0.20978261571138165,"275":0.15767658582151026,"276":-0.3078902482819966,"277":0.3503611804437644,"278":-0.284115062852724,"279":0.32042356767235025,"280":0.03403419641301902,"281":0.28968908545166394,"282":0.575292033635061,"283":1.0225228601858765,"284":-0.19860201109956666,"285":0.18010624177723691,"286":0.26331482895598274,"287":-0.296476210183588,"288":0.2362902689024679,"289":0.7334323113282112,"290":0.9713206925133383,"291":0.5283187281823657,"292":0.3567897416476645,"293":0.05601595071458074,"294":-0.047032026284470896,"295":0.16875538087518513,"296":0.7372664569356993,"297":0.9757868514473453,"298":0.3266524202216063,"299":0.19049913820610495,"300":0.26716836304654135,"301":0.05022379166359504,"302":0.17787584392247707,"303":0.6994040333891067,"304":1.0542866934305481,"305":0.8039614218507427,"306":-0.1345313058238395,"307":-0.17065748680214315,"308":0.22547282998162793,"309":-0.09803033676752583,"310":0.4422737552246461,"311":-0.16397767085471818,"312":0.7174649776166874,"313":0.0298715355986194,"314":-0.37503214187959694,"315":0.17647996867037333,"316":0.25976021934049887,"317":0.715203510419103,"318":-0.024065589340100647,"319":0.8153934553522952,"320":-0.24240755161942065,"321":-0.22458502710622952,"322":-0.0645301786956171,"323":0.34559899711707265,"324":0.6384533616533917,"325":0.033716912924462765,"326":1.1132342578303147,"327":0.02377949285251667,"328":0.049901870443197195,"329":0.26672794204652067,"330":0.004035277711426678,"331":0.7582197141322976,"332":-0.42207684414838176,"333":0.8253651433210625,"334":0.2746545048608223,"335":0.058161973536213885,"336":-0.18054638935801876,"337":0.22166008797961723,"338":0.39616799119085455,"339":-0.35621429646317065,"340":0.831942170508182,"341":0.17982771312992,"342":-0.3544469024469256,"343":-0.17793450694837618,"344":0.12527660588956271,"345":0.8896810021443261,"346":0.2531584782126066,"347":0.9182955704295573,"348":0.21639860252125592,"349":-0.38685014939558937}},{"sx":1,"sy":1,"depth":350,"w":{"0":0.01444562135772824,"1":-0.43969863680512794,"2":-0.2934323636463499,"3":-0.5361927166151493,"4":-0.4728768846332115,"5":-0.03955655627182929,"6":0.1790368736221916,"7":0.07038028273948405,"8":-0.2717310047497234,"9":-0.1470204277212681,"10":-0.65059413801162,"11":-0.6722984834089459,"12":0.010015960899852232,"13":0.021677734521075288,"14":0.06701851499177126,"15":-0.2747557320482351,"16":-0.2862347922452046,"17":-0.5654954411027061,"18":-0.20772640842753057,"19":0.24520373965831208,"20":0.15345334163891972,"21":0.25794809013430336,"22":-0.13748046868269304,"23":-0.16114554551655444,"24":-0.23182718128556543,"25":-0.28805399380859886,"26":-0.23333484892573467,"27":0.005322422205793832,"28":0.17987217262942426,"29":-0.054129366752990224,"30":-0.3841933168142311,"31":-0.19876272824928373,"32":-0.5390085316337481,"33":0.07995091394089579,"34":0.06319711888442461,"35":0.20865950918612838,"36":0.006649039970815624,"37":-0.32427556491247495,"38":-0.452628335274212,"39":-0.33024375039460113,"40":0.0017907522672780372,"41":0.15404938830055606,"42":-0.1220322696581128,"43":0.01359801189348886,"44":-0.3904280938382889,"45":-0.3168766933519465,"46":-0.1515446108475427,"47":-0.08249860554842772,"48":0.046632652274062596,"49":-0.044140390486688594,"50":0.054841772642901146,"51":-0.1868661365348674,"52":-0.4356334061595099,"53":-0.04819269142049577,"54":-0.2735041588820846,"55":0.024687275750804996,"56":0.07341246784614511,"57":0.0591234877973518,"58":-0.22365102892095734,"59":-0.22775245191395702,"60":-0.028304230869334156,"61":0.07741110546260317,"62":0.022495302498396607,"63":-0.13394097543346528,"64":0.1764394202947952,"65":-0.23216022021256552,"66":-0.15636781748181947,"67":-0.015322940769170509,"68":0.13813795003629198,"69":-0.19861068192116535,"70":0.22380926369115878,"71":-0.045724566719494375,"72":-0.20390306257786606,"73":-0.35032093468255343,"74":-0.10714053229413312,"75":-0.0984970800982752,"76":-0.20461910048473267,"77":0.07334890121870738,"78":-0.05151734978413092,"79":-0.06463905718259605,"80":-0.41564607639519197,"81":-0.16468248837990962,"82":-0.11820571703166484,"83":-0.22189282454500955,"84":-0.1395230275192369,"85":-0.06123383352639539,"86":-0.0847791328317199,"87":-0.3545368132147705,"88":-0.010360141417783944,"89":-0.29781557488630683,"90":0.11215809402273066,"91":-0.033357768137149614,"92":-0.2515562520017348,"93":0.022766030476786946,"94":-0.3602005413265847,"95":-0.08221778680186168,"96":-0.39257816823197433,"97":0.16086861503692904,"98":-0.0634546240820714,"99":-0.1773586846680252,"100":0.1318029403525813,"101":-0.3870013612819593,"102":-0.23284550888303082,"103":-0.12605843959608742,"104":0.08245585600008774,"105":0.03990187884456376,"106":-0.4214778742479182,"107":0.2131595165574709,"108":0.025838918358621937,"109":-0.34614701099477135,"110":-0.2585980570953612,"111":0.019924171207334508,"112":-0.15639073416614374,"113":-0.44789158560145365,"114":0.20499743819419225,"115":-0.04627737027665909,"116":-0.22785357135943587,"117":-0.3026465481325003,"118":-0.19494607785102455,"119":-0.08682812908034782,"120":-0.14314193982564558,"121":0.26968167644050217,"122":-0.19658090530211705,"123":-0.4128670654343094,"124":-0.21318703547761486,"125":-0.2357777477698908,"126":0.0018049802546667968,"127":-0.39794973543173306,"128":0.08448723016766255,"129":-0.7311169300156217,"130":-0.1178807519433321,"131":-0.3893975325891033,"132":-0.4108729510531313,"133":-0.06463380033969603,"134":-0.22084541455287002,"135":0.162255529036147,"136":-0.5750435519174765,"137":-0.15372003669930787,"138":-0.36388723549804186,"139":-0.1635190160122122,"140":0.01956913822972868,"141":-0.22278548073361945,"142":0.23953994698446504,"143":-0.3888820401797257,"144":0.057467022884022695,"145":-0.1947370621669993,"146":-0.11722048187017599,"147":0.08431100360343048,"148":-0.23229349248800935,"149":0.12257780638810001,"150":-0.46254358159813114,"151":0.20651552869863166,"152":-0.2019453700206492,"153":-0.05038809780928621,"154":0.029065896492138345,"155":-0.04265345233055245,"156":0.04139466605617029,"157":-0.32066248854515833,"158":0.2643612319200078,"159":-0.2337535169272684,"160":0.08418104678584913,"161":0.09891907748462775,"162":0.10125632912113745,"163":-0.20903575119424883,"164":-0.3980681428121001,"165":0.23670834275647568,"166":0.035087382008566044,"167":0.07706354433782814,"168":0.09021315947435944,"169":-0.025197034063753787,"170":-0.1545311025447426,"171":-0.7003771966105209,"172":0.03105982766927817,"173":-0.15851145791887844,"174":-0.09298689055605684,"175":-0.07333572443086336,"176":-0.10872778990621641,"177":-0.15575703075812455,"178":-0.4481042360391532,"179":0.2985172966557792,"180":-0.14051578884022406,"181":-0.07043354817041357,"182":-0.03293596207999937,"183":-0.18041041931084806,"184":-0.29352180484118073,"185":-1.1548832357418404,"186":0.24944223231693827,"187":0.1881824181349563,"188":-0.061692804887471975,"189":-0.0010898618586690344,"190":-0.016520290438642074,"191":0.15731180779023637,"192":-1.1323372623856975,"193":0.4570637247005225,"194":-0.1710791308082306,"195":-0.052089145517346336,"196":0.01640304008977554,"197":-0.011325979647182882,"198":0.22105154268132665,"199":-1.242232729827161,"200":0.637880492742972,"201":-0.10678733641582966,"202":0.18521098484210669,"203":0.2669450610360725,"204":0.0868846164498506,"205":-0.2053938478221412,"206":-1.4161955901638834,"207":0.2888060599617979,"208":-0.06511339767306078,"209":0.20137244367241477,"210":0.07655510144092735,"211":0.0998594494153463,"212":0.1357999758994824,"213":-0.5847972108796202,"214":0.3204325845281465,"215":-0.15826572532269076,"216":0.32922031593843626,"217":-0.06594773848266798,"218":-0.11240970702344694,"219":-0.122207570633712,"220":-0.5588106118089121,"221":0.1890877966954397,"222":0.09933781965219325,"223":0.21499680518681993,"224":0.13634061228882025,"225":-0.011516461044264771,"226":0.406036924542968,"227":-0.23675902320177644,"228":0.5489759047055529,"229":0.13056889136322478,"230":0.1693555104023974,"231":0.13940955773349348,"232":-0.34500085178464895,"233":-0.6812811034901806,"234":0.19823035143656453,"235":-0.7925078855536167,"236":0.0958923665958865,"237":0.24145246215753663,"238":0.08081339668371484,"239":0.08642267596159388,"240":-0.014007974861886893,"241":-0.014389780533713491,"242":-0.46085041528755133,"243":-0.01110256497061569,"244":0.22289370378207884,"245":0.15562981982150065,"246":0.06635906300553365,"247":0.0205572759020874,"248":-0.0017673547125946262,"249":-0.3687404640274424,"250":0.029613073519250174,"251":0.291369656468662,"252":-0.006264381496839553,"253":0.1336824440699961,"254":-0.20045948207303493,"255":-0.23344063563348502,"256":-0.7086876464621972,"257":0.05770168807232211,"258":0.3440806205032931,"259":0.033307349600226424,"260":0.045083973980514835,"261":0.6980358370327203,"262":-0.801771858283369,"263":0.35402700674097864,"264":0.1434837841175071,"265":0.33635572530496005,"266":0.02775934810838645,"267":0.025486993248112776,"268":0.5327621474655126,"269":-0.6462279435808224,"270":0.0950852952787464,"271":-0.05461530736092321,"272":0.21275136582668205,"273":0.26589745130814607,"274":-0.0764818797951409,"275":0.6912929411745458,"276":-0.6504939315015198,"277":0.12391709223888046,"278":-0.1912255408563158,"279":0.38279142830674756,"280":0.057365443805618886,"281":-0.4272528684377674,"282":0.2716197145840442,"283":1.641603387133542,"284":-0.1650989794643724,"285":-0.04102318128819619,"286":0.38802142333699713,"287":0.008395476588460567,"288":-0.2937765232271958,"289":0.5530774279637032,"290":1.69618788690994,"291":0.536143818944234,"292":0.09657073734173158,"293":-0.13222028891202275,"294":0.25268533085832867,"295":-0.26607402290784404,"296":0.32499694614584806,"297":1.6708677884652803,"298":0.0862194653496545,"299":0.1426817586545786,"300":0.14579273199906517,"301":0.15071661703215228,"302":-0.3171917989083481,"303":0.2847333245220636,"304":1.6281765622417084,"305":0.2539570180014417,"306":0.2646413673937242,"307":-0.07380216514509455,"308":0.008145317960520204,"309":-0.005591510096117613,"310":0.21963303724862185,"311":-0.6324123628347738,"312":-0.14366889439853653,"313":0.033002449375610546,"314":-0.33365305935311473,"315":0.011575142683986909,"316":-0.20058736419831977,"317":-0.05751180345067616,"318":-0.5512200165203348,"319":-0.2727135773967205,"320":0.1967891560589424,"321":-0.15295019884082872,"322":0.2458644606191974,"323":-0.16686191323934496,"324":-0.14239227484106573,"325":-0.500636881760976,"326":0.04241926016395762,"327":0.1610910096452436,"328":0.14773227577014902,"329":0.1941680918695424,"330":-0.07712541547055071,"331":-0.05656112497843396,"332":0.2892995538129782,"333":0.10611240990486748,"334":-0.039182244228973206,"335":0.1802562468531664,"336":0.12596618661444695,"337":-0.3235177652414869,"338":-0.09822472578026575,"339":0.059064785177502736,"340":0.06684772462748376,"341":0.1694450895931109,"342":-0.11018500289886066,"343":0.10847295418405807,"344":-0.3501133135542245,"345":0.13890559354824522,"346":0.23302543050901028,"347":-0.342231006393236,"348":-0.13544089689899366,"349":0.10065894237276228}},{"sx":1,"sy":1,"depth":350,"w":{"0":0.06834803265056782,"1":-0.4010393906665428,"2":-0.32519192143399767,"3":-0.05704983755171507,"4":-0.2312465134500127,"5":-0.5056857063045264,"6":-0.19213036932908503,"7":-0.039558082931199424,"8":-0.31016943293544813,"9":-0.16326415002120395,"10":-0.0592302747529936,"11":-0.12047886666214974,"12":-0.2194245238977118,"13":0.021777489200563993,"14":-0.025844813543100194,"15":-0.23304746608588595,"16":-0.44037790750850003,"17":-0.09397402600013027,"18":-0.056712184900085026,"19":-0.20089341180116696,"20":0.13667690100798188,"21":-0.07207860618738812,"22":-0.032651967988143155,"23":-0.27845227495592223,"24":-0.3141304079006807,"25":0.07613225475971834,"26":-0.09346947389270381,"27":0.03444858362559928,"28":0.0888001333207255,"29":0.05035355425574861,"30":-0.2067119401981055,"31":-0.3619477664134977,"32":-0.006465447533739262,"33":0.22136449587070553,"34":0.1775721565649302,"35":-0.2297861276710388,"36":0.07560663547000523,"37":-0.35193180962544707,"38":-0.2994258148846133,"39":0.10287312696545488,"40":-0.041633159105182484,"41":-0.028950910645765854,"42":-0.3187595239318751,"43":0.09189715886469421,"44":-0.3306577067884509,"45":-0.2371278673648795,"46":-0.07391722404815715,"47":-0.112112909550593,"48":0.1561800251553867,"49":-0.019105273198274104,"50":-0.1305335344737758,"51":-0.24498212619212278,"52":-0.14272723412474325,"53":0.0013602127764227427,"54":-0.17415813849527711,"55":0.15708335509481036,"56":-0.18064683091428835,"57":-0.06716164729196744,"58":-0.4171236476420431,"59":-0.32544087782309455,"60":-0.05667068605541951,"61":-0.40108408757229264,"62":0.1346846335842034,"63":0.003802288239037653,"64":0.012421199564392534,"65":-0.5391250712089702,"66":-0.20932798706850933,"67":-0.12431726270139676,"68":-0.20709338724514736,"69":0.26177144901736105,"70":-0.06511762077696336,"71":-0.09067475096947775,"72":-0.21415484955879252,"73":-0.10146038129893145,"74":-0.048813048356211,"75":-0.3262859442407232,"76":0.11935371550405306,"77":-0.2800556864422194,"78":-0.18450085299661148,"79":-0.3152835517284091,"80":-0.01985004328051544,"81":-0.12566733325610543,"82":-0.3202462243223881,"83":0.15500168206890114,"84":-0.02712628593108384,"85":-0.23088959526993427,"86":-0.2214959260907482,"87":0.07564168735893459,"88":-0.16252290079076387,"89":-0.20761810937577538,"90":-0.007361046325253264,"91":0.0032785558068901713,"92":-0.20057664157491678,"93":-0.4007380163702659,"94":0.009854705018623417,"95":-0.1955920929877043,"96":-0.06323477085627395,"97":-0.1459525822290778,"98":-0.08246676028786458,"99":-0.3031950122948949,"100":-0.4085403506734177,"101":-0.2326174595652245,"102":-0.060249095677597696,"103":0.06235747653232089,"104":-0.24212948573874335,"105":-0.084122938398314,"106":-0.0810522186390032,"107":-0.1576138367914693,"108":-0.19306147425662826,"109":-0.07236610414772846,"110":-0.022278204677557163,"111":-0.06940779148187809,"112":-0.3273137928976952,"113":-0.20879833517960275,"114":-0.3072490338518336,"115":-0.21190962920254114,"116":-0.3255951257164551,"117":0.049821213566289185,"118":-0.17353010235623736,"119":-0.206027022330092,"120":-0.0619035168401338,"121":-0.06734704996391169,"122":-0.0735989837658946,"123":-0.1639999037420599,"124":-0.03648896815093716,"125":-0.09765786373292601,"126":-0.11488106002576719,"127":0.013983884683471953,"128":-0.24751215432543885,"129":0.10439938354646824,"130":-0.053916198282900715,"131":-0.057246800776440517,"132":-0.1852639446679092,"133":-0.0821003593325235,"134":-0.054885026922154294,"135":-0.34139378234631074,"136":0.025750446113580523,"137":-0.24677752697586267,"138":-0.12292689224448419,"139":-0.1368213890728842,"140":0.047555322749711436,"141":0.018034939392180135,"142":-0.16453432133253346,"143":-0.06494889542437446,"144":0.05261178968880536,"145":-0.13498400064125432,"146":-0.1379973720786608,"147":0.05147804122429671,"148":0.012862801396680203,"149":-0.12480074885081449,"150":0.0611853641764245,"151":-0.0069474159980847374,"152":-0.17208571599284,"153":-0.238442349209611,"154":0.14195131723149573,"155":-0.13484969719528722,"156":-0.04221203461016813,"157":0.016197482395333095,"158":-0.07531618949844554,"159":-0.05375226881087562,"160":-0.07574221096897697,"161":0.43417545182783557,"162":0.009173868324403233,"163":0.13062274370221408,"164":0.24135448655820316,"165":0.2295182587651461,"166":-0.07479332009231018,"167":-0.2456218649203061,"168":0.2849791462012882,"169":0.10982678152411575,"170":0.17827740018630475,"171":-0.08524520425712874,"172":0.21340235594405602,"173":-0.12212188346128575,"174":-0.2228812611374807,"175":0.1930932068964171,"176":-0.026450255486286794,"177":0.10735967326517065,"178":0.05790156146451265,"179":-0.02613523946259679,"180":0.060687368321945975,"181":-0.09126693734356131,"182":0.2035009998124324,"183":0.12912585735605064,"184":-0.038478954849437766,"185":0.3404377662244862,"186":0.3056553479088446,"187":0.2521947549601339,"188":0.07701394235412169,"189":-0.012295244301405482,"190":0.20706430318893632,"191":-0.03627817777375065,"192":0.17689182867767791,"193":0.13792256830207467,"194":0.17399000205485396,"195":-0.03619429732445655,"196":-0.13713263280735966,"197":0.033900828963582506,"198":0.21183845607484864,"199":0.1385186895042477,"200":0.4772350977211971,"201":0.08624972229529496,"202":-0.06801449798669305,"203":0.010268300877539592,"204":0.19673968811765624,"205":0.07341711284001995,"206":-0.17334915368681691,"207":0.4018291618218988,"208":0.0487525532740552,"209":-0.07342564148269531,"210":-0.07485122865510871,"211":0.25723824885591695,"212":0.026901267707485087,"213":-0.5107347181338417,"214":0.25341181334074425,"215":-0.006173372707303072,"216":-0.033242295637698684,"217":0.16337262936444544,"218":0.11716423470264178,"219":0.2781144424812467,"220":-0.5272067526122697,"221":0.8041701837648028,"222":0.08927022821993841,"223":0.007476785175014979,"224":0.1719516059184474,"225":0.14573866692410142,"226":0.455857859537441,"227":-0.3420131570706096,"228":0.8445812644025231,"229":0.06421824515422865,"230":-0.033859460791216274,"231":0.2096153643671626,"232":0.04462434644530959,"233":0.10091457810248333,"234":-0.038587099708298246,"235":0.5040044774629333,"236":-0.07567519946205224,"237":0.013380247631320796,"238":-0.06607296382839685,"239":0.0868314477202357,"240":0.6098741270120938,"241":-0.045589164377255346,"242":0.43235595089819445,"243":0.02309516083019664,"244":-0.2369166502584148,"245":-0.11633581122602207,"246":-0.09322986917848908,"247":0.36143216123143007,"248":-0.09523242281874107,"249":0.32812514548024996,"250":-0.16390399152235266,"251":-0.15095876426702504,"252":-0.16547606591328196,"253":0.0817925858662191,"254":0.1821164644764015,"255":-0.22935603186242629,"256":0.10040283612730248,"257":0.026650385903595968,"258":0.12311477972847046,"259":-0.17076026943428205,"260":0.3325552319370561,"261":0.6840478238245276,"262":-0.59112196020506,"263":0.6747729783595429,"264":0.18092931396760406,"265":0.2473004344694471,"266":-0.051094914550438526,"267":0.21077938291704837,"268":0.5622602948937244,"269":-0.5996226835718249,"270":0.515778661533578,"271":0.24032742331297025,"272":0.30427156499175956,"273":0.02814253102153776,"274":0.5421127553255206,"275":0.390168637147277,"276":-0.5977612534796777,"277":0.080772120977214,"278":0.24941413468620158,"279":-0.018301832871342662,"280":-0.13555526293141124,"281":0.007669140826764734,"282":0.5780796350266136,"283":0.5600399304330935,"284":0.28265087144280754,"285":0.14054197998267315,"286":-0.061087675650240765,"287":0.022410249638125455,"288":0.07635965086223347,"289":0.4172315591678529,"290":0.5462715719225819,"291":0.3826947585648208,"292":-0.004249581568255132,"293":-0.031878581023099595,"294":0.22959700714045517,"295":0.15537662442472314,"296":0.3222986115626938,"297":0.4500954836250645,"298":0.2816288034038795,"299":-0.17001056677212303,"300":0.03836245222599563,"301":0.10743916933610366,"302":-0.07247171912035937,"303":0.5263555754705435,"304":0.5312666557600061,"305":0.3584797294069924,"306":-0.0065662176898696025,"307":0.08385065802681042,"308":0.1214521940158121,"309":0.032096677399317,"310":0.314853459889385,"311":-0.5572349391623528,"312":0.0909462295302436,"313":-0.004673589612619484,"314":0.23202532571604742,"315":0.1490870926328419,"316":0.10851238807417644,"317":-0.026604877163348545,"318":-0.5575176247887557,"319":-0.25888311102931455,"320":-0.10690963564476393,"321":0.06035165105531819,"322":0.17888039705777836,"323":0.16307883158192582,"324":-0.17622617162533463,"325":-0.44568406801564747,"326":-0.28142682974072164,"327":-0.14420885053813368,"328":0.03265097662264538,"329":0.2521740527243589,"330":0.15339938069520243,"331":-0.1477521642141994,"332":0.3712116321197807,"333":-0.2581190413517043,"334":0.1579161435488701,"335":0.2093017715700699,"336":0.36466573023452914,"337":0.21876779233061916,"338":-0.21369597859435227,"339":-0.006783344971116671,"340":-0.3200176240912053,"341":0.016692533878371673,"342":0.16156971539294243,"343":0.049546176776229446,"344":0.07639390779169455,"345":-0.07235504921224571,"346":-0.13645728983608807,"347":-0.587184812145172,"348":0.01970069143293048,"349":0.15124290000091412}},{"sx":1,"sy":1,"depth":350,"w":{"0":-0.04048256526800333,"1":-0.2038454235675963,"2":0.0042307106387234495,"3":-0.24201752166805826,"4":0.14708467833916725,"5":0.36197965352196343,"6":0.5547504209954998,"7":-0.1112924647071627,"8":-0.17176736757967095,"9":-0.16951581835139465,"10":0.14948608747046452,"11":0.20461940862065578,"12":0.24254598556421797,"13":0.2108431934479282,"14":-0.08281630061312534,"15":-0.18987439501431022,"16":0.22851284331639712,"17":0.11642188228362943,"18":0.024194120317068548,"19":0.2463592021448499,"20":0.044273706585575084,"21":-0.18503193737196882,"22":-0.04342187469980127,"23":0.1760064656551723,"24":0.19546463356505525,"25":-0.01707666416583761,"26":0.43945474139801777,"27":0.2506785998180776,"28":-0.2510637977825225,"29":-0.08807017236703721,"30":-0.03670000888452656,"31":0.7147439351382893,"32":0.0889354368943046,"33":0.19824746113872968,"34":0.2757272882151989,"35":-0.18631007046410947,"36":-0.00178369696718123,"37":0.045477241785607275,"38":0.31452464560110527,"39":0.26380475095121747,"40":0.23051497111951094,"41":0.23222546945843467,"42":-0.11659345488992334,"43":-0.1503824128694092,"44":-0.12851104349061018,"45":0.14692812720648427,"46":0.21251015508005072,"47":0.149185235224066,"48":0.17444563841054528,"49":-0.0911897609014645,"50":-0.3571767583248465,"51":-0.06036599445895815,"52":0.038660325033416106,"53":0.10575612797371986,"54":0.5514930087584415,"55":0.1070406197261281,"56":0.036100980976429754,"57":-0.30155872947015877,"58":-0.07005904653106561,"59":-0.03850673860177238,"60":0.102132794665814,"61":0.38761625136742506,"62":-0.1609330933909115,"63":0.0021892724844287466,"64":-0.40053547884771534,"65":-0.11103641814357501,"66":0.10865961780564791,"67":0.04375694921429243,"68":0.06797696239859843,"69":0.01825755670072458,"70":0.019272878382663314,"71":-0.29304485539013997,"72":0.051172613558506976,"73":0.3720545646441304,"74":-0.19796397498756174,"75":-0.026488676962022548,"76":0.04661447127687718,"77":0.0572005719174123,"78":-0.1645002774602097,"79":0.15032609659072493,"80":-0.015958125426033226,"81":-0.16984369245946698,"82":-0.09243298171044048,"83":0.14730629973951145,"84":0.05802678723513296,"85":-0.12142483194304726,"86":0.045857850059495074,"87":0.21897351866797835,"88":-0.05309948628306085,"89":-0.12877865048521106,"90":-0.07444516906455656,"91":-0.08618565871016748,"92":-0.35866831900017127,"93":-0.15826864481533603,"94":-0.025283080876383694,"95":-0.05268122871507158,"96":0.016793478552762836,"97":0.09669580480942461,"98":-0.17281079209422612,"99":-0.23970458494638366,"100":-0.3069462915102594,"101":-0.10169212064890124,"102":0.035218861480485454,"103":0.12234768730053974,"104":0.2086273725505442,"105":-0.02939851971180017,"106":-0.4511165880361996,"107":-0.3751982149125006,"108":0.20826674113517907,"109":0.029528077705313377,"110":0.0101872089229542,"111":-0.1767352863200079,"112":-0.06851630510097423,"113":-0.4932184920694855,"114":-0.11300881902517616,"115":-0.1460231671752123,"116":-0.11760004898222688,"117":0.012064743486020869,"118":-0.06385455761940281,"119":-0.0024959754736735246,"120":-0.266940089928933,"121":-0.07056920537751891,"122":0.11157576255753063,"123":-0.12954467178078263,"124":-0.1551312259828642,"125":-0.32794228161543215,"126":-0.051852422890601754,"127":-0.2709328648796319,"128":-0.23361898162195094,"129":0.4902627397448406,"130":0.023274169374095672,"131":-0.12014372357186094,"132":-0.197395183507074,"133":-0.013084855581761303,"134":-0.0008988709391253984,"135":-0.23374463594641884,"136":-0.06278925449495691,"137":-0.02776401867876449,"138":-0.00016109720737039025,"139":-0.04863269721527273,"140":-0.0009102170404848888,"141":-0.11898603072591843,"142":-0.4174833242126869,"143":0.06854826291302926,"144":-0.006727312929363534,"145":0.25817064716486127,"146":0.08821966608908254,"147":-0.026639858251717576,"148":-0.05236585369724482,"149":-0.2509287095687768,"150":-0.0006830408199430649,"151":-0.09719769233320943,"152":0.05100700672000347,"153":0.042207614868291526,"154":-0.0018344450930447562,"155":-0.05690977346496821,"156":-0.20373625082844857,"157":-0.045845656704365974,"158":-0.13231215941227398,"159":0.24815315476553304,"160":-0.05642495264143692,"161":-0.0642613491460646,"162":-0.2695579935225347,"163":-0.04761414610776478,"164":0.24573277373744531,"165":-0.24191562762525962,"166":0.2683709465107032,"167":-0.029974124272637088,"168":-0.03386907844394794,"169":-0.0802499431006057,"170":-0.28434773461576496,"171":-0.13996518618123377,"172":-0.1264463407341255,"173":0.2806621316295622,"174":0.008077146413820574,"175":-0.0059362337110084856,"176":-0.3784204735100469,"177":-0.20908674551431583,"178":-0.26727094739208634,"179":0.030891275269165696,"180":0.37197770096323635,"181":0.0255493603859292,"182":0.005345347457513264,"183":-0.17392844996405085,"184":0.002077252323774677,"185":-0.10976235261341317,"186":-0.20022230020115445,"187":0.39301380998887986,"188":-0.14565181554950035,"189":0.032064316584578104,"190":-0.3217360338842403,"191":-0.009313414054120572,"192":-0.38895901854025006,"193":-0.14070339255935563,"194":0.4709619694427453,"195":-0.07630777565715159,"196":0.009153776766628964,"197":-0.2364924872734967,"198":-0.18463786222436138,"199":-0.10686067001658837,"200":-0.3502041166756103,"201":0.2846110996600748,"202":-0.05406444022263206,"203":-0.11612281920033146,"204":-0.18303063266773553,"205":0.22220223070029235,"206":-0.13838518325098892,"207":-0.50332485444195,"208":0.2493753068153023,"209":0.12765842100225067,"210":-0.13617642609166072,"211":-0.14608253347232453,"212":0.09803358781386978,"213":-0.3443756905179478,"214":-0.3229531948080926,"215":0.09570895851060755,"216":0.21399323497941175,"217":-0.10521091322123646,"218":-0.2878310971576325,"219":-0.1923578658532977,"220":-0.29949930531310026,"221":-0.5661955503039064,"222":0.006391635347357443,"223":0.03169098063939601,"224":0.02775839231212909,"225":-0.4651752494777847,"226":-0.14787738076308068,"227":-0.05984418238586876,"228":-0.6772960007973865,"229":0.13870658358581128,"230":0.024485058561088114,"231":-0.003553129027955116,"232":-0.44133586973150934,"233":0.01791427402351027,"234":-0.3043166568258058,"235":-0.9725681579824798,"236":0.15445780045671526,"237":0.07517685447328833,"238":0.07248283024463228,"239":-0.6081756334056443,"240":-0.14606648625497484,"241":-0.22213832050032287,"242":-1.5182531442990577,"243":0.1837891432090224,"244":0.03705024096848709,"245":0.0819606689254393,"246":-0.5495345403981189,"247":0.10900262093943165,"248":0.29911784385797086,"249":-1.474726337956904,"250":-0.2996758338582659,"251":0.19207165566546813,"252":0.0700337993100222,"253":-0.21704485188266337,"254":0.3538317874725248,"255":0.3353594716262673,"256":-1.6170406081877555,"257":-0.04201044774122645,"258":0.05888325222402737,"259":-0.07950426128959787,"260":-0.16196254104545418,"261":0.1510874906978699,"262":0.9828462795859486,"263":-1.2295681464363382,"264":0.34044457612560824,"265":0.3581953125981078,"266":0.01099573434896188,"267":-0.25930726825425604,"268":0.08316580770542166,"269":0.7093230981861115,"270":-1.3006376235765484,"271":0.2667881462891518,"272":0.19422988227337593,"273":-0.008053882792872804,"274":-0.15214044507965888,"275":0.268408302466803,"276":0.6079407685454243,"277":-0.8741300895657074,"278":0.5025894902624732,"279":0.17080909512306383,"280":0.019135769908301428,"281":-0.1815061424735119,"282":0.24598179970451134,"283":-0.2453746757557782,"284":-1.122991360049206,"285":0.23748634814865308,"286":0.36594134611449697,"287":0.04433109358712183,"288":-0.25066795674554526,"289":0.06295177318152229,"290":-0.17565690947013854,"291":-0.9975232269023561,"292":0.06306623233868981,"293":0.16306007504745504,"294":0.12130969804815642,"295":-0.09641213175207751,"296":0.5271371372621428,"297":-0.24117316832805263,"298":-0.38956499257734495,"299":0.07604780345616464,"300":0.22789393678351808,"301":-0.03354431731191595,"302":-0.16493486618339603,"303":0.23789879029251332,"304":-0.1499838791772659,"305":-0.5889338216426946,"306":0.10023447322245706,"307":0.2673778896728416,"308":-0.04059420333337213,"309":-0.20367115115117818,"310":0.44800917538908086,"311":0.550167974591813,"312":-0.7865908710750468,"313":0.12318905348307112,"314":0.13073535530435113,"315":-0.052156304522257016,"316":-0.10104430648309468,"317":0.4059596681400311,"318":0.4882115437217089,"319":-0.11375491415759383,"320":0.17792074345170728,"321":-0.007707403766138112,"322":-0.050111372358214196,"323":-0.14965371563436888,"324":-0.13277245107013322,"325":0.43222250816903085,"326":-0.12661749834199096,"327":-0.04813962271591668,"328":-0.2018647557832821,"329":-0.12960641029483075,"330":-0.08121621697009383,"331":-0.17565938500280043,"332":0.4089058654931093,"333":0.10982314141220365,"334":0.12201404023477645,"335":0.1522810969811977,"336":-0.1531175714254898,"337":-0.31972734991746166,"338":-0.0008278625960965514,"339":-0.07828931123587213,"340":0.45037113714500104,"341":-0.03965080348460934,"342":0.017400361317877318,"343":-0.14073177344477436,"344":-0.08456231024035231,"345":-0.07222286410845939,"346":0.014714335338099637,"347":-0.018688320498300708,"348":0.11315507500664966,"349":0.34632114767575906}},{"sx":1,"sy":1,"depth":350,"w":{"0":-0.3594893265261506,"1":-0.1863955458570496,"2":-0.31730874977720486,"3":0.18914182401454596,"4":-0.16992720944872422,"5":-0.023431118451473786,"6":-0.11597340610259037,"7":-0.44006085404231554,"8":-0.15855393215121505,"9":-0.47028508852977535,"10":0.18870672454234708,"11":0.022273246731643246,"12":-0.08514594928452825,"13":-0.0948067021534761,"14":-0.468631784252955,"15":-0.04681805536079097,"16":-0.12014144242616194,"17":0.3622547384041377,"18":-0.10593617030723844,"19":-0.14908674582968076,"20":-0.1199718310927228,"21":-0.31473375691764505,"22":-0.02071393841894037,"23":-0.26772311467058796,"24":0.21980932683118393,"25":-0.062068304612624,"26":-0.05608200500575287,"27":-0.14918351647217643,"28":-0.3061213373791702,"29":-0.09155425681179918,"30":-0.29813981903036485,"31":0.07812625032720137,"32":-0.10613518157535716,"33":-0.042625105279547486,"34":-0.1466634058574712,"35":-0.37998866832039846,"36":-0.1305796997706764,"37":-0.20215592392600853,"38":-0.019344931883870046,"39":-0.10356046134738522,"40":-0.1770761233948239,"41":-0.23690299701834283,"42":-0.28384210094474926,"43":-0.0005859478723403018,"44":-0.14277799733466312,"45":-0.18230191632095644,"46":-0.09122162450598113,"47":-0.02310557002303092,"48":-0.12326872240216982,"49":-0.1533486294045037,"50":-0.18153350567556517,"51":-0.1738679852494889,"52":-0.04779921088894496,"53":0.03743463053858242,"54":-0.1103337799942437,"55":-0.1270722512270423,"56":-0.04958664478777917,"57":-0.24027454151115557,"58":-0.07648656355690314,"59":-0.027252037981616486,"60":-0.0065261205275300264,"61":-0.1144973997450006,"62":-0.10862931066153182,"63":-0.13246774300405526,"64":-0.09254945212468813,"65":0.021666371500536248,"66":0.02477953142755474,"67":0.08557131826511973,"68":0.034477786156160276,"69":0.05097540523812654,"70":-0.023411180348775863,"71":-0.308572534407561,"72":-0.008792912683659518,"73":-0.031373481478114626,"74":-0.057197531161190154,"75":0.030110879906111786,"76":0.003619635219525371,"77":-0.08278102493653677,"78":-0.2859757479731669,"79":-0.15415565960333405,"80":0.02554459804692396,"81":0.03618927626774067,"82":-0.020076107986261738,"83":-0.09772990852852095,"84":-0.26163894989035746,"85":-0.12080520836060081,"86":-0.25608884799592374,"87":0.056150838098724856,"88":-0.1157864756621903,"89":-0.06768872083582302,"90":-0.014695613935946959,"91":-0.09223634311806722,"92":-0.22269220717245808,"93":-0.13083438180905563,"94":-0.058299849569741505,"95":-0.18562228916187343,"96":0.001036544875115036,"97":-0.006937797045938736,"98":-0.10362422380571522,"99":0.00285680574548043,"100":-0.05885136738966365,"101":-0.01496572133051143,"102":-0.010710324362544026,"103":-0.02955100936959418,"104":-0.040035714557017744,"105":-0.5282660917932148,"106":0.0321995812602613,"107":0.29833543495543674,"108":-0.15487822457695175,"109":0.02943424413520984,"110":-0.060874986569936465,"111":-0.019946319416223768,"112":-0.2876073671341911,"113":0.11850510274581347,"114":0.3583900320973688,"115":-0.18544366554827432,"116":0.0024019107712213803,"117":-0.08670247940387596,"118":-0.1006770082722937,"119":-0.4022984946620066,"120":0.027522614437797934,"121":0.10773624882458345,"122":0.08097148000425497,"123":0.0371193688060739,"124":-0.042460719922416186,"125":-0.04161798020507346,"126":-0.18997752480716876,"127":0.059229295313027765,"128":0.1492345505477415,"129":-0.1035044386006098,"130":0.06180414461472803,"131":-0.0031422378709859283,"132":0.030257606471442357,"133":0.0018459447565938132,"134":-0.05428722983946247,"135":-0.09367615828447697,"136":-0.021162236770141837,"137":-0.1643748813143587,"138":-0.012110204382623809,"139":0.08710756113747087,"140":-0.21845359356958277,"141":0.029871450256503743,"142":-0.027540595380032354,"143":0.16593705641857157,"144":-0.1270650275931558,"145":0.020531024690325368,"146":-0.05664065275614745,"147":-0.08218089735526192,"148":0.0781670282756629,"149":0.07100850311642017,"150":0.18578383042326482,"151":-0.054258024801802945,"152":0.022174674995424068,"153":0.01673929946092558,"154":-0.17901661358409765,"155":-0.18980232068252353,"156":-0.17758180947315333,"157":0.09547681157647946,"158":0.025070440146001474,"159":0.0027671699726745354,"160":0.03536527698922074,"161":-0.29645607633359033,"162":-0.13526265061932102,"163":-0.06556110646225086,"164":0.09546659984947063,"165":0.24535362358080456,"166":-0.014958243035998598,"167":0.0817392795625589,"168":-0.1826599013454341,"169":-0.12377251963146467,"170":0.00595032545688572,"171":-0.005574369393494424,"172":0.03243676864831945,"173":0.02374483049253492,"174":0.1253355360982759,"175":-0.3438964717218648,"176":-0.3741635788863406,"177":0.0007961777908491524,"178":0.19305380813900394,"179":0.09076187380875306,"180":0.01795917787571919,"181":0.0031557606229233597,"182":-0.09506883988767542,"183":-0.03548526593419369,"184":0.23229556922638547,"185":0.36238288774651456,"186":-0.02218412225536461,"187":0.011008763372588524,"188":0.009007144904683377,"189":-0.13448629078510912,"190":-0.17920616068848289,"191":0.48896298842408786,"192":0.21958444626657567,"193":0.2336754779084445,"194":0.06860205482435792,"195":-0.0026572592160804495,"196":-0.44601748721525797,"197":-0.23408405300338334,"198":0.4149147141184989,"199":0.022200556854790797,"200":0.17241510138044422,"201":-0.0493017015224074,"202":-0.0050257257914564915,"203":-0.1597139304798738,"204":-0.2263479763558064,"205":0.04418010404470672,"206":-0.25352889007673457,"207":0.23642154581640937,"208":-0.23375326829088833,"209":-0.06540907591254602,"210":-0.4214488531666016,"211":-0.2677087247919765,"212":0.24162268892238958,"213":-0.31224496511272126,"214":0.17721893829034882,"215":-0.22335284916177636,"216":0.11281649926208133,"217":-0.5145930625284053,"218":-0.11023275735230917,"219":0.24403029835854365,"220":-0.3341673382779137,"221":-0.032086973269178115,"222":-0.2769992283123998,"223":0.03864322322334558,"224":-0.21240043500616326,"225":-0.14031900878131037,"226":0.417084383734804,"227":-0.30637756553410106,"228":0.15830293948144752,"229":-0.19162043384780442,"230":0.1501462728688122,"231":-0.2585635585826979,"232":-0.043003431200512594,"233":-0.12056459045590523,"234":0.16114868382168496,"235":-0.2128480638981049,"236":-0.14212392522620163,"237":0.09770688461264604,"238":-0.3155393888443189,"239":0.03558558723606172,"240":-0.03052361237964786,"241":-0.030767575020850712,"242":-0.13381065901135014,"243":-0.18446458475958555,"244":-0.12682183169369357,"245":-0.4538781957300228,"246":0.3801790827008068,"247":-0.04808028721734192,"248":0.13457566413105781,"249":-0.18948020969074503,"250":-0.2093776809133571,"251":-0.05870416780882296,"252":-0.5102892064311377,"253":0.15061090753084724,"254":-0.06502722348897699,"255":0.012643342090992611,"256":-0.2667802481235182,"257":-0.10292559764822715,"258":-0.13076225519916185,"259":-0.2795050689569114,"260":-0.036831670312865515,"261":0.609030908465745,"262":-0.298217218125836,"263":-0.102155085696603,"264":-0.1444879613978749,"265":-0.023652188827076478,"266":-0.2897894039816937,"267":-0.0709018202770213,"268":0.607404306342109,"269":-0.3847484558549707,"270":0.045323589214482055,"271":-0.07106429377741537,"272":-0.04145883264705491,"273":-0.31731308708317857,"274":0.030383471337576684,"275":0.3260732403157234,"276":-0.3984740804478635,"277":-0.14357956820419532,"278":0.17996564389540373,"279":0.1529529603408389,"280":-0.13950721537121474,"281":0.005885639129872496,"282":0.2902977360972736,"283":1.2632292230707285,"284":-0.26116350200096394,"285":0.16416538023718633,"286":0.1448098848500191,"287":-0.4196999081303056,"288":-0.029792507508245067,"289":0.4372693343911315,"290":1.172259913463283,"291":-0.10693151146778519,"292":0.1434288978213624,"293":0.005224014621648351,"294":-0.3776424104262261,"295":0.2090316305395054,"296":0.38361773765083357,"297":1.2366643720009882,"298":-0.2050482706587998,"299":0.11386689403507419,"300":-0.027207620502117558,"301":-0.30487293784081726,"302":-0.2956512320416036,"303":0.2663115462030669,"304":1.2264069227802523,"305":-0.1384634129600714,"306":-0.04991845691503642,"307":-0.005967619665205635,"308":-0.3830745704581669,"309":-0.28757284258509946,"310":0.1367557486943819,"311":-0.3242018163942214,"312":-0.34230652290490915,"313":-0.020910238582094724,"314":-0.07265922967497171,"315":-0.31697654352583626,"316":-0.20358024558402404,"317":-0.09540855380673,"318":-0.298105356403553,"319":-0.09580031360889954,"320":0.0006613789986229101,"321":0.0935273792369624,"322":-0.40286328915417996,"323":-0.2148116049877889,"324":-0.3933452064658931,"325":-0.4164391399183146,"326":-0.08230823296215208,"327":0.015399553045049245,"328":0.06268699453659382,"329":-0.2196360314151074,"330":-0.2143202592628557,"331":-0.12110416427021951,"332":0.21956278643387722,"333":-0.08182700066438327,"334":-0.061215335516381565,"335":0.09402525145703494,"336":-0.31757891193277077,"337":-0.021555497143461746,"338":-0.3556138345214336,"339":0.007867853766641937,"340":0.07438984178822455,"341":-0.1501938225021096,"342":0.11781656956093947,"343":-0.38261776058467556,"344":-0.21385526865256682,"345":-0.16069220611474005,"346":-0.02636643026549723,"347":-0.14610757692014367,"348":-0.1536253804942965,"349":0.2204634627952753}},{"sx":1,"sy":1,"depth":350,"w":{"0":0.3024134127463813,"1":0.0013974622979433125,"2":0.1796547815797367,"3":0.2469960463780224,"4":-0.2880531896415731,"5":-0.2410586592451151,"6":0.04039010099049514,"7":0.10565418057366552,"8":0.20928791965697094,"9":0.044549923431671835,"10":0.23678052771168298,"11":-0.2112895343201771,"12":-0.01025552630939955,"13":-0.22227245392198758,"14":-0.05679630703003085,"15":-0.1058791429236095,"16":0.10214504740620874,"17":-0.08684484262932009,"18":0.04235798980122061,"19":0.07403335456276756,"20":-0.06715540719116077,"21":-0.03293567732257431,"22":-0.24492662436216475,"23":0.04870541486211482,"24":-0.13069613595958623,"25":-0.04000320432934603,"26":-0.0657425673323839,"27":-0.1709068221164449,"28":-0.010811481995993558,"29":-0.06176335478855853,"30":0.17173447129541117,"31":0.015822475058573843,"32":-0.1375921251226539,"33":-0.18577013040643084,"34":-0.16269671937242047,"35":-0.28641800852232485,"36":-0.09464934154274093,"37":0.1380209799304334,"38":-0.11295234077646678,"39":-0.18140852216134076,"40":0.019726690894759955,"41":0.07633143574101167,"42":-0.1139139524069032,"43":0.1957980710356044,"44":-0.16760089897897992,"45":0.029862957244672028,"46":-0.2757002890528754,"47":-0.2759819690889062,"48":0.017625575475739726,"49":-0.16611708943286246,"50":0.17352840097481895,"51":-0.028507922851861742,"52":-0.03441978390593736,"53":-0.09319016814685596,"54":-0.11688970361885263,"55":-0.029799833293366162,"56":0.02623301202238852,"57":0.13226787613523633,"58":-0.2211238184891904,"59":-0.13820864662380736,"60":-0.02781804229492041,"61":-0.22869928797140157,"62":0.11777613862003605,"63":-0.05176734914472361,"64":0.08204126084158007,"65":0.08570830100332277,"66":-0.21521999160504557,"67":-0.16650580817633343,"68":-0.05664613325398175,"69":-0.30454104867538223,"70":-0.1466888174780839,"71":0.147895705258917,"72":0.13755702521266536,"73":-0.3042941744196619,"74":0.06671950203414077,"75":-0.02186196665994785,"76":-0.20422611141940225,"77":-0.13242181705937767,"78":-0.13242436141581057,"79":-0.21306805607747284,"80":-0.15343866788725644,"81":-0.15418102420710983,"82":0.19981157320091053,"83":-0.07507788124032654,"84":-0.037010447260785374,"85":-0.08865352595239365,"86":0.007958949963219084,"87":0.07128614185122134,"88":-0.08126850046492291,"89":0.3085214974771297,"90":-0.1520105970774736,"91":-0.06025296210023695,"92":0.1396690281417171,"93":0.02586676128848709,"94":0.04224222682578055,"95":0.0734680724487342,"96":0.012192451657641391,"97":0.3871402877758851,"98":-0.13449201427460547,"99":-0.24688923826240758,"100":-0.12176315713929159,"101":0.009546772317577445,"102":-0.12708082774165275,"103":0.10692306927303535,"104":-0.10452875687011813,"105":0.25340781520077493,"106":0.021301251232084522,"107":0.2285525902225469,"108":-0.11227452531053791,"109":0.10335852116156666,"110":-0.019291209229202418,"111":0.11926470565689531,"112":-0.0195436942824072,"113":0.06512681291462954,"114":-0.13033703397096585,"115":-0.27398710323272274,"116":-0.11824704727605721,"117":0.03803026925190587,"118":-0.011358371934422188,"119":0.15965731370565647,"120":-0.08020958675797658,"121":-0.052899615705367636,"122":-0.18363201693391462,"123":0.004250615034345548,"124":0.32197998800426875,"125":0.06724959904838294,"126":0.05868316309673012,"127":0.17864718835312607,"128":-0.025513474401616654,"129":-0.49510694850651804,"130":-0.0011815026559028087,"131":-0.044113742196498565,"132":0.15672774917861126,"133":0.059178007585150724,"134":0.23807531679535784,"135":-0.08976785574072395,"136":-0.22364030717635827,"137":-0.10131636483881584,"138":-0.15354808934812267,"139":0.03483802813111352,"140":-0.041381885113660394,"141":0.15678790853349278,"142":-0.16193772711554583,"143":-0.2449341592950366,"144":0.11231294283664957,"145":-0.05462114367626866,"146":0.09191742811670874,"147":-0.10531984901319134,"148":0.057967339466945704,"149":-0.04315499653698801,"150":-0.2900745019035372,"151":-0.13376267812275855,"152":-0.25640447769912544,"153":-0.08622255582307871,"154":0.004466751651229959,"155":-0.14918128138686632,"156":-0.1010915301390871,"157":0.16725927713872632,"158":-0.18488372777233367,"159":-0.009683831861713246,"160":-0.037154539505010076,"161":-0.071408119681021,"162":-0.12663966204021818,"163":0.04452953948491443,"164":0.04689538064480852,"165":0.017154660312389332,"166":-0.05862508009640909,"167":0.024060240216517693,"168":-0.07925196062180168,"169":-0.2028726516059676,"170":0.32397398459986765,"171":-0.07059711693418265,"172":-0.11350900324218263,"173":0.020631744579207124,"174":-0.07124139659583728,"175":0.3149290979624818,"176":-0.007733051186915422,"177":0.03325701946451373,"178":-0.7896065241720458,"179":-0.11537704377297006,"180":0.1432803762731867,"181":-0.04837028498225053,"182":0.2633556805697739,"183":0.10873402442554912,"184":-0.12810698634049444,"185":-0.1282022254627006,"186":-0.08853602269826992,"187":-0.025695626472108532,"188":0.0647768823249998,"189":0.22034325074464337,"190":0.14018689726609437,"191":-0.19960672178880537,"192":-0.1574141550343921,"193":-0.03705475514653825,"194":0.06377931949393437,"195":0.09491755228312833,"196":0.2514886215437704,"197":0.01810197060114556,"198":-0.27225580730003857,"199":-0.25500826756735906,"200":0.24342769299863715,"201":-0.11457084942740807,"202":0.13650350128192468,"203":-0.014980009977688865,"204":0.010152491855769346,"205":-0.11139456881191682,"206":0.23853857188263408,"207":0.18630752389741995,"208":-0.0013603820365024298,"209":0.13517344259476938,"210":-0.29054883434028483,"211":-0.043398624582089734,"212":-0.41677322917790666,"213":-0.5033682590299805,"214":-0.41745907650614855,"215":0.06268653015483228,"216":0.03297553228651464,"217":-0.4457389251424707,"218":-0.1293023764553596,"219":-0.051535726253718085,"220":-0.5826287691093058,"221":-0.17047238130182799,"222":-0.08017334019870206,"223":-0.034617132290089794,"224":-0.2181475712617653,"225":0.3383901445148954,"226":0.1832208677865196,"227":-0.6307638645069978,"228":0.120277672261854,"229":-0.004216838370460077,"230":0.16530054203131064,"231":-0.02572138501647283,"232":-0.049533526557239485,"233":-0.5169526675429083,"234":0.7208628345178497,"235":0.5721575504561431,"236":0.01714158889960654,"237":0.15310308895307828,"238":0.04440941482598556,"239":0.1667428503934292,"240":-0.061409159244687275,"241":0.6041736834466271,"242":0.9778894654668937,"243":-0.053143312118408996,"244":0.15104040276645916,"245":-0.14675027989583894,"246":-0.0002346108877090056,"247":0.028524623538311655,"248":0.8188075492270528,"249":1.0693915707377544,"250":0.08441933161028357,"251":-0.04949311418102892,"252":0.12999526769992406,"253":-0.1724779873972006,"254":-0.34246507050529484,"255":0.8626239536136713,"256":1.2774671264034652,"257":0.17322406588174766,"258":-0.09926151214927646,"259":-0.05839221908185946,"260":-0.17482393029130674,"261":-0.0036084164561576526,"262":-0.4478417211580434,"263":0.9537823419194128,"264":0.15845918955697186,"265":-0.0827862262042054,"266":0.09716575418494224,"267":-0.10590828447248961,"268":0.10441146975499938,"269":-0.25706441287011905,"270":1.3257040740566262,"271":-0.16174854560062424,"272":-0.10751815057682286,"273":0.3683485886312071,"274":-0.20387605975956444,"275":-0.4619080893463348,"276":-0.30279140191609205,"277":1.4125021356649057,"278":-0.17269143379219304,"279":0.07846324996646853,"280":-0.3137039972889642,"281":-0.24737828707936174,"282":-0.10469697269759817,"283":-0.4340729288455078,"284":1.2164743982761093,"285":-0.15370994237026517,"286":-0.003590324163865642,"287":0.10835696725236298,"288":-0.1514079703323034,"289":-0.29392895820862475,"290":-0.45657125717250646,"291":1.27404527622327,"292":-0.1756291160576242,"293":-0.0422482235346816,"294":0.016993463013901606,"295":-0.1096708017602785,"296":-0.0009993187603547628,"297":-0.4581965488827165,"298":1.625632861379366,"299":0.02770195978989129,"300":-0.07183256816510981,"301":0.1794221779587952,"302":-0.05344953492647313,"303":0.34358810767158665,"304":-0.5401705099081847,"305":1.8703921131512473,"306":0.007363174290241966,"307":-0.04867047484921187,"308":0.19841246755679767,"309":-0.183604196102179,"310":0.3294340056022588,"311":-0.3158166700687903,"312":1.7941633955830654,"313":0.15696683449254625,"314":0.22110998366903084,"315":-0.04973970375570455,"316":0.03204908381480704,"317":0.38246938542757614,"318":-0.2477473136310268,"319":1.4437810102752364,"320":-0.016798603262217493,"321":-0.02974053868349319,"322":-0.00779626024995164,"323":-0.09855580273483575,"324":0.22676736651938934,"325":-0.1125361032458208,"326":0.9555380506740596,"327":-0.254829325374373,"328":0.17296430486266018,"329":-0.1837376311378399,"330":0.10381411999883323,"331":0.0990323569714402,"332":-0.021300087851416676,"333":0.24441468826403773,"334":-0.03827904224184435,"335":-0.08753745372464473,"336":0.18063355034877318,"337":0.14055388205093694,"338":0.1321740776955514,"339":-0.11621374619616912,"340":0.09473076021657266,"341":-0.10308829541386383,"342":-0.17166488680753342,"343":-0.11457511232513722,"344":-0.144865015266879,"345":0.4344589793011285,"346":0.10007712520921831,"347":0.013013858585196252,"348":-0.25861262585502465,"349":0.046710160347762965}},{"sx":1,"sy":1,"depth":350,"w":{"0":0.1496129506068928,"1":0.1021369326079774,"2":-0.00483808404238149,"3":-0.0899406037095667,"4":0.02961897603046313,"5":0.0005024550256108317,"6":-0.14142302584002328,"7":0.20790905272254628,"8":0.14732802406708792,"9":-0.039504365357579015,"10":-0.008724734287189957,"11":-0.08362195241978694,"12":-0.004301281316174784,"13":-0.20441874790219328,"14":0.17381814740713972,"15":-0.028959182748183515,"16":-0.07135176426852935,"17":-0.1896544950366085,"18":0.006943436789274752,"19":-0.0767018195383429,"20":-0.10571320335604105,"21":-0.17139471952897964,"22":-0.0774599838941781,"23":0.025323631609709397,"24":-0.03553173248439643,"25":-0.1796843530471726,"26":-0.13085452784508053,"27":-0.07040514317291872,"28":0.050031602549846114,"29":-0.002535244338815805,"30":0.11214492091336598,"31":-0.07149161233431287,"32":-0.15505218527918208,"33":0.07409106681523626,"34":-0.13792385682557748,"35":-0.11631471762872794,"36":0.06127548867068083,"37":-0.1450626367306431,"38":-0.04104917773869573,"39":-0.17244845164341635,"40":-0.11122182138067,"41":-0.19801153243123346,"42":-0.20902208349678952,"43":0.19716343721303098,"44":-0.10021034544980005,"45":-0.0042111184915529605,"46":-0.1413062486338621,"47":-0.018004051912777673,"48":-0.08818228925518143,"49":-0.0822785878938432,"50":0.14975482016386035,"51":-0.059825263622054245,"52":0.01725237779505126,"53":-0.18158573373105372,"54":-0.04267646649504547,"55":-0.08519162593593357,"56":0.0005902305065291151,"57":-0.05788574408302269,"58":-0.28648854108557564,"59":0.00304047158129085,"60":-0.2687344107722823,"61":-0.1322397938009348,"62":-0.15242517966765837,"63":-0.0028782056018725917,"64":-0.18854974979232766,"65":-0.08391084114409682,"66":-0.03553287379088028,"67":-0.23249219536157562,"68":-0.07608562064179457,"69":-0.18285220175032132,"70":0.13084236752507292,"71":0.01774337952012707,"72":-0.28585093306754555,"73":0.1715307112229962,"74":-0.21466983563626482,"75":-0.18805243999553328,"76":-0.2613516454551519,"77":-0.1745810481614494,"78":-0.05248995413365247,"79":-0.2132102718925377,"80":0.06751112421086135,"81":-0.20630046062257598,"82":0.19123120776641317,"83":-0.32891842063520765,"84":-0.038325576419433495,"85":-0.10899532205432717,"86":0.027678156266591723,"87":-0.26772668422750134,"88":-0.15401801608590596,"89":0.17091946845045425,"90":-0.2078258651353433,"91":-0.034173566492909806,"92":0.0016421556757645018,"93":-0.022309803602952465,"94":0.02124894069108045,"95":-0.22672017017780088,"96":0.050703683342149065,"97":-0.16609855926465122,"98":-0.00808320636420635,"99":-0.33068262986882613,"100":0.08989424717277596,"101":-0.18763772198174206,"102":-0.20734766083855774,"103":-0.02400889035406454,"104":-0.31200533878847947,"105":0.23140435410563515,"106":-0.006959449022857219,"107":0.0039281461833547025,"108":-0.07251511172713938,"109":-0.11226467286922646,"110":-0.09963568191014757,"111":-0.14524255990093154,"112":0.0754313637353677,"113":-0.08940503429234024,"114":-0.24219278085028578,"115":0.041264882295282884,"116":-0.2777935973405469,"117":0.03264216356070524,"118":-0.15242255701847407,"119":0.303021782058091,"120":-0.212976735123302,"121":-0.17538963290157406,"122":-0.20557836007836128,"123":-0.25104989384167603,"124":-0.007780043419679708,"125":-0.1425244781311079,"126":0.1279257061322975,"127":-0.06812670983032393,"128":-0.03254134360240051,"129":-0.09769799610061956,"130":-0.35039330735446345,"131":0.019917342525364062,"132":-0.16591406915283788,"133":-0.003180246201742571,"134":-0.19458751422286258,"135":-0.10819343860272995,"136":-0.252148200533574,"137":-0.359163932480343,"138":-0.15967386831469257,"139":-0.12761733614226148,"140":0.011723270432441616,"141":-0.230621158544598,"142":-0.1672959898750361,"143":-0.15301680402349213,"144":-0.2924871769693374,"145":0.07727688015753527,"146":-0.0881615312199536,"147":-0.0725537900519099,"148":-0.35238800150368543,"149":-0.20411037852094882,"150":0.019121292054265174,"151":-0.26387896284841456,"152":-0.12266399603931723,"153":-0.12144181840960697,"154":-0.24960933178382408,"155":-0.21664716856997515,"156":-0.05909157014906511,"157":-0.018345593597015226,"158":-0.17813257081083836,"159":-0.0013905372411808716,"160":-0.26460015475647264,"161":-0.24605409755152655,"162":-0.34673483198763283,"163":-0.24553541111474902,"164":0.13282011927781592,"165":-0.39724992506829815,"166":-0.09435189212823186,"167":-0.08962155951136065,"168":-0.07746303506174053,"169":-0.49252470762719514,"170":-0.3031895875064478,"171":-0.006057965806174005,"172":-0.37455825018417305,"173":-0.16043809350431776,"174":-0.2955149143195194,"175":-0.1985744542156861,"176":-0.26211627378252655,"177":-0.07627425348267643,"178":0.38453779444600666,"179":-0.28763495257232463,"180":-0.20705759432163448,"181":-0.16886329193806493,"182":-0.020020537222072896,"183":-0.3027446254464849,"184":-0.10701679764324849,"185":0.5763904175264778,"186":-0.45519152208758146,"187":-0.18795381030132097,"188":-0.1204332870448449,"189":-0.0034613634745052245,"190":-0.022896870777272673,"191":-0.09145348363491117,"192":0.5674669599122492,"193":-0.1962301444704875,"194":-0.08293866154621153,"195":-0.1491195454533399,"196":-0.0823121556496411,"197":0.25853783821520593,"198":-0.24022195702644156,"199":0.4191524589320842,"200":-0.04461575610608853,"201":-0.033958747448188276,"202":-0.13965882381789957,"203":-0.08062198427647362,"204":0.23078791095134302,"205":0.23947608396914402,"206":-0.24279173503809529,"207":-0.27625657042281443,"208":0.008725350238377066,"209":-0.28321010311546935,"210":0.051034388242505925,"211":0.054249643539667616,"212":0.19601272153838686,"213":-0.3130903586281548,"214":-0.14844398943045434,"215":0.05288650198641187,"216":-0.3813175189633936,"217":0.05888774285864438,"218":-0.12102470471521565,"219":0.11512332263046161,"220":-0.25204187433212305,"221":0.07698974602621486,"222":0.1200037516949522,"223":-0.32945619849096075,"224":-0.1108640592767482,"225":-0.16446922624017485,"226":-0.13645571398288603,"227":-0.39485718417839494,"228":-0.27839846728514867,"229":0.019562594360292423,"230":-0.24668940749825388,"231":-0.17365653419519742,"232":-0.18499678557858307,"233":0.03176240156848238,"234":-0.6149348539215589,"235":-0.3768467581867988,"236":0.08500733436893361,"237":-0.11589468129392187,"238":-0.23952521471267482,"239":-0.208921579935387,"240":-0.0612153326630678,"241":-0.8452110816696244,"242":-0.3150298058318777,"243":0.10554110082416888,"244":-0.12169915417544147,"245":-0.37388515732449573,"246":-0.1627154586676929,"247":0.2099814023217645,"248":-0.984705945216552,"249":-0.4265445314800999,"250":0.13193208889684643,"251":-0.089289024670458,"252":-0.28783074540402676,"253":-0.13712449862506745,"254":0.00704858499345025,"255":-0.45562752120659905,