
//<![CDATA[

// a few things don't have var in front of them - they update already existing variables the game needs
lanesSide = 3;
patchesAhead = 25;
patchesBehind = 10;
trainIterations = 100000;

var num_inputs = (lanesSide * 2 + 1) * (patchesAhead + patchesBehind);
var num_actions = 5;
var temporal_window = 0;
var network_size = num_inputs * temporal_window + num_actions * temporal_window + num_inputs;

var layer_defs = [];
layer_defs.push({
    type: 'input',
    out_sx: 1,
    out_sy: 1,
    out_depth: network_size
});
layer_defs.push({
    type: 'fc',
    num_neurons: 30,
    activation: 'relu'
});
layer_defs.push({
    type: 'fc',
    num_neurons: 30,
    activation: 'relu'
});
layer_defs.push({
    type: 'fc',
    num_neurons: 25,
    activation: 'relu'
});
layer_defs.push({
    type: 'fc',
    num_neurons: 25,
    activation: 'tanh'
});
layer_defs.push({
    type: 'regression',
    num_neurons: num_actions
});

var tdtrainer_options = {
    learning_rate: 0.002,
    momentum: 0.0,
    batch_size: 128,
    l2_decay: 0.01
};

var opt = {};
opt.temporal_window = temporal_window;
opt.experience_size = 10000;
opt.start_learn_threshold = 5000;
opt.gamma = 0.9;
opt.learning_steps_total = 10000;
opt.learning_steps_burnin = 1000;
opt.epsilon_min = 0.0;
opt.epsilon_test_time = 0.0;
opt.layer_defs = layer_defs;
opt.tdtrainer_options = tdtrainer_options;

brain = new deepqlearn.Brain(num_inputs, num_actions, opt);

learn = function (state, lastReward) {
    brain.backward(lastReward);
    var action = brain.forward(state);

    draw_net();
    draw_stats();

    return action;
}

//]]>
    
/*###########*/
if (brain) {
brain.value_net.fromJSON({"layers":[{"out_depth":245,"out_sx":1,"out_sy":1,"layer_type":"input"},{"out_depth":30,"out_sx":1,"out_sy":1,"layer_type":"fc","num_inputs":245,"l1_decay_mul":0,"l2_decay_mul":1,"filters":[{"sx":1,"sy":1,"depth":245,"w":{"0":-0.0003928472304702628,"1":-0.23710586668301942,"2":0.12232286904389028,"3":0.10313398281778494,"4":-0.027945708638923667,"5":-0.018869577599444264,"6":-0.02457180415018125,"7":-0.056670638773712596,"8":0.03692444590815799,"9":-0.011509475242118952,"10":0.11985546739271119,"11":-0.06279674655094634,"12":0.07358449501066722,"13":0.045618082603381335,"14":-0.04935841320381142,"15":0.035887626249454,"16":0.029342795394564556,"17":0.03387513728939408,"18":0.054665188159903344,"19":0.041937092919715487,"20":-0.025790103482707324,"21":-0.031201394762175663,"22":-0.13578954739584465,"23":0.013087415648146207,"24":-0.07772660371112831,"25":-0.02484605155958022,"26":-0.0021726531022271635,"27":-0.08893933926977533,"28":-0.09186940405344915,"29":0.061633402765586355,"30":-0.035373400220263904,"31":-0.0035062920916579974,"32":0.09121356914141053,"33":-0.010777219400745,"34":0.01934959899893176,"35":-0.06045994106007008,"36":-0.06284491964563917,"37":-0.030950152421314527,"38":0.040719113855134825,"39":-0.061792027027356054,"40":0.007630422850619314,"41":-0.0932484238689717,"42":-0.04748883120360682,"43":0.006766515495796661,"44":0.15210071194447705,"45":0.015688560459076153,"46":0.02181479839740385,"47":-0.12225788675925094,"48":0.06351847700163422,"49":0.13702922416370147,"50":-0.10490692006060877,"51":0.07100593731715305,"52":0.205584443824085,"53":-0.11156027080713367,"54":-0.2210219038793243,"55":0.08502678594925428,"56":-0.1523626426572168,"57":0.10638202802968472,"58":-0.011940498746558507,"59":0.08359282023125962,"60":-0.09285590244606363,"61":0.0441461413153409,"62":0.09345575466622921,"63":-0.07812180942758634,"64":0.0978987543945934,"65":-0.025197077540682202,"66":0.06572560960670056,"67":-0.05069400011133755,"68":-0.10416025327451625,"69":-0.07190093217655227,"70":0.071511767121248,"71":0.18024534664127623,"72":0.03194740860260204,"73":-0.06759253476823274,"74":0.07371931218129824,"75":0.029173158534362642,"76":0.02899560201702776,"77":0.11505289750115838,"78":0.14189330341519513,"79":0.0465414539673187,"80":-0.06529078681457942,"81":-0.08937301949255956,"82":-0.05895213278434735,"83":0.16533864045258606,"84":0.015013540207977176,"85":-0.0471857011280606,"86":0.08399237929521021,"87":0.013743083629685455,"88":-0.07359969843621642,"89":-0.04153228719863312,"90":-0.059027662921863316,"91":-0.054465528476238374,"92":-0.003084575952263867,"93":0.2256832432498968,"94":-0.1759408797163299,"95":0.027599987983314644,"96":0.020080112652984577,"97":0.010517110246579987,"98":-0.02686154943003398,"99":0.16349034000948276,"100":0.16639810568087612,"101":-0.184608439569361,"102":0.008228908620026822,"103":0.00024445157491020513,"104":0.000062256631079442,"105":-0.0885016389635751,"106":0.13405669545564902,"107":0.3112268468812874,"108":-0.29280408017080645,"109":0.018250808350175736,"110":-0.06984911577058722,"111":-0.0011560400206111262,"112":0.014715772491501675,"113":0.016270056369953892,"114":0.32968464458753816,"115":-0.4538804386490142,"116":-0.10393124239716783,"117":-0.06858517486841657,"118":0.06649961700684992,"119":0.006173486274114006,"120":0.07023731294876673,"121":0.1926764128754044,"122":-0.4324397078681935,"123":-0.069526524434151,"124":-0.06876024915997285,"125":0.1517524531519648,"126":-0.0285673729934259,"127":0.19451897008124852,"128":0.21054936930539006,"129":-0.3916181594249466,"130":-0.04686413134257215,"131":0.04364211189697332,"132":-0.07528396947483053,"133":0.208804884155635,"134":0.02705750437974101,"135":0.2546702287067278,"136":-0.5726794293209367,"137":-0.07226808429419036,"138":0.07047993338552444,"139":0.05978676135262361,"140":0.018067943387460473,"141":0.07213112915021944,"142":-0.04172743684203689,"143":-0.41400719277681014,"144":0.16247505116096303,"145":0.050341567117224956,"146":0.14262904600918672,"147":-0.05001110328708778,"148":0.0072282228565736665,"149":-0.3147179331513845,"150":-0.2759943505014409,"151":0.017588479264023942,"152":0.07533733327010476,"153":0.07436823381180518,"154":0.03533730674136669,"155":0.002543784170049715,"156":-0.39708773208447334,"157":0.38433317840470743,"158":-0.021974958399765813,"159":-0.03084628297662348,"160":-0.08332878553920954,"161":-0.0588525749707173,"162":0.10750741861108372,"163":-0.6202697231616158,"164":0.43226695286374806,"165":0.10461891985160707,"166":0.011319912087973234,"167":-0.03851852495253162,"168":-0.09323245402624612,"169":-0.028673943493907245,"170":-0.5215046672710365,"171":0.6124651248453393,"172":0.09395954350563822,"173":-0.01416738818761101,"174":-0.03831866692259977,"175":0.19375853966781406,"176":0.02571566185811064,"177":-0.7560335648573697,"178":0.08080470954066973,"179":0.07967340375111513,"180":-0.031240627361920816,"181":0.04607403312267374,"182":0.09687346118311427,"183":-0.06283997596365329,"184":-0.5529041628906944,"185":0.051661818181944826,"186":0.15342824338927577,"187":0.17555249716305904,"188":-0.19937986482151554,"189":0.1356808887307018,"190":0.05032634908381049,"191":-0.6039642962726814,"192":-0.02866273656392174,"193":0.009630550170405991,"194":0.0669208602176276,"195":0.07459041812761899,"196":0.03797877474457062,"197":0.0634688703038892,"198":-0.5179164238602643,"199":-0.054185881985335194,"200":-0.10702077509201231,"201":-0.06376883280207364,"202":0.0216594326929237,"203":0.15415028754820825,"204":-0.06627927937308167,"205":-0.4629305432204771,"206":0.4945619214073405,"207":-0.17907946131887287,"208":0.08766948686248796,"209":-0.009923892003469194,"210":0.05801826727551363,"211":-0.18881669353616587,"212":-0.07615365730028925,"213":0.4712232800281338,"214":0.03774390734143293,"215":0.18279580241348342,"216":-0.007646156102146804,"217":-0.00621082551828059,"218":-0.05532197135956691,"219":-0.032943780772548045,"220":0.4495070410849711,"221":-0.07568216106674205,"222":0.00792006193104724,"223":-0.20053461402890926,"224":-0.0426610165110448,"225":-0.014318184952504517,"226":-0.0316168058880311,"227":0.02374546242700749,"228":-0.03717008453214944,"229":0.07705647378017709,"230":-0.12393076060684681,"231":-0.003879905885529539,"232":-0.03098457754199117,"233":0.10107433530544171,"234":0.045652665945813,"235":0.013956428057552914,"236":0.05510950175754416,"237":0.04586534286205487,"238":0.02480934745588203,"239":-0.061174895002942396,"240":0.03234786856637263,"241":0.035577382296310786,"242":0.04518086231301043,"243":0.1786468213599803,"244":-0.054644067325083756}},{"sx":1,"sy":1,"depth":245,"w":{"0":0.022515538208575315,"1":0.03948392671742557,"2":0.09269678373295595,"3":0.31604840874113393,"4":0.16777936091680526,"5":0.1998785349887738,"6":0.13591836615404312,"7":0.020999300572103165,"8":0.09059638000471988,"9":0.05111606911755991,"10":0.24069536683549783,"11":0.17265593667374374,"12":-0.015002432253041284,"13":0.14269098619836557,"14":0.04589817974214672,"15":0.02609807263865305,"16":0.13606517359781004,"17":0.23651220972107687,"18":0.18180412325730694,"19":0.019094531596999226,"20":0.05670930723920149,"21":0.02280408904060945,"22":-0.03460578068226838,"23":-0.09633195135404732,"24":0.24485367266192393,"25":0.14504374671180065,"26":-0.016226593576162126,"27":-0.061650039199166805,"28":0.08212309101775851,"29":-0.005771294411800599,"30":0.22936059047697707,"31":0.26765588437039106,"32":0.17864394294822342,"33":0.09697568770776988,"34":0.1262793788700123,"35":0.03135483378996376,"36":0.0609748506262454,"37":0.05475612703789895,"38":0.23859604560552355,"39":0.17006867124237246,"40":0.015890614672143415,"41":0.14193016550462398,"42":0.08139907167139547,"43":-0.0843510419147353,"44":0.1265398281191879,"45":0.21366002978450377,"46":0.13327601852330123,"47":0.046965862872188215,"48":0.011902452948256549,"49":-0.043702568011230666,"50":-0.040627978153630034,"51":-0.07844426222087515,"52":0.14423183765001535,"53":0.08893836102911375,"54":0.0753205052385735,"55":-0.06251338027043385,"56":0.02979477001025257,"57":0.003604857428742718,"58":-0.008063885224446685,"59":0.08813601060581797,"60":0.18961327368705838,"61":0.05653246072447526,"62":-0.025935743501146673,"63":0.09731540992161773,"64":0.03174295820558865,"65":0.065539788940875,"66":0.031419160041496745,"67":0.08154723628918106,"68":0.18422516192466176,"69":0.012444550208574226,"70":-0.0494020071712964,"71":0.032748548394852424,"72":-0.023995898516429134,"73":0.05262801311995439,"74":-0.05555707395764433,"75":0.026072219999152997,"76":-0.05543228462779417,"77":0.07377265670979632,"78":-0.13242927970589313,"79":-0.029562453062324454,"80":-0.11493176680927876,"81":0.08806483133266076,"82":0.08195347515800815,"83":-0.09887776413161072,"84":-0.04752676563451556,"85":0.007530191416074646,"86":-0.015937197061596898,"87":0.2212897958799866,"88":0.06331761531798005,"89":0.03250826149060961,"90":0.02307655525174965,"91":-0.0952365238233766,"92":-0.02077004633564516,"93":0.08849217883411956,"94":0.060237523993851044,"95":-0.05556115789064363,"96":-0.028002057608344212,"97":0.07693940785667938,"98":0.02162242069837512,"99":0.023637633498575582,"100":-0.029694864778695446,"101":0.037561215655425466,"102":-0.18180490842104682,"103":0.07873754515610581,"104":-0.09718557620991318,"105":-0.014272527879119624,"106":0.033913199229903025,"107":0.1579619564173752,"108":0.03558779283088931,"109":-0.16890079117427767,"110":-0.12471832732053063,"111":0.019850378460232396,"112":-0.10669205445189808,"113":0.01282792106574802,"114":0.17552803984467644,"115":0.03391457470204324,"116":-0.14091530797878538,"117":-0.23914977156769762,"118":-0.06517766569194777,"119":-0.1721153111609139,"120":-0.0731730932611141,"121":0.051031699284488086,"122":0.3464947510861163,"123":-0.08373452598919343,"124":-0.11876206219795456,"125":0.008131401192579442,"126":-0.04865788346625106,"127":-0.012178666957070058,"128":0.0634992689670732,"129":-0.06559440379665568,"130":-0.142019932576226,"131":-0.02737647647124727,"132":-0.05425611161250797,"133":0.08370670428636133,"134":-0.06007704088323868,"135":-0.048693597758860174,"136":-0.1344414890516669,"137":-0.3090181833361087,"138":-0.07728936598719446,"139":-0.029585894687735564,"140":-0.02446402479872925,"141":-0.007631336248325655,"142":-0.07704277906204636,"143":-0.13648603023630002,"144":-0.15182878176590198,"145":-0.12290661552784267,"146":-0.10315072354071005,"147":0.0348871224291963,"148":0.06232150073633839,"149":0.08567061824055971,"150":-0.5662150396892138,"151":-0.1286782195607316,"152":0.018897362787070868,"153":-0.06859040044443561,"154":-0.05750656274848487,"155":-0.15019457640758466,"156":-0.03496473992017171,"157":-0.25428028329338226,"158":-0.18455130923498755,"159":-0.0011833743772258786,"160":-0.10247909931005127,"161":0.062000043705276044,"162":-0.00584161547967312,"163":-0.0660781112713509,"164":-0.26882225622650063,"165":-0.2860643614789281,"166":0.12596864601814547,"167":-0.10849450934502604,"168":-0.08185134626695889,"169":-0.18311419941385612,"170":-0.06480804483017974,"171":-0.11075172585637162,"172":-0.03138438417070416,"173":0.09816056937825003,"174":-0.05693285651878727,"175":0.006543762558396183,"176":0.014012651347660781,"177":-0.10543746756658039,"178":0.0007501863693035905,"179":-0.25793882757307024,"180":-0.01278299026949897,"181":0.039270406130030536,"182":-0.03432588709991357,"183":0.024508293594404453,"184":-0.010589159910889228,"185":0.01593650309936761,"186":-0.05080387956684593,"187":0.040942237854634245,"188":-0.1272734308611778,"189":-0.10133408792308131,"190":0.09085321197393935,"191":-0.07374201381260444,"192":-0.010102639043403786,"193":0.05753010978954058,"194":0.05136502132717722,"195":-0.00020864269701584615,"196":-0.004585528471080947,"197":-0.03483205171213595,"198":-0.0870063607498318,"199":0.03846872936767563,"200":-0.018757311602265268,"201":0.07172552488104204,"202":-0.021666813304096172,"203":0.016826090565965623,"204":-0.036691847049555214,"205":-0.042186609113437724,"206":-0.09611552710470858,"207":-0.042793548505129654,"208":0.035364889423868125,"209":-0.12855268061316386,"210":-0.05743472499500931,"211":0.0166713632226728,"212":-0.07212526721173965,"213":-0.008249200130863658,"214":0.03520906850404589,"215":0.058781852290507475,"216":-0.023072284343705663,"217":-0.0014432462437577631,"218":-0.12734261182330656,"219":0.026808454120422244,"220":0.05962892992079373,"221":0.10802499212992564,"222":-0.022910112474524173,"223":0.060610932692479205,"224":-0.003992425880044507,"225":0.11210101689346033,"226":0.008909760744344117,"227":-0.05026685345879807,"228":0.19914744030315917,"229":0.027657027925173435,"230":-0.04577246871916192,"231":-0.13316026523068852,"232":-0.003746415981648319,"233":0.029820151313991912,"234":-0.0724644305186219,"235":0.15606134821166412,"236":-0.05175678038023306,"237":0.06311930233870577,"238":-0.14486463994221754,"239":-0.043698141109146875,"240":-0.012923254964799989,"241":0.13532308664478254,"242":0.17640572971035076,"243":-0.09632252300016567,"244":0.028043847346144974}},{"sx":1,"sy":1,"depth":245,"w":{"0":0.23839124318336669,"1":-0.045672864068393534,"2":-0.022654163993625336,"3":0.11718843013154395,"4":-0.04683045308321808,"5":-0.0011631024155841806,"6":0.035209092342478335,"7":0.08449539625731498,"8":-0.015549624862269996,"9":-0.02380292819275069,"10":0.12490577747586398,"11":-0.009246729887047252,"12":0.03950501027737548,"13":-0.048650695089015546,"14":0.07567094368414068,"15":-0.06400397758268792,"16":-0.14838632951554945,"17":0.13399508825227968,"18":-0.05949855317459312,"19":-0.034320013077608846,"20":-0.03898050180371757,"21":0.10607814310269777,"22":0.03067305121759784,"23":-0.055742272827180674,"24":0.13378341738183291,"25":-0.07326841736152429,"26":-0.023665872142773985,"27":0.11991282438219095,"28":0.06607249380942339,"29":0.007290597017454594,"30":-0.02988356072885806,"31":0.06742677836160328,"32":-0.023082087932659215,"33":-0.08164289195725498,"34":-0.0032765012803098376,"35":0.07723370142681316,"36":0.042591593429192165,"37":-0.10823622408186513,"38":0.01161510690178554,"39":-0.01940879000745721,"40":-0.18731477441236183,"41":0.0374429017358957,"42":0.001955929371595626,"43":-0.03688659856416735,"44":0.06962151329930437,"45":0.002452328616995226,"46":-0.06434289926386079,"47":-0.05680659799885758,"48":0.001826303709434549,"49":0.10574033603415349,"50":0.02782467567448662,"51":0.0012352521301579205,"52":-0.13265008120942087,"53":0.13919725867252963,"54":-0.15919093845498175,"55":0.03852099712922071,"56":0.17866913556328587,"57":-0.07627952307349672,"58":-0.08150684822187096,"59":-0.17824110417817615,"60":0.007638700678083736,"61":-0.019240773783372446,"62":-0.054522591299136294,"63":0.09419938729879328,"64":-0.050681395547287414,"65":-0.05262516173460278,"66":-0.18276853581936545,"67":0.2801507605879487,"68":0.0192703019214135,"69":-0.04113733452183115,"70":0.07729227993982504,"71":0.025492965835832188,"72":0.04683921505002925,"73":-0.18964100746582863,"74":0.02252856701659242,"75":-0.005552280447166982,"76":-0.11316440295292328,"77":0.03955517135243481,"78":0.06815396165819815,"79":-0.09993810152876943,"80":-0.25140623902385956,"81":0.09119026061986728,"82":-0.067851389765927,"83":-0.056006449353405256,"84":0.026077577102530194,"85":0.09591553729354638,"86":0.005221950000065369,"87":-0.2986585672450924,"88":0.0330980337965722,"89":-0.09068811850573998,"90":-0.02370974083066593,"91":0.01973421993168479,"92":-0.05170436605289906,"93":-0.028753791190929696,"94":-0.34900244812016823,"95":0.07595275297550091,"96":-0.025993951649906307,"97":-0.0030839931846804625,"98":-0.0625754941693772,"99":-0.058601407677711735,"100":-0.00022935131355349462,"101":-0.428735034282387,"102":0.037741867271944674,"103":-0.04330445922262552,"104":-0.09493964039439495,"105":0.08403918938241811,"106":-0.03709594968600361,"107":-0.016348600549371987,"108":-0.3018378109551176,"109":-0.019209908766560112,"110":0.06124883793351125,"111":-0.07073444444809557,"112":0.058689819994750564,"113":0.16665852408152684,"114":-0.1654052063569797,"115":-0.2508907489480918,"116":0.14214694397506084,"117":0.006022289766637373,"118":0.015808197610950103,"119":-0.004452690467102962,"120":0.06255739858719658,"121":-0.10920054666910267,"122":-0.34018116735126397,"123":0.2320546874602445,"124":0.15158614097302794,"125":0.019396465639837435,"126":0.02074596195316569,"127":0.037952830058130355,"128":0.022821715267489665,"129":-0.5935152912297218,"130":0.18952416341026163,"131":0.054482069246210345,"132":0.015254669273484405,"133":-0.09230152129898075,"134":0.07775461061079146,"135":-0.1655870000620466,"136":-0.36262659051796886,"137":0.33478570989624096,"138":-0.008575838923897273,"139":0.09797224570415995,"140":-0.03781425506879734,"141":0.015184229537774032,"142":-0.0683781546383101,"143":-0.5528360653421086,"144":0.24060211610218557,"145":0.12415546296400436,"146":-0.05279477889612543,"147":-0.04424683555152985,"148":-0.11083558072993754,"149":-0.025817831136728947,"150":-0.5789269622891435,"151":0.3534801494178764,"152":0.05199685952241154,"153":0.11163098254072926,"154":0.023687687557615206,"155":-0.05494671752293097,"156":-0.18618484941220667,"157":-0.21252578189692922,"158":0.20787060306606014,"159":0.025860281244054095,"160":0.08392121672283555,"161":-0.07309530970820408,"162":-0.0019634344161018856,"163":0.0751349788959398,"164":-0.023654427102554797,"165":0.24748135512821198,"166":0.00417189834844048,"167":0.14859865048755758,"168":0.08356022195292737,"169":-0.03282438956664813,"170":-0.053415290052036324,"171":-0.07226288794236992,"172":0.22435492307891453,"173":-0.05872078278048315,"174":0.05734901379718746,"175":0.010153657905097663,"176":0.0918573160413532,"177":0.11013269440404418,"178":0.10812967371781271,"179":0.4100640238673456,"180":0.0331828931145923,"181":0.030346666909571916,"182":0.022642206253765073,"183":0.00682688239142177,"184":0.11929506992073455,"185":-0.1082758207668737,"186":0.40881568163691717,"187":0.11606240946157999,"188":0.08732059711455661,"189":-0.05389458900239142,"190":0.008505709530296715,"191":0.03303609035865487,"192":0.14701000666483585,"193":0.1661358153584996,"194":-0.0705467427299169,"195":-0.09125558927257686,"196":-0.12712197167694883,"197":0.007323593958509265,"198":0.2408396490839332,"199":0.06693001586665925,"200":0.22940713237332488,"201":-0.024678686190072647,"202":-0.054546769599957495,"203":0.06989202958387541,"204":-0.05572272714775585,"205":0.23137131714674924,"206":-0.008075081672364969,"207":0.42550393272891873,"208":-0.019441593703215784,"209":-0.0450193158869432,"210":0.03139140158101307,"211":0.11063033977562761,"212":-0.0097365044994872,"213":-0.0254094588187176,"214":0.16924063266366962,"215":-0.10354700514994108,"216":-0.1062705914629716,"217":-0.08697836982093719,"218":-0.05232123934384856,"219":0.014256362178640326,"220":-0.00322662381654426,"221":0.1699983879713172,"222":-0.016057077279332754,"223":0.008372857946002574,"224":-0.018058944707269205,"225":0.048864125452836436,"226":0.19535986979447184,"227":0.0413509972223368,"228":0.033352986404149104,"229":0.002280149952655828,"230":0.03349817213528362,"231":-0.07861958014697312,"232":-0.025512234702394585,"233":-0.13459101467887974,"234":0.09721202394309389,"235":-0.21163579196515964,"236":-0.1740854100495451,"237":0.02937782818218581,"238":0.07101341909423227,"239":0.06685363042462816,"240":-0.062261949166715014,"241":0.05366649381545365,"242":-0.04935242400875273,"243":-0.2036674220460258,"244":-0.017365876254571533}},{"sx":1,"sy":1,"depth":245,"w":{"0":0.04532662335470219,"1":-0.0014734152630245044,"2":0.044253496906412206,"3":0.2143344771870686,"4":0.0675656583117862,"5":-0.0014116274044483617,"6":0.07490575782953399,"7":0.12563644373775107,"8":-0.0025711232769326897,"9":-0.09510771918144949,"10":0.15089075298257895,"11":0.017699638721201356,"12":-0.03469029689048344,"13":0.10818757031127764,"14":0.09736655779951475,"15":-0.07317395645427759,"16":0.04673233293746719,"17":0.16541370477312267,"18":0.08952967068346845,"19":0.008289025244719419,"20":-0.024446985850922972,"21":-0.025334532214883285,"22":0.00012497210356092147,"23":0.15650773923796202,"24":0.14735637918996178,"25":-0.1094619166540157,"26":0.08978493965669819,"27":-0.09772305252409802,"28":0.020914636354416136,"29":-0.1175697017693136,"30":-0.07056001402465836,"31":0.15334692847055717,"32":0.02544665046285005,"33":0.11660616202724437,"34":0.005217965466636092,"35":-0.12623472291639315,"36":-0.24421576820762894,"37":-0.07892321917297777,"38":0.15540491194519554,"39":-0.07728355098071167,"40":-0.004463513947978428,"41":-0.004627026225310768,"42":-0.04171365796402167,"43":-0.18100882479627622,"44":0.0055024007845681944,"45":0.27799866936495093,"46":-0.049261755582575485,"47":-0.010658102472790849,"48":0.0972055857699358,"49":-0.19421846209648422,"50":-0.09260378859552436,"51":0.01816116497890275,"52":0.15218971525732408,"53":-0.12920414208847383,"54":0.03284599896165618,"55":0.026980756882469648,"56":-0.004017317330990401,"57":-0.01610835625112295,"58":-0.12381090945096627,"59":0.11034024847069777,"60":-0.03848965838056559,"61":-0.04449604684698626,"62":0.09747044656091569,"63":-0.0011675561987124926,"64":0.03021679253774536,"65":-0.17526977618222436,"66":0.0701755406854907,"67":-0.07862995652639114,"68":-0.03480320003463362,"69":0.03628511523499293,"70":-0.02715003790942803,"71":-0.08850888310612504,"72":-0.07160351056399156,"73":0.07416075274056441,"74":-0.10864388158652633,"75":0.05968155805162934,"76":-0.050951070847587335,"77":0.07860484278107775,"78":-0.041190111194252685,"79":0.10548367261057483,"80":0.2098703434763872,"81":-0.011680855521302082,"82":0.07924139655471531,"83":0.12286411755840507,"84":0.18832935620150063,"85":0.025061058461841736,"86":-0.010497112950634787,"87":0.22307173202296235,"88":-0.08571675045784817,"89":-0.05491057951806097,"90":-0.10370630001952373,"91":-0.04496738478399705,"92":-0.13628448941299756,"93":0.028951965576969493,"94":0.1551777387732498,"95":-0.22292441702426208,"96":-0.009210844522616045,"97":-0.1229581989274843,"98":-0.025741455845419422,"99":0.09411498067496894,"100":-0.06849977885965126,"101":-0.004830480825583911,"102":-0.17145475327151843,"103":-0.02500072803730793,"104":0.04297778720461976,"105":-0.029902316230832914,"106":0.07127060791676708,"107":-0.009254016787825956,"108":-0.035142189104266024,"109":-0.04482754320737546,"110":-0.09401956406803687,"111":0.016610784357008298,"112":0.14202555039813503,"113":-0.024227947535084764,"114":-0.0029595841508694752,"115":-0.1251683629161244,"116":-0.04187752976744263,"117":-0.05436699975956678,"118":-0.0017025361136970335,"119":0.04463295983735924,"120":0.09352703245788672,"121":0.0028396460666759594,"122":-0.3232921313966177,"123":0.11998665578331358,"124":-0.06527104338253738,"125":0.0058673558868229045,"126":0.17311263253428397,"127":0.06219788118961727,"128":0.17391158011405786,"129":-0.09405820822680208,"130":0.11337882929726287,"131":-0.030933913794438446,"132":-0.00393627468642389,"133":0.11169907849603726,"134":0.05503650104774664,"135":0.12621903150844443,"136":-0.025205320447637257,"137":0.1335264198501584,"138":-0.008908409172340995,"139":0.00952106620958295,"140":0.06885591984166434,"141":0.03692980339881719,"142":0.10924630740368405,"143":-0.013591786729222665,"144":0.04659867892757466,"145":0.0355887947420817,"146":0.033677870785589044,"147":-0.03611874196186055,"148":0.061184565835628965,"149":0.14184670085804607,"150":0.38499836667298587,"151":0.1636496698165468,"152":-0.008822000290195,"153":0.0008632246386354097,"154":0.005138403237338219,"155":-0.01596402864491184,"156":-0.04449927705311226,"157":0.45799744963067823,"158":0.0751503868710992,"159":-0.10933057902626434,"160":-0.017146402909202836,"161":-0.06907705839474616,"162":0.1667347983687495,"163":0.2156525295926404,"164":0.3198820470247907,"165":-0.02965367097372349,"166":-0.053285669254071015,"167":-0.008053265021399695,"168":-0.053323190973363375,"169":0.1440005128478529,"170":0.28957595121897456,"171":0.3874547275872772,"172":0.06924255019523289,"173":0.08446989287319213,"174":-0.06263796923235677,"175":0.042672483852642246,"176":-0.018224337317761487,"177":0.22618136149751011,"178":-0.1715585361036481,"179":0.024762509955138408,"180":-0.011803203461674728,"181":-0.029176269686685425,"182":-0.04024417844162287,"183":-0.029806057570077177,"184":0.1043822390225135,"185":-0.3064237081569776,"186":-0.020863057151913562,"187":-0.009947869156057124,"188":-0.052979501338031226,"189":-0.13100117055311383,"190":-0.048258097353965856,"191":0.21391185795669365,"192":-0.3078841791885532,"193":-0.007165939941431175,"194":-0.04765526675118207,"195":0.05442625755715853,"196":-0.09483764653611114,"197":0.024623325938902117,"198":0.08557301640843926,"199":-0.3169673655743607,"200":0.13396044576775976,"201":0.06230171998689952,"202":0.027788054311389893,"203":0.059190901721845525,"204":0.0678176373026294,"205":0.3001190831769751,"206":0.24076253664613384,"207":0.08802988143034061,"208":0.010546137398011876,"209":0.04257331214677136,"210":-0.02791430417907009,"211":0.17178241180027384,"212":0.24865018916531412,"213":0.22176698011108065,"214":0.15324101379451527,"215":0.031014222999738793,"216":-0.012631226823092064,"217":0.034568562818691216,"218":0.0077226003496616985,"219":-0.06852821354601603,"220":0.1493996762136984,"221":0.06223699367619122,"222":-0.06419517899204816,"223":0.02266363554984169,"224":-0.006248599085397384,"225":-0.09508861825655036,"226":0.006482507928638345,"227":0.05254521249597856,"228":0.14301392825911902,"229":0.07305392610663504,"230":0.056386416086549034,"231":-0.1625398064181236,"232":-0.12127314902067995,"233":-0.014425545173101757,"234":0.009869532846698002,"235":0.0615912256066836,"236":-0.033475015547370895,"237":-0.009909847097957615,"238":-0.07144833137871265,"239":-0.05438636702026449,"240":0.04685611499173378,"241":-0.029095006805050855,"242":0.05083786917789251,"243":0.18219343722760242,"244":-0.030904175052587596}},{"sx":1,"sy":1,"depth":245,"w":{"0":-0.027602440790674265,"1":0.1230740137239894,"2":-0.013404210493564066,"3":-0.08021610694983188,"4":-0.06353026835697993,"5":0.09069906631133978,"6":0.05904268056920541,"7":0.10390189525306351,"8":-0.06554108286969512,"9":0.09452531644775575,"10":0.0732973182466882,"11":-0.021721711606810253,"12":0.1683669719615009,"13":0.01267855846675944,"14":-0.06642923667708144,"15":0.012683200142180813,"16":0.05032756270895293,"17":-0.1883064890844617,"18":0.06605575803701183,"19":0.17012579872143369,"20":0.09133894206583514,"21":0.02807776415061926,"22":-0.017853773000230937,"23":0.013499905270919934,"24":-0.09026926735667794,"25":0.11636262802837427,"26":-0.03390803856196993,"27":0.08529490790612211,"28":0.09110255930403481,"29":-0.19045422851550523,"30":0.09064459026296648,"31":-0.2310525455984958,"32":0.05868983958326482,"33":0.17358038684028385,"34":0.15157419927717294,"35":0.16366768550083377,"36":-0.04314436014357266,"37":0.04114243164233571,"38":0.05277071990895026,"39":-0.09533441013583513,"40":0.1529597041854267,"41":0.11531226708762861,"42":0.14228778082963206,"43":-0.0009244306431366075,"44":0.04414524146688667,"45":-0.11883965527953166,"46":-0.052317862021024016,"47":0.05687007142270019,"48":-0.08605532002907725,"49":0.07631524213312917,"50":0.03091352989847909,"51":-0.0009507417537683988,"52":-0.09203209567775644,"53":0.1294610601509214,"54":0.062214190842879255,"55":0.02451378076166132,"56":0.08098526706487169,"57":-0.06949699361899714,"58":-0.0029658857264700596,"59":-0.03579820178697886,"60":0.07581967711091409,"61":0.19483609611703376,"62":0.02323710463448442,"63":-0.07499340991431576,"64":-0.03978822203230425,"65":-0.056558040936145956,"66":-0.0998946484589221,"67":0.12705120070809445,"68":-0.0882702238266594,"69":0.06411766787292267,"70":-0.10491193048500587,"71":-0.08688293292587418,"72":-0.04100067010970824,"73":-0.10860572565952889,"74":0.20888164410931176,"75":0.014217590552269881,"76":0.1603818546312502,"77":-0.003161548733999675,"78":-0.20496772682827918,"79":0.03456335463459366,"80":-0.0338995830552721,"81":0.17703175002302718,"82":-0.04713875706433744,"83":0.012610937645199053,"84":-0.15064687371592456,"85":0.010862459540577987,"86":-0.08334833567801522,"87":0.07004203517824027,"88":-0.08633691576799007,"89":-0.12789583490337247,"90":0.005044683811807878,"91":0.034959947469482694,"92":0.0003306907665870103,"93":-0.004515050082941237,"94":0.10509845776792805,"95":-0.0566735477808518,"96":0.03558543085320231,"97":-0.09340652488221428,"98":0.004247680989437672,"99":-0.028542429122628526,"100":0.041603980730320914,"101":0.14317292185809322,"102":-0.12256842976728578,"103":0.011453393057588346,"104":-0.024288350847321404,"105":0.005336273659788012,"106":-0.003768269321534199,"107":-0.1515057474789226,"108":-0.04227529305306086,"109":-0.12812706087086484,"110":0.12340348760353084,"111":-0.06561555909557976,"112":0.02277574723494389,"113":0.05516847648432161,"114":0.052401883701797596,"115":-0.18289531298990774,"116":-0.10861386153564204,"117":0.09386923080195246,"118":-0.02005723646777015,"119":-0.1518615498625367,"120":-0.030401097186638575,"121":0.13913358563673742,"122":-0.18781336188995698,"123":-0.0072262692561797315,"124":0.0996234672187638,"125":0.05272801434473956,"126":-0.03450859167237101,"127":-0.15123154777001163,"128":0.09193113484049069,"129":-0.35549005736939515,"130":0.052250565228887456,"131":0.03625975272068036,"132":-0.09862416719958499,"133":-0.058051688542048514,"134":0.009404774922605823,"135":-0.009942357420513574,"136":-0.27242752801098596,"137":-0.12973233777883733,"138":-0.10474020716014057,"139":0.026480338492642853,"140":-0.04930736140475285,"141":0.04387030833296111,"142":-0.04381427130440398,"143":-0.1597156033946544,"144":-0.2584747459111884,"145":-0.08983711241882732,"146":-0.17137666262946413,"147":-0.10422734692452003,"148":0.09861825744531212,"149":-0.026903243944417492,"150":0.017938741251275616,"151":-0.1824079580505243,"152":-0.030831814822671826,"153":-0.11384815724282615,"154":0.005357072963516167,"155":0.10001293920508604,"156":-0.12694966204513197,"157":0.24081390701167207,"158":-0.20103672386620583,"159":-0.08032120016710034,"160":-0.06892247092632639,"161":-0.21665672159244398,"162":0.042394957608288056,"163":0.06466615469005119,"164":0.1849726049833953,"165":-0.23871193265374363,"166":0.156362011251571,"167":-0.16716898572691286,"168":-0.11868368347820848,"169":-0.18897133551482978,"170":-0.04456330216192185,"171":0.12405649691768932,"172":-0.15478493358742546,"173":0.05896215655615748,"174":-0.08120475311416034,"175":0.04690009396113167,"176":0.016510288196017592,"177":-0.009199744730523337,"178":0.08925307551086656,"179":-0.26773060489292844,"180":0.06336754058542954,"181":-0.04115897098756169,"182":-0.04579658119880672,"183":0.1505612822182525,"184":-0.058308560324515854,"185":0.04077480629666022,"186":-0.2169541207429421,"187":0.08855127431508591,"188":-0.11350157394948257,"189":0.0035142711936570056,"190":0.08661013100822561,"191":-0.111394740179183,"192":-0.06742212699102329,"193":0.014998772057810819,"194":-0.0951957814604554,"195":-0.0431108673435626,"196":0.09956649873170624,"197":0.09243067263065066,"198":-0.016015340225947243,"199":-0.038490506946312106,"200":0.01647531490921875,"201":-0.040752310023685734,"202":-0.0685476821129517,"203":0.033101544171104544,"204":0.06421477484856403,"205":0.05645704139887186,"206":0.24463399518419376,"207":0.12326191596719548,"208":-0.10923212208436416,"209":0.023399831248022345,"210":-0.0677755464226967,"211":0.11452178005951756,"212":0.0014219063126581252,"213":0.07113016499190286,"214":0.13648060675600132,"215":-0.015051989988477447,"216":-0.057540122311125194,"217":-0.06156551887845003,"218":0.10278826310347036,"219":0.07559259819695252,"220":0.05969975063274803,"221":-0.11878043674329182,"222":0.040030924134624085,"223":0.035769704394563256,"224":-0.12698357425556717,"225":0.04800018119767719,"226":0.12371808629906356,"227":-0.04098246180597671,"228":-0.018307228306584763,"229":0.01089300442255097,"230":0.11056133647818982,"231":-0.08295248742238281,"232":-0.039954202766008154,"233":-0.07596044879980127,"234":-0.055147828212291236,"235":-0.0526405096060256,"236":0.01507415338402645,"237":0.10422227962838047,"238":0.03083570415046173,"239":0.010519137239944939,"240":0.026358163675375086,"241":0.033196789824582046,"242":-0.07056853027788686,"243":0.18874403646459598,"244":0.09314908976939495}},{"sx":1,"sy":1,"depth":245,"w":{"0":-0.008805161319748109,"1":-0.05312481681170546,"2":-0.016084595891224244,"3":-0.0781777308434129,"4":0.06388686172928534,"5":0.011509383628164836,"6":-0.08047477118264497,"7":-0.11458875741846679,"8":0.152973434334514,"9":0.011098185802968315,"10":0.14488685314559754,"11":0.11522735930315141,"12":0.08958863021629389,"13":0.03722095765299383,"14":-0.03718712211760406,"15":0.1574175380618522,"16":-0.03933180885108017,"17":-0.040013282716594614,"18":0.1676975458203386,"19":-0.011068611344458119,"20":-0.00028609299597220103,"21":-0.08402766722560874,"22":0.09619538245479786,"23":0.009553306571466321,"24":0.015916788225991022,"25":0.1554441607705609,"26":-0.0015663697772616669,"27":0.012364748392044784,"28":-0.0340211233191916,"29":0.04066231689893636,"30":-0.23984782412870878,"31":-0.22023273171955798,"32":0.20533026838766208,"33":0.10929469991257484,"34":-0.064243812791388,"35":-0.10575968456818322,"36":-0.08957988549120596,"37":-0.18957046175022918,"38":0.00857325013394736,"39":-0.0794140501469991,"40":0.02525173462228507,"41":-0.019488084535305056,"42":-0.042702201658575564,"43":-0.009309950984984014,"44":-0.05988868648824513,"45":-0.11484379160105337,"46":-0.016151554351286453,"47":0.05489447921281028,"48":0.02098378440927246,"49":-0.04831627604048947,"50":-0.04273821954558734,"51":-0.05030136416990339,"52":0.005968741162247417,"53":0.02593551962048855,"54":0.047217759002020764,"55":0.04918144852538453,"56":0.08745870635225199,"57":0.04362564248121959,"58":-0.14249157696926207,"59":-0.11867761669122918,"60":0.00562894536911231,"61":-0.01963241679854015,"62":0.00988389868329903,"63":-0.09124895971035467,"64":-0.08509755408076676,"65":-0.3125512009971546,"66":-0.0700394185192526,"67":0.16144950446061365,"68":-0.05868444505972875,"69":-0.05608641874457609,"70":-0.18651105777077628,"71":-0.01055326195424132,"72":-0.14492338527187523,"73":-0.3154967873633289,"74":-0.06452993530570765,"75":0.17209841226814374,"76":0.11385143460076332,"77":-0.08361442342715399,"78":0.042256110939968956,"79":-0.1783515233244504,"80":-0.10525822027348222,"81":0.08703038871289523,"82":0.06305749505067056,"83":0.07315556792360633,"84":-0.1306086497056787,"85":-0.11524494659236684,"86":-0.16081739192368663,"87":-0.21327635631953606,"88":-0.22127282503561904,"89":-0.03463783914912335,"90":0.08675641254143472,"91":-0.05361736418639822,"92":-0.008079961792151397,"93":0.06332161318783923,"94":-0.30020943796499183,"95":-0.12248285514998719,"96":0.10714422545184317,"97":0.02730321379448599,"98":-0.013904687201519357,"99":-0.042617290887121545,"100":-0.09552798125988235,"101":-0.4024451358859953,"102":0.10787444478889296,"103":-0.04076825993487121,"104":0.12385048137672479,"105":-0.0027191036439179615,"106":-0.0031319073408765307,"107":-0.1498211964481724,"108":-0.20953813092071344,"109":0.20789398018947802,"110":-0.0023621144024366194,"111":0.016139188663904687,"112":-0.01460986214485259,"113":-0.057179526843643684,"114":-0.26971423885370793,"115":-0.3086477345992294,"116":-0.017956706411957644,"117":-0.0246847048410216,"118":0.0017024090310438706,"119":-0.03176182993301086,"120":-0.10633392315435139,"121":-0.1750242871756896,"122":-0.09504900804451467,"123":-0.15064561084450953,"124":0.005904538386200332,"125":0.09155114039196958,"126":-0.03745559836487439,"127":0.018934445101080617,"128":-0.20112663664306998,"129":-0.0473403229321159,"130":-0.043717492574220466,"131":-0.062060735192834796,"132":0.04181391123620993,"133":-0.03201284479617573,"134":-0.0026591551808574226,"135":-0.2725736436254129,"136":-0.13631042074271763,"137":-0.055726105384100964,"138":-0.004751955505652481,"139":-0.008484789144788408,"140":0.017794599674958764,"141":0.02251756175427682,"142":-0.10655528377895604,"143":-0.13547806496277673,"144":-0.08052105525563304,"145":-0.12321196063347738,"146":0.08728986910959778,"147":0.009836277699808762,"148":-0.14507513277333794,"149":-0.10340929829476693,"150":-0.02524619706265361,"151":-0.03431816420509627,"152":-0.015839118819005658,"153":0.06918729040590617,"154":0.018794675714460248,"155":0.04067431440889502,"156":-0.10167809596048184,"157":0.3329750685199814,"158":-0.0811088062731027,"159":-0.18495937475389052,"160":-0.09711987840887418,"161":0.11981285523346258,"162":-0.05994651073201101,"163":0.08787051012363843,"164":0.22706651997488647,"165":-0.2337300648979879,"166":-0.22596664358725724,"167":0.019208550709575938,"168":0.029943272319810782,"169":0.12489386335442153,"170":0.26240037317753123,"171":0.38547338078952526,"172":-0.1328955418144083,"173":-0.10776881520084314,"174":0.14458219662091287,"175":0.053449901294702715,"176":-0.07466481573081986,"177":0.09660686634721502,"178":0.2618817435429877,"179":-0.12495386056155881,"180":-0.013666045015284532,"181":-0.06651744753316807,"182":0.024314143384529356,"183":0.03789938786128206,"184":0.22921390303308006,"185":0.13093464060349097,"186":-0.15537432636938156,"187":0.04952146711150634,"188":-0.002244526636606684,"189":0.06209912971177887,"190":-0.006944723660931657,"191":0.11559630084443445,"192":0.08254141688085959,"193":-0.22185106456379008,"194":-0.11576259818306041,"195":-0.05876512599386546,"196":-0.02005175013483087,"197":-0.1049290433497366,"198":0.23118009440640352,"199":0.19873555730868733,"200":-0.10168759062774667,"201":-0.021129945815910992,"202":0.04662760178840281,"203":0.09007659321532407,"204":0.12698291642410883,"205":0.06580537587040458,"206":0.4200009530252081,"207":-0.14341622301819373,"208":0.027776059127738215,"209":0.05255889906630942,"210":-0.009484482684872437,"211":-0.14551687632045873,"212":0.2336902322070449,"213":0.269080309733112,"214":0.06575972622516787,"215":-0.004156930854268739,"216":-0.04187965655493598,"217":-0.10914904796155543,"218":-0.17722725267514503,"219":0.031328204838690095,"220":0.30655847850182594,"221":-0.015188280640037632,"222":-0.01609314390721577,"223":-0.00701289935448496,"224":-0.17362853476744594,"225":0.012425831655265547,"226":-0.07324554371570521,"227":-0.012928095420896282,"228":-0.1877898880861999,"229":-0.06846194028460668,"230":0.13063876246447265,"231":-0.013401835506543289,"232":0.1003164749076272,"233":-0.0498176864725422,"234":0.07947764311278852,"235":0.22183050437592886,"236":-0.04376471315784705,"237":0.029728148229274425,"238":0.01549222055227368,"239":0.15517451347488279,"240":-0.04852381182161515,"241":-0.08967603999054932,"242":0.0032198084670859543,"243":-0.11102517972260095,"244":0.02281937312394227}},{"sx":1,"sy":1,"depth":245,"w":{"0":-0.0053191296951271855,"1":-0.01760326465340896,"2":0.09012194116878763,"3":0.20303850816889732,"4":0.19921241837445283,"5":0.031181006951859703,"6":-0.01426735634400652,"7":-0.04959380621716326,"8":-0.0874753856136844,"9":0.14010321000117357,"10":0.1976310934353459,"11":0.07525336721272569,"12":-0.0009671289950954526,"13":-0.052872190882627144,"14":0.09650562000788751,"15":-0.03373762922245127,"16":-0.01520917079204685,"17":0.17999494267547844,"18":0.15325701546470819,"19":-0.10090168329643912,"20":-0.12166839027489246,"21":-0.020086122725182586,"22":-0.08455334170192298,"23":-0.0678662855935862,"24":0.04346661218597827,"25":0.0366050252321445,"26":-0.07581492473161128,"27":0.04625374071208176,"28":0.130490502949371,"29":-0.093337746831696,"30":-0.08882841706326697,"31":0.253905278101093,"32":0.16820420884825416,"33":0.005046465521210115,"34":-0.16260583591040426,"35":-0.04991210039806132,"36":-0.01990229754554318,"37":0.06207168973180288,"38":0.21188435626255245,"39":0.10426244740281987,"40":0.02992281660627226,"41":0.08417854373125765,"42":0.0032078815962893296,"43":0.1453220222409981,"44":-0.0917945771765498,"45":0.030664706793980985,"46":0.1848081633170605,"47":-0.03790851897181858,"48":-0.07392592657038981,"49":-0.01602295401054925,"50":0.15219018711837556,"51":0.07152779586389468,"52":0.3431028898273205,"53":0.06342457448731936,"54":-0.15929538705789975,"55":0.13134523105661455,"56":-0.03678984077359141,"57":0.01609340574010147,"58":-0.005305742859328174,"59":0.14068236058498437,"60":-0.01853832557528981,"61":-0.07429844814145822,"62":-0.022672870062339125,"63":-0.05537803455128067,"64":-0.15269016024800147,"65":-0.030698430436823423,"66":0.31175871000314564,"67":0.19884465417448552,"68":0.02285359294987872,"69":0.06407259050167624,"70":-0.14632869131565093,"71":-0.029586595456215815,"72":0.08895157734590908,"73":-0.052915095915028486,"74":0.24875295980002984,"75":0.03406688552214575,"76":0.1787871716908739,"77":-0.036323646578286316,"78":0.0592602749497604,"79":-0.07732468539960795,"80":-0.015066766761129873,"81":0.31335677169928833,"82":0.002271149181841508,"83":0.08954332223646248,"84":-0.013092021170010938,"85":0.10613777683954906,"86":-0.017715764585170955,"87":-0.24549664486931297,"88":0.17802473479661013,"89":-0.062387932483589204,"90":0.04531225308125413,"91":0.03908784098369188,"92":0.02707152417957985,"93":0.001072515085813203,"94":-0.4229337375848336,"95":0.12183542958886355,"96":-0.06114822963383485,"97":0.1366919886781248,"98":0.019314176961857495,"99":-0.15948452872173288,"100":0.01039310301401281,"101":-0.6397226888128246,"102":0.2199849770043824,"103":0.17491601594674192,"104":0.11403819238111147,"105":-0.14651652259614503,"106":0.03473570865130066,"107":0.005814180231969461,"108":-0.7934729257658288,"109":-0.06972265581857667,"110":-0.05970635244767626,"111":0.06320958038481525,"112":-0.11485625653635795,"113":0.03497402464506923,"114":-0.1174162226837698,"115":-0.7020060566897659,"116":-0.07333211860922333,"117":0.08754967063615884,"118":0.05672461443384042,"119":-0.028774571504114818,"120":0.11007427795886271,"121":-0.12136565628137709,"122":-0.692741366431919,"123":0.008324148076654953,"124":0.12553867279525477,"125":-0.09137024612266861,"126":-0.025253524094583573,"127":-0.06393608918366814,"128":-0.10543334867602464,"129":-0.6991851754359285,"130":-0.17978352578681303,"131":0.013200536172910742,"132":-0.043854875664478724,"133":-0.03561401462477384,"134":0.009322124798058698,"135":-0.17907567492948848,"136":-0.8242677120928301,"137":-0.311643487206273,"138":-0.02975592706228236,"139":-0.016770079827347767,"140":-0.03656292577651347,"141":-0.007639932802700004,"142":-0.01884485599676057,"143":-0.6442468697551139,"144":-0.30103567661982616,"145":0.12285159931405384,"146":0.0384628564002811,"147":0.03810532538231333,"148":0.07335373212189196,"149":-0.023696789823989543,"150":-0.3499021340985425,"151":-0.30566154636981824,"152":-0.023213596353136606,"153":-0.11580136983007985,"154":0.05921572875934307,"155":0.00020971551895676888,"156":-0.18906287978485756,"157":0.5174519110190586,"158":-0.3340369719944901,"159":0.14579977089079857,"160":-0.0040438090929836735,"161":0.09587786700424189,"162":-0.04650526848501253,"163":-0.06682353747115527,"164":0.4149016553281138,"165":-0.3670989022535212,"166":0.04507422586055604,"167":0.11793942546989658,"168":0.025454001598324994,"169":-0.012235383247858054,"170":-0.09271053058053536,"171":0.5784891291464652,"172":-0.29214550350368773,"173":-0.09050899745127489,"174":-0.0019843313805284184,"175":0.021579093690226685,"176":0.03540619257917885,"177":-0.12210420533105544,"178":0.02741671806345725,"179":-0.17946924242907894,"180":0.011549054673869687,"181":0.05784777540974817,"182":-0.06574561260614087,"183":0.08286490903616835,"184":-0.020276124367939546,"185":0.04855589521415112,"186":-0.26651545023322404,"187":0.015263559887201352,"188":-0.10099606036893441,"189":-0.07325205127679615,"190":0.15055216260313128,"191":-0.01518687138782414,"192":0.02272497328883375,"193":-0.1952142639697579,"194":-0.014427863083718677,"195":0.07569474354743273,"196":-0.006602362278303825,"197":0.0020954132554305512,"198":0.055805969403082245,"199":-0.05244925790396831,"200":-0.23553759086035836,"201":-0.14514920779317017,"202":-0.01255889076239085,"203":-0.023397413335124448,"204":-0.003062164557219813,"205":0.029089871461983056,"206":0.4941329180294199,"207":-0.1996433304911039,"208":-0.026322905087551775,"209":-0.04318366762773725,"210":0.034182510564560904,"211":-0.03431029357495075,"212":0.020238194771826507,"213":0.5046330168346664,"214":-0.1421397386306134,"215":0.14387167802263273,"216":-0.07185563845523651,"217":-0.02645329300216625,"218":-0.003940410463767355,"219":0.2200532508356347,"220":0.43461676770126245,"221":-0.017128599290204112,"222":0.04904116244573012,"223":-0.08124140764066451,"224":0.0316749030220479,"225":0.03187404265858114,"226":0.08298697427528844,"227":-0.079869055050035,"228":-0.1005828647041782,"229":0.0591925584142052,"230":-0.09273028942585619,"231":-0.0634651470755508,"232":0.09214394764915769,"233":0.11010954192833054,"234":-0.08377115955292957,"235":-0.03991059211105254,"236":0.04737584883139707,"237":-0.00741772751557416,"238":0.1511219870371695,"239":0.02895385808729942,"240":0.22273922174916425,"241":-0.14046552815947821,"242":-0.004053746190011697,"243":-0.04671581494069638,"244":0.07020454694614682}},{"sx":1,"sy":1,"depth":245,"w":{"0":0.03052971996109911,"1":0.07011637685625023,"2":-0.006418470529323307,"3":-0.2299085696284764,"4":-0.08171128123058916,"5":-0.009474264563890625,"6":0.05562421344336754,"7":0.1731009093507662,"8":-0.05320504081816712,"9":-0.11927071646744167,"10":-0.21062699519256325,"11":-0.05702164448727461,"12":0.14697098435704642,"13":-0.04339452927452009,"14":0.11902239841997905,"15":-0.21626009830632084,"16":0.06830521946214088,"17":-0.14140655249099857,"18":0.05962116541800405,"19":0.06497047246637148,"20":-0.0211877076249534,"21":0.08691596289032624,"22":0.016418090431292328,"23":0.05587815539425598,"24":-0.16510182650923177,"25":0.05134351352483199,"26":0.030046267564793117,"27":0.013190750530664718,"28":0.024265742768215585,"29":-0.10022332537075797,"30":-0.15804911832032695,"31":-0.11550925809156344,"32":-0.017512891312397968,"33":-0.06183279527709223,"34":0.026575303731944253,"35":0.030926713827699005,"36":-0.04929087826064493,"37":-0.03326625762095569,"38":-0.16129124273571574,"39":-0.062211656126135426,"40":0.062057704921073535,"41":0.08334899613279116,"42":0.0365080086972758,"43":0.12885060301677786,"44":0.06800684915230715,"45":-0.2769578317775435,"46":-0.14341789693877313,"47":0.011125803859972567,"48":0.03346298933004606,"49":0.014044365528306407,"50":-0.028616459201938574,"51":-0.12608943368341313,"52":-0.20749699730244203,"53":-0.05159870509585104,"54":-0.03677291277463557,"55":-0.061824551512717284,"56":-0.010104360225278327,"57":-0.05202830108795262,"58":-0.08405169724981017,"59":-0.3172299168435463,"60":-0.030270989682341754,"61":-0.08547347619893694,"62":-0.13484142078202105,"63":0.15501822744581178,"64":-0.05602571896761992,"65":-0.0521625966523663,"66":-0.2996322299404822,"67":0.040966127993509696,"68":-0.16551624919938965,"69":-0.019716284953603492,"70":-0.002365192812027468,"71":-0.0005203230892621906,"72":-0.018249713889332088,"73":-0.19471564048951295,"74":-0.0693603234563929,"75":-0.12324242674775274,"76":-0.029063406699490004,"77":-0.10973648871625506,"78":0.053775706920917994,"79":-0.1303104298975636,"80":-0.2123046161355896,"81":-0.19202909997258272,"82":0.060873553599776656,"83":-0.11250415438235618,"84":-0.06791001935706407,"85":-0.0952156726543879,"86":0.07713068128364675,"87":-0.21355239136741366,"88":-0.2485090380359377,"89":-0.09646611277684745,"90":-0.16249259102196678,"91":0.031180202704562503,"92":0.04172847402298585,"93":-0.05725122720106433,"94":-0.20890612484482235,"95":-0.30483447249240375,"96":-0.10851891693580679,"97":-0.09145759665436777,"98":-0.047912988028984756,"99":-0.049558132824763915,"100":-0.06238587217670189,"101":-0.20585459142949697,"102":-0.20830651788333943,"103":-0.07023194497728968,"104":0.00384998225656417,"105":0.11570506234244367,"106":-0.029149919742144006,"107":-0.09989184056627982,"108":-0.3032175114844173,"109":-0.1398182219016607,"110":-0.03273913515734537,"111":-0.10098942859018499,"112":-0.11534466365239217,"113":-0.027820299819823226,"114":-0.10575226139374415,"115":-0.21376790665676285,"116":-0.22823361228545275,"117":-0.08398958145061174,"118":0.04316918729348023,"119":0.02682576028063702,"120":0.07613070198010267,"121":0.06188464645397278,"122":0.34791844269919914,"123":-0.23720784486859975,"124":0.094238456390001,"125":0.047228649919707794,"126":-0.06340092388101777,"127":-0.00782216137124671,"128":-0.011282337239687263,"129":0.2840155590349784,"130":-0.25414883709537905,"131":-0.020257490271358564,"132":0.09958457958049582,"133":-0.014251964449433437,"134":-0.004332761637162572,"135":-0.04503079325356344,"136":0.24585574072464783,"137":-0.28986143527142083,"138":0.02780315600894564,"139":0.11063112901156871,"140":-0.00620065249772657,"141":0.05780516217882832,"142":0.01678121562352393,"143":-0.046925569725522066,"144":-0.18828862652413306,"145":-0.03050384480487715,"146":-0.03945578140525198,"147":0.07893504104977019,"148":0.0067550687929065585,"149":-0.139163545361326,"150":-0.3304889118602597,"151":-0.2195490724151937,"152":-0.018735945890926756,"153":-0.04834926158217913,"154":0.12759194632566837,"155":0.04859434250866578,"156":-0.02489867178155091,"157":0.46193626785423236,"158":-0.10430869976222198,"159":-0.1172152018040936,"160":-0.12834677227675106,"161":0.14668865212878832,"162":-0.009760382189055233,"163":-0.00016348381758184765,"164":0.44902262101739177,"165":0.011326137515402642,"166":-0.14467078387273788,"167":-0.11970577672256894,"168":-0.09500801728759962,"169":0.05560566264789898,"170":-0.07949307048320112,"171":0.32300869223006357,"172":0.026870888416014226,"173":-0.01936137782571725,"174":-0.05406612962319492,"175":0.025621395885023768,"176":0.07157622418701722,"177":0.04370143219154902,"178":0.13146985978489328,"179":0.1783371340755981,"180":0.08491054823664258,"181":-0.024719509773971533,"182":-0.04133150409820209,"183":0.1300567372396422,"184":0.06621823429485602,"185":0.06997931872281075,"186":0.33503827954006027,"187":0.20742225350301663,"188":0.04162260010748061,"189":-0.16133379154723632,"190":0.011321765207375717,"191":0.0952196208152248,"192":0.05923173458941328,"193":0.2740383055275847,"194":0.11304627978090896,"195":-0.08366681009713885,"196":-0.047520146313798195,"197":-0.055548342737289896,"198":0.24804195945322702,"199":0.0188562011667203,"200":0.2617056589925722,"201":0.1162852287449393,"202":-0.045667198316969686,"203":-0.04063622510208834,"204":0.024953018859296565,"205":0.11207551923997572,"206":0.35729758270720613,"207":0.40461535207750543,"208":-0.2194710488999684,"209":-0.1004844077860685,"210":0.030542143527324036,"211":-0.09897066958879892,"212":0.21788811533312932,"213":0.3011744945906381,"214":0.3135389839480609,"215":0.09553799791372476,"216":-0.0872967108763544,"217":-0.021581464696551655,"218":0.0038332092127270354,"219":0.07645964176363901,"220":0.46006056249497207,"221":0.16886950720279761,"222":-0.03630635353292282,"223":0.002178471821475212,"224":-0.08467483513150544,"225":-0.031334438838814135,"226":0.05832004709021773,"227":0.28346203738990244,"228":0.0977639567503594,"229":0.05975445695936756,"230":-0.07176545379040757,"231":0.040705159677624024,"232":-0.029081505944788588,"233":0.08357370981156322,"234":0.19838097177075867,"235":0.08874816107954807,"236":-0.005798949261752222,"237":-0.06717360979716812,"238":-0.041419181223530215,"239":-0.09931903000276224,"240":0.15119824601480722,"241":0.11047848313422128,"242":0.12393585858870595,"243":-0.1055327340060193,"244":-0.06101397683710038}},{"sx":1,"sy":1,"depth":245,"w":{"0":-0.008404638601241894,"1":-0.0436227423772324,"2":0.014098797924429187,"3":-0.016448515627495372,"4":0.059956101616181194,"5":0.0604553330008255,"6":0.02666974667125986,"7":-0.06725953052147275,"8":0.0027720483983751268,"9":0.07544859616951927,"10":-0.06157276804497863,"11":0.061546342314961845,"12":0.006470560604563657,"13":-0.032826457180240985,"14":0.0018660018727125393,"15":0.0164638171981565,"16":-0.053367193885594126,"17":-0.06050555872916836,"18":-0.07265767163329714,"19":-0.09734814924169223,"20":0.046533867243465414,"21":0.004802470930423203,"22":-0.11393624546919662,"23":0.04395241011525569,"24":-0.08433781199032125,"25":-0.016759908341194316,"26":0.0831448039166355,"27":-0.1676127509578666,"28":0.03556796035488724,"29":-0.04445330262259942,"30":0.030430328952224965,"31":-0.004821958935120719,"32":-0.017246289051501704,"33":0.01771724900377809,"34":0.017060222039951507,"35":-0.035895314475931764,"36":-0.0021304256997090975,"37":0.0031293736362662315,"38":-0.08441741912136344,"39":0.028108557969311367,"40":-0.009398151390495373,"41":-0.035856089909772744,"42":-0.1137136305711089,"43":-0.06506208341379953,"44":-0.01903147702866495,"45":0.008693783128866166,"46":-0.0043708798261722975,"47":0.10833337231839965,"48":-0.07094693561333683,"49":-0.13369542991114264,"50":-0.008901299856736098,"51":-0.08391514566610571,"52":0.00825111285681868,"53":0.023202085630507185,"54":-0.0981666344859425,"55":-0.0613629425732155,"56":-0.09246575961618798,"57":-0.026806479193934626,"58":-0.03828606145737025,"59":0.0787890682081332,"60":-0.027397704378498155,"61":-0.02951540919730786,"62":-0.03423410315555817,"63":0.027547652254501856,"64":-0.006073313514273282,"65":-0.0419771002739244,"66":0.03666320032133791,"67":0.0555759187187532,"68":0.09870580734252339,"69":-0.09645181829827457,"70":0.06442662000112107,"71":-0.043851936656376204,"72":-0.012454910413721734,"73":0.015757653615765314,"74":-0.04732675751892655,"75":-0.050138592229674234,"76":0.06534314352064055,"77":0.0751153955446401,"78":-0.005699102623613829,"79":-0.05724708438713267,"80":-0.07476030522384526,"81":-0.10789702489732683,"82":-0.010792317892495263,"83":-0.0817072405702285,"84":-0.0405062271844666,"85":0.1572341066781876,"86":0.0076473262538587225,"87":-0.027926097958444484,"88":-0.06019119776276364,"89":-0.07279120879278796,"90":-0.0001649256898398468,"91":-0.053052687652439486,"92":0.037167679116869315,"93":-0.019593129577450224,"94":-0.0004438031481195721,"95":0.009275438761404938,"96":0.02153292543217446,"97":0.18428411962743468,"98":-0.03687323237156979,"99":-0.016494579427093786,"100":0.012819445501233767,"101":-0.001375353021683065,"102":-0.08364954221931754,"103":0.10596113146008171,"104":-0.043944273426580666,"105":0.03149250356040409,"106":-0.05408179782506343,"107":-0.06328074450556075,"108":0.013312845366777787,"109":0.05175743164974003,"110":-0.02900861629028289,"111":0.032215983775781776,"112":0.03194393077954534,"113":0.053616224552531025,"114":-0.03945256876175898,"115":-0.06880031910544393,"116":-0.061539301058478914,"117":-0.1391663046544103,"118":-0.0025207041179942905,"119":0.0057281673343184455,"120":-0.061841006429674036,"121":-0.047544297602522455,"122":0.0052680860930753555,"123":-0.03606373521456012,"124":0.05787300101033415,"125":0.07336023643648905,"126":-0.03297262298096368,"127":0.08161756544202527,"128":-0.05608741437807755,"129":0.10553070916975896,"130":-0.11380385365387775,"131":0.10462570547832956,"132":0.06901761468317555,"133":0.0708845144339002,"134":-0.0543958551868867,"135":-0.06471450302222731,"136":-0.0634864244321812,"137":-0.0010753443662950852,"138":-0.04899443065878717,"139":0.06893675200664448,"140":-0.00908957402512347,"141":-0.13159182309236472,"142":0.02083438610595095,"143":-0.024076933897489394,"144":-0.0434889157285236,"145":-0.0457062059454782,"146":-0.017955076413932236,"147":0.010158315024112954,"148":0.05153701496065229,"149":0.02224811661212447,"150":-0.0901116250185962,"151":0.0379433662148574,"152":0.0038262570814905183,"153":0.10905979587893017,"154":0.015757674889553062,"155":0.02226311487033109,"156":0.006752528193016687,"157":0.038100067050634186,"158":0.01593000882510066,"159":-0.044764257741325315,"160":0.043340799746176745,"161":-0.004195798692240189,"162":0.0606480940608909,"163":0.02862747317500248,"164":-0.09645188689650105,"165":-0.10762967047442508,"166":0.003565542823569824,"167":0.08067412470235322,"168":-0.04183403762441981,"169":0.007800348885158344,"170":0.011374816883200085,"171":-0.013504246771581633,"172":0.035259512634122886,"173":-0.034781056456764096,"174":-0.08371754377887049,"175":-0.009325851984010433,"176":-0.049519538687068,"177":-0.047463813579258725,"178":0.11563656053591659,"179":-0.16587353827605889,"180":0.011531936856060932,"181":-0.10032136045042273,"182":-0.012846140842024576,"183":0.003471415121613061,"184":0.049488174450589874,"185":0.017584217791217306,"186":0.012669112296076196,"187":-0.04663291996763249,"188":0.017569924106959074,"189":-0.05772382290266288,"190":0.06585771383530441,"191":0.0029890483639719244,"192":-0.04912781834647384,"193":-0.0362136809826684,"194":0.06877481268692834,"195":0.042925055233710506,"196":0.002220770920631957,"197":0.07238089416097343,"198":0.015546587844889015,"199":0.014616179517332432,"200":0.05849461158190339,"201":-0.006837827915938386,"202":-0.08001618932944143,"203":0.06348214431860576,"204":0.010228015555915583,"205":-0.03178574205882514,"206":0.023773627570849613,"207":-0.03653369977069492,"208":-0.022316222093944172,"209":0.0162068471710017,"210":-0.009177578488430333,"211":-0.06545745372651326,"212":-0.016560786112027746,"213":0.0112716862412457,"214":-0.041297730750844405,"215":-0.014365428033735386,"216":-0.07982202271662993,"217":-0.13919337918457933,"218":0.06357638453773541,"219":0.14419360225760827,"220":-0.006032488256211727,"221":-0.019623117481676,"222":0.06041339388282121,"223":-0.03526780239028554,"224":0.08720071751449647,"225":0.059454972612605156,"226":-0.10173199809800393,"227":-0.03356532419126914,"228":-0.04181106672908582,"229":-0.036340989500990725,"230":-0.04048810072069974,"231":0.008786945774592068,"232":-0.03884130946398175,"233":0.061844368651177616,"234":-0.01383540234294619,"235":0.07524645035511486,"236":0.1313093287589367,"237":-0.018934496930547093,"238":-0.021114653402372525,"239":-0.037573396007068556,"240":0.006413053774935704,"241":0.04425519350435422,"242":-0.11771660581509374,"243":-0.030453453770865706,"244":-0.025562862668323492}},{"sx":1,"sy":1,"depth":245,"w":{"0":-0.07474325891767658,"1":0.09000379417970232,"2":0.0767430493030118,"3":0.0719376275568407,"4":0.13120755486344254,"5":-0.08577890562608163,"6":-0.1126306313182331,"7":-0.06508790460308853,"8":0.07968440692586244,"9":0.10919163110382966,"10":-0.029985485200127452,"11":0.07641782981329018,"12":-0.002606162939421234,"13":0.03837921889234273,"14":-0.03153551762321584,"15":0.06540241666214383,"16":-0.13692758985937556,"17":0.028400642399981052,"18":-0.039816427845251176,"19":0.0034316087496693015,"20":-0.11576927356923072,"21":0.025525706439627774,"22":0.11140463040346044,"23":-0.04110090512729567,"24":0.031225699083356706,"25":0.14027149320943186,"26":-0.004737574061803721,"27":-0.08971454044762896,"28":0.0566384362383226,"29":0.07639899971736304,"30":0.004184455091398151,"31":0.2007397609772945,"32":0.01340241436283392,"33":-0.018690342755275032,"34":-0.11058889484556884,"35":-0.08164383475022007,"36":0.08210290629623601,"37":-0.04054133072360961,"38":0.022671190878193748,"39":-0.021576066406128278,"40":-0.028296695316548076,"41":-0.044296351721397176,"42":-0.08941135932330524,"43":0.11190141079798413,"44":0.05375017572126757,"45":-0.026051717736784018,"46":-0.11660584558841407,"47":-0.03747456744736232,"48":-0.0760110568493474,"49":-0.12824895242163148,"50":-0.04657419644225573,"51":0.12140162183279472,"52":0.015354612297269676,"53":-0.015812842643873195,"54":0.06754601746425298,"55":0.04046656621226102,"56":-0.032878289010266896,"57":0.05159572859978127,"58":0.08879602567033602,"59":0.13558129678427405,"60":0.014795996914422875,"61":0.024954520203654185,"62":0.0407035066723588,"63":-0.10698703167646807,"64":-0.049426122035969446,"65":0.11297707091308602,"66":-0.07271997364260895,"67":-0.04183070409275213,"68":0.018080963898263077,"69":-0.050120844063221176,"70":-0.04058134793388756,"71":-0.08119491467459104,"72":0.20850255407907176,"73":0.021761075633774343,"74":-0.1203090067946127,"75":-0.10603644090429776,"76":-0.038667040002017636,"77":-0.004991244089747216,"78":-0.04563904876702657,"79":-0.07271963650792544,"80":-0.052383070119435896,"81":-0.13169507869296015,"82":-0.001828371548156192,"83":0.07375170014666892,"84":0.06510530039821462,"85":0.06112356609179083,"86":0.014870872802710218,"87":0.00044525916051597013,"88":-0.002539532848014685,"89":0.03713760338003792,"90":-0.071593333532896,"91":-0.03273769874299621,"92":0.08664762072191813,"93":0.15204444888577562,"94":0.012755935449161353,"95":-0.025967284792324262,"96":0.05214136159552951,"97":0.05716942705430133,"98":-0.031186329766327438,"99":0.030362826273418426,"100":-0.012386534531287604,"101":0.10024051837911445,"102":-0.02591682878412781,"103":-0.09348284924384886,"104":0.0026502037112173457,"105":-0.005254060370421397,"106":0.00476759331869208,"107":0.040697555839415755,"108":-0.010240360457610875,"109":-0.11698092414056308,"110":0.038206536590913026,"111":-0.009787491490816853,"112":-0.006950871746275225,"113":0.13218391339099925,"114":0.10209698726331662,"115":0.130690308238038,"116":-0.01817728754435754,"117":0.026622664173342067,"118":-0.009909499688937822,"119":0.02892140249746492,"120":0.08964813407718758,"121":0.1528006878094309,"122":0.08948313480830909,"123":-0.01749132953587871,"124":0.11203461867803155,"125":-0.06755984267324534,"126":0.05494090141046504,"127":0.08785852286747584,"128":-0.0781567180541775,"129":0.10100563829655852,"130":0.20849140540116548,"131":-0.015549622311393735,"132":-0.07847189773193951,"133":0.08838614162421589,"134":-0.07349987547607123,"135":0.20008555267031028,"136":0.5388253306509896,"137":0.19513739185045123,"138":0.016439918397642916,"139":-0.22642575766249404,"140":0.08568106877142168,"141":-0.06031801283359697,"142":0.031556965532026096,"143":0.5656327838669272,"144":0.12694245208390245,"145":-0.05112924923616261,"146":-0.06234768664228568,"147":-0.11300041344887768,"148":-0.011471668993452448,"149":0.011485802396955127,"150":0.36239514354281427,"151":0.09208365319192721,"152":0.10893967096350746,"153":-0.00923147078739566,"154":0.035061571551108846,"155":0.03997292188612055,"156":0.007492046510765841,"157":-0.18665172833058688,"158":0.2260839204678575,"159":-0.0785107500328978,"160":-0.12499212986112612,"161":0.016562241479269414,"162":0.038043123461261,"163":-0.09235906297444305,"164":-0.7763349826139055,"165":0.31098044439267103,"166":0.016687087602176173,"167":-0.03230176522494783,"168":0.09992480821760616,"169":-0.012499890971345715,"170":0.05521954000611809,"171":-0.7546523655111331,"172":0.2764114185533295,"173":-0.07319222710670834,"174":-0.07977480112310048,"175":-0.043733399285518164,"176":-0.07700992272052175,"177":0.08854337687866286,"178":0.20652776450947646,"179":0.46263185792810846,"180":-0.06532802959084295,"181":0.12820716870584342,"182":-0.0660888431891309,"183":0.036245285798607633,"184":0.1262460623403186,"185":0.1913756381478436,"186":0.3519762618843442,"187":-0.01819098873938483,"188":-0.05843936199146739,"189":-0.03613415769978675,"190":0.08180556566854835,"191":0.03646247392768584,"192":0.12179370721799095,"193":0.35334515811342565,"194":0.05846258264375164,"195":0.0514537266276517,"196":-0.07156645664393733,"197":-0.11794274109867994,"198":0.09702761870172717,"199":0.2079247849159755,"200":0.31230971579044847,"201":-0.06871553478804586,"202":0.004228654990578639,"203":0.007461937884814149,"204":-0.00898593695417704,"205":0.10840512569017316,"206":-0.7564016613021393,"207":0.45901163276983153,"208":0.056400925650426315,"209":0.13729661848795024,"210":-0.08268375568090094,"211":-0.12452413666953394,"212":-0.06478357978814064,"213":-0.6757370161403684,"214":0.11095861771472959,"215":0.0522559040649457,"216":-0.005189848189752627,"217":0.11075851034479592,"218":-0.07586076134753382,"219":-0.0667529337749665,"220":-0.6105198741014893,"221":0.059783712667944806,"222":-0.04565494921085179,"223":0.011384602962241796,"224":0.012827339289417155,"225":0.031115954748130607,"226":0.10078715116361621,"227":-0.15025143610020159,"228":0.12828180580070087,"229":0.006050580269221028,"230":0.032319629137901894,"231":-0.05727688982595456,"232":-0.10316086503481427,"233":-0.015777532947003178,"234":-0.048976368948094984,"235":-0.0018852225514631989,"236":-0.06948036594137012,"237":-0.0035898872138421306,"238":0.08497166831614761,"239":-0.14263175266132236,"240":-0.06798303328692495,"241":-0.02638804979657491,"242":-0.031909030423507095,"243":-0.049619504562991704,"244":0.0038888304242538562}},{"sx":1,"sy":1,"depth":245,"w":{"0":0.03742412455418264,"1":0.04315081769460589,"2":-0.012901208408696413,"3":0.06901308800902832,"4":-0.01708073942757284,"5":-0.04750747698215859,"6":0.05220515597981636,"7":-0.07019844166847629,"8":0.06810146217670832,"9":0.040553608776225554,"10":0.11875827499992736,"11":0.046038841922507234,"12":-0.10761725220037624,"13":-0.07156736369898319,"14":0.041072644353198434,"15":0.17838095193947945,"16":0.013342521351470085,"17":-0.006927483823871929,"18":0.21271162345544134,"19":0.09060430496640673,"20":-0.11529983086276363,"21":0.09030160791468705,"22":0.06139512282078131,"23":-0.025828682933712547,"24":-0.1629059526797481,"25":-0.005485530395940507,"26":-0.05274010866714783,"27":-0.0008390474685879535,"28":-0.013760905727719494,"29":0.05156104132634049,"30":-0.0810923467267101,"31":0.011584166894532597,"32":0.043956602858415836,"33":0.06125690463494957,"34":-0.06534509481359442,"35":0.03552383777060057,"36":0.12268996843405608,"37":0.07166681670411036,"38":-0.12693546805662764,"39":-0.12747380328727564,"40":-0.0008527725454436007,"41":-0.06815680178599928,"42":0.10863143044388796,"43":0.01302740246825638,"44":0.1337518262047932,"45":0.11666589520968024,"46":0.01916909388000464,"47":-0.0710004225941149,"48":-0.03521099029991024,"49":-0.011196545984847163,"50":0.12483993705912229,"51":0.12876182943883302,"52":0.014570737841007037,"53":-0.0753202572207462,"54":0.0015280318413175148,"55":-0.04536903371981068,"56":0.037369062205641145,"57":0.18308679967074643,"58":0.10909881810013397,"59":0.0035067072174474264,"60":-0.16440108933166872,"61":0.047424606618016216,"62":-0.12452495393014346,"63":0.07815801144171765,"64":0.12588601856312204,"65":0.08114674456897816,"66":0.032333486739904424,"67":-0.09816677141813025,"68":-0.03532873788003486,"69":0.011759077551244447,"70":0.017108983250750706,"71":0.07650891833581182,"72":0.10486224007747216,"73":-0.21889789447326538,"74":-0.06335337344796373,"75":-0.032828418872923114,"76":-0.08153031993864865,"77":0.14412912268986422,"78":-0.1308259222930422,"79":-0.10463648293371314,"80":-0.03567195818756009,"81":-0.16737766893669295,"82":0.026807844514138396,"83":-0.04263193289517594,"84":0.09005999537382545,"85":0.06007754906167444,"86":-0.1188924710045566,"87":-0.17000096995287875,"88":-0.035644985762486835,"89":0.03694768753218579,"90":-0.028816177518337222,"91":0.07619718958935237,"92":-0.008300696872709692,"93":-0.10052976011528246,"94":-0.0671130456911431,"95":-0.2005326466061709,"96":0.04980589217995427,"97":0.021534283082845943,"98":0.1126134881004789,"99":0.11160485241380712,"100":-0.06668535280117568,"101":-0.04704848341508315,"102":-0.09563848541344787,"103":0.05292725759228412,"104":0.013466340640398526,"105":0.08151326021642614,"106":0.23718739688144028,"107":-0.004443845414854505,"108":-0.14976021007619056,"109":-0.11512967615791729,"110":0.017792884779315805,"111":0.0862071475368701,"112":0.012449196635919806,"113":-0.05883533972693166,"114":-0.04712942991985818,"115":-0.10735372645080753,"116":-0.07763616194797619,"117":-0.05811473908566067,"118":-0.048899297313077565,"119":-0.00012519949576674736,"120":0.08101687445379488,"121":-0.11801299281893637,"122":-0.18213667832097374,"123":-0.07728268456679249,"124":0.030065392001387654,"125":-0.020803851416875664,"126":0.05130869746559352,"127":-0.11495835124014143,"128":0.1266695987889331,"129":-0.1725586628651028,"130":0.0031329328830364757,"131":-0.05526476266614127,"132":-0.09136068587620816,"133":0.10860880124035756,"134":0.007103644947271461,"135":-0.14494004026727864,"136":-0.12775183148804176,"137":-0.027170646449570773,"138":0.029116263862118203,"139":-0.07123725197464749,"140":0.0841743140942956,"141":0.007759546253982452,"142":-0.11471827375046639,"143":-0.06766610349860927,"144":-0.013266412355029721,"145":0.0018072995707476985,"146":-0.018185321682408922,"147":-0.0033842553347079255,"148":0.007792328503698128,"149":-0.05978572481362235,"150":0.20312585185645182,"151":0.07581077158792228,"152":0.020135034655668314,"153":-0.09749793081019559,"154":0.030516630652290405,"155":-0.0552605249075609,"156":0.04112652410979296,"157":0.0782374540602672,"158":0.004530157290545806,"159":0.03001498529219843,"160":-0.047065249079288295,"161":0.13691845582608989,"162":-0.11121329748721777,"163":-0.05652499755311111,"164":0.1947015108646356,"165":0.04950818188006383,"166":0.10796405830199696,"167":-0.01849169408203604,"168":0.11205839149450283,"169":0.050640948840087116,"170":-0.03593178710467407,"171":0.14302659506494536,"172":0.05645698969228477,"173":0.069452436291378,"174":-0.08432645700266053,"175":0.029853106830748533,"176":-0.07766467003242523,"177":-0.12478883312707587,"178":-0.06932367591534404,"179":0.1556400397566862,"180":0.022252126232398424,"181":-0.05511768487914917,"182":0.08882661643794439,"183":-0.027177810946268373,"184":0.02550011829129185,"185":-0.11796390583741254,"186":0.08055021834343062,"187":0.008790937900781531,"188":-0.029001508193065736,"189":-0.0673148190803053,"190":0.05979664314696579,"191":-0.04088846231340143,"192":0.04283774772499531,"193":0.1513966806584396,"194":-0.011381727682873497,"195":0.011853042754675863,"196":0.06484877704323201,"197":0.005289850445022433,"198":-0.17991263197262944,"199":-0.10388450556651573,"200":0.03135120885549366,"201":-0.09510437295421129,"202":0.0037289149890866375,"203":0.13065205379517308,"204":0.05304361567159085,"205":-0.2678147215601166,"206":0.26883462343975423,"207":0.07249641538033177,"208":-0.10444613911957813,"209":0.007829071724803875,"210":0.1861410977834394,"211":0.12380922481042302,"212":-0.121918581987787,"213":0.26074627863824906,"214":0.0037253405421641297,"215":0.030000140467802253,"216":-0.026542167329677884,"217":0.0021806488823916926,"218":0.01719647217668429,"219":0.08868467420770464,"220":0.15631450511951436,"221":-0.028776350108972018,"222":-0.037512816314293006,"223":-0.05282194056502744,"224":0.11729696113557682,"225":0.0926944587254481,"226":0.13141520857256347,"227":-0.11005085949945144,"228":-0.014588857833133441,"229":-0.13269852983891076,"230":-0.004889219509034564,"231":0.08551844017730383,"232":0.0009676084495856933,"233":0.14066659048399244,"234":-0.06794856685426391,"235":-0.12546778071267642,"236":0.07980218632664167,"237":-0.20069395786048666,"238":-0.0019842856760977474,"239":0.1031217780371653,"240":0.13626697895418846,"241":-0.034653279249913495,"242":-0.09785643077162016,"243":-0.06323408392313044,"244":-0.10003808180984153}},{"sx":1,"sy":1,"depth":245,"w":{"0":0.07083601180996486,"1":-0.0467932479167925,"2":-0.08159551503136071,"3":-0.0619510985187088,"4":0.01218599899025029,"5":0.06966106251810286,"6":0.0008429837240909487,"7":-0.1021414437236767,"8":0.024902040355125582,"9":0.06442413676033014,"10":-0.03808316484741206,"11":-0.1379709036515142,"12":0.011470321574215932,"13":0.10849737822154427,"14":-0.007222262605282746,"15":-0.0663798730191897,"16":-0.026119717272694163,"17":-0.03242352914442369,"18":0.04877435802519418,"19":0.023882620805881234,"20":0.004818800925203449,"21":0.12909442742482263,"22":0.04931069829248857,"23":-0.0023055566857902946,"24":-0.06885822320790387,"25":-0.06002951225453784,"26":0.12110362781799146,"27":-0.12463176599946443,"28":-0.018052584682839122,"29":-0.07623766714845857,"30":-0.007373982310623391,"31":-0.11892511376656859,"32":0.0036865744543122013,"33":0.09269808441901173,"34":-0.033728057190604344,"35":0.09090769623221304,"36":-0.1106871387196322,"37":-0.07166033326056907,"38":-0.0012017141256605876,"39":-0.03598123654713753,"40":0.061678122198904756,"41":-0.0005736234963548601,"42":-0.08308512746881387,"43":0.013705269486745884,"44":-0.01673096723441164,"45":0.013874667614257857,"46":-0.07740294644053271,"47":0.15572452461446373,"48":0.046129842398244726,"49":-0.018223571805443584,"50":-0.04177870781713715,"51":-0.12133922592229081,"52":-0.026863790366236737,"53":-0.07150258161633045,"54":-0.0029159101330634473,"55":0.05370702781493332,"56":-0.02746868462224627,"57":-0.04954371135771075,"58":-0.08481160460875718,"59":-0.04393186721776765,"60":-0.025168835995592918,"61":0.10128195817268985,"62":0.09287448817496037,"63":0.054357481619882284,"64":-0.03527463833998253,"65":0.07534528450346588,"66":-0.20905982022550693,"67":-0.06259225708685277,"68":0.10274628133942207,"69":-0.01891992595263422,"70":0.034828256728518754,"71":-0.06999936042787556,"72":-0.20635088617020209,"73":-0.3061960493582406,"74":-0.026114832034071795,"75":0.15065704320922252,"76":-0.04718130423137592,"77":-0.057012664321753566,"78":-0.024599859964009377,"79":0.01356826787780485,"80":-0.10596651237779138,"81":0.01695354697978352,"82":0.0924161943524856,"83":-0.02999010795310594,"84":0.07607341439427028,"85":-0.1320413421365533,"86":-0.07643894432008053,"87":-0.14303263351442796,"88":0.07117896739481736,"89":0.1887907721096287,"90":0.0012306829778387664,"91":-0.0023723373196282,"92":-0.054186322402487934,"93":0.012019960384476483,"94":-0.17942120686219845,"95":0.02469395431481862,"96":0.11538063559438562,"97":-0.004970083196520298,"98":-0.09821371157925012,"99":-0.09443182156042243,"100":-0.08236793596599312,"101":-0.24183227310518174,"102":0.0029942383094726153,"103":0.1132145324121992,"104":0.009890414410132872,"105":0.007464343547619043,"106":-0.07949014747911273,"107":-0.08749862402775481,"108":-0.28518604153112487,"109":-0.003476117961194062,"110":0.11970137417766824,"111":-0.04308320545637999,"112":0.05358898591849806,"113":-0.15522542563861313,"114":-0.10430700724063678,"115":-0.27901484336646776,"116":0.1478829816115208,"117":0.14133483049054196,"118":0.10324955056820857,"119":0.10264989129266126,"120":-0.09655256143409578,"121":0.019054293193417938,"122":-0.2917256844148761,"123":0.12493194105024144,"124":0.08055851932384596,"125":-0.009903721375605445,"126":-0.016680226094288354,"127":-0.05873268198376577,"128":0.14766459140802887,"129":-0.23314793841892345,"130":0.05984942547929226,"131":0.0939392606430052,"132":0.04679751473956547,"133":0.07333810434740046,"134":-0.024227616283865622,"135":-0.07113836736391717,"136":-0.22660333606911903,"137":0.1422011736988889,"138":0.0847503954229152,"139":0.1409615508027387,"140":-0.06398569984774823,"141":0.040888069023724355,"142":-0.08203013338971898,"143":-0.2121955767022964,"144":0.17955301213452124,"145":0.12451006918133038,"146":0.10875370001726277,"147":-0.019053005014888134,"148":0.06358209490699424,"149":-0.06755801260085172,"150":-0.28369611500025393,"151":0.2569878616167587,"152":0.18645507820687657,"153":0.06309859340561445,"154":-0.07073469735783401,"155":0.017617967189834563,"156":-0.03080937049247309,"157":-0.20135660400787941,"158":0.18397973450902844,"159":0.17045477414989305,"160":-0.04855219069662711,"161":-0.09270606959528396,"162":0.06645077815818994,"163":0.07766789556306022,"164":-0.2721973220439163,"165":0.36926864240132085,"166":0.1626038972194547,"167":-0.12173148175742371,"168":-0.13136008278879852,"169":-0.012206346071005184,"170":0.03490968393866489,"171":-0.27627523565460554,"172":0.20443089418240173,"173":0.1663335509799658,"174":-0.1217285477924696,"175":0.09197264527967661,"176":-0.01826279116739225,"177":-0.05335385794939609,"178":-0.03605031137441166,"179":0.4033162659150459,"180":0.14138461305385075,"181":-0.033668944310173185,"182":-0.1151426775760985,"183":-0.04073519261635173,"184":-0.0943341439518479,"185":0.03690551958975477,"186":0.36564897782851163,"187":0.06231541629820503,"188":-0.0007705856638663789,"189":-0.05345999481710583,"190":-0.009053461250000854,"191":-0.02439950988248768,"192":-0.07111304263018832,"193":0.35854099441532106,"194":0.1260850955649467,"195":0.048885546548523805,"196":0.00601017209727317,"197":-0.012922892089584075,"198":-0.006315038350454303,"199":0.08810678164322261,"200":0.5292007040786588,"201":0.0534893742992315,"202":-0.014210435117365725,"203":-0.04765925266281933,"204":-0.013111567106275486,"205":0.05640844243385771,"206":-0.2758420949136734,"207":0.6423800843950125,"208":0.06270182955054888,"209":-0.045147704471981194,"210":-0.04374159001891018,"211":-0.020529991065971816,"212":-0.017178816414428793,"213":-0.14142863538494996,"214":0.3742655708223386,"215":0.10261525947182529,"216":-0.11955875660782184,"217":0.00244726670850931,"218":-0.014743977011378948,"219":-0.08773524009696833,"220":-0.12811157710791335,"221":0.24397587255846237,"222":0.042333418633158704,"223":-0.10025172436773613,"224":-0.006123160815455929,"225":0.009723613289199249,"226":0.10093005180297515,"227":-0.03838685156099762,"228":0.07338537301819728,"229":-0.04300601632109611,"230":0.11282465764862627,"231":0.08375633209243868,"232":-0.09851021921247194,"233":0.1944423951851579,"234":0.09899281231035573,"235":-0.04113867694512006,"236":-0.08750089129974462,"237":-0.03567898515309556,"238":-0.07136061438010688,"239":0.03323143374182596,"240":-0.06136475588348284,"241":-0.11506129506380185,"242":-0.074048306275861,"243":-0.03855601800895562,"244":-0.06689248706546874}},{"sx":1,"sy":1,"depth":245,"w":{"0":-0.17890652140780927,"1":-0.03186498903363941,"2":-0.13861744827166214,"3":-0.03256205688458069,"4":-0.03912168216572314,"5":-0.0063642279530884355,"6":0.1591468836251649,"7":0.04383757489964999,"8":-0.004773275574750017,"9":-0.045081422275071135,"10":0.04244350591006007,"11":-0.1265003068205686,"12":-0.052935774409948025,"13":0.08458711779930644,"14":0.06251398056765126,"15":0.0032927549955390793,"16":0.06482506047228534,"17":0.1317757821889452,"18":-0.015227032045140807,"19":-0.14737651337234028,"20":0.10839601823803136,"21":0.0414671805163026,"22":0.06945632914010345,"23":0.022759362444519395,"24":0.07532513841298825,"25":-0.1303351705236228,"26":-0.11874083499359613,"27":0.06172725208972821,"28":0.005550421027162554,"29":0.13511699137327765,"30":0.19455818884238055,"31":-0.004120142662979366,"32":-0.01404466289380328,"33":-0.07760632588509851,"34":0.1295939550836514,"35":0.010090198182671596,"36":-0.03885073314120185,"37":-0.0646454295650583,"38":0.0743576074605737,"39":-0.024711304289063603,"40":0.06694829099096258,"41":0.033180224427458466,"42":0.061657774982515554,"43":-0.07533204884755013,"44":-0.002513352428613847,"45":-0.026436337480335446,"46":-0.11500221522120092,"47":0.02532327099823106,"48":0.2265202436024777,"49":0.04874196088282959,"50":-0.02061262403523026,"51":-0.09268450659900616,"52":-0.0776020814277259,"53":-0.057774781407953904,"54":0.004471062446260559,"55":-0.0069096795759049255,"56":-0.05350343000227492,"57":-0.08872124664896174,"58":0.052298617520130986,"59":-0.03315217915774205,"60":-0.03239163043666451,"61":0.0923417401043982,"62":0.055094006607051105,"63":0.136516691398144,"64":0.014340317195863607,"65":0.03569212183073348,"66":0.02572377023378338,"67":-0.09393113270115877,"68":0.06367060226550952,"69":0.0707208571259793,"70":-0.09026827492705877,"71":0.13469279726079147,"72":0.14965497857940505,"73":-0.2735333773700982,"74":-0.07061519930722869,"75":0.11320343650273318,"76":0.010899018630708874,"77":0.08051004382332164,"78":-0.023383232777794263,"79":0.15092409217635055,"80":-0.21184954666854675,"81":-0.07468360483710434,"82":0.10592138963366592,"83":-0.0517860779032121,"84":0.020434612939887454,"85":-0.004121810795108642,"86":-0.07296560565418309,"87":-0.13803925330449457,"88":-0.05342885366953845,"89":-0.035300119167539126,"90":0.15236955767960178,"91":0.08985655965457415,"92":0.03834993367525924,"93":-0.07632278308782198,"94":-0.23003210300187746,"95":-0.07359151592698794,"96":0.040764046690693466,"97":0.05945495592213449,"98":0.0624416073039549,"99":0.10400859381422771,"100":-0.18228712333094915,"101":-0.053371758452955456,"102":-0.10090931214476462,"103":-0.01882047724379573,"104":0.026354960539029526,"105":0.09254849723615338,"106":-0.011412564572042,"107":-0.23886042998832435,"108":-0.11227995010840867,"109":-0.2491254138182003,"110":0.04056898615013072,"111":0.16575006873117637,"112":-0.014395307775013532,"113":0.06806461310850054,"114":-0.12039571533041357,"115":-0.19408492018536813,"116":-0.22693639553401798,"117":0.03517337459748737,"118":0.11810774702171405,"119":0.017407155715038137,"120":0.030174361657789427,"121":0.04478483539115528,"122":0.030454503816730167,"123":-0.15112364705300296,"124":-0.0891785956690675,"125":-0.028533997986903762,"126":0.018083109990986813,"127":-0.08363636408016561,"128":-0.12050821924773047,"129":-0.006533005654200728,"130":-0.05973088193668794,"131":-0.10475114174703656,"132":0.06268522551955587,"133":0.13542434687366575,"134":-0.04429462037348531,"135":-0.22340381494596379,"136":-0.09822841260255863,"137":-0.11050750255040924,"138":-0.139194229022257,"139":0.03425068904932597,"140":0.08872270299522134,"141":-0.14749644175124013,"142":-0.11035652214537711,"143":0.057356143313314255,"144":-0.0018271387881879382,"145":-0.1298817019684535,"146":-0.010436354544093791,"147":0.02592414308653795,"148":-0.07759540517424748,"149":-0.04006272572634975,"150":-0.06717765104228007,"151":-0.09753247944003741,"152":-0.12410313030820058,"153":0.050591178358676034,"154":-0.17649141250340047,"155":-0.09735969572216206,"156":0.0019338986963334196,"157":0.0419303328675988,"158":-0.10960051335991398,"159":-0.22315417606984625,"160":0.03541582536674684,"161":-0.05662284187385373,"162":0.10975909710838996,"163":0.1006861390231396,"164":0.1269715266708654,"165":-0.07167438902858703,"166":-0.13496173250251783,"167":0.07751729273349381,"168":0.056909772006573475,"169":-0.027905928523718024,"170":0.1822203104921601,"171":0.10898779554467734,"172":0.06480350426391693,"173":-0.10607144310787087,"174":0.09330593304874774,"175":0.026477341851875016,"176":-0.0492710051746027,"177":0.03966950790463603,"178":-0.008255108166744542,"179":0.016876874513011262,"180":-0.11117118532184528,"181":0.05733788539270715,"182":0.18407434863644268,"183":0.019823510805617697,"184":-0.09165059648443395,"185":0.09516631477322034,"186":-0.09035247373079532,"187":0.07559008213974881,"188":0.14485998225367241,"189":-0.01906094910479058,"190":-0.2221115542352695,"191":-0.089938186996791,"192":0.08553709532633101,"193":0.016809224073848425,"194":0.0202720653797129,"195":0.2110957714187459,"196":0.045897929215978135,"197":-0.20829766726653073,"198":-0.10293837357280965,"199":-0.031196570837196774,"200":-0.1380053298128243,"201":0.1082967822267002,"202":0.15034506135801642,"203":0.025714155545851,"204":-0.09546216711128412,"205":-0.09954496067347304,"206":0.14678661827859327,"207":0.022314526197307675,"208":0.11724620378450201,"209":0.20628826612966542,"210":-0.03756204306522789,"211":-0.13589080507128787,"212":-0.14481161897869557,"213":0.10238128954010169,"214":-0.11299074338859771,"215":-0.017344232059459536,"216":0.1645644940505069,"217":0.11730126637594415,"218":0.1548243074695553,"219":-0.1436230904052123,"220":0.19300581490394011,"221":-0.07091634282577766,"222":0.17303533097350607,"223":0.15044485896998833,"224":-0.032370003143942484,"225":0.06915184384220302,"226":0.009330437546207609,"227":-0.1257232174026195,"228":-0.16854469902343386,"229":0.011176351775157425,"230":0.129503807875296,"231":-0.06155812410160461,"232":0.005655859774204228,"233":-0.0017657452458179252,"234":0.008383278469804611,"235":-0.10766025411910327,"236":0.025678706638116132,"237":0.045254890683894176,"238":-0.08207724826464105,"239":0.025134226789970005,"240":0.07538128401158728,"241":-0.18775601122657468,"242":-0.05604609310077545,"243":0.055005448125845166,"244":0.19482478624488755}},{"sx":1,"sy":1,"depth":245,"w":{"0":0.127943787924291,"1":0.10443201165252365,"2":-0.16005967129415732,"3":0.061708431432287304,"4":0.05699614779165429,"5":0.17367325700999067,"6":0.07833029390966734,"7":-0.11977992241229769,"8":-0.12392104457496685,"9":-0.015229666542612805,"10":0.14851651234447064,"11":0.003484070749471729,"12":0.17408209127630297,"13":0.13635595119092922,"14":-0.09613418311619666,"15":-0.050028273886572126,"16":0.0021050656177494993,"17":-0.061921101200735476,"18":0.04974252917669274,"19":0.029051682879761245,"20":0.015439145780705226,"21":0.04869257517461479,"22":0.0818465693340932,"23":-0.16481101534941836,"24":0.04016115233345131,"25":-0.03918618132324817,"26":0.13027255346577862,"27":0.0879100539511438,"28":-0.012064199342905165,"29":-0.19700825721430296,"30":-0.2301469610219318,"31":0.07165187835241325,"32":0.06548355077728597,"33":0.0037118165585087294,"34":0.03102221743217325,"35":0.1234631860444959,"36":0.04052263549371916,"37":-0.25973196578983593,"38":0.005437919883978407,"39":0.13622966179385415,"40":-0.03900710564345529,"41":0.009719323253684901,"42":0.014754135550547451,"43":-0.05180370081031025,"44":-0.09075473248487172,"45":0.1581344960549774,"46":0.0018704117612951762,"47":-0.022937721860471365,"48":0.086845242445147,"49":-0.033692497336120376,"50":-0.08902512447265568,"51":0.0787904024768698,"52":0.0016246302977283593,"53":0.056179298173492036,"54":0.058290077990781834,"55":0.051045712862495235,"56":-0.1551072722809546,"57":0.02468246742207602,"58":-0.03326675518983162,"59":0.14174809000622915,"60":-0.05344804267433955,"61":0.07298778395710188,"62":0.025019774798977493,"63":0.2181359978512214,"64":-0.04878630932973723,"65":-0.07731747761292031,"66":-0.028505682732188654,"67":0.07838470008622503,"68":0.05054764715073377,"69":-0.09874984287941022,"70":-0.0012052509210505678,"71":-0.035589965890436746,"72":-0.08614055577987821,"73":-0.11012746451528657,"74":-0.016728812313594126,"75":-0.08290350493083909,"76":0.0824792428033273,"77":0.125208678022481,"78":-0.028148887879226037,"79":-0.14364607676732233,"80":-0.08162110219671138,"81":-0.14261437598177046,"82":-0.05678317348339056,"83":-0.11795593825780518,"84":0.13819219891150822,"85":0.009638021163422193,"86":-0.06932499497838811,"87":-0.05610780822934004,"88":0.07893804664061756,"89":0.0363800927523727,"90":-0.03702177837511472,"91":-0.0625650506660423,"92":-0.055613930374594674,"93":-0.2704817470086474,"94":-0.009150836860332094,"95":0.008049263201446544,"96":0.07257398164135773,"97":0.09145842928310838,"98":0.051077653837554644,"99":0.06901800153666376,"100":-0.16920756061594583,"101":-0.10226208351265519,"102":-0.1898016279121743,"103":-0.034768206880652075,"104":0.06272613428879696,"105":0.08808195298010277,"106":0.017458384510473487,"107":-0.19408396582036938,"108":-0.17619994448217247,"109":0.07505686088795546,"110":-0.08841851517533744,"111":0.10200503006118164,"112":0.080581690966886,"113":-0.07935975510527239,"114":-0.2559298007463151,"115":-0.014320196714733188,"116":0.0956373814444944,"117":0.002741463100421276,"118":-0.12598597368367823,"119":0.12435032446057019,"120":-0.11081809697601624,"121":-0.38214206471340306,"122":0.17626243963457786,"123":0.14665631707612053,"124":-0.011368876230894382,"125":0.05034178815914061,"126":-0.0023153076633922838,"127":0.017112860889464024,"128":-0.23060933158473482,"129":-0.02935811399407493,"130":-0.077651686025325,"131":0.001908125353486102,"132":-0.043098340210126325,"133":0.11544271933817705,"134":-0.0507533109893762,"135":-0.209112503729188,"136":-0.03764823542404403,"137":0.07410518247160924,"138":0.007451608365576889,"139":0.012743337338158517,"140":-0.003296876216686097,"141":-0.06293173509752176,"142":-0.36736095241142835,"143":-0.09937102796781298,"144":-0.055648260548834705,"145":0.04464489635697946,"146":-0.05265464330684391,"147":0.21382692036553588,"148":-0.10407180702644787,"149":-0.3052111303853689,"150":-0.2573709422447711,"151":-0.027299542698528467,"152":-0.004257348843473039,"153":0.0437530980781054,"154":0.1201631116798191,"155":0.05416992284982746,"156":-0.330871573477773,"157":0.11939802254900429,"158":0.1342974811277208,"159":0.0017609743176927864,"160":-0.14418424063287258,"161":-0.0741910854678303,"162":0.012815276892465956,"163":-0.21600555299130367,"164":-0.01182139188214455,"165":0.1393908684520394,"166":0.006392205749270491,"167":-0.07932218943244529,"168":-0.04067557833134212,"169":0.09796121022509686,"170":-0.15167375349395468,"171":-0.048939747782526986,"172":0.20211421078893144,"173":0.007583545045085274,"174":-0.02460048792881099,"175":-0.012465944390783554,"176":-0.1278478642096202,"177":-0.1905760694052275,"178":0.1954905697535937,"179":0.07221470752128342,"180":-0.11061410009692008,"181":-0.07858748333180607,"182":0.05289666851966836,"183":0.09337344126584657,"184":-0.06451472607092683,"185":0.27562937138012256,"186":0.13411250722978568,"187":0.0010024997829298518,"188":-0.08463288301186632,"189":-0.17672634953376554,"190":-0.10938546359388328,"191":0.006144912745181698,"192":0.19674627604519396,"193":-0.0704666694590725,"194":0.09790651344163682,"195":-0.11401112953435504,"196":-0.01351908375794048,"197":0.021488979228149258,"198":0.15467828978119877,"199":0.09264200974204632,"200":-0.16522529545526723,"201":-0.07480321051681453,"202":0.04654093589882217,"203":0.10574624963467404,"204":0.060506212302257306,"205":0.09664515358232344,"206":0.021043276210891956,"207":-0.07119221215810631,"208":-0.07371077531223373,"209":0.047191200977301465,"210":0.026931202201270658,"211":-0.12087461900722574,"212":0.06965624590347577,"213":0.1216597387432081,"214":-0.03460830821594316,"215":-0.08835030269213222,"216":-0.026254888942481402,"217":0.13379667683441293,"218":-0.06398170932820438,"219":0.1149975472726151,"220":0.11490154840044099,"221":-0.14236180814426166,"222":-0.02182763818467067,"223":-0.041124314122921085,"224":0.13900672556475993,"225":-0.1204274355155875,"226":0.07821440530417824,"227":-0.02743936267893496,"228":-0.25529446562100966,"229":-0.10714727889992562,"230":0.06634747635851129,"231":-0.01689489672209142,"232":0.011590291511677418,"233":0.18425123952609967,"234":-0.028224263372636334,"235":-0.092016116858596,"236":-0.05945649670288471,"237":-0.030469095748276484,"238":0.06420077138553835,"239":0.054825053969866824,"240":0.0429738570447174,"241":-0.18660246897789973,"242":-0.028196104976231425,"243":-0.2013611351970649,"244":-0.2128171225635959}},{"sx":1,"sy":1,"depth":245,"w":{"0":0.053219367312260187,"1":-0.01889449358087396,"2":0.04389162143412698,"3":0.19403938156568437,"4":-0.04555905318873837,"5":-0.05873273941879094,"6":0.07714005604428731,"7":-0.11588961308941721,"8":-0.08779875879599718,"9":0.12288580377497024,"10":0.022752068689826807,"11":0.03480238845161646,"12":-0.09358433329568451,"13":0.011304548494361737,"14":-0.028250650372851502,"15":-0.03431346565402016,"16":0.11279035063397276,"17":0.08267048194109218,"18":0.046780627461023024,"19":0.0747824728825773,"20":0.00266639156078141,"21":-0.12520327505499984,"22":0.017059151674412767,"23":-0.093538205205826,"24":0.1706830691595957,"25":0.045967146483965604,"26":-0.04535232114663852,"27":-0.03359079610689047,"28":-0.09470938973418279,"29":-0.03815175012243774,"30":-0.07456650077209998,"31":0.08173282922137624,"32":-0.04220749236203154,"33":0.005816120996219371,"34":-0.013568270061816547,"35":0.035534658119041156,"36":-0.0811406979885033,"37":-0.07213657993046267,"38":0.027071632596837824,"39":0.044211916480492205,"40":-0.08591630523429045,"41":0.015733393953269108,"42":0.0009326026850721947,"43":-0.09505226541335648,"44":-0.023474614691602447,"45":0.09186448504494218,"46":0.015720534955383548,"47":-0.17936824875915,"48":0.09724563313550658,"49":-0.18182760533526018,"50":-0.051929124935190314,"51":0.15032726601975577,"52":0.0361961419304788,"53":0.012617108349171121,"54":-0.10430629096065376,"55":-0.0003143450112345624,"56":-0.16180569366161734,"57":0.027070809683753597,"58":0.07559282304665164,"59":0.15696436414406018,"60":-0.030442106399669277,"61":-0.021154210271942857,"62":-0.14583992782637242,"63":0.07123320725574878,"64":-0.04145341021218654,"65":0.01349653230439887,"66":0.1267611782654461,"67":-0.12150819098880318,"68":-0.03035515660114968,"69":0.007742821669459593,"70":0.07260289268536349,"71":0.1372067054922949,"72":0.020302259524412492,"73":0.1804066910644947,"74":0.01999897808021584,"75":0.1303668365966429,"76":0.08296132922209688,"77":0.06626913150346124,"78":-0.07775647851608453,"79":0.036319158584599755,"80":0.14866523291043582,"81":-0.1350822204396247,"82":0.009949262660330978,"83":-0.05248708917845712,"84":0.06324008035503229,"85":-0.11771937785146391,"86":-0.0010309560138015155,"87":0.060559149815751605,"88":-0.2663747109654897,"89":0.13720426153312096,"90":-0.0939651391784343,"91":-0.009598126130105088,"92":0.0005831991498189893,"93":0.04579352530597571,"94":0.00424337247204619,"95":0.04591176379767287,"96":0.0379611611317035,"97":-0.09565254099023623,"98":0.0736714603637923,"99":-0.008495368104393608,"100":-0.09503098620139827,"101":0.33218201817411536,"102":-0.04949658040321635,"103":-0.029578154448005378,"104":0.04799771548124953,"105":-0.05219639945895894,"106":0.0173651249967718,"107":-0.17515992622636684,"108":0.34010533242173563,"109":-0.17925107966228043,"110":-0.04894371041398407,"111":-0.018890373442901415,"112":0.0049987558934288185,"113":0.008716988244814474,"114":-0.03585176751879916,"115":0.05835076678308692,"116":-0.059485880799425864,"117":0.10310684267403557,"118":-0.01292650197711141,"119":0.02900337547744014,"120":0.026732158156377465,"121":-0.19447007586343565,"122":0.21915389384568235,"123":-0.04688374078833946,"124":0.02247247660310528,"125":-0.11456000460933166,"126":-0.11334487504154454,"127":0.10651811803752467,"128":-0.4343393653716675,"129":0.1801471698612466,"130":-0.01572358832835949,"131":-0.01920022145704063,"132":-0.0057056370942587175,"133":-0.07021825386404673,"134":0.025813876225706855,"135":-0.46404624720146803,"136":0.43276500516257804,"137":-0.03941686070599596,"138":-0.05344965943800328,"139":0.09494739437651044,"140":0.053567052288810736,"141":-0.029120543238812458,"142":-0.5169632237088119,"143":0.31239620825922443,"144":0.0441751805420626,"145":-0.0683727257389797,"146":0.023991963967071827,"147":-0.023289529220396468,"148":0.051050825462868446,"149":-0.35830330746590494,"150":0.33390970055229363,"151":-0.048694302316960515,"152":0.12592825750605624,"153":0.0328654176473331,"154":-0.05452925825656164,"155":-0.16108200724182448,"156":-0.098259632688196,"157":-0.011681902008632035,"158":-0.054409759862472255,"159":0.15918493389522526,"160":-0.07631532069003336,"161":0.08557537407950655,"162":0.03805826642146602,"163":-0.16607856298150667,"164":-0.10915105844357792,"165":0.09712360406728907,"166":-0.012947111843891152,"167":0.041345131326201684,"168":-0.08006200924617511,"169":-0.0264981890378257,"170":-0.2651765864623033,"171":-0.16730963640030388,"172":-0.019939995664606296,"173":0.160569678065007,"174":0.06252139775162129,"175":0.026007198060252475,"176":-0.08730400455248792,"177":-0.3848567582247383,"178":0.057065185929751405,"179":0.03166173339273042,"180":0.15923192396717728,"181":-0.09600713088712563,"182":0.011514418754278142,"183":0.08070884146793236,"184":-0.10412358013511921,"185":0.17277424447996492,"186":0.01234660768291218,"187":0.033434275261794336,"188":0.00835247396232532,"189":-0.07875412695016053,"190":0.08459451063970318,"191":-0.045500146041770634,"192":0.0903855977667329,"193":0.0847181882366378,"194":0.08806351744950187,"195":0.12028453152641286,"196":-0.03275812570396331,"197":-0.0606039406421257,"198":0.04297794466096862,"199":0.039231284732754584,"200":0.05807685946921343,"201":0.08997940514181803,"202":0.059120085477944326,"203":0.08591082786103037,"204":-0.03681928120806021,"205":-0.07302640675369036,"206":-0.17660256429778967,"207":0.01307158040688007,"208":0.04829885851158722,"209":0.024404002517407642,"210":-0.002113732590722349,"211":-0.06382307281758554,"212":0.07986904622892342,"213":-0.07832812885225542,"214":-0.03376862846452041,"215":-0.00006748531091661275,"216":-0.05444790007374513,"217":0.11951484293234373,"218":0.045058924196400105,"219":0.12689743007879162,"220":0.059408638897070515,"221":-0.07510048386876915,"222":0.015164860637732253,"223":0.08535655494872775,"224":0.14299248261308453,"225":0.13385864013483512,"226":-0.10595571963181752,"227":0.07323983839027849,"228":0.005736386626280795,"229":0.004280358666273477,"230":0.12468735363375218,"231":-0.03060402632259221,"232":-0.008870849326238568,"233":0.18699633170432417,"234":0.0889522529274209,"235":-0.10915931196145409,"236":-0.18305326937662716,"237":-0.0912293278884778,"238":0.018793692274524695,"239":0.053949064912862346,"240":-0.03499999031157143,"241":-0.06795729459021238,"242":-0.12154640073151579,"243":0.05016297905275496,"244":0.0032156294867286524}},{"sx":1,"sy":1,"depth":245,"w":{"0":0.08403567808586761,"1":0.09294565515076018,"2":0.044592331976677446,"3":0.06372776516322114,"4":-0.005402589493405207,"5":0.047609689515561625,"6":-0.030965592984143833,"7":0.0031190706714554787,"8":-0.010264485063876285,"9":0.0009008760637986574,"10":-0.051963704488857794,"11":0.013964281457308702,"12":0.08406072198177181,"13":0.02340298157526033,"14":0.03616041096066918,"15":-0.06272059535245979,"16":0.027421176764296062,"17":0.11533141833983573,"18":0.0015569063278397589,"19":0.01476725556441543,"20":-0.06417603252327621,"21":0.07100407493535,"22":-0.023267951055445792,"23":0.13189986637926754,"24":-0.029442812933091856,"25":-0.04065786492921746,"26":0.011843488180699397,"27":-0.14028836232762346,"28":0.043720974945624665,"29":-0.13579799392002204,"30":-0.031077067511707107,"31":-0.05769718271940481,"32":0.026725363703845654,"33":-0.04522739291892231,"34":0.0285233321406642,"35":-0.016970405180693263,"36":-0.10346774758752465,"37":-0.10832740889311564,"38":0.05238065594389956,"39":0.029113926419623917,"40":-0.06018155023766625,"41":-0.020624574752934378,"42":0.04269975489584581,"43":0.02982104797235855,"44":-0.12007163452783465,"45":-0.010322379860631725,"46":-0.12019822737850817,"47":-0.016156336478461274,